{"fc1.weight": [[0.14902816712856293, -0.14571590721607208, 0.16812197864055634, 0.027903690934181213, 0.11111773550510406, -0.09536229074001312, 0.1129041463136673, 0.06996236741542816, 0.12959562242031097, -0.08698257803916931, 0.017190173268318176, 0.16917841136455536, 0.05084933340549469, -0.12727749347686768, -0.20864169299602509, 0.044593438506126404, 0.08022944629192352, 0.12105633318424225, 0.13771356642246246, -0.051186755299568176, -0.06226661801338196], [-0.17619194090366364, -0.07531573623418808, -0.05936979129910469, 0.13859069347381592, -0.11400885879993439, 0.18565726280212402, 0.13763096928596497, -0.2073855847120285, 0.177016019821167, 0.023844953626394272, 0.0982738733291626, -0.14279885590076447, -0.12060265243053436, -0.03401907533407211, 0.10546035319566727, 0.13525156676769257, -0.06158677488565445, -0.029181133955717087, 0.021793780848383904, -0.2160807102918625, 0.05244432017207146], [-0.09662041068077087, 0.11573208123445511, -0.06326516717672348, 0.18057143688201904, 0.02689788118004799, -0.15821653604507446, 0.02766910381615162, -0.18067584931850433, -0.048901788890361786, -0.17618004977703094, 0.2002953439950943, 0.1705576777458191, 0.06996425241231918, 0.06745164096355438, 0.04805286228656769, 0.1344754993915558, 0.030187642201781273, -0.1451091319322586, -0.14038267731666565, -0.15719544887542725, 0.043540339916944504], [0.09524475038051605, 0.12646718323230743, 0.040603265166282654, -0.17082658410072327, 0.09969000518321991, -0.17825669050216675, 0.05485920608043671, -0.11144330352544785, 0.19074173271656036, -0.0553886741399765, -0.1574917435646057, -0.07318353652954102, 0.18097712099552155, -0.19264253973960876, -0.09074310958385468, 0.055268511176109314, -0.04138238728046417, -0.10994850844144821, -0.03366979956626892, 0.04010175168514252, 0.20776285231113434], [0.09612543880939484, -0.2049945890903473, 0.06673155725002289, 0.13684524595737457, 0.029853180050849915, 0.17724062502384186, -0.026154443621635437, -0.11811085045337677, 0.18956319987773895, -0.20857594907283783, -0.18896669149398804, 0.16553212702274323, -0.08703343570232391, 0.17380072176456451, 0.09896115958690643, 0.0404883474111557, -0.03896714746952057, 0.12216897308826447, -0.07929013669490814, 0.20695056021213531, -0.0290147066116333], [0.10057865083217621, 0.08689610660076141, 0.1887948364019394, -0.15594542026519775, 0.20824043452739716, -0.16087746620178223, -0.14548134803771973, -0.13654497265815735, 0.21158863604068756, -0.10762468725442886, 0.1551782637834549, -0.10523198544979095, 0.003730461001396179, 0.1858699470758438, 0.20670326054096222, -0.10951775312423706, -0.12660983204841614, 0.0376763790845871, -0.18670594692230225, -0.21062923967838287, 0.10341031849384308], [0.16594566404819489, 0.18707336485385895, -0.006113346666097641, 0.048666223883628845, 0.03434775769710541, -0.1821817010641098, -0.0212058424949646, -0.08798848092556, -0.08000980317592621, 0.21486254036426544, -0.12959024310112, 0.19296716153621674, -0.07518699765205383, -0.031103163957595825, -0.18659888207912445, 0.06385628879070282, -0.19935080409049988, 0.1836063712835312, 0.038143500685691833, -0.10460435599088669, 0.19033338129520416], [0.046708717942237854, -0.15468397736549377, -0.05082976818084717, -0.1687476933002472, -0.031893759965896606, 0.18009333312511444, -0.11691953241825104, -0.07670533657073975, 0.010935187339782715, 0.17805765569210052, 0.1132919043302536, 0.1425388604402542, -0.13965679705142975, -0.04292577505111694, -0.19997569918632507, 0.027162879705429077, -0.05027911067008972, 0.1771961897611618, 0.09597347676753998, 0.042382583022117615, 0.17905037105083466], [-0.11180267482995987, 0.022759471088647842, 0.14362730085849762, -0.027423091232776642, 0.046122629195451736, 0.20375579595565796, 0.2860528528690338, -0.030245492234826088, -0.09292099624872208, -0.16870905458927155, -0.0412420853972435, -0.09877995401620865, -0.13217347860336304, -0.20967458188533783, -0.15555855631828308, 0.10351132601499557, 0.20954672992229462, -0.06253499537706375, 0.07770439982414246, 0.1336537003517151, -0.21364830434322357], [-0.023982539772987366, 0.12598107755184174, 0.14838965237140656, -0.04667697846889496, 0.1585252434015274, 0.1426822990179062, 0.0776323527097702, 0.13837172091007233, 0.1318635195493698, -0.1989104449748993, -0.15293632447719574, 0.1459931880235672, 0.16509704291820526, 0.16720817983150482, 0.19686050713062286, -0.0606805682182312, 0.13936905562877655, 0.16375024616718292, -0.12203747034072876, 0.12199215590953827, -0.010922744870185852], [0.030734598636627197, 0.11328120529651642, -0.1859447956085205, 0.18235434591770172, -0.045743152499198914, -0.08997000753879547, 0.06576241552829742, 0.1136341542005539, -0.08795411884784698, 0.09273852407932281, -0.2177133560180664, -0.2070648968219757, -0.04097852110862732, 0.06421898305416107, -0.20108510553836823, -0.21002517640590668, -0.2036130577325821, 0.05745197832584381, 0.0193508118391037, 0.058898136019706726, 0.1280164271593094], [-0.08259347826242447, 0.11222731322050095, -0.032875485718250275, -0.13760270178318024, -0.01794375292956829, 0.052615005522966385, -0.18701528012752533, 0.1597115844488144, 0.054249200969934464, 0.13772983849048615, -0.22073964774608612, 0.09798485785722733, -0.0739855021238327, 0.09188336133956909, 0.04650625213980675, 0.20409919321537018, -0.18366703391075134, 0.1506858617067337, 0.11456921696662903, 0.04181302711367607, -0.0661945641040802], [0.012521359138190746, -0.028506839647889137, 0.011525955982506275, 0.20245060324668884, 0.1694992184638977, -0.1953219473361969, 0.09681008756160736, 0.19145430624485016, 0.09957396984100342, 0.19491519033908844, -0.18331784009933472, -0.10409873723983765, -0.07485294342041016, 0.04261745512485504, -0.19020532071590424, -0.1185576394200325, -0.17802214622497559, 0.03331835940480232, -0.11641623824834824, 0.17008639872074127, 0.004249524790793657], [-0.21608741581439972, 0.012086448259651661, 0.014377887360751629, -0.16651281714439392, -0.1026749461889267, 0.05024571344256401, 0.053176149725914, -0.202414408326149, 0.15458907186985016, 0.05113714188337326, 0.04280424490571022, -0.10393837839365005, -0.17046529054641724, -0.2167285978794098, 0.115428626537323, 0.054797567427158356, -0.20815791189670563, -0.12116841971874237, 0.006408741697669029, -0.06233667954802513, 0.014081388711929321], [-0.050732553005218506, -0.14748121798038483, 0.05519463121891022, 0.03931296616792679, -0.1519004851579666, 0.05007056146860123, -0.010053866542875767, 0.07728567719459534, 0.06571535766124725, -0.059647202491760254, -0.1529870182275772, 0.1755160391330719, 0.10057525336742401, -0.14427027106285095, 0.15582871437072754, -0.06945928186178207, 0.1627216935157776, 0.2021203488111496, 0.1202162578701973, 0.20917314291000366, 0.1640440672636032], [-0.10680710524320602, -0.042019397020339966, -0.20075710117816925, 0.0817505270242691, -0.03974458575248718, 0.05378337204456329, -0.19446226954460144, -0.1692396104335785, -0.049505263566970825, -0.13892090320587158, -0.1401970237493515, 0.14730902016162872, -0.12954255938529968, 0.1603722721338272, -0.21215277910232544, 0.10814346373081207, -0.08337754011154175, 0.08069352805614471, 0.10055316984653473, -0.12133601307868958, 0.11002613604068756], [-0.12425627559423447, -0.11720073968172073, 0.060089901089668274, 0.06991530954837799, 0.12283875048160553, 0.07470770180225372, -0.13677674531936646, -0.0011637955904006958, 0.11041633784770966, -0.013038143515586853, 0.14605407416820526, -0.17660485208034515, -0.04524245858192444, -0.07452729344367981, 0.008599653840065002, 0.10710422694683075, 0.121583953499794, -0.1448841691017151, 0.011784374713897705, -0.003138899803161621, -0.001571744680404663], [-0.19142505526542664, 0.20408253371715546, 0.11237399280071259, 0.1871519833803177, -0.03263385593891144, -0.07189355790615082, 0.2088746279478073, -0.08716371655464172, 0.06326444447040558, -0.06503766775131226, 0.15156574547290802, 0.21132387220859528, 0.18697763979434967, 0.09482680261135101, -0.1355743259191513, -0.06579196453094482, -0.06298913061618805, 0.1803145855665207, -0.06590133905410767, -0.18220636248588562, 0.03281335532665253], [-0.07830111682415009, 0.046790048480033875, 0.17353062331676483, -0.0684700608253479, 0.1277657002210617, 0.15345986187458038, 0.009368091821670532, 0.1176733523607254, 0.15468372404575348, -0.1163012683391571, 0.20879985392093658, 0.08199892938137054, -0.02799263596534729, -0.21119172871112823, -0.023926660418510437, -0.00026653707027435303, -0.03214390575885773, 0.126604363322258, -0.10328520089387894, -0.03466467559337616, 0.11985249817371368], [-0.021533071994781494, 0.14457334578037262, -0.14845427870750427, -0.04655070602893829, -0.0230686217546463, 0.1682032197713852, -0.10790792852640152, -0.12857261300086975, 0.08343090116977692, 0.15642662346363068, 0.21303243935108185, 0.13985641300678253, 0.043042078614234924, -0.1187547892332077, -0.03649890422821045, 0.09607450664043427, -0.13303524255752563, -0.14621400833129883, 0.19786058366298676, 0.03222738206386566, 0.04279382526874542], [0.21544107794761658, 0.03140202537178993, -0.018985401839017868, -0.12343883514404297, -0.14302712678909302, -0.002131611341610551, 0.08413583040237427, 0.23566265404224396, -0.17779016494750977, -0.11191238462924957, -0.027566950768232346, -0.1665513813495636, 0.1768283098936081, -0.038427140563726425, -0.18129824101924896, 0.008543367497622967, 0.1818542778491974, -0.11502709984779358, 0.026231979951262474, -0.019835904240608215, 0.19888836145401], [-0.01762816309928894, 0.1526479870080948, -0.15820610523223877, 0.12856818735599518, -0.19916269183158875, 0.00689677894115448, -0.17327508330345154, 0.13687755167484283, 0.0689861923456192, -0.12199436873197556, 0.11415834724903107, -0.11848188191652298, -0.024744242429733276, 0.14787928760051727, -0.06712983548641205, -0.07341592013835907, 0.03682161867618561, -0.11306426674127579, -0.21668288111686707, -0.011440441012382507, -0.21117442846298218], [-0.003748074872419238, 0.13873101770877838, -0.20977671444416046, 0.03951762244105339, -0.18516340851783752, 0.18688853085041046, 0.17236483097076416, -0.022338900715112686, 0.03120490163564682, 0.12121020257472992, 0.12397380918264389, 0.20196324586868286, 0.06944763660430908, -0.15042956173419952, 0.08712061494588852, -0.13232682645320892, -0.07050518691539764, -0.11207545548677444, 0.06460542231798172, 0.1779083013534546, -0.05020459368824959], [-0.14482739567756653, -0.1323704868555069, 0.172604039311409, 0.1302010864019394, 0.09559072554111481, 0.1368289440870285, 0.20853228867053986, 0.009728878736495972, -0.10427923500537872, -0.15033850073814392, 0.16084350645542145, 0.014259248971939087, 0.14523909986019135, 0.1035449355840683, -0.184737429022789, -0.13885441422462463, 0.0670444518327713, -0.13067685067653656, 0.08600123226642609, 0.19218306243419647, 0.027043506503105164], [-0.07381218671798706, -0.1366662234067917, -0.21136385202407837, -0.21282485127449036, -0.21068544685840607, -0.052818119525909424, 0.21135945618152618, -0.034452781081199646, -0.08764851093292236, -0.008713051676750183, 0.05717514455318451, 0.19957320392131805, 0.144777312874794, -0.053198620676994324, -0.13606052100658417, -0.17468124628067017, 0.1403583139181137, -0.026099368929862976, 0.026446416974067688, -0.13218863308429718, 0.030755698680877686], [0.13583745062351227, 0.020470693707466125, 0.07002143561840057, -0.034679874777793884, 0.13683174550533295, -0.07546095550060272, 0.04093025624752045, -0.01745454967021942, 0.08408327400684357, -0.021723181009292603, -0.05309551954269409, -0.0631544440984726, 0.07757498323917389, 0.21253035962581635, -0.06167502701282501, 0.20567099750041962, 0.20898617804050446, -0.062109142541885376, -0.1268434077501297, -0.136672705411911, -0.10017096251249313], [0.09622491896152496, -0.21811074018478394, 0.12781976163387299, -0.06612789630889893, -0.1493591070175171, -0.18990479409694672, -0.04311014711856842, -0.17274707555770874, 0.11156044900417328, 0.11865432560443878, 0.16706685721874237, -2.6166439056396484e-05, 0.20535124838352203, 0.20185260474681854, -0.11369696259498596, 0.12212775647640228, -0.04195655882358551, -0.00020535290241241455, -0.07310742139816284, 0.17330844700336456, -0.10552939772605896], [-0.20072048902511597, -0.07562530040740967, 0.14300735294818878, -0.08242866396903992, -0.149454265832901, 0.19310472905635834, 0.024276956915855408, -0.17488698661327362, -0.09528730064630508, 0.14486677944660187, 0.023556381464004517, -0.02193443477153778, -0.13877590000629425, -0.15397517383098602, -0.16785737872123718, 0.023966073989868164, 0.1931406408548355, -0.21345308423042297, -0.19367189705371857, -0.1872435212135315, -0.19813422858715057], [-0.007327452301979065, 0.11700855195522308, 0.07555322349071503, 0.09978567063808441, 0.12326391041278839, 0.0032613277435302734, -0.10044962167739868, 0.04613097012042999, -0.009491920471191406, -0.06729273498058319, -0.0991915762424469, -0.03967750072479248, 0.18283022940158844, -0.1672115921974182, 0.09300448000431061, -0.18602174520492554, 0.08628834784030914, -0.08412353694438934, 0.037820979952812195, 0.20724616944789886, -0.10899027436971664], [0.08903644979000092, -0.0058800578117370605, 0.0690154880285263, -0.06688913702964783, 0.1631782501935959, -0.20967788994312286, -0.17925623059272766, -0.14619708061218262, 0.03689400851726532, 0.05625145137310028, -0.05174069106578827, -0.008445709943771362, 0.08576546609401703, 0.0990334004163742, 0.02440817654132843, 0.09791050851345062, 0.06278754770755768, 0.17411257326602936, 0.032746270298957825, 0.11165584623813629, 0.05888332426548004], [8.194148540496826e-05, -0.07656988501548767, 0.02826450765132904, 0.1377331167459488, -0.08510105311870575, -0.024047836661338806, -0.11169498413801193, -0.17205025255680084, -0.05679827928543091, -0.03258809447288513, -0.052934035658836365, -0.13408344984054565, -0.20405840873718262, 0.09261377155780792, -0.15639257431030273, 0.1866341084241867, 0.013103500008583069, 0.15928326547145844, -0.06288108229637146, 0.04334767162799835, -0.13298845291137695], [-0.08252817392349243, -0.1441517174243927, 0.1565467268228531, -0.1751748025417328, 0.08412669599056244, -0.20423415303230286, -0.1481405794620514, -0.08610522747039795, 0.16219638288021088, 0.10100634396076202, -0.06283596158027649, 0.12865020334720612, -0.11154574155807495, -0.09367682039737701, -0.034334808588027954, -0.17854216694831848, -0.19600042700767517, -0.06287409365177155, -0.11218651384115219, -0.09435195475816727, -0.0966753289103508], [-0.050263553857803345, 0.210266575217247, 0.057106778025627136, -0.12736648321151733, 0.1439337581396103, 0.08092789351940155, 0.005512639880180359, -0.13517777621746063, -0.11251457035541534, 0.09390611946582794, 0.03484569489955902, -0.1414349526166916, -0.004653811454772949, -0.1416711062192917, 0.14924131333827972, 0.05087743699550629, 0.1409613937139511, 0.2070118635892868, -0.1530657708644867, 0.17635415494441986, -0.14791488647460938], [0.10975347459316254, -0.08898186683654785, -0.18900540471076965, 0.18540598452091217, -0.21262793242931366, -0.19449976086616516, -0.20683948695659637, 0.048667535185813904, 0.19551478326320648, 0.16051842272281647, 0.01769980788230896, -0.057588160037994385, -0.20764778554439545, -0.13437262177467346, -0.08699202537536621, -0.18232378363609314, -0.21710149943828583, 0.011994197964668274, 0.015295013785362244, -0.051284149289131165, 0.08344854414463043], [0.09238411486148834, -0.1057121679186821, -0.14830976724624634, 0.15313230454921722, -0.21265725791454315, -0.1654127538204193, 0.00971020758152008, 0.08252479135990143, -0.10343574732542038, -0.18915951251983643, -0.11712197214365005, -0.08551132678985596, 0.06514285504817963, 0.18389026820659637, -0.023842915892601013, 0.15582667291164398, -0.04438786208629608, -0.15905605256557465, -0.15235280990600586, -0.14112284779548645, -0.071098193526268], [0.20222444832324982, 0.02249103970825672, -0.05580037832260132, -0.12100435793399811, 0.18783877789974213, -0.16853104531764984, -0.009535573422908783, 0.1832280457019806, -0.11049313098192215, -0.062350254505872726, 0.1168205589056015, 0.06789133697748184, 0.016043048352003098, -0.05845491960644722, -0.052502475678920746, -0.10699085146188736, -0.0039820121601223946, -0.16595661640167236, -0.020221328362822533, 0.12334294617176056, -0.04533524438738823], [-0.1377357840538025, 0.1697520613670349, 0.20215743780136108, 0.058404240757226944, -0.20171543955802917, -0.09125344455242157, -0.06362267583608627, 0.21603839099407196, 0.03809415549039841, 0.13378478586673737, -0.07086765021085739, 0.2106514722108841, 0.0035826817620545626, 0.19761638343334198, 0.19700010120868683, 0.1388436257839203, 0.05691900849342346, -0.03578069433569908, -0.12864644825458527, -0.02270488813519478, -0.021723758429288864], [-0.1173345223069191, -0.036294907331466675, -0.1608300507068634, 0.10012374818325043, -0.062281325459480286, -0.16249243915081024, -0.10820208489894867, 0.09094969928264618, 0.20363439619541168, 0.07444722950458527, 0.011477231979370117, -0.15615946054458618, -0.12437492609024048, 0.13198257982730865, 0.019104614853858948, -0.18028903007507324, 0.1794431358575821, 0.06679441034793854, -0.07069112360477448, 0.13118527829647064, -0.1202656626701355], [0.028914928436279297, -0.03744004666805267, 0.015056461095809937, -0.09282410144805908, -0.16037976741790771, 0.08135734498500824, -0.10074463486671448, 0.07638813555240631, 0.14493559300899506, 0.16981743276119232, -0.14257296919822693, -0.06727395951747894, -0.06603999435901642, 0.14038853347301483, -0.17930464446544647, -0.1940549612045288, 0.0034832805395126343, -0.17179475724697113, 0.13945697247982025, -0.021967709064483643, -0.01623116433620453], [0.15528030693531036, -0.07420095801353455, 0.14627693593502045, -0.14484158158302307, 0.1117125004529953, -0.036937415599823, 0.14520670473575592, 0.06415267288684845, 0.029913142323493958, 0.05457161366939545, -0.11764216423034668, 0.15035147964954376, -0.007849320769309998, 0.1827891319990158, -0.18039445579051971, 0.1440896838903427, -0.00628720223903656, 0.1680317372083664, -0.0037376582622528076, 0.14062057435512543, 0.02059127390384674], [0.20612289011478424, 0.0883619636297226, -0.17175182700157166, 0.2007848173379898, 0.06060153990983963, -0.05383262038230896, -0.1329502910375595, -0.20531779527664185, 0.07763782888650894, -0.16914992034435272, 0.1104399636387825, 0.00817846693098545, 0.1778130829334259, 0.05237431824207306, -0.1403227150440216, -0.1672821044921875, -0.06334784626960754, 0.2131771445274353, -0.0826675072312355, 0.032781634479761124, 0.19786380231380463], [0.008089005947113037, 0.1187799721956253, 0.11509038507938385, -0.1773769110441208, 0.02515895664691925, -0.17857371270656586, 0.09751571714878082, -0.060340702533721924, 0.01592026650905609, 0.19515617191791534, -0.15466433763504028, -0.21145139634609222, -0.05721461772918701, 0.1582954078912735, -0.19406138360500336, -0.07906870543956757, 0.012093797326087952, -0.21816620230674744, 0.05439619719982147, -0.20246319472789764, 0.06723962724208832], [0.14683844149112701, 0.17000465095043182, -0.11120140552520752, -0.10864774882793427, -0.078054279088974, 0.1638568788766861, -0.008710607886314392, 0.10777272284030914, 0.07822470366954803, 0.025301367044448853, 0.034770235419273376, -0.012224674224853516, -0.17837117612361908, -0.053086936473846436, 0.062321290373802185, -0.03819076716899872, -0.1844806969165802, -0.20686142146587372, -0.15053367614746094, 0.08197568356990814, -0.00565946102142334], [0.0232066810131073, 0.12822939455509186, 0.08278433978557587, -0.052812784910202026, 0.21408803761005402, -0.033219754695892334, 0.004787340760231018, -0.008175864815711975, 0.12949560582637787, -0.028058677911758423, -0.04425328969955444, 0.1236800104379654, 0.00894118845462799, 0.17809410393238068, -0.07616712152957916, 0.12272687256336212, -0.1811959147453308, -0.05422393977642059, -0.08707085251808167, -0.04173271358013153, 0.2021903544664383], [0.15516038239002228, -0.16748318076133728, -0.06579698622226715, 0.02849748730659485, 0.0019966810941696167, -0.03974732756614685, 0.1557900458574295, 0.00715048611164093, -0.010427609086036682, -0.06995740532875061, -0.030067920684814453, -0.1093214750289917, 0.18592514097690582, 0.058261528611183167, 0.21675105392932892, -0.15626609325408936, -0.16628426313400269, -0.014947369694709778, -0.20188890397548676, -0.04950527846813202, 0.038744911551475525], [0.052603580057621, -0.039901252835989, -0.18588650226593018, 0.00876422505825758, -0.11655289679765701, 0.185225710272789, -0.2031683474779129, 0.1844792515039444, -0.14651601016521454, 0.05856864154338837, -0.1541726440191269, -0.00040892200195230544, 0.15104573965072632, -0.1621708869934082, 0.17410573363304138, 0.20064270496368408, -0.09113718569278717, 0.19197726249694824, -0.15694063901901245, 0.10918162018060684, -0.17184744775295258], [-0.0009516270365566015, -0.19202113151550293, -0.07101226598024368, 0.21789325773715973, 0.1563539355993271, -0.12453966587781906, -0.2142021358013153, -0.11395785212516785, -0.19921548664569855, -0.1928769052028656, 0.03955524042248726, 0.10994727909564972, 0.004110288340598345, -0.09829901903867722, 0.1281832754611969, 0.044086433947086334, -0.16782894730567932, 0.15929238498210907, 0.05379781872034073, -0.08927760273218155, -0.1405373513698578], [0.0016302764415740967, 0.0633581131696701, 0.14492280781269073, -0.07071596384048462, 0.07640175521373749, -0.07993318140506744, 0.1284904032945633, -0.003464832901954651, -0.20623379945755005, 0.06658409535884857, 0.07560653984546661, -0.03782184422016144, -0.048333629965782166, -0.15229810774326324, 0.0914565771818161, 0.19967429339885712, 0.07401011884212494, -0.13263273239135742, -0.04707455635070801, 0.09910668432712555, -0.13309551775455475], [0.025504229590296745, -0.11992970108985901, 0.07398688793182373, 0.004789884202182293, -0.12459927052259445, 0.04423695057630539, -0.0021261023357510567, -0.13520975410938263, 0.018907807767391205, -0.06728436052799225, -0.12542247772216797, -0.13099557161331177, -0.15893445909023285, -0.21567201614379883, -0.008600816130638123, 0.1722404807806015, 0.14997458457946777, -0.15213453769683838, 0.19466836750507355, 0.13184404373168945, -0.1033773422241211], [-0.14955396950244904, 0.06831123679876328, 0.03320368006825447, -0.11503885686397552, -0.1346147507429123, 0.10444853454828262, -0.09210162609815598, -0.08705800771713257, 0.13776350021362305, -0.11375284940004349, 0.21069660782814026, 0.14800198376178741, 0.04929273948073387, 0.09771081805229187, -0.10642800480127335, 0.11854349821805954, -0.19364334642887115, -0.11236129701137543, 0.03582688421010971, 0.023676292970776558, 0.0856330543756485], [0.13684715330600739, -0.03231297433376312, -0.11991861462593079, 0.2000456303358078, -0.21181347966194153, 0.057504817843437195, -0.13079431653022766, 0.16552390158176422, 0.04575486481189728, -0.17697739601135254, -0.02431190013885498, 0.1758335381746292, 0.21718959510326385, -0.0635039359331131, 0.18887896835803986, 0.004720836877822876, -0.057946592569351196, 0.18262077867984772, 0.15533597767353058, -0.15577983856201172, -0.09126809239387512], [0.03364550322294235, 0.03962510824203491, -0.034919142723083496, 0.1139233186841011, 0.09360072761774063, 0.06072576344013214, 0.2499072253704071, -0.04592432081699371, 0.1573432832956314, -0.050896044820547104, -0.12415003776550293, -0.17436878383159637, -0.21150892972946167, 0.21715568006038666, 0.07394073903560638, -0.16850058734416962, -0.11128932982683182, 0.10190372169017792, 0.046223998069763184, 0.0390726700425148, -0.1914108842611313], [-0.24563263356685638, 0.19355782866477966, 0.05774802714586258, -0.07376856356859207, -0.033464886248111725, -0.15969765186309814, -0.10459759831428528, -0.20189771056175232, 0.22033283114433289, 0.16409292817115784, 0.028494488447904587, 0.017477668821811676, -0.05853457376360893, 0.09486819803714752, 0.12105742841959, 0.011566425673663616, 0.048654261976480484, -0.02438333071768284, -0.09580711275339127, 0.08660957217216492, 0.09797675907611847], [0.05896477401256561, -0.054206639528274536, -0.0002181529998779297, -0.04373157024383545, -0.017053261399269104, 0.06518097221851349, -0.04354390501976013, -0.03975120186805725, -0.15894781053066254, -0.1228003203868866, 0.20831231772899628, -0.030789747834205627, -0.0942397266626358, -0.05482621490955353, 0.13390623033046722, -0.20740357041358948, 0.03460271656513214, 0.06606484949588776, -0.17062343657016754, -0.21228380501270294, 0.17047704756259918], [-0.12859368324279785, -0.011652244254946709, -0.06261608749628067, -0.010421790182590485, 0.08309295773506165, 0.12557457387447357, 0.05278204008936882, -0.19706203043460846, 0.08936475217342377, -0.06247097626328468, 0.07502389699220657, 0.053847119212150574, 0.04703747481107712, -0.1953566074371338, -0.15578384697437286, 0.02331068366765976, 0.1524059921503067, 0.15588124096393585, -0.035069212317466736, 0.10359161347150803, -0.11677005887031555], [0.12932713329792023, -0.1410161703824997, -0.15257179737091064, -0.19408942759037018, -0.1923082321882248, -0.052046265453100204, 0.009026902727782726, 0.11633602529764175, 0.06425360590219498, 0.07813575863838196, 0.04337978735566139, -0.038528744131326675, 0.0925627127289772, -0.06344888359308243, 0.07670203596353531, 0.07933376729488373, 0.11720778793096542, -0.07785309106111526, -0.09225744754076004, -0.21367760002613068, -0.0780271664261818], [0.1129518449306488, -0.11244196444749832, -0.03132234141230583, -0.18550989031791687, -0.22989623248577118, -0.21799392998218536, 0.008337818086147308, 0.08953732997179031, -0.07772911339998245, 0.1654733270406723, 0.15827322006225586, 0.058038320392370224, 0.04969557747244835, -0.18620416522026062, -0.05843031406402588, 0.024729685857892036, 0.10436443984508514, 0.0019280905835330486, -0.09483668208122253, 0.08201707154512405, 0.17114168405532837], [-0.09923916310071945, 0.16796933114528656, -0.1644008308649063, -0.12002607434988022, -0.14496606588363647, 0.21497145295143127, 0.13906779885292053, 0.014665125869214535, 0.17648032307624817, -0.037183091044425964, 0.015137000940740108, 0.004431913606822491, 0.15618093311786652, 0.03417130187153816, -0.19964982569217682, 0.11651652306318283, -0.019195672124624252, 0.010262476280331612, -0.19778656959533691, 0.20815478265285492, -0.03583614528179169], [0.07683337479829788, -0.18720471858978271, 0.207382470369339, -0.21069282293319702, 0.20417344570159912, 0.06614552438259125, -0.20055457949638367, 0.01716485433280468, 0.08880453556776047, 0.06498424708843231, -0.15439049899578094, 0.020343471318483353, 0.10993526875972748, -0.05049663782119751, 0.03993396461009979, 0.0840059444308281, -0.10452836751937866, -0.1748117357492447, -0.11763536185026169, -0.016343891620635986, -0.02592753991484642], [0.1479174643754959, 0.05297413468360901, -0.17628182470798492, 0.1416088342666626, -0.15502285957336426, 0.15538835525512695, -0.25503775477409363, -0.07380085438489914, 0.05302997678518295, -0.12463147938251495, -0.045534368604421616, 0.07277576625347137, 0.22053325176239014, 0.09862314909696579, 0.14605984091758728, 0.006089304573833942, 0.0636853277683258, -0.13756145536899567, 0.0055488948710262775, -0.08651754260063171, 0.13428613543510437], [-0.18901820480823517, 0.12811677157878876, -0.010369539260864258, 0.20904381573200226, 0.14720000326633453, -0.17390339076519012, 0.11293645203113556, 0.0904817134141922, 0.1785488873720169, -0.07551378011703491, 0.027765899896621704, 0.13588853180408478, -0.0074067264795303345, -0.013436049222946167, 0.023311540484428406, 0.04208938777446747, 0.09984518587589264, 0.17516769468784332, 0.14387093484401703, 0.043968722224235535, -0.21403945982456207], [0.16826118528842926, 0.03132738173007965, -0.13603505492210388, 0.01333094947040081, 0.13027672469615936, -0.19875726103782654, 0.0247659869492054, -0.20241279900074005, -0.034612976014614105, 0.16914936900138855, 0.11400433629751205, -0.2112821489572525, 0.09751059859991074, -0.17709915339946747, 0.18270306289196014, -0.18901076912879944, -0.06947901844978333, -0.12068059295415878, -0.08618640899658203, -0.1981135457754135, -0.16766038537025452], [0.05321072041988373, -0.2118345946073532, -0.15474918484687805, -0.0878203809261322, 0.09672094881534576, 0.00499434769153595, 0.07836444675922394, -0.1755984127521515, -0.1326228678226471, 0.1496695727109909, -0.16736453771591187, 0.04932864010334015, 0.03501005470752716, 0.14347444474697113, -0.04842148721218109, -0.21551214158535004, -0.012210816144943237, -0.03193145990371704, -0.16428056359291077, 0.1730838268995285, -0.1305231899023056], [0.07751889526844025, 0.19339565932750702, -0.06265328824520111, -0.12163384258747101, 0.028494272381067276, -0.12734290957450867, 0.03533928096294403, 0.003194004064425826, 0.14887650310993195, 0.01893332600593567, 0.17877896130084991, 0.21600110828876495, -0.14012297987937927, 0.07793782651424408, -0.21433281898498535, 0.20196868479251862, 0.06715761125087738, -0.17475128173828125, 0.06642971932888031, -0.17679744958877563, 0.1646818071603775], [-0.10027530044317245, 0.15133480727672577, 0.09427730739116669, 0.07521189749240875, -0.21346114575862885, 0.1212252825498581, -0.08020010590553284, 0.12822066247463226, 0.21555660665035248, -0.18548165261745453, 0.048498883843421936, -0.11646720767021179, 0.1943730264902115, -0.2014649212360382, -0.13215100765228271, 0.05241142213344574, -0.18499280512332916, -0.17941947281360626, 0.12953488528728485, 0.1323155015707016, 0.0688706785440445], [0.10054178535938263, 0.06522206962108612, 0.1029265969991684, 0.048098281025886536, -0.057449012994766235, -0.21556048095226288, 0.02461250126361847, 0.1358717530965805, -0.15190958976745605, 0.07020829617977142, 0.08522213995456696, -0.09620201587677002, 0.004559324122965336, 0.07239054143428802, -0.11651845276355743, -0.16611477732658386, 0.07782481610774994, 0.1661340445280075, -0.12328940629959106, 0.04878555238246918, -0.07556071877479553], [-0.01604810357093811, 0.07751689851284027, 0.0711648017168045, 0.20054061710834503, -0.13117507100105286, 0.05372591316699982, 0.10637195408344269, 0.17905236780643463, -0.19409959018230438, -0.10028006136417389, 0.016635209321975708, -0.18749871850013733, -0.19113726913928986, -0.15308114886283875, -0.15867751836776733, 0.21338732540607452, 0.18442900478839874, -0.17098094522953033, 0.04769124090671539, 0.15999983251094818, 0.05750231444835663], [0.13344302773475647, -0.03194648399949074, 0.1896197348833084, -0.14330101013183594, 0.03933803737163544, 0.024142539128661156, -0.09797611832618713, -0.18573640286922455, 0.0644606202840805, -0.014306851662695408, 0.01777847297489643, 0.110305055975914, 0.005619254894554615, -0.08261540532112122, -0.05947870388627052, -0.09081260114908218, -0.022197093814611435, -0.20909827947616577, -0.07514145225286484, -0.2164558321237564, 0.04288524389266968], [0.06050051748752594, -0.16817831993103027, 0.022414594888687134, -0.060856521129608154, -0.20555168390274048, 0.06747625768184662, -0.029832184314727783, -0.1982457935810089, 0.18548549711704254, 0.0648326426744461, -0.04246179759502411, -0.13446998596191406, -0.14030833542346954, -0.07407604157924652, -0.18514740467071533, -0.06672945618629456, 0.1397860199213028, 0.08972378075122833, -0.10197079181671143, -0.1513614058494568, 0.07920460402965546], [0.03963984549045563, -0.032641246914863586, -0.1569160372018814, 0.05748848617076874, 0.1287645846605301, -0.03829240798950195, 0.07108931243419647, 0.11183227598667145, 0.021165579557418823, 0.1735527664422989, 0.18166880309581757, 0.06837944686412811, -0.20022521913051605, -0.04783278703689575, -0.18253907561302185, -0.18468907475471497, -0.07945521175861359, -0.07932481169700623, -0.2059529721736908, 0.03763999044895172, -0.03480695188045502], [0.05120213329792023, -0.1632639318704605, 0.10511092841625214, -0.12401793897151947, 0.07581444084644318, 0.09589974582195282, 0.1256108433008194, 0.09680129587650299, 0.007639363408088684, 0.09918297827243805, 0.10629265010356903, 0.14105041325092316, -0.16601791977882385, -0.06506024301052094, 0.1883542686700821, 0.01903243362903595, -0.07809306681156158, -0.024465560913085938, 0.07896555960178375, -0.11142324656248093, -0.0607849657535553], [-0.16351088881492615, -0.10809493064880371, 0.1722012609243393, -0.09720312058925629, 0.08207079023122787, -0.13489437103271484, -0.09405296295881271, 0.18966037034988403, 0.028065279126167297, 0.12400840222835541, -0.10373374819755554, 0.05256384611129761, -0.02250058948993683, -0.13644352555274963, 0.09704877436161041, 0.04064216837286949, -0.15647798776626587, 0.13226988911628723, 0.1130647137761116, -0.046332962810993195, 0.11940916627645493], [-0.13599787652492523, 0.1953245848417282, 0.0022134929895401, -0.18392494320869446, 0.19254861772060394, 0.12093387544155121, 0.08233736455440521, -0.03443269431591034, 0.1780737191438675, -0.07708509266376495, 0.06301362812519073, 0.13948531448841095, 0.18544910848140717, -0.20241153240203857, -0.1406172513961792, 0.0356968492269516, 0.11824388802051544, 0.0655132383108139, -0.048221200704574585, 0.14105264842510223, -0.1271834820508957], [-0.1038639023900032, -0.2086731642484665, -0.030312716960906982, -0.15280045568943024, -0.2097194641828537, 0.03184609115123749, 0.0485355406999588, 0.15626035630702972, -0.01734071969985962, 0.07799817621707916, -0.16726154088974, -0.0575437992811203, 0.013514325022697449, 0.12698324024677277, -0.05961792171001434, -0.017382577061653137, -0.18380725383758545, 0.19677089154720306, -0.023524880409240723, 0.0595880001783371, 0.08946745097637177], [0.005658090114593506, 0.13642854988574982, 0.10712079703807831, -0.1578385829925537, 0.15854217112064362, 0.05224795639514923, 0.04361613094806671, 0.1691223531961441, -0.1279468536376953, -0.20835286378860474, 0.2135079950094223, -0.044441863894462585, -0.10313024371862411, -0.20646655559539795, 0.15338905155658722, 0.1976614147424698, -0.18633252382278442, 0.17903588712215424, -0.09942726045846939, 0.07193847000598907, -0.07427148520946503], [-0.017119258642196655, 0.16272704303264618, 0.15119074285030365, -0.21304187178611755, 0.13246168196201324, -0.15766744315624237, -0.048639312386512756, -0.14860117435455322, -0.10635311901569366, -0.10257086902856827, 0.17616619169712067, -0.0002079010009765625, -0.05093611776828766, 0.20440231263637543, 0.038521960377693176, 0.03082120418548584, -0.19678936898708344, -0.21806402504444122, -0.021058976650238037, 0.05312587320804596, -0.15196864306926727], [-0.15314731001853943, 0.15293501317501068, 0.21639423072338104, -0.2119135707616806, -0.0030887722969055176, -0.11110211163759232, -0.11654651910066605, -0.02979813516139984, 0.022188112139701843, -0.1378140151500702, 0.18690060079097748, -0.10957126319408417, -0.1769362837076187, 0.1476982682943344, -0.19280463457107544, -0.10490668565034866, 0.06168253719806671, 0.11028774082660675, -0.19873662292957306, 0.14808215200901031, 0.02730722725391388], [0.003740076208487153, -0.04088055342435837, 0.24206091463565826, -0.10878711193799973, 0.10618501901626587, 0.012087645940482616, 0.007075982168316841, -0.21812817454338074, -0.19621418416500092, 0.17960849404335022, -0.018071625381708145, 0.040704138576984406, 0.010940387845039368, 0.19093134999275208, -0.03642067313194275, -0.06285084038972855, -0.025262391194701195, -0.081651471555233, -0.06064184382557869, 0.07988746464252472, 0.15409217774868011], [-0.17904341220855713, -0.012176647782325745, 0.11080966889858246, 0.046812549233436584, -0.21365536749362946, 0.18508844077587128, -0.08200067281723022, -0.11976250261068344, -0.14576689898967743, -0.18749400973320007, 0.19268973171710968, 0.12434135377407074, 0.01202307641506195, -0.022933512926101685, 0.11598296463489532, -0.06415481865406036, 0.18277491629123688, -0.1950286626815796, -0.011100858449935913, -0.041538432240486145, 0.08294083178043365], [0.0025862723123282194, 0.1163395568728447, 0.16054648160934448, 0.00294850068166852, 0.0701170414686203, -0.050947051495313644, 0.07966636121273041, -0.1139504536986351, -0.0717131569981575, -0.16749152541160583, 0.05646096169948578, 0.18270142376422882, 0.1459207981824875, -0.09260710328817368, -0.1521785855293274, -0.1630137711763382, 0.14503984153270721, -0.023931004106998444, -0.11790354549884796, 0.08307719975709915, 0.1253173053264618], [0.10560698062181473, -0.12927402555942535, 0.0069204759784042835, -0.04382002726197243, -0.0442790612578392, -0.16734550893306732, -0.026178469881415367, 0.1770966649055481, -0.00843483954668045, 0.20142535865306854, -0.1643291562795639, -0.15629757940769196, 0.14155901968479156, 0.09348955750465393, 0.013508660718798637, 0.03330669924616814, 0.0403912253677845, -0.04232218861579895, 0.09007075428962708, 0.135163351893425, 0.14085090160369873], [0.21603025496006012, 0.1833985298871994, -0.12906020879745483, 0.20299188792705536, -0.06617899239063263, 0.004445329308509827, -0.03957895562052727, 0.10833434760570526, 0.13802452385425568, 0.12445797026157379, -0.1894838660955429, -0.09169742465019226, 0.009288248606026173, 0.06572704017162323, -0.12325125187635422, 0.2073717564344406, -0.09322714805603027, 0.19327901303768158, 0.1766955405473709, -0.16485291719436646, -0.007360704708844423], [-0.12121156603097916, -0.007310464978218079, 0.06263644993305206, 0.05454583466053009, 0.13327546417713165, -0.16257381439208984, -0.11244097352027893, -0.09743329137563705, 0.07435788214206696, -0.036545902490615845, 0.21811936795711517, 0.1662875860929489, 0.03218980133533478, 0.185930535197258, 0.19251544773578644, 0.04426555335521698, 0.15420450270175934, -0.21241939067840576, -0.03178474307060242, -0.11214067786931992, -0.10584577172994614], [0.1624075323343277, 0.037798866629600525, 0.027416333556175232, -0.0231475830078125, 0.21074049174785614, -0.04958392679691315, 0.07221914827823639, 0.08702678978443146, 0.09735698997974396, -0.2175997644662857, -0.2065911889076233, -0.124200738966465, -0.164947509765625, -0.20628178119659424, 0.20691098272800446, 0.1021156758069992, 0.1900332123041153, 0.1684383898973465, -0.07216520607471466, 0.19984088838100433, 0.008331552147865295], [-0.03417512774467468, -0.11675556749105453, 0.19400645792484283, -0.10411558300256729, 0.14541806280612946, 0.1636640578508377, -0.04666660726070404, -0.12443090230226517, 0.015668511390686035, 0.002505779266357422, 0.032998427748680115, -0.15212774276733398, 0.0021468251943588257, -0.1388813555240631, -0.0664697140455246, 0.025674358010292053, 0.09157545864582062, 0.011511817574501038, 0.04741750657558441, -0.011455997824668884, 0.10366635024547577], [-0.13769039511680603, -0.16370326280593872, -0.029534034430980682, -0.06248360872268677, -0.1435028612613678, 0.12919844686985016, -0.10751570016145706, 0.03506552055478096, -0.21690517663955688, -0.0007005171501077712, 0.20371657609939575, 0.130807027220726, 0.2284470796585083, -0.12738068401813507, 0.14545230567455292, 0.10859914869070053, -0.02648061141371727, 0.056017350405454636, -0.20248191058635712, -0.17202500998973846, -0.04397939518094063], [-0.09930018335580826, 0.09267507493495941, 0.13738812506198883, -0.04694724082946777, -0.021860942244529724, 0.21272794902324677, 0.1754167526960373, -0.14648479223251343, -0.04898080229759216, -0.03561878204345703, -0.10480780899524689, -0.1373598277568817, 0.1404227465391159, 0.04160742461681366, 0.15327505767345428, 0.047397300601005554, -0.2028207778930664, 0.0010260790586471558, 0.21354223787784576, -0.09545573592185974, -0.17631100118160248], [-0.12121393531560898, -0.11599346995353699, -0.09208944439888, -0.1643720269203186, -0.02518998086452484, 0.0794580727815628, -0.10219619423151016, -0.14902837574481964, -0.08795638382434845, 0.08357660472393036, 0.15687687695026398, 0.13579057157039642, 0.19834060966968536, -0.19847388565540314, -0.2138417512178421, -0.13006263971328735, 0.08285976946353912, 0.21072576940059662, 0.028491154313087463, -0.20429250597953796, 0.20764057338237762], [-0.13983166217803955, -0.028272077441215515, -0.0631985068321228, -0.05636988580226898, 0.0022336645051836967, -0.1787276566028595, 0.05321691930294037, 0.14017967879772186, -0.15645502507686615, 0.11306934058666229, 0.1515698879957199, -0.08039909601211548, 0.19601784646511078, 0.06004156172275543, -0.006970998365432024, 0.06116269528865814, -0.018232256174087524, 0.011843785643577576, -0.07614748179912567, 0.04100809991359711, 0.16249145567417145], [0.13907264173030853, 0.03655619919300079, 0.03625355660915375, 0.054648712277412415, -0.006039217114448547, -0.07534365355968475, 0.1393430083990097, 0.0501524955034256, 0.15024800598621368, 0.08941836655139923, -0.2076217234134674, 0.09520997107028961, 0.20530782639980316, -0.03673835098743439, 0.02005736529827118, 0.1526385396718979, 0.19497881829738617, -0.19341731071472168, 0.12565197050571442, 0.06387676298618317, -0.16595497727394104], [-0.14501191675662994, 0.016835808753967285, -0.017127608880400658, 0.14983707666397095, 0.1355140060186386, -0.15122173726558685, 0.027355041354894638, -0.04770151525735855, -0.10474775731563568, 0.18439437448978424, -0.06731018424034119, 0.15966229140758514, -0.10510744899511337, -0.003171235090121627, 0.09080533683300018, 0.008110525086522102, -0.12450441718101501, -0.14484918117523193, 0.18927980959415436, -0.14196202158927917, 0.09214509278535843], [0.1278071403503418, 0.18982484936714172, -0.04115915298461914, -0.1213587298989296, 0.09884452074766159, -0.17945139110088348, -0.1532686948776245, -0.07702668011188507, -0.017234737053513527, 0.18605396151542664, -0.01218251883983612, 0.13438645005226135, -0.05273472145199776, 0.20685620605945587, -0.16298814117908478, -0.13691164553165436, -0.00941514316946268, 0.19872063398361206, 0.1853715032339096, 0.041975054889917374, 0.17314612865447998], [0.15389575064182281, 0.20263104140758514, 0.10273297131061554, 0.1729326993227005, 0.06584836542606354, 0.029161974787712097, -0.19119587540626526, -0.07091708481311798, -0.11101644486188889, -0.11097006499767303, -0.0170773696154356, -0.13270828127861023, -0.03199463337659836, 0.0634235292673111, 0.14193366467952728, -0.12011275440454483, 0.11217428743839264, 0.13486479222774506, -0.16831181943416595, -0.16400305926799774, -0.10285072773694992], [-0.02118082344532013, 0.017650306224822998, -0.1598026156425476, -0.13628819584846497, 0.21636037528514862, -0.14269544184207916, -0.1480797827243805, 0.11508475244045258, 0.12544943392276764, 0.11164109408855438, -0.06536214053630829, -0.05104559659957886, -0.15323728322982788, 0.2106354981660843, -0.1398557722568512, 0.1355751007795334, 0.19538916647434235, -0.10217634588479996, 0.0011045187711715698, 0.20060165226459503, -0.0014694780111312866], [0.08052334934473038, -0.04332200810313225, -0.01464223675429821, 0.1502460092306137, -0.16261808574199677, 0.16065150499343872, -0.1130007803440094, 0.07919449359178543, 0.09958457201719284, -0.14181703329086304, 0.0036162189207971096, -0.04959943890571594, 0.1717364490032196, -0.1564902514219284, 0.0370660237967968, -0.008508103899657726, -0.08051678538322449, -0.21323782205581665, -0.20292019844055176, -0.14885564148426056, 0.18119418621063232], [-0.00807449221611023, 0.050249919295310974, -0.13003593683242798, -0.10597734898328781, 0.10696221888065338, -0.15906941890716553, 0.00508880615234375, 0.1535339206457138, 0.010988503694534302, 0.03451527655124664, -0.05899962782859802, 0.20059455931186676, 0.16889835894107819, 0.12320245802402496, -0.14404481649398804, 0.1347796767950058, -0.21390530467033386, -0.1075718030333519, 0.18086867034435272, 0.03754164278507233, -0.13949823379516602], [-0.15195107460021973, 0.20482765138149261, 0.04394714534282684, -0.08192265033721924, 0.02570296823978424, 0.18417195975780487, -0.1495041698217392, -0.011862769722938538, -0.21733936667442322, -0.10729298740625381, -0.20309291779994965, -0.11012469977140427, 0.007093384861946106, -0.053025469183921814, 0.07561145722866058, 0.185306116938591, 0.10779263079166412, -0.10194139182567596, -0.2111951857805252, -0.184708833694458, -0.13462591171264648], [-0.13289302587509155, 0.09829835593700409, 0.11816711723804474, -0.14358508586883545, 0.06529681384563446, 0.18085049092769623, 0.047222740948200226, -0.04142351448535919, 0.057299427688121796, 0.12951774895191193, 0.10788827389478683, -0.14352355897426605, -0.07195781171321869, -0.08749966323375702, 0.2078041434288025, -0.20052650570869446, 0.0916147381067276, -0.004768712911754847, 0.19420264661312103, -0.19988064467906952, 0.2170751541852951], [-0.150781512260437, -0.20013298094272614, 0.03061826527118683, 0.09556122124195099, -0.10425033420324326, -0.20459069311618805, -0.16869142651557922, 0.11599500477313995, -0.16824504733085632, 0.02576771378517151, 0.07952563464641571, -0.1362888216972351, -0.10106541216373444, -0.1522883176803589, 0.16891662776470184, 0.14045052230358124, 0.04727558791637421, 0.13255156576633453, -0.1461348533630371, 0.0515151172876358, -0.16541334986686707], [0.16963748633861542, -0.008006200194358826, 0.13324140012264252, -0.03225652873516083, -0.12714943289756775, -0.20991680026054382, -0.20407606661319733, 0.19496171176433563, 0.21471036970615387, -0.19750560820102692, 0.20102731883525848, -0.21159954369068146, 0.2083238810300827, -0.17939423024654388, 0.022038251161575317, -0.164701446890831, -0.1290777325630188, -0.010778471827507019, -0.003737419843673706, -0.020037829875946045, -0.18123257160186768]], "fc1.bias": [0.18807773292064667, -0.20617333054542542, 0.06932783126831055, 0.18189667165279388, 0.05358792841434479, 0.029949352145195007, -0.1481270045042038, -0.006227090954780579, -0.1193271055817604, 0.09690152108669281, 0.09723182022571564, -0.09860535711050034, 0.19518928229808807, -0.1948619782924652, -0.04278711974620819, -0.1955510973930359, -0.059044525027275085, 0.17835648357868195, 0.15651918947696686, 0.04664064943790436, 0.18061870336532593, 0.15633650124073029, -0.02410479635000229, 0.04946865141391754, 0.08077125251293182, 0.16118748486042023, -0.15286758542060852, -0.17907117307186127, -0.025953873991966248, -0.1802719086408615, -0.1505189836025238, 0.04220740497112274, 0.17886961996555328, -0.12461596727371216, 0.19602669775485992, -0.21263714134693146, 0.17417702078819275, 0.004616916179656982, -0.11526930332183838, 0.04800392687320709, -0.0333336740732193, 0.09863777458667755, 0.19578178226947784, 0.04617913067340851, 0.20384465157985687, 0.14407002925872803, 0.11720506846904755, -0.03197498619556427, 0.044993650168180466, 0.060365404933691025, -0.007139712572097778, -0.16092556715011597, -0.11680545657873154, -0.13863372802734375, 0.05805734172463417, -0.023167084902524948, 0.03415091708302498, -0.15923316776752472, -0.21678313612937927, -0.09831353276968002, 0.18724067509174347, -0.10551327466964722, -0.08940154314041138, 0.04470305144786835, 0.14688800275325775, -0.03584536910057068, 0.17360185086727142, -0.1528368443250656, 0.09201885759830475, -0.021323978900909424, -0.13905185461044312, 0.21198789775371552, 0.21182005107402802, 0.20754806697368622, -0.01213100552558899, 0.07664437592029572, -0.21813459694385529, -0.03275361284613609, 0.10967026650905609, -0.07733435183763504, -0.18698449432849884, 0.061324700713157654, 0.17282555997371674, 0.12899933755397797, 0.06335093080997467, -0.12997545301914215, 0.15068764984607697, -0.009503751993179321, -0.19745929539203644, 0.09149079024791718, 0.07024259865283966, -0.1548841893672943, -0.20979732275009155, 0.10669077932834625, 0.06827744841575623, -0.13168704509735107, -0.13297471404075623, -0.1108529269695282, 0.19010354578495026, -0.03350070118904114], "fc2.weight": [[-0.03721615672111511, 0.2776242792606354, -0.049229610711336136, -0.054539069533348083, -0.12465878576040268, -0.08727288991212845, 0.0008862658869475126, 0.0773950144648552, -0.9491143226623535, 0.0058445800095796585, 0.09266187995672226, 0.05487613379955292, -0.0021700963843613863, 0.06301917880773544, -0.11052074283361435, 0.05019942671060562, 5.277622676658211e-06, -0.10267127305269241, -0.11599819362163544, 0.05826635658740997, 1.0537413358688354, -0.0004920735955238342, -0.10223046690225601, -0.09129209071397781, 0.08539297431707382, -0.10276612639427185, 0.03462531790137291, -0.005834758281707764, -0.04692845419049263, -0.08032158017158508, 0.09538980573415756, -0.0064387694001197815, 0.001109799835830927, 0.08633513003587723, 0.06180714815855026, -0.07415592670440674, -0.09259548038244247, 0.028605110943317413, 0.04903266578912735, -0.0042204237543046474, 0.06091265007853508, 0.04980999976396561, 0.017974987626075745, -0.11229587346315384, -0.10207495093345642, -0.13851091265678406, 0.04458225145936012, -0.05014941841363907, 0.06269780546426773, -0.06336522847414017, -0.06949391216039658, -0.8527771830558777, -0.7137946486473083, 0.07708842307329178, -1.0380405187606812, 0.8848878145217896, 0.46612945199012756, 0.047236233949661255, -0.09800445288419724, 0.7874675989151001, 0.021452050656080246, 0.038906488567590714, 0.06295264512300491, 0.013801686465740204, -0.0020558531396090984, -0.03292582929134369, -0.032330237329006195, -0.3004140257835388, -0.084922194480896, 0.04594191163778305, 0.07232099771499634, -0.12299767881631851, 0.053879402577877045, 0.03140033036470413, 0.04046321287751198, 0.01867472566664219, -0.09468084573745728, -0.5333629250526428, 0.058474086225032806, 0.01239723153412342, -0.03916415944695473, -0.11541086435317993, 0.07419605553150177, 0.006335070822387934, -0.10033749043941498, 0.7136960625648499, -0.12153750658035278, -0.007853887975215912, 0.06592261046171188, -0.013095540925860405, -0.07963365316390991, 0.07665441185235977, -0.09816109389066696, 0.06831484287977219, 0.6285090446472168, -0.050460752099752426, -0.040976252406835556, -0.0880119726061821, -0.04865690693259239, -0.12451797723770142]], "fc2.bias": [0.0001476705656386912]}