{"fc1.weight": [[0.18781884014606476, 0.19075284898281097, -0.06113407015800476, -0.10632125288248062, -0.06022956967353821, -0.16365189850330353, 0.08777789771556854, -0.029394149780273438, 0.06061543524265289, -0.18950042128562927, -0.03331613540649414, -0.04433061182498932, -0.07684251666069031, -0.015933752059936523, 0.04328818619251251, 0.16591019928455353, 0.08764214813709259, -0.10563488304615021, 0.17994172871112823, -0.19427013397216797, -0.1700471043586731], [0.0690678209066391, -0.16675810515880585, -0.16049988567829132, 0.16487427055835724, -0.1471656709909439, 0.09001056849956512, 0.021805167198181152, 0.18306408822536469, -0.05072399973869324, 0.05126340687274933, -0.20905701816082, 0.20900656282901764, -0.011168420314788818, -0.17275620996952057, -0.1991995871067047, 0.18010951578617096, -0.20828114449977875, 0.17817212641239166, 0.20653022825717926, -0.09926561266183853, -0.14671467244625092], [-0.19409038126468658, -0.16839495301246643, 0.05836896598339081, 0.13900865614414215, 0.16099654138088226, 0.08308719098567963, 0.12250174582004547, 0.18853475153446198, -0.06330566108226776, -0.06146430969238281, -0.19026300311088562, -0.19062955677509308, -0.004514768719673157, -0.04802913963794708, 0.19915397465229034, -0.01705816388130188, -0.11082012206315994, -0.08823105692863464, -0.21068979799747467, -0.15166780352592468, -0.11218515783548355], [0.12857107818126678, -0.013596445322036743, -0.12897251546382904, -0.16798529028892517, -0.08196929097175598, -0.08246500790119171, 0.1265314370393753, -0.17213690280914307, -0.07078778743743896, 0.05082790553569794, 0.18913812935352325, -0.1576712429523468, 0.0006936043500900269, 0.04683835804462433, -0.022908508777618408, 0.1779458373785019, -0.142137348651886, -0.036523088812828064, -0.07215616106987, -0.0847167819738388, 0.11647091805934906], [0.1249486654996872, 0.16146592795848846, -0.15150630474090576, 0.21155612170696259, -0.05432826280593872, -0.02023547887802124, -0.12615583837032318, 0.07169805467128754, -0.20630311965942383, 0.06546680629253387, 0.12599124014377594, -0.09121125936508179, -0.21143700182437897, -0.002894848585128784, 0.13740868866443634, 0.12208394706249237, -0.07717715203762054, -0.1075194925069809, 0.11513058841228485, -0.19688531756401062, -0.05781137943267822], [0.1270618885755539, -0.06997612118721008, -0.19477295875549316, 0.2016395479440689, -0.1188640221953392, -0.0946609154343605, -0.17744706571102142, -0.2063210904598236, -0.11401873081922531, 0.20740993320941925, 0.014930978417396545, -0.10972614586353302, 0.0008577406406402588, -0.14296364784240723, 0.0680847316980362, -0.11209416389465332, -0.19701054692268372, 0.028642073273658752, -0.0880737453699112, -0.18856064975261688, -0.06331005692481995], [0.18692578375339508, 0.027348622679710388, 0.059523746371269226, 0.17853833734989166, -0.07095560431480408, -0.03411564230918884, 0.20095030963420868, -0.1154545247554779, -0.16908204555511475, -0.1548532098531723, 0.11121071875095367, -0.10112771391868591, 0.14254923164844513, -0.1457688957452774, -0.08400668203830719, -0.028741851449012756, 0.08908413350582123, 0.03920532763004303, -0.1926264762878418, -0.19147752225399017, -0.1105254665017128], [0.11560536175966263, 0.21219824254512787, 0.03581775724887848, -0.1223936676979065, -0.057727716863155365, -0.04029370844364166, -0.025531811639666557, 0.02715279720723629, -0.06305812299251556, 0.21087108552455902, -0.16379716992378235, 0.025649333372712135, 0.11629631370306015, -0.009796172380447388, 0.028652116656303406, -0.014644662849605083, 0.10821039974689484, 0.05607231706380844, -0.1932382732629776, -0.1282820850610733, -0.02319040521979332], [0.13887740671634674, -0.1556534767150879, 0.1122363731265068, 0.14223016798496246, 0.12945568561553955, 0.15561123192310333, -0.16230709850788116, -0.1352759152650833, 0.04953434690833092, 0.11425410211086273, -0.05307113379240036, -0.17472530901432037, 0.08556952327489853, -0.16001537442207336, -0.021653803065419197, -0.14095154404640198, 0.12227772176265717, -0.1106991246342659, 0.1949341595172882, 0.14184927940368652, -0.059188805520534515], [-0.22114509344100952, -0.14816130697727203, -0.009476495906710625, -0.20545704662799835, 0.04088932275772095, 0.19880814850330353, -0.09144905209541321, -0.09361448138952255, 0.0038093195762485266, -0.1825094074010849, 0.21059073507785797, 0.001104041701182723, 0.05113795027136803, -0.18991431593894958, -0.06556469202041626, -0.0262620747089386, -0.15406842529773712, -0.022693704813718796, -0.02917957492172718, 0.028541816398501396, 0.20475931465625763], [-0.1882632076740265, 0.18550048768520355, -0.18686489760875702, 0.1389709860086441, -0.057491615414619446, -0.06872457265853882, -0.21439944207668304, -0.02195972204208374, -0.1584380716085434, -0.1608775556087494, -0.045062631368637085, -0.1486857831478119, 0.12674055993556976, -0.09008283913135529, 0.14825643599033356, -0.1882411241531372, 0.06053565442562103, -0.0648101270198822, 0.19553004205226898, -0.0445077121257782, -0.06975901126861572], [-0.15732353925704956, 0.024137839674949646, -0.1342582106590271, -0.06980624794960022, 0.06906716525554657, -0.055925264954566956, 0.17923812568187714, 0.20565150678157806, 0.023594573140144348, 0.1496623009443283, -0.02724282443523407, 0.007794216275215149, 0.0963144451379776, 0.13329775631427765, 0.1362331062555313, -0.03994542360305786, -0.028630226850509644, -0.12172210961580276, 0.018219828605651855, 0.02306506037712097, 0.19839172065258026], [-0.001211509108543396, 0.050099268555641174, 0.03623206913471222, 0.06026153266429901, -0.13525494933128357, 0.1269025057554245, -0.14197970926761627, 0.09608243405818939, -0.16906127333641052, -0.09754910320043564, -0.017265960574150085, 0.13796360790729523, -0.05737127363681793, 0.16831760108470917, -0.024074465036392212, -0.10954449325799942, -0.01107490062713623, 0.11471123993396759, -0.05382348597049713, -0.02231001853942871, 0.06623287498950958], [-0.13154341280460358, 0.06346689164638519, 0.11694200336933136, 0.14465056359767914, 0.011729061603546143, 0.0780850201845169, 0.04703722894191742, 0.10500223934650421, 0.0869521051645279, -0.14732465147972107, 0.15891949832439423, -0.1788392961025238, 0.06001366674900055, -0.10277169942855835, 0.03454737365245819, -0.03391297161579132, -0.21406398713588715, -0.12158631533384323, 0.10203014314174652, 0.10623551905155182, -0.026470065116882324], [-0.1730460375547409, -0.15643583238124847, -0.2128591388463974, 0.21059094369411469, -0.19816981256008148, 0.16690956056118011, 0.09431473910808563, 0.10799019038677216, -0.08067278563976288, 0.1939605325460434, 0.14923547208309174, -0.02369217574596405, 0.037085965275764465, -0.012356460094451904, -0.18250325322151184, -0.15141858160495758, 0.04249437153339386, -0.0519663542509079, -0.1145234927535057, -0.19137006998062134, 0.14924566447734833], [-0.2056725025177002, 0.11129506677389145, -0.0726909339427948, -0.17646673321723938, -0.16085776686668396, -0.21500344574451447, 0.021734515205025673, 0.10582824051380157, 0.07830660790205002, -0.03542926907539368, -0.1000983715057373, 0.009642507880926132, 0.1419554203748703, 0.001302376389503479, 0.1310233622789383, -0.01289962138980627, 0.07477079331874847, -0.016122106462717056, -0.024736393243074417, -0.0861450582742691, 0.06329832226037979], [0.01940786838531494, -0.012679055333137512, -0.0664704442024231, -0.11465463042259216, 0.0892823189496994, 0.12561576068401337, 0.09276290237903595, -0.06097559630870819, 0.20752061903476715, 0.13808371126651764, 0.03724588453769684, -0.002529621124267578, 0.13069824874401093, 0.02416539192199707, -0.03673331439495087, 0.005259796977043152, 0.15896038711071014, -0.00561128556728363, 0.1632150560617447, -0.05588127672672272, -0.04843984544277191], [-0.07712075114250183, 0.0142383873462677, -0.20824724435806274, -0.05612295866012573, -0.19062742590904236, -0.18773895502090454, -0.031973883509635925, -0.13914698362350464, 0.1458437293767929, 0.08959783613681793, -0.08302389085292816, 0.009360477328300476, -0.0497637540102005, 0.1773614138364792, 0.08907397091388702, -0.11890345811843872, 0.14392803609371185, 0.14170004427433014, 0.0427292138338089, -0.18678149580955505, 0.0923326164484024], [0.20014913380146027, -0.19901567697525024, -0.05685202777385712, -0.013082310557365417, 0.03320114314556122, 0.1429930180311203, 0.04963846504688263, -0.21393205225467682, 0.10665012896060944, -0.0950852483510971, 0.015051394701004028, -0.1776617467403412, -0.1409105509519577, -0.09959517419338226, -0.07673634588718414, -0.14026683568954468, 0.004204943776130676, -0.11758256703615189, -0.19319255650043488, -0.04611217975616455, 0.01858876645565033], [0.03847746551036835, -0.07489006221294403, 0.12270714342594147, -0.16323459148406982, 0.07819543778896332, 0.08978484570980072, -0.03361961245536804, -0.08081254363059998, 0.11982615292072296, -0.20729504525661469, 0.17125795781612396, -0.17229069769382477, 0.032679930329322815, 0.12508945167064667, 0.12029783427715302, 0.20689253509044647, 0.07596565783023834, 0.09322799742221832, -0.11274957656860352, 0.11243166029453278, -0.06914947926998138], [0.017852723598480225, -0.03009609878063202, -0.020246833562850952, -0.12087284028530121, 0.1794421225786209, 0.1538354605436325, -0.02387203276157379, 0.1263817697763443, 0.13962678611278534, 0.08099935948848724, 0.19236473739147186, -0.19352242350578308, 0.1352621167898178, -0.18296067416667938, 0.17078252136707306, 0.21316219866275787, 0.09967415034770966, 0.18502624332904816, 0.16428975760936737, -0.159218892455101, 0.030731111764907837], [-0.2973254323005676, 0.01968565210700035, 0.07436013966798782, 0.007266740780323744, -0.0674847960472107, -0.12674441933631897, -0.014806991443037987, -0.16394539177417755, 0.1788678765296936, -0.11792754381895065, 0.21570135653018951, 0.1436745822429657, 0.09900043904781342, 0.02413630113005638, -0.09635278582572937, -0.024706674739718437, 0.21142248809337616, 0.07674556970596313, -0.1941024363040924, 0.13979960978031158, -0.30442923307418823], [0.14234311878681183, -0.16441845893859863, 0.0100412517786026, 0.14604265987873077, 0.20946787297725677, 0.19610397517681122, 0.04527144134044647, -0.04086120426654816, -0.1726897805929184, 0.16577114164829254, -0.11211047321557999, -0.019034981727600098, 0.2124316245317459, 0.058187857270240784, 0.01929737627506256, 0.2150731235742569, 0.03666619956493378, 0.21639959514141083, 0.13819138705730438, -0.12621137499809265, 0.0736953467130661], [0.11968232691287994, 0.1249750405550003, -0.029945015907287598, -0.0015170574188232422, -0.0832514762878418, 0.0013644397258758545, -0.023758769035339355, -0.09250321984291077, 0.012209191918373108, -0.09544041007757187, -0.211390882730484, 0.06290523707866669, -0.017996862530708313, 0.06928296387195587, -0.1112959086894989, -0.14892320334911346, -0.18796800076961517, 0.2061045616865158, -0.08785152435302734, -0.13606679439544678, 0.041658028960227966], [0.02263997495174408, 0.10304005444049835, 0.16893260180950165, -0.06711402535438538, 0.14974020421504974, -0.13077253103256226, -0.07495421171188354, -0.08566765487194061, 0.1316860467195511, -0.055680036544799805, -0.15631923079490662, -0.13341964781284332, 0.09694154560565948, 0.024948090314865112, -0.10157842934131622, 0.21655233204364777, -0.05176766216754913, 0.10827736556529999, 0.15265829861164093, 0.06410311162471771, -0.1664317399263382], [-0.026405751705169678, -0.12230606377124786, -0.13151724636554718, -0.1107105016708374, -0.17056964337825775, -0.09884132444858551, 0.20408733189105988, 0.05957530438899994, -0.18886186182498932, 0.07076258957386017, -0.14651495218276978, 0.09475459158420563, -0.0376027375459671, -0.07533884048461914, 0.11634750664234161, 0.1668744832277298, 0.10366056859493256, 0.19849960505962372, -0.2116517275571823, -0.13683903217315674, 0.11357693374156952], [0.07477555423974991, -0.20265142619609833, 0.07389135658740997, 0.033642254769802094, 0.21015693247318268, -0.1792624145746231, -0.13552288711071014, -0.14814287424087524, 0.016789371147751808, 0.14724420011043549, 0.12264727801084518, 0.1287272870540619, 0.19293616712093353, -0.09213107079267502, -0.03893059492111206, -0.14955970644950867, -0.17978741228580475, -0.18448252975940704, -0.0963326022028923, -0.10899871587753296, 0.10916513949632645], [0.10140369832515717, -0.012954145669937134, -0.16779929399490356, -0.0729253888130188, -0.02580861747264862, 0.10401229560375214, 0.0186072438955307, -0.05276834964752197, -0.16195552051067352, 0.1880180984735489, 0.16440372169017792, -0.05765528976917267, -0.19233329594135284, -0.07277554273605347, 0.11291022598743439, 0.056195393204689026, 0.054131701588630676, -0.06343923509120941, -0.09312176704406738, -0.20512045919895172, 0.07739995419979095], [-0.12832552194595337, -0.07628098130226135, 0.016442179679870605, 0.044391945004463196, 0.09710358083248138, -0.16806520521640778, 0.027551233768463135, -0.1413988173007965, 0.0793033093214035, -0.07136690616607666, 0.08953751623630524, 0.10055144131183624, 0.04797147214412689, -0.15052637457847595, 0.09533132612705231, 0.17286314070224762, -0.17639493942260742, -0.19540229439735413, 0.019183367490768433, -0.09730207920074463, -0.17798157036304474], [-0.21198680996894836, -0.015832696110010147, -0.13361860811710358, -0.16968630254268646, -0.14734888076782227, -0.06819687783718109, -0.028271058574318886, 0.031077848747372627, 0.14123526215553284, -0.061628587543964386, 0.17357583343982697, 0.07327916473150253, 0.03573710471391678, -0.09735553711652756, 0.14579564332962036, 0.10328469425439835, 0.07883554697036743, 0.08021144568920135, -0.24744246900081635, 0.0751444473862648, -0.13118256628513336], [-0.12020526826381683, 0.15236331522464752, 0.13800926506519318, -0.14834702014923096, 0.22421808540821075, -0.18392978608608246, -0.13595382869243622, -0.2030591070652008, 0.19546553492546082, 0.19779212772846222, -0.06818477809429169, 0.20524579286575317, -0.19439184665679932, 0.07913674414157867, -0.10741570591926575, -0.06307412683963776, 0.04055291414260864, 0.04300117492675781, 0.1617850661277771, 0.12688496708869934, -0.00776198785752058], [-0.04157191514968872, -0.07397745549678802, -0.18890993297100067, 0.194417342543602, -0.18996116518974304, 0.009048178791999817, -0.21077090501785278, 0.0008237659931182861, 0.08506317436695099, 0.16886009275913239, -0.1407724916934967, -0.048311471939086914, -0.16466638445854187, 0.17500804364681244, -0.11371567100286484, -0.04528811573982239, -0.12089791893959045, -0.011066243052482605, -0.1352764070034027, 0.09383858740329742, 0.010786041617393494], [0.17673622071743011, -0.07189659774303436, 0.2075139731168747, 0.20730023086071014, -0.11984343081712723, 0.10182063281536102, -0.2030039131641388, -0.11981609463691711, 0.006435871124267578, 0.19751571118831635, 0.1371803730726242, 0.15487630665302277, -0.10874145478010178, 0.11038263142108917, -0.09527949243783951, -0.14932581782341003, 0.08186854422092438, -0.10987741500139236, 0.07658715546131134, -0.1959816813468933, -0.07672615349292755], [-0.06394468247890472, -0.04260709881782532, -0.1350838541984558, -0.048469141125679016, -0.1904972344636917, -0.06743191182613373, 0.013246491551399231, -0.002722606062889099, 0.1186729222536087, 0.1758602112531662, 0.1324470490217209, -0.19191431999206543, -0.12311302870512009, -0.12624874711036682, -0.17643727362155914, 0.09013877809047699, -0.12145815044641495, -0.012231260538101196, -0.021405115723609924, -0.19158883392810822, -0.004254400730133057], [-0.03358805179595947, 0.08043120801448822, 0.11224578320980072, 0.07283924520015717, 0.15918748080730438, 0.00019957125186920166, 0.07315780222415924, -0.1260438859462738, -0.00852121040225029, -0.19585300981998444, 0.08814673125743866, -0.08998231589794159, -0.13796663284301758, 0.046405985951423645, -0.04872368276119232, -0.06531916558742523, 0.15817533433437347, -0.03234824538230896, -0.09951651096343994, 0.20634864270687103, 0.1259031742811203], [-0.11815902590751648, 0.18019209802150726, -0.15215101838111877, -0.0541464239358902, 0.17305485904216766, -0.15663881599903107, -0.10144627839326859, 0.07488046586513519, 0.17122803628444672, 0.20295067131519318, -0.07009577751159668, 0.13358230888843536, -0.1461966335773468, 0.08618758618831635, 0.019917577505111694, -0.08295273780822754, -0.16939197480678558, -0.04710090160369873, 0.02837321162223816, 0.062407270073890686, 0.20225359499454498], [-0.22322319447994232, 0.03130943700671196, -0.011931412853300571, 0.05219782516360283, 0.10623261332511902, 0.20444142818450928, 0.0292607843875885, 0.10717833042144775, -0.08518456667661667, -0.06984725594520569, -0.20572778582572937, -0.05155115947127342, 0.05603012442588806, 0.18236307799816132, 0.06085478141903877, 0.04411499947309494, 0.15404199063777924, 0.20991219580173492, 0.16545143723487854, -0.06332069635391235, -0.2104782611131668], [-0.12737292051315308, 0.18726734817028046, -0.03667007386684418, 0.04715035855770111, 0.16859565675258636, -0.1150604709982872, -0.0067597925662994385, -0.18182039260864258, -0.1123836413025856, 0.05264998972415924, 0.13793019950389862, 0.11946330964565277, 0.09162937104701996, -0.1108006089925766, 0.11433060467243195, -0.03645049035549164, 0.20481722056865692, -0.0019376426935195923, -0.016680359840393066, 0.21744264662265778, -0.07804998755455017], [0.14976246654987335, 0.005633264780044556, 0.10098688304424286, -0.022164002060890198, -0.05660991370677948, 0.03948654234409332, 0.1917925626039505, 0.04545705020427704, -0.036570146679878235, 0.1422385424375534, 0.2055722326040268, -0.06480015814304352, 0.02594582736492157, 0.02794209122657776, 0.18788878619670868, -0.029202759265899658, 0.02893446385860443, 0.03586740791797638, -0.1559493988752365, 0.11640499532222748, 0.11198516190052032], [-0.19391131401062012, 0.012187272310256958, -0.09687810391187668, 0.16127751767635345, 0.14107908308506012, -0.15374243259429932, -0.043015286326408386, -0.16973426938056946, 0.07633139193058014, -0.13737685978412628, -0.11374553292989731, -0.06290991604328156, -0.15656468272209167, -0.1478591412305832, 0.03807367384433746, -0.049452245235443115, 0.16542910039424896, -0.02451397478580475, 0.06177680194377899, -0.1721566617488861, -0.012302771210670471], [-0.09009981900453568, 0.035858284682035446, -0.10303754359483719, -0.07435688376426697, -0.04765234515070915, 0.13848455250263214, -0.016492225229740143, 0.1743190735578537, 0.10001815855503082, 0.08261145651340485, 0.06377795338630676, -0.09759384393692017, 0.0979040265083313, -0.01730799674987793, 0.12110397219657898, -0.17988130450248718, -0.17751331627368927, -0.19817152619361877, -0.10095342248678207, -0.2023237645626068, 0.1187981516122818], [-0.18551398813724518, -0.20889483392238617, -0.15998980402946472, -0.028748780488967896, -0.19675402343273163, 0.11468963325023651, -0.04661668837070465, -0.06034044921398163, 0.16449029743671417, -0.03942066431045532, -0.12684933841228485, 0.03956763446331024, 0.1256636530160904, 0.053912773728370667, -0.02377617359161377, -0.09848207980394363, 0.07971201837062836, 0.17352019250392914, -0.14835579693317413, -0.01427428424358368, 0.03709112107753754], [-0.009443044662475586, 0.02089102566242218, 0.015063300728797913, 0.03376568853855133, 0.07469473779201508, -0.09510088711977005, 0.12192781269550323, -0.1761651337146759, 0.16295163333415985, -0.11166275292634964, -0.04526387155056, 0.14979003369808197, 0.11371459066867828, -0.01960688829421997, -0.005573749542236328, 0.021738320589065552, -0.20162725448608398, 0.13646464049816132, -0.07595573365688324, 0.16976948082447052, 0.10682658851146698], [-0.1446077823638916, -0.17917361855506897, -0.165657177567482, -0.11082326620817184, -0.08362725377082825, 0.20507051050662994, 0.19552184641361237, 0.18107081949710846, -0.11534417420625687, 0.03041444718837738, -0.11379217356443405, 0.05243198573589325, 0.009374469518661499, 0.09198610484600067, 0.09952585399150848, -0.047144532203674316, -0.12635746598243713, -0.09016945958137512, 0.023711368441581726, -0.1323760747909546, -0.12150400876998901], [0.07765363156795502, -0.1733555793762207, 0.1551169455051422, 0.029454851523041725, -0.1780267208814621, -0.13267597556114197, 0.04865913838148117, 0.11867370456457138, -0.1701783984899521, 0.03646541014313698, 0.2132294625043869, 0.18705861270427704, -0.00845662783831358, -0.14726564288139343, 0.18919426202774048, -0.05462109297513962, -0.12188734859228134, -0.02537558041512966, -0.045327749103307724, -0.08166352659463882, -0.1551860272884369], [-0.08502662181854248, 0.12328077852725983, 0.21629421412944794, 0.036753639578819275, -0.012487590312957764, -0.2127232700586319, -0.041759684681892395, 0.04498179256916046, 0.06890518963336945, -0.15093612670898438, 0.10122664272785187, 0.16394786536693573, -0.13502611219882965, 0.014630571007728577, 0.06487779319286346, -0.053388386964797974, 0.05210365355014801, 0.2046981006860733, -0.1982489675283432, -0.01720467209815979, 0.18797577917575836], [0.23197297751903534, 0.0998833104968071, -0.09635283797979355, -0.0927775576710701, 0.27233314514160156, 0.19373133778572083, -0.0802222341299057, -0.17467772960662842, -0.14828525483608246, -0.1143980473279953, -0.19071121513843536, 0.1739964336156845, 0.0536072663962841, -0.17239226400852203, 0.06579601019620895, -0.09089359641075134, 0.0902809128165245, -0.07800184935331345, -0.11666568368673325, 0.012972792610526085, 0.17723073065280914], [0.13132227957248688, -0.017232686281204224, -0.011484593152999878, -0.14051905274391174, -0.024035945534706116, -0.10918600112199783, 0.13133661448955536, 0.1853475123643875, 0.14045967161655426, 0.10866178572177887, -0.047453492879867554, -0.2128627598285675, -0.1039142906665802, 0.17270372807979584, 0.16618363559246063, -0.2177392691373825, -0.16755032539367676, 0.18371860682964325, 0.033774688839912415, 0.039709195494651794, 0.12123782932758331], [-0.20462043583393097, 0.19430889189243317, -0.02808476984500885, -0.16733331978321075, -0.11579212546348572, -0.02253246307373047, 0.02365700900554657, 0.14933227002620697, -0.14640295505523682, -0.07254907488822937, 0.16523496806621552, -0.06187473237514496, 0.060116663575172424, 0.03718341886997223, -0.17676277458667755, 0.06425498425960541, 0.12497179210186005, 0.16905783116817474, -0.11511309444904327, 0.10552112758159637, -0.08574673533439636], [-0.18834829330444336, -0.03017866611480713, -0.12721598148345947, -0.03505907952785492, -0.035125330090522766, 0.17589502036571503, 0.08247114717960358, -0.1671977937221527, -0.16982971131801605, -0.2032291144132614, -0.09885743260383606, 0.07306812703609467, 0.06417490541934967, 0.1978415697813034, -0.1653471738100052, 0.16441698372364044, 0.08277352154254913, -0.139682337641716, -0.14871349930763245, 0.0005038827657699585, -0.07539394497871399], [-0.003850117325782776, -0.012388840317726135, -0.14424875378608704, -0.03203517198562622, 0.13711996376514435, -0.19357949495315552, -0.08816175162792206, -0.14741599559783936, 0.03933687508106232, -0.11027849465608597, 0.05791415274143219, -0.15357676148414612, -0.2098185122013092, -0.15456542372703552, 0.10632924735546112, 0.009506851434707642, -0.14400899410247803, 0.09467531740665436, 0.17869599163532257, -0.1855359971523285, -0.19046874344348907], [0.16660572588443756, -0.11136101931333542, -0.018760904669761658, 0.06773246824741364, 0.13664822280406952, 0.11519794166088104, -0.1791531890630722, 0.012250617146492004, -0.05642412602901459, 0.175434872508049, -0.16555409133434296, -0.00531652569770813, -0.02947254478931427, -0.06711336970329285, -0.1871628314256668, -0.14553743600845337, 0.04679356515407562, -0.08969655632972717, -0.10959399491548538, 0.18433313071727753, 0.04313935339450836], [0.1333685964345932, 0.1370566338300705, -0.163044273853302, -0.14079734683036804, 0.21488787233829498, 0.1165785938501358, -0.039327651262283325, -0.0602070689201355, 0.03998018801212311, -0.09014905989170074, -0.1786578893661499, 0.18093939125537872, -0.06414079666137695, -0.1301427185535431, -0.006647646427154541, -0.17146700620651245, 0.05457337200641632, 0.12465442717075348, -0.17484857141971588, -0.15877193212509155, -0.1079535260796547], [0.2008948177099228, -0.0036116689443588257, 0.14133469760417938, -0.13804252445697784, 0.11391516029834747, 0.2145998328924179, -0.002505883574485779, -0.0008349567651748657, -0.07011513411998749, -0.040445759892463684, 0.058046892285346985, 0.08147214353084564, 0.12323234975337982, 0.06569637358188629, 0.21791048347949982, -0.2144913226366043, 0.05300401151180267, 0.1948828250169754, -0.04928550124168396, 0.035552725195884705, -0.198674738407135], [-0.15515831112861633, -0.038435712456703186, 0.014692842960357666, 0.12956602871418, -0.028870806097984314, 0.04459597170352936, 0.0677967518568039, -0.15666261315345764, -0.1720588654279709, -0.1491086184978485, -0.1754741668701172, 0.006383374333381653, -0.14013218879699707, -0.03781856596469879, -0.17652936279773712, 0.18411605060100555, 0.07696463167667389, 0.012875556945800781, 0.0024515539407730103, -0.13244381546974182, 0.18122129142284393], [0.23137085139751434, 0.022884609177708626, -0.041931718587875366, -0.035496458411216736, -0.021278496831655502, 0.13294975459575653, -0.14262782037258148, -0.09563659131526947, 0.2231854498386383, 0.038580700755119324, -0.03774073347449303, 0.18896643817424774, 0.056196894496679306, -0.17362922430038452, -0.1479697972536087, -0.15057168900966644, -0.07066554576158524, -0.12419277429580688, 0.2228555828332901, -0.14550261199474335, 0.03729507699608803], [-0.1682276874780655, 0.0828581377863884, 0.185720294713974, -0.12789613008499146, -0.14886580407619476, -0.07268094271421432, -0.1707307994365692, 0.049012769013643265, -0.2133360356092453, 0.11356490850448608, -0.011413457803428173, 0.018306950107216835, 0.040731240063905716, 0.11094076931476593, 0.11658947169780731, -0.12357787787914276, 0.13295625150203705, 0.19352339208126068, 0.2067154496908188, 0.14677950739860535, 0.19511696696281433], [-0.038558945059776306, 0.05145837366580963, 0.19474591314792633, -0.014060169458389282, -0.04154661297798157, -0.042884230613708496, -0.15105819702148438, -0.09652785956859589, -0.030002832412719727, -0.11060977727174759, -0.10475452989339828, -0.19422383606433868, -0.21804414689540863, -0.05035354197025299, -0.07690057158470154, 0.1740260273218155, -0.20773708820343018, 0.02301199734210968, -0.012649819254875183, 0.06739817559719086, 0.11930288374423981], [0.1220017746090889, -0.15421469509601593, 0.10063020884990692, -0.08866168558597565, 0.14752846956253052, -0.15080900490283966, 0.09228537976741791, 0.2005244940519333, 0.20954540371894836, -0.0015805328730493784, -0.18390317261219025, 0.029955292120575905, -0.0944964662194252, 0.062110140919685364, -0.13744279742240906, -0.12790867686271667, -0.05298300087451935, 0.11376479268074036, 0.12645410001277924, 0.04459766298532486, 0.08714796602725983], [-0.09160108864307404, -0.09497323632240295, -0.2085600048303604, 0.010244905948638916, 0.05117844045162201, 0.19629018008708954, -0.10164868831634521, -0.19023244082927704, 0.06817783415317535, -0.10312626510858536, 0.17359305918216705, 0.0931602269411087, 0.18878485262393951, -0.10739672929048538, -0.11384332180023193, -0.19585341215133667, -0.19378438591957092, 0.2112746685743332, -0.07224439084529877, 0.06335912644863129, -0.04924039542675018], [0.14072217047214508, -0.01523900032043457, 0.10438384115695953, 0.21220816671848297, 0.05724926292896271, 0.14634688198566437, 0.008836686611175537, -0.03622588515281677, -0.1568247526884079, -0.041921257972717285, 0.0211755633354187, -0.09504760801792145, 0.09562106430530548, 0.1835581511259079, -0.14577287435531616, 0.022940844297409058, 0.11545465886592865, 0.08179004490375519, 0.14192022383213043, 0.2147401124238968, -0.03635905683040619], [-0.07153680920600891, 0.022791221737861633, 0.10868741571903229, 0.19314663112163544, -0.00011542439460754395, 0.17848838865756989, 0.11105991899967194, 0.08071272075176239, 0.09430654346942902, 0.05074675381183624, 0.03912441432476044, 0.05043400824069977, -0.05317322909832001, -0.1358562409877777, 0.10456050932407379, 0.06597642600536346, 0.14870907366275787, -0.09057633578777313, 0.01662692427635193, 0.051244303584098816, 0.08084757626056671], [-0.07570314407348633, 0.08715294301509857, 0.057667478919029236, 0.003883540630340576, -0.14232878386974335, -0.16092759370803833, -0.12409272789955139, 0.09744517505168915, 0.1463431864976883, -0.13937951624393463, -0.19258521497249603, -0.14872631430625916, 0.17783759534358978, 0.1412397176027298, 0.08880968391895294, -0.13366779685020447, -0.03553338348865509, -0.05719316005706787, -0.15752293169498444, -0.04109451174736023, -0.11615199595689774], [0.16099481284618378, -0.20144805312156677, 0.16351591050624847, 0.052432939410209656, -0.15162554383277893, -0.15587517619132996, 0.11085529625415802, -0.1010160893201828, -0.03114636242389679, 0.10207326710224152, 0.054634109139442444, 0.06618817150592804, -0.11293552070856094, -0.00264093279838562, -0.1925918459892273, -0.09014144539833069, -0.21070566773414612, -0.07569941878318787, -0.13347448408603668, -0.1791290044784546, 0.18680192530155182], [0.20153562724590302, 0.08423535525798798, -0.06131172180175781, -0.007214665412902832, 0.16716332733631134, 0.02926725149154663, 0.03497828543186188, 0.029882758855819702, 0.2058698683977127, 0.16134010255336761, -0.08517922461032867, -0.08407613635063171, -0.13209491968154907, -0.19888240098953247, 0.1293334811925888, -0.10485938936471939, 0.08480338752269745, 0.13363729417324066, -0.11046867817640305, -0.20870058238506317, 0.19348199665546417], [0.16613835096359253, 0.030396752059459686, -0.15897314250469208, 0.1367313116788864, -0.02853856049478054, 0.14744873344898224, 0.05186982452869415, 0.04288880527019501, -0.1467408984899521, 0.20974420011043549, -0.001944701187312603, 0.15841497480869293, -0.08414401113986969, 0.015170007944107056, -0.021234292536973953, 0.09051606804132462, 0.025367051362991333, -0.19203653931617737, -0.07517670094966888, 0.04751491919159889, 0.0638655573129654], [0.19916732609272003, 0.019307207316160202, 0.07181893289089203, 0.06305168569087982, -0.17493431270122528, -0.11799826472997665, 0.018533742055296898, 0.1844649761915207, 0.14018775522708893, -0.17435704171657562, -0.06908662617206573, -0.11585921794176102, -0.2144055962562561, 0.0742143839597702, 0.05088502913713455, 0.053251899778842926, 0.13023658096790314, 0.1984318643808365, 0.02113899402320385, 0.16784538328647614, -0.040137529373168945], [-0.17464536428451538, 0.10863590240478516, 0.09660176187753677, 0.012919224798679352, -0.022501099854707718, 0.0651860162615776, -0.026377860456705093, -0.05232826992869377, 0.009237285703420639, 0.09839829802513123, -0.10421216487884521, 0.17723317444324493, 0.06614182889461517, 0.0843537226319313, 0.14354780316352844, 0.2124745398759842, -0.009454522281885147, -0.048332735896110535, -0.19388332962989807, -0.0630713477730751, 0.029869001358747482], [0.09600833058357239, -0.10787899047136307, 0.1591186225414276, 0.07750406861305237, -0.11320170015096664, -0.039008717983961105, 0.1587388962507248, -0.08458622545003891, -0.027455875650048256, 0.18608035147190094, 0.12739461660385132, 0.09599442780017853, -0.19867604970932007, 0.06317364424467087, 0.021580060943961143, -0.061989955604076385, -0.19825379550457, -0.19709010422229767, -0.20150433480739594, -0.15838655829429626, -0.15207362174987793], [0.039622411131858826, 0.003951072692871094, 0.15730388462543488, 0.18819008767604828, 0.020502805709838867, -0.13242921233177185, -0.1760542392730713, -0.20438194274902344, -0.19741150736808777, 0.09999559819698334, -0.19722065329551697, 0.20793433487415314, -0.17881551384925842, 0.06897754967212677, -0.0733208954334259, 0.11979846656322479, -0.09445291012525558, 0.007446467876434326, -0.16430824995040894, -0.04378148913383484, 0.1650499552488327], [0.022923529148101807, 0.032329902052879333, -0.0037891119718551636, -0.051214247941970825, -0.1679360568523407, 0.18265606462955475, -0.05834278464317322, -0.079120934009552, 0.1489032357931137, -0.17266009747982025, 0.005487680435180664, 0.11282502114772797, 0.21641646325588226, -0.008064508438110352, 0.12136529386043549, -0.1468191146850586, 0.09195037186145782, 0.08393390476703644, -0.09195646643638611, 0.11800412833690643, -0.08087092638015747], [-0.17226271331310272, 0.15743081271648407, 0.18805362284183502, -0.16224023699760437, 0.1643802374601364, -0.21465925872325897, -0.14295735955238342, -0.13225170969963074, 0.012582361698150635, -0.051649197936058044, -0.10309413820505142, 0.030619964003562927, -0.016533643007278442, -0.0050466954708099365, -0.12224334478378296, -0.10194191336631775, 0.04129423201084137, 0.03959403932094574, -0.17016887664794922, 0.021124839782714844, -0.09553840756416321], [-0.17922210693359375, -0.19560874998569489, -0.14272913336753845, -0.1364380121231079, 0.03532738983631134, -0.2087344080209732, 0.12592585384845734, 0.20217235386371613, -0.0989261046051979, -0.0734613686800003, 0.16401194036006927, 0.04704602062702179, -0.020511746406555176, -0.19106300175189972, 0.05006714165210724, 0.15786342322826385, 0.174235537648201, 0.18431486189365387, 0.18120457231998444, 0.006666168570518494, -0.04257094860076904], [-0.17493681609630585, 0.139150470495224, 0.10636191815137863, -0.15558338165283203, 0.14670975506305695, -0.08093051612377167, -0.012899204157292843, -0.11565792560577393, 0.2085290253162384, 0.07232524454593658, 0.209538534283638, -0.07680559158325195, -0.15778131783008575, 0.034827783703804016, -0.07027080655097961, 0.028307851403951645, 0.1539723426103592, -0.022641843184828758, 0.011775832623243332, -0.19159656763076782, 0.04107384383678436], [0.02283860743045807, -0.19171872735023499, -0.19011464715003967, 0.021495193243026733, 0.01673389971256256, -0.015715837478637695, 0.05890543758869171, -0.16082395613193512, -0.1309257447719574, 0.19305665791034698, -0.20481571555137634, 0.016262561082839966, 0.00702919065952301, -0.161965012550354, -0.13239285349845886, -0.20302598178386688, 0.053733453154563904, 0.18185286223888397, -0.192230224609375, 0.20615552365779877, -0.1608525961637497], [-0.039364662021398544, -0.104950450360775, -0.0051527260802686214, 0.02666742354631424, 0.17613022029399872, 0.03373801335692406, 0.19462114572525024, -0.10528025031089783, 0.17082957923412323, 0.21309174597263336, -0.08992708474397659, -0.016430102288722992, -0.1112365573644638, -0.12770500779151917, 0.03300494700670242, -0.06088082492351532, 0.1266331970691681, -0.06574191898107529, -0.16443319618701935, 0.2180766463279724, -0.11951100826263428], [0.08090119063854218, -0.18855862319469452, 0.025196492671966553, 0.13937245309352875, 0.11383326351642609, 0.08128751814365387, -0.032944098114967346, 0.06905244290828705, 0.1033383458852768, -0.08290281891822815, 0.17972983419895172, -0.21595846116542816, 0.043168261647224426, -0.16690289974212646, -0.012197285890579224, 0.17249061167240143, 0.1471390575170517, -0.10328903049230576, -0.13170850276947021, -0.15410779416561127, -0.02957788109779358], [-0.0028985440731048584, 0.003458768129348755, 0.1494484394788742, 0.16114000976085663, 0.04774393141269684, -0.01648522913455963, 0.15619181096553802, 0.13860566914081573, -0.035893514752388, -0.11476828157901764, 0.20543460547924042, -0.20520511269569397, -0.05113714933395386, 0.004329651594161987, 0.11979551613330841, 0.0036706775426864624, -0.16142146289348602, -0.02032090723514557, -0.0899154394865036, -0.11468597501516342, 0.03842662274837494], [-0.0572713203728199, 0.17757713794708252, 0.10495104640722275, -0.0011537224054336548, 0.09094671159982681, 0.047187287360429764, 0.02057582139968872, -0.06100337952375412, 0.13320232927799225, -0.042692821472883224, 0.0533670149743557, -0.15244626998901367, -0.19663052260875702, 0.04877301678061485, -0.08236629515886307, -0.10166060924530029, -0.13083310425281525, -0.14032307267189026, 0.10690043121576309, -0.17955084145069122, -0.0164411049336195], [0.07121036946773529, 0.11772404611110687, -0.10886712372303009, -0.19703057408332825, 0.04663057625293732, 0.17829398810863495, -0.11945898085832596, -0.1988755315542221, -0.08011442422866821, 0.14088700711727142, 0.0922868400812149, -0.21166467666625977, 0.03398917615413666, 0.1078566461801529, -0.002032548189163208, -0.1588168442249298, 0.18878187239170074, -0.1267530918121338, 0.06507168710231781, 0.16638429462909698, -0.16755443811416626], [-0.1732594519853592, -0.11230479925870895, -0.011009949259459972, 0.04139460623264313, -0.08367414772510529, 0.07102753221988678, -0.13646677136421204, -0.05193771421909332, -0.03328026831150055, 0.18389548361301422, 0.13879336416721344, -0.15053141117095947, 0.0845777839422226, 0.0820634514093399, 0.0724700540304184, 0.187882199883461, -0.028684213757514954, -0.0306747704744339, 0.1528441458940506, 0.21721123158931732, -0.17220473289489746], [-0.18611377477645874, -0.1717434823513031, 0.10958157479763031, 0.03756846487522125, 0.09860850870609283, -0.08237364888191223, -0.1328859031200409, -0.03727938234806061, -0.138932466506958, -0.001291528344154358, -0.20712129771709442, -0.2090834230184555, -0.12447375059127808, 0.18296898901462555, -0.03291243314743042, 0.011451035737991333, 0.12103761732578278, -0.08763211965560913, 0.142338827252388, -0.20399035513401031, 0.17775146663188934], [0.20294660329818726, -0.03224209323525429, 0.17537043988704681, 0.1151847392320633, -0.14625513553619385, 0.1025465875864029, 0.11120070517063141, 0.011074944399297237, -0.005271909758448601, -0.09560710936784744, -0.08122900128364563, -0.10314038395881653, 0.06409754604101181, -0.11107726395130157, -0.06266838312149048, -0.17782770097255707, -0.2163228839635849, -0.005930615123361349, -0.16470526158809662, -0.2036081850528717, 0.026304660364985466], [0.06612755358219147, 0.14725886285305023, 0.12067832052707672, -0.1929764300584793, 0.09627093374729156, -0.09515085816383362, 0.11665664613246918, -0.010243088006973267, 0.09555511176586151, -0.0640038549900055, 0.020238295197486877, -0.1729842722415924, -0.09714997559785843, -0.06555131077766418, 0.21027524769306183, -0.04066029191017151, 0.07813875377178192, 0.018333658576011658, -0.21387523412704468, 0.005095615983009338, -0.014475375413894653], [0.2153191715478897, 0.16319359838962555, -0.04052458703517914, 0.10564537346363068, 0.19787241518497467, 0.07125823199748993, -0.1936124861240387, 0.14431987702846527, 0.07826043665409088, 0.1838555783033371, -0.018747195601463318, -0.0035597234964370728, 0.0773082822561264, 0.022564634680747986, 0.1880521923303604, -0.1035209372639656, -0.19540734589099884, -0.012998625636100769, -0.12577274441719055, 0.1438589245080948, 0.16707904636859894], [0.07188816368579865, 0.07575373351573944, -0.05776280164718628, 0.14283303916454315, 0.08717794716358185, -0.14262902736663818, 0.16225577890872955, 0.10162182152271271, 0.0742320865392685, 0.06195776164531708, 0.21374346315860748, 0.03700120747089386, 0.07219038903713226, 0.12449423968791962, -0.16520413756370544, 0.12281312048435211, 0.20643548667430878, -0.07044599950313568, 0.0534776896238327, 0.049139246344566345, 0.009033098816871643], [-0.16125597059726715, 0.09100998938083649, 0.0797232836484909, 0.18846313655376434, -0.16170063614845276, 0.007517620921134949, 0.21504546701908112, -0.11961068958044052, -0.06872741878032684, 0.03414137661457062, 0.05108194053173065, -0.0379776656627655, -0.11218734830617905, 0.005686774849891663, -0.21320056915283203, 0.13609229028224945, -0.0389581173658371, 0.1768617480993271, 0.05979786813259125, -0.20017679035663605, -0.13313758373260498], [0.035545989871025085, -0.03604504466056824, 0.13999371230602264, -0.06678086519241333, -0.19904690980911255, 0.009936600923538208, 0.017346620559692383, -0.19294880330562592, 0.20063011348247528, -0.12454965710639954, 0.02592618763446808, -0.017295584082603455, 0.16771520674228668, -0.16220706701278687, 0.1973104327917099, -0.006908580660820007, -0.0563732385635376, 0.11001317203044891, -0.13123130798339844, 0.19480235874652863, -0.051362261176109314], [-0.032330356538295746, 0.12544064223766327, 0.011048553511500359, 0.1271645873785019, -0.14114052057266235, -0.17431260645389557, -0.17124545574188232, -0.12422144412994385, 0.1394144743680954, -0.2032165825366974, -0.1819685399532318, -0.012982512824237347, 0.1825001984834671, 0.030775994062423706, -0.013927210122346878, -0.09536854922771454, 0.19293643534183502, 0.06380001455545425, 0.17174255847930908, 0.017494451254606247, 0.1418023258447647], [0.04452274739742279, 0.1998348981142044, -0.007798433303833008, -0.18271757662296295, -0.21601839363574982, -0.026809513568878174, -0.20316754281520844, 0.14397872984409332, 0.037577107548713684, 0.05482785403728485, -0.10668385773897171, -0.08506223559379578, -0.02126137912273407, 0.09732641279697418, -0.12947168946266174, 0.17541258037090302, -0.016690462827682495, 0.16155646741390228, 0.18885718286037445, -0.16633449494838715, 0.05507396161556244], [0.19131995737552643, 0.19994370639324188, 0.12375669181346893, 0.1763836294412613, 0.11827026307582855, 0.014400377869606018, 0.11487461626529694, 0.05358709394931793, -0.027435898780822754, 0.05340312421321869, -0.19353796541690826, -0.0790078341960907, -0.007153838872909546, -0.1831839680671692, 0.16194628179073334, 0.06754098832607269, 0.09812717139720917, -0.07229268550872803, 0.02194082736968994, 0.12743236124515533, -0.13035069406032562], [-0.03198821842670441, 0.033275291323661804, 0.16685046255588531, -0.048858433961868286, 0.07558907568454742, 0.11882610619068146, -0.058840081095695496, -0.0459681898355484, -0.0882328450679779, -0.09468641132116318, 0.1273159235715866, 0.029661506414413452, 0.16859547793865204, -0.08549143373966217, -0.18825902044773102, 0.04940496385097504, 0.1317601054906845, -0.10184657573699951, 0.021032199263572693, 0.18880541622638702, -0.024952709674835205], [0.09701709449291229, -0.11306707561016083, -0.0027143657207489014, -0.1797296553850174, 0.1540265828371048, 0.12601985037326813, -0.0052109211683273315, 0.054774656891822815, -0.07945060729980469, -0.010182946920394897, 0.06789226830005646, -0.11494075506925583, 0.1508340984582901, 0.19639049470424652, -0.12290770560503006, 0.1516505926847458, 0.10078351199626923, -0.028070732951164246, -0.0660250335931778, 0.10653989017009735, 0.06891413033008575], [0.1020740270614624, -0.11288198828697205, -0.021998737007379532, 0.22645698487758636, 0.020305922254920006, 0.025292642414569855, 0.1448933631181717, 0.2116510570049286, -0.15539084374904633, -0.2146667093038559, -0.13405367732048035, 0.2052493840456009, -0.11355667561292648, -0.09092841297388077, -0.12980607151985168, 0.19117508828639984, 0.017567818984389305, -0.17757177352905273, 0.0077476343140006065, 0.1433841437101364, 0.0439474880695343], [-0.08784027397632599, 0.16356299817562103, -0.024289235472679138, 0.0002419501543045044, 0.16493915021419525, 0.009554505348205566, 0.21296964585781097, 0.04404892027378082, 0.0011327117681503296, -0.13495415449142456, -0.03808325529098511, 0.12114794552326202, 0.19994725286960602, -0.09502903372049332, -0.20520050823688507, 0.07532031834125519, -0.13202905654907227, -0.04001083970069885, 0.004654303193092346, -0.18586546182632446, 0.16265134513378143], [0.05069871246814728, 0.022884398698806763, 0.16798974573612213, 0.013277292251586914, 0.18900109827518463, -0.09371175616979599, 0.19416634738445282, -0.1078348234295845, 0.13370437920093536, 0.1777907758951187, -0.14979083836078644, -0.08946600556373596, -0.18576037883758545, 0.05795283615589142, -0.04825158417224884, 0.14826805889606476, 0.06902371346950531, 0.20341648161411285, -0.1742180436849594, 0.2083052545785904, 0.16839931905269623], [0.22380198538303375, 0.0631927102804184, -0.02495865896344185, -0.07538807392120361, -0.018074611201882362, -0.08178417384624481, 0.008659773506224155, 0.021017560735344887, 0.23725460469722748, 0.11132734268903732, -0.16871756315231323, 0.16640013456344604, -0.015275429002940655, 0.02618301473557949, 0.10864453762769699, -0.35601744055747986, 0.14018893241882324, -0.23329247534275055, 0.07687928527593613, -0.023882383480668068, 0.05748753994703293], [0.08140484988689423, -0.15836596488952637, 0.06390522420406342, -0.0266476571559906, -0.06487420201301575, 0.002693474292755127, -0.20835575461387634, -0.16339366137981415, -0.16884706914424896, -0.0016555041074752808, -0.09285707771778107, 0.18832452595233917, 0.11567835509777069, -0.006429985165596008, 0.06310813128948212, -0.10006958246231079, -0.14902856945991516, 0.16674713790416718, 0.08569420874118805, -0.020024001598358154, 0.1997368186712265], [-0.17941507697105408, 0.08161287009716034, 0.12008868157863617, 0.06338553130626678, 0.043713852763175964, -0.0582207590341568, -0.14785581827163696, 0.18542708456516266, 0.009141802787780762, -0.1956261545419693, -0.19156235456466675, -0.0478532612323761, -0.21401430666446686, -0.1594175100326538, 0.1081211119890213, 0.08249868452548981, -0.20024652779102325, -0.07835200428962708, 0.16229529678821564, 0.08233220875263214, -0.05543838441371918], [0.02556583285331726, 0.02449779212474823, 0.15823926031589508, 0.1299135535955429, -0.029466569423675537, -0.2172158807516098, 0.10891886055469513, -0.06686866283416748, 0.04411835968494415, -0.17919741570949554, 0.05233477056026459, -0.20489388704299927, -0.03681856393814087, 0.11188657581806183, 0.13746066391468048, 0.13923795521259308, -0.1293109804391861, -0.012346595525741577, -0.03223496675491333, -0.10120104998350143, 0.14703641831874847]], "fc1.bias": [0.12212042510509491, 0.047928228974342346, 0.029045015573501587, 0.17724640667438507, 0.10669146478176117, -0.0012779384851455688, 0.09712924063205719, -0.20532378554344177, 0.17683328688144684, 0.11682247370481491, 0.02315351366996765, -0.035447850823402405, 0.1871330589056015, -0.11072371900081635, -0.06793691217899323, -0.03290088474750519, -0.055932238698005676, -0.09667304158210754, -0.20485520362854004, -0.15520182251930237, 0.14801587164402008, -0.1288604885339737, -0.04224559664726257, 0.10542775690555573, -0.05971650779247284, -0.0273858904838562, 0.1595643162727356, -0.12024526298046112, 0.16109775006771088, -0.11543062329292297, 0.10624559968709946, 0.045895054936409, -0.05357661843299866, -0.21641439199447632, -0.1312154084444046, 0.1269272118806839, 0.07091252505779266, -0.10872454196214676, 0.06648649275302887, -0.14784584939479828, 0.0545354038476944, 0.09828214347362518, -0.18408553302288055, -0.11816040426492691, 0.12240710854530334, -0.02428676187992096, 0.12153387069702148, 0.06600521504878998, 0.09056104719638824, -0.18121108412742615, 0.15393681824207306, -0.04738931357860565, -0.01792389154434204, 0.17342029511928558, -0.15256214141845703, 0.19159208238124847, 0.14668287336826324, -0.17876748740673065, -0.07607120275497437, 0.05146171152591705, 0.10071708261966705, -0.1374109387397766, 0.19496162235736847, 0.10095255076885223, 0.21006737649440765, -0.17201776802539825, 0.12163786590099335, 0.08188612014055252, -0.16583368182182312, 0.0006210207939147949, -0.006867453455924988, 0.09530811011791229, 0.1641497164964676, -0.15971273183822632, -0.03407065570354462, -0.10031898319721222, 0.011884182691574097, -0.03210359811782837, 0.05152250826358795, -0.11087256669998169, -0.09045831859111786, -0.13999223709106445, 0.03845910727977753, 0.034098222851753235, 0.05976094305515289, 0.1596517711877823, -0.0712912380695343, -0.11587292701005936, -0.1807217299938202, 0.19865839183330536, -0.1758100986480713, 0.19266419112682343, -0.10954011976718903, 0.05665980651974678, 0.07163907587528229, 0.12098585069179535, -0.1633916199207306, -0.17456892132759094, 0.09715248644351959, 0.18497689068317413], "fc2.weight": [[-0.027175283059477806, 0.08415306359529495, 0.012967124581336975, -0.1334713101387024, -0.013362407684326172, 0.025544174015522003, -0.1162305697798729, -0.0928787812590599, -0.10608115792274475, 0.08612635731697083, 0.011843167245388031, -0.11651518195867538, -0.054132379591464996, 0.005909660365432501, -0.040998149663209915, -0.08296400308609009, -0.04119278863072395, -0.04298608377575874, -0.08231706917285919, -0.09686436504125595, -0.01921062543988228, -1.1543864011764526, 0.013738294132053852, 0.042153067886829376, 0.022839300334453583, 0.010024145245552063, -0.10924942791461945, -0.06839790940284729, -0.11062619090080261, -1.7040636539459229, 0.5495306253433228, 0.023632407188415527, 0.04176255315542221, 0.06528130918741226, -0.10158306360244751, -0.044760193675756454, 0.0318598672747612, 0.047619983553886414, -0.013618098571896553, -0.07823183387517929, 0.09855849295854568, -0.07765369117259979, -0.14747004210948944, 0.09337563067674637, -0.045326121151447296, 0.016056085005402565, 1.2925713062286377, -0.098636195063591, 0.06964584439992905, 0.028565920889377594, 0.06257688254117966, 0.0007804632186889648, 0.044534243643283844, -0.05883103609085083, 0.056868381798267365, 1.0355068445205688, 0.014680312015116215, -0.0986752137541771, -0.11037902534008026, -0.048870693892240524, -0.04489487409591675, 0.0362388975918293, -0.02390410751104355, -0.052162062376737595, -0.10080307722091675, 0.022589731961488724, 0.0369066521525383, -0.010977420955896378, 0.06894935667514801, 0.08089248090982437, -0.04936537146568298, 0.06664039939641953, -0.04280579835176468, -0.004987745545804501, -0.09036453813314438, -0.0906422883272171, -0.06747151166200638, -0.0016141290543600917, -0.20358452200889587, 0.02196808159351349, 0.01567414402961731, 0.08056574314832687, 0.04652072489261627, -0.045814480632543564, 0.024718349799513817, -0.11991109699010849, -0.01961444318294525, 0.04926050826907158, 0.013600215315818787, 0.06611865013837814, -0.12057722359895706, -0.036317069083452225, 0.04110681265592575, -0.23290912806987762, 0.039210714399814606, -0.03240206092596054, 1.1700332164764404, 0.001650974154472351, 0.009668909013271332, -0.07495829463005066]], "fc2.bias": [0.043091583997011185]}