{"fc1.weight": [[0.06335978209972382, -0.0909595638513565, 0.029392123222351074, 0.15226377546787262, 0.20695050060749054, -0.1431025266647339, -0.009184390306472778, 0.08008266985416412, 0.03173430263996124, -0.08572636544704437, -0.16218367218971252, 0.03300793468952179, 0.09687991440296173, -0.0500265508890152, 0.027859076857566833, -0.020138978958129883, -0.20182175934314728, -0.03407873213291168, -0.1446501910686493, 0.08608989417552948, -0.12194031476974487], [-0.19611632823944092, 0.17052491009235382, -0.0025482922792434692, 0.004872217774391174, 0.08574910461902618, 0.05614204704761505, -0.19064876437187195, 0.2122110277414322, 0.048340097069740295, -0.18717490136623383, -0.054997533559799194, -0.21196198463439941, 0.0798017829656601, 0.008634254336357117, -0.06969664990901947, -0.19932731986045837, 0.08254037797451019, -0.09178844094276428, 0.02043849229812622, 0.12697307765483856, -0.1502058506011963], [-0.012682482600212097, 0.16196216642856598, 0.04254870116710663, 0.19053395092487335, 0.09006465971469879, 0.09246404469013214, 0.2160935252904892, 0.0628093034029007, 0.04463396966457367, 0.040501102805137634, -0.0350131094455719, 0.12535367906093597, 0.18424831330776215, -0.07089389860630035, 0.10363806784152985, -0.18848104774951935, 0.06698508560657501, 0.00047448277473449707, 0.17479802668094635, -0.11739695817232132, -0.16568158566951752], [-0.14049594104290009, 0.03542359173297882, -0.17522172629833221, -0.04290425777435303, 0.12149558961391449, 0.012075722217559814, -0.03093259036540985, 0.062447741627693176, 0.11840362846851349, 0.1873081475496292, -0.06371277570724487, 0.1476580947637558, -0.21259580552577972, -0.0798722356557846, -0.11449019610881805, 0.0197736918926239, 0.1743016391992569, -0.14676514267921448, 0.05420868098735809, -0.0804830938577652, 0.18459700047969818], [0.12878666818141937, -0.12788860499858856, 0.13927586376667023, -0.17771127820014954, 0.1849791258573532, 0.04911862313747406, 0.17235665023326874, 0.10213090479373932, -0.2042561024427414, -0.012338459491729736, 0.032285258173942566, -0.12883643805980682, -0.12933769822120667, -0.07917237281799316, 0.1711588352918625, 0.13442642986774445, -0.18018163740634918, 0.038502588868141174, 0.2054881900548935, 0.08280639350414276, 0.18435512483119965], [0.13542504608631134, 0.002179577946662903, -0.16606777906417847, -0.09549348056316376, 0.07390780746936798, 0.19426052272319794, 0.19265927374362946, 0.10479910671710968, 0.03589729964733124, 0.13100706040859222, 0.056167855858802795, 0.03196804225444794, -0.11838977038860321, 0.09742753207683563, -0.15891844034194946, -0.19685295224189758, 0.049331530928611755, -0.14530788362026215, -0.0014563649892807007, -0.19508540630340576, -0.07638274133205414], [0.02909444272518158, 0.16990189254283905, 0.12875182926654816, 0.06488411128520966, 0.0988149493932724, 0.17060141265392303, -0.2109411656856537, -0.19567939639091492, -0.003449559211730957, -0.15603917837142944, 0.1882474571466446, 0.06687609851360321, 0.028751850128173828, -0.06310512125492096, -0.06619283556938171, 0.09282545745372772, 0.19036690890789032, -0.07162772119045258, -0.16345354914665222, -0.06258882582187653, 0.10693784058094025], [-0.06862402707338333, 0.06412020325660706, -0.2001482993364334, -0.11595389246940613, -0.00923824030905962, 0.13322392106056213, -0.12101671099662781, -0.07212517410516739, 0.0940937027335167, -0.0036350975278764963, -0.16394664347171783, 0.21568763256072998, 0.19186174869537354, -0.09967023879289627, 0.14153113961219788, -0.02506759949028492, -0.14377085864543915, 0.20576943457126617, 0.173028826713562, 0.03507750853896141, 0.09108789265155792], [-0.13140639662742615, 0.1586335152387619, 0.060968831181526184, 0.11101950705051422, 0.2138398438692093, 0.07414044439792633, -0.0010484009981155396, 0.03190033137798309, 0.14148791134357452, 0.09683437645435333, -0.07187752425670624, -0.0011037886142730713, 0.14554737508296967, -0.10404373705387115, 0.07588718831539154, 0.10985644161701202, -0.20550192892551422, 0.1670791357755661, 0.1610652059316635, 0.14174412190914154, 0.07293759286403656], [-0.07337872684001923, -0.06699170172214508, 0.10456742346286774, -0.2083875834941864, -0.07914914190769196, 0.12763382494449615, 0.03044717013835907, 0.12097497284412384, -0.1692296266555786, 0.09375877678394318, -0.07144002616405487, 0.14147545397281647, 0.20933936536312103, 0.2160211056470871, -0.08255147933959961, -0.11828243732452393, 0.09960432350635529, 0.18953289091587067, -0.02405807375907898, 0.07479827105998993, 0.03296785056591034], [0.17874835431575775, -0.1725800782442093, -0.07691986858844757, -0.11127140372991562, 0.09303294122219086, 0.18678949773311615, -0.026812031865119934, 0.058627232909202576, -0.17341971397399902, 0.08912761509418488, -0.1719849854707718, 0.13753370940685272, -0.07436685264110565, -0.19169431924819946, 0.04824991524219513, -0.15717534720897675, 0.09603725373744965, 0.0054931640625, -0.13941094279289246, -0.07138961553573608, -0.15353190898895264], [-0.10961771756410599, 0.20419175922870636, -0.07407353818416595, -0.12620843946933746, -0.008030861616134644, 0.043233826756477356, -0.050248488783836365, 0.15530453622341156, 0.19018681347370148, 0.006535351276397705, 0.10713653266429901, 0.08503706753253937, -0.18197530508041382, 0.21771113574504852, -0.1814976930618286, -0.07425564527511597, -0.16627800464630127, -0.10355187207460403, -0.1587548553943634, -0.055698081851005554, -0.0029111355543136597], [0.12535054981708527, -0.20531608164310455, -0.011095559224486351, -0.05121783912181854, 0.21203874051570892, 0.12526504695415497, 0.13026799261569977, 0.0450984388589859, -0.03210998326539993, 0.10379146039485931, 0.1625446230173111, -0.1443186104297638, -0.051629237830638885, -0.19523774087429047, -0.04097128286957741, -0.1482141762971878, -0.05677512288093567, -0.02795557677745819, 0.20005075633525848, -0.1180872842669487, -0.2106880247592926], [-0.025705337524414062, -0.1589284986257553, 0.0028780996799468994, -0.1730630099773407, 0.1741384118795395, -0.08601391315460205, 0.10911087691783905, -0.004925340414047241, 0.12192557752132416, -0.14964455366134644, 0.2103835493326187, -0.20795224606990814, 0.07099618017673492, 0.011764183640480042, -0.04812948405742645, -0.037817955017089844, 0.17920662462711334, 0.010895386338233948, 0.1093331128358841, -0.0696699321269989, 0.04741595685482025], [0.08977551758289337, -0.045786455273628235, -0.09160184860229492, 0.015729233622550964, -0.06109277904033661, 0.02377694845199585, 0.19724933803081512, 0.04291228950023651, -0.0450839102268219, -0.10004395991563797, -0.05524703860282898, -0.10313734412193298, 0.21279479563236237, -0.12725311517715454, 0.17533685266971588, -0.12166448682546616, 0.11972631514072418, -0.05305543541908264, 0.13103432953357697, 0.15270058810710907, -0.2175358682870865], [0.0894179567694664, -0.03248930349946022, -0.056690700352191925, 0.07813441008329391, -0.1666785329580307, 0.16151116788387299, -0.11186058074235916, -0.1553570032119751, 0.1414717733860016, 0.07506280392408371, -0.0895928367972374, -0.05885026231408119, 0.00153221539221704, -0.15966768562793732, -0.047296974807977676, 0.2043643593788147, 0.06800518929958344, 0.017919616773724556, 0.07400691509246826, -0.15510933101177216, -0.12294439226388931], [-0.13326987624168396, -0.14798381924629211, -0.05443129688501358, 0.01054076012223959, 0.028832383453845978, 0.06905315816402435, 0.08494780957698822, 0.16949111223220825, 0.20293724536895752, -0.055670976638793945, 0.14444094896316528, -0.17860569059848785, -0.16487090289592743, 0.14593033492565155, 0.14855138957500458, -0.025137431919574738, -0.1641293466091156, -0.13986225426197052, 0.004934927448630333, -0.12640492618083954, 0.08060931414365768], [0.017284870147705078, -0.03831106424331665, -0.022863686084747314, 0.18657226860523224, 0.16881512105464935, -0.1031879112124443, -0.04297821223735809, -0.0386987179517746, -0.09817134588956833, 0.19676543772220612, 0.11916916072368622, 0.1237332671880722, 0.20241771638393402, -0.08594459295272827, 0.12686367332935333, -0.03969888389110565, -0.037402018904685974, 0.12052728235721588, 0.12317775189876556, -0.036675065755844116, -0.1357617825269699], [0.03412775322794914, 0.07306002825498581, -0.22915898263454437, 0.11774491518735886, 0.16112162172794342, 0.04811282828450203, -0.19095027446746826, -0.07973366230726242, -0.13292309641838074, -0.19245709478855133, 0.141708642244339, 0.1996939480304718, 0.18680636584758759, -0.12646803259849548, -0.09231683611869812, 0.18361882865428925, -0.19447174668312073, 0.009395141154527664, -0.03971865773200989, -0.1709708422422409, 0.09402696788311005], [-0.02025999128818512, 0.13528405129909515, 0.004036891274154186, -0.14992180466651917, 0.026250716298818588, 0.11916888505220413, -0.12919414043426514, 0.02709658443927765, -0.15312547981739044, 0.20686526596546173, -0.08569154888391495, 0.11787749081850052, 0.00741565553471446, -0.023659929633140564, 0.11083438247442245, 0.20791156589984894, -0.18167972564697266, -0.16693754494190216, 0.08956015110015869, -0.10872232913970947, -0.03309964761137962], [-0.13736070692539215, -0.14662688970565796, 0.11059795320034027, -0.15577012300491333, 0.02653709053993225, 0.031375110149383545, 0.010365411639213562, 0.07656185328960419, -0.07856731116771698, -0.07025420665740967, 0.08054246008396149, -0.20574648678302765, -0.03650131821632385, 0.017540842294692993, -0.11004840582609177, -0.12867215275764465, 0.11231739819049835, 0.020558342337608337, 0.0564492791891098, -0.10601314902305603, -0.08328844606876373], [-0.004257962107658386, -0.010379374027252197, 0.10905306041240692, -0.053048595786094666, 0.03476257622241974, 0.008760005235671997, -0.09450015425682068, -0.1986798793077469, 0.049354925751686096, -0.14689850807189941, 0.08923856914043427, -0.15663038194179535, 0.0187147855758667, -0.2095254510641098, 0.12221099436283112, 0.005337759852409363, -0.20487600564956665, 0.20257724821567535, -0.05928441882133484, 0.11503656208515167, -0.06867994368076324], [-0.03868960216641426, -0.0769665315747261, -0.18941400945186615, 0.1105816438794136, -0.20664654672145844, 0.15097105503082275, -0.2254822999238968, 0.18382549285888672, 0.17947326600551605, 0.20945130288600922, -0.10675778239965439, -0.20593687891960144, 0.10504736006259918, -0.15625923871994019, -0.0423663929104805, 0.19283689558506012, 0.0741419717669487, 0.1263197809457779, 0.005599281284958124, 0.11344651132822037, -0.046769626438617706], [0.21072056889533997, -0.049369677901268005, 0.1372852325439453, -0.19975559413433075, 0.03029787540435791, 0.1314970701932907, -0.1800733357667923, 0.06496041268110275, -0.13829652965068817, -0.008836271241307259, -0.13267940282821655, 0.0809069573879242, -0.11620359122753143, 0.08873794972896576, 0.13566766679286957, -0.052636947482824326, -0.21508637070655823, -0.1838494837284088, -0.006315147038549185, 0.16924098134040833, 0.09710922092199326], [-0.05453132092952728, -0.11908646672964096, -0.15458637475967407, -0.037185367196798325, -0.21807803213596344, 0.11665280163288116, 0.17685090005397797, -0.1130327507853508, -0.0740513950586319, 0.17952029407024384, 0.24529892206192017, -0.09789954870939255, 0.02632598578929901, -0.13162517547607422, -0.0980592742562294, 0.08736561983823776, -0.13006463646888733, 0.2035018652677536, -0.0442533977329731, 0.15501157939434052, -0.06852109730243683], [0.13931210339069366, -0.10169561952352524, 0.1900521069765091, 0.15618543326854706, 0.0537957102060318, -0.2081783562898636, 0.08740828931331635, -0.2018170803785324, 0.10423751175403595, 0.03322245180606842, 0.08492766320705414, 0.19188626110553741, -0.18163436651229858, -0.17992106080055237, -0.19754502177238464, 0.11830590665340424, -0.1972966343164444, -0.1395919919013977, 0.12466998398303986, 0.007125094532966614, -0.0009024888277053833], [0.13915224373340607, -0.15783868730068207, -0.1410599946975708, 0.09891892969608307, 0.032965585589408875, 0.21376003324985504, 0.021136105060577393, -0.05365458130836487, -0.19514897465705872, 0.18216700851917267, -0.11601238697767258, 0.032221242785453796, -0.20897217094898224, -0.13635656237602234, -0.15553084015846252, -0.17306949198246002, 0.06869523227214813, 0.027278512716293335, -0.1545565277338028, -0.21672122180461884, -0.11291427165269852], [0.11029290407896042, 0.206775963306427, -0.082241952419281, 0.17939317226409912, 0.14532062411308289, -0.14909152686595917, -0.14194700121879578, 0.08176367729902267, -0.018928809091448784, -0.18165534734725952, 0.05737636983394623, 0.06470812857151031, 0.15850241482257843, 0.16623909771442413, -0.13183876872062683, -0.2227402776479721, -0.13798128068447113, 0.14642511308193207, 0.06504039466381073, 0.04172128066420555, 0.016572516411542892], [0.03726255148649216, -0.05220373347401619, 0.2111712098121643, 0.10862172394990921, 0.024069232866168022, 0.024639451876282692, -0.06078403815627098, -0.020430756732821465, -0.1587592363357544, -0.08779504150152206, -0.0341641902923584, -0.22622449696063995, -0.1378822773694992, 0.15829002857208252, 0.04114478453993797, 0.17322464287281036, -0.19601954519748688, -0.0752933919429779, -0.19582200050354004, -0.0003269858134444803, 0.0735512375831604], [0.2098848670721054, 0.1296118050813675, 0.0896376520395279, -0.04493945837020874, 0.05503685772418976, 0.16344867646694183, 0.06294076144695282, -0.18438653647899628, -0.048890501260757446, -0.1266491860151291, 0.02671240270137787, -0.19379819929599762, -0.18103471398353577, -0.016511619091033936, 0.10449297726154327, 0.20999427139759064, 0.027504250407218933, -0.00010123848915100098, 0.2114298790693283, -0.18911777436733246, -0.14071527123451233], [0.05973316729068756, 0.06395275890827179, -0.005071393214166164, 0.1956186145544052, 0.15178798139095306, -0.12936292588710785, 0.11553721129894257, -0.004132315516471863, -0.058144405484199524, 0.15901704132556915, -0.0829724371433258, -0.1911226212978363, 0.03235088288784027, -0.061458125710487366, -0.06915952265262604, 0.11443711817264557, -0.12892542779445648, -0.20260068774223328, -0.15565812587738037, 0.07889018952846527, -0.1821548491716385], [0.16972123086452484, -0.05435645580291748, 0.02351151406764984, 0.10919986665248871, -0.1797303855419159, -0.15507376194000244, 0.19173015654087067, -0.18076807260513306, 0.07078151404857635, -0.1798461228609085, 0.16656051576137543, -0.19807776808738708, 0.04537530243396759, -0.11946555972099304, 0.020199090242385864, 0.12034036219120026, 0.1474379152059555, -0.13203135132789612, -0.0744464248418808, -0.1163252741098404, 0.18932877480983734], [0.11686842888593674, 0.2126968801021576, -0.266781747341156, -0.12654800713062286, 0.23634746670722961, -0.1671828031539917, 0.00023493071785196662, 0.09606817364692688, -0.016917888075113297, -0.2128058671951294, -0.12031230330467224, -0.07735717296600342, -0.0694044977426529, -0.015554774552583694, -0.06532604992389679, 0.07964973151683807, -0.03957124054431915, 0.2044188380241394, 0.11595547944307327, 0.03383074328303337, 0.004491623491048813], [-0.08696271479129791, -0.18532834947109222, -0.2130679488182068, 0.11081944406032562, -0.19446958601474762, -0.07736523449420929, -0.042128920555114746, -0.0017506927251815796, -0.011323049664497375, -0.019661203026771545, 0.1350218802690506, 0.09919483959674835, 0.14348016679286957, -0.012846112251281738, -0.16886544227600098, -0.166285440325737, 0.1492241770029068, 0.153811976313591, -0.149236261844635, -0.15494093298912048, -0.012299984693527222], [-0.09714919328689575, 0.1542007178068161, 0.18155767023563385, -0.09109492599964142, -0.046606436371803284, -0.21503102779388428, 0.09450863301753998, -0.19462116062641144, 0.05668027698993683, -0.21440084278583527, 0.1995713859796524, 0.13210587203502655, 0.14041166007518768, 0.15407510101795197, -0.0900212824344635, 0.19697673618793488, 0.1798984259366989, -0.20771732926368713, 0.1310100108385086, 0.01787509024143219, 0.0495428591966629], [-0.03447532653808594, 0.1341797262430191, 0.025952264666557312, 0.1568678766489029, 0.06069155037403107, 0.08045901358127594, 0.05758504569530487, -0.11699697375297546, -0.17460401356220245, -0.05898997187614441, 0.12954269349575043, 0.06984923779964447, 0.09579296410083771, 0.10016371309757233, -0.14418256282806396, 0.10342667996883392, -0.0896276980638504, -0.05835610628128052, -0.03291657567024231, 0.18216882646083832, 0.19174571335315704], [-0.044776275753974915, -0.21170887351036072, 0.1336096078157425, 0.21817074716091156, 0.20175020396709442, -0.18864579498767853, 0.17273487150669098, -0.17432254552841187, -0.20532839000225067, 0.043685659766197205, 0.006079643964767456, 0.17415393888950348, -0.036831557750701904, -0.1726391315460205, -0.041142016649246216, 0.012277662754058838, 0.04264719784259796, 0.011581823229789734, 0.14607931673526764, 0.19189734756946564, -0.201255202293396], [-0.0016513466835021973, -0.169455423951149, 0.19478346407413483, -0.19915416836738586, 0.04258279502391815, -0.004584163427352905, -0.0435633659362793, 0.014761701226234436, 0.08062614500522614, 0.021156683564186096, -0.05370815098285675, 0.1752004474401474, -0.16900107264518738, -0.019185394048690796, -0.10202578455209732, -0.06932081282138824, -0.02679002285003662, 0.0029154717922210693, -0.1870168149471283, -0.1572139710187912, 0.12651492655277252], [-0.14804868400096893, -0.20575590431690216, 0.18416160345077515, 0.06868844479322433, -0.1486007124185562, -0.0050637065432965755, 0.14802910387516022, -0.1143847331404686, -0.03111845627427101, 0.12668204307556152, -0.09123849123716354, -0.006832698360085487, 0.087069071829319, 0.04872952774167061, 0.071913942694664, 0.01304636150598526, -0.13494667410850525, -0.07724574208259583, -0.08382200449705124, -0.08760599046945572, 0.07446985691785812], [0.06149594485759735, 0.10300199687480927, 0.009321004152297974, 0.1795879453420639, 0.03491388261318207, 0.19612689316272736, -0.08383823931217194, 0.00013540685176849365, -0.13141125440597534, -0.03128693997859955, -0.16978704929351807, 0.14454327523708344, -0.12097200751304626, 0.07281865179538727, -0.19534605741500854, 0.04195050895214081, -0.11125501990318298, 0.053125396370887756, 0.1580684930086136, -0.15744507312774658, -0.13842570781707764], [-0.14101667702198029, 0.12291508167982101, -0.044228147715330124, -0.19543644785881042, -0.1591680645942688, 0.08428473770618439, 0.1853243112564087, 0.06577083468437195, 0.20123076438903809, 0.19924892485141754, 0.1744612157344818, -0.20911554992198944, -0.16707947850227356, -0.1226443201303482, 0.16229058802127838, -0.2119235098361969, -0.07094588875770569, 0.15795274078845978, 0.09922535717487335, 0.08578640967607498, -0.07412124425172806], [0.12683142721652985, -0.212643101811409, 0.10792379081249237, -0.01317383348941803, -0.0372990220785141, -0.052651166915893555, -0.13440293073654175, 0.0919005423784256, 0.17697633802890778, -0.1794525384902954, 0.054257288575172424, 0.14549462497234344, 0.09549488127231598, -0.06557507812976837, 0.1304430514574051, 0.10431201756000519, 0.20236946642398834, 0.18200208246707916, 0.13437046110630035, -0.14496222138404846, -0.09901852905750275], [-0.11157792061567307, 7.149903103709221e-05, -0.032398708164691925, -0.2698597013950348, 0.10101751238107681, 0.12195811420679092, 0.10391562432050705, -0.11488612741231918, 0.04989154264330864, -0.13367033004760742, -0.04276125878095627, 0.04185444116592407, -0.01598932594060898, 0.11444103717803955, -0.005484206136316061, 0.040674399584531784, 0.14207057654857635, -0.18316827714443207, 0.16256636381149292, -0.16708552837371826, 0.018627766519784927], [-0.06878993660211563, -0.22140465676784515, 0.19544021785259247, -0.18576981127262115, -0.24715334177017212, 0.17041167616844177, 0.1957218497991562, -0.02697664499282837, 0.025096392259001732, -0.1861467957496643, 0.20747147500514984, -0.0035997750237584114, 0.1384928971529007, -0.16457179188728333, -0.20835351943969727, -0.07015175372362137, 0.16459693014621735, -0.16201558709144592, -0.06852221488952637, -0.10642637312412262, -0.09908176958560944], [-0.009559795260429382, 0.10668329894542694, 0.06296609342098236, 0.06126411259174347, -0.08522555232048035, 0.12407650053501129, 0.14088870584964752, 0.04354067146778107, -0.07370547950267792, 0.20257793366909027, -0.14487040042877197, -0.030814900994300842, -0.05306030809879303, 0.017399996519088745, -0.0553082674741745, -0.07726645469665527, -0.07124345004558563, -0.18713143467903137, -0.19964246451854706, 0.029552549123764038, 0.08370126783847809], [0.1947483867406845, -0.16017837822437286, -0.20659691095352173, 0.1844843178987503, 0.0368855744600296, 0.18207116425037384, -0.09034453332424164, 0.15254153311252594, -0.13286425173282623, 0.13762490451335907, -0.06956510245800018, -0.1718183159828186, 0.19926153123378754, -0.06725555658340454, -0.2027534544467926, -0.17912426590919495, -0.19767546653747559, -0.08732965588569641, 0.0316954106092453, 0.14659981429576874, 0.09859256446361542], [-0.1325475424528122, 0.11282284557819366, 0.17851178348064423, 0.1714770346879959, -0.2134838104248047, 0.09698943793773651, 0.211554154753685, -0.1729419231414795, -0.2146672010421753, -0.07481949031352997, 0.06980018317699432, 0.045370832085609436, -0.035409897565841675, 0.14694561064243317, 0.014698177576065063, -0.16569027304649353, 0.005547717213630676, -0.06657195091247559, -0.17511208355426788, -0.07375749945640564, -0.02537257969379425], [-0.027538150548934937, 0.0203990638256073, 0.007100120186805725, 0.16843543946743011, 0.021355971693992615, 0.023780301213264465, -0.1541822850704193, -0.05487366020679474, -0.07682891190052032, 0.12431986629962921, -0.11745993793010712, -0.2099626660346985, -0.16894707083702087, 0.10977305471897125, -0.0051438212394714355, -0.039626285433769226, 0.12865255773067474, 0.12084059417247772, -0.12373790144920349, -0.1219479888677597, -0.06789539754390717], [0.17136536538600922, 0.00027819443494081497, -0.03780287504196167, 0.12183888256549835, -0.002787084551528096, 0.16385969519615173, -0.03669837489724159, 0.017515933141112328, 0.06662969291210175, -0.19664454460144043, -0.17864179611206055, -0.013202476315200329, 0.014679346233606339, -0.002189292572438717, 0.13328054547309875, 0.049293890595436096, -0.2157355099916458, -0.1161184161901474, -0.12217970937490463, -0.007782356347888708, 0.04454553499817848], [-0.13076409697532654, -0.19724133610725403, 0.19434963166713715, -0.10698650032281876, -0.10043736547231674, 0.21708066761493683, 0.145681694149971, 0.12485168874263763, -0.1544286608695984, 0.017105475068092346, -0.04174181818962097, -0.08823713660240173, -0.16103768348693848, 0.1808168739080429, -0.04679860174655914, 0.13498111069202423, 0.0456930547952652, -0.0015073120594024658, 0.09320206940174103, -0.07938513159751892, 0.04959695041179657], [-0.09526775777339935, -0.0827777236700058, -0.09391302615404129, 0.19305603206157684, 0.16211627423763275, -0.2146432101726532, -0.10229621827602386, -0.10724452883005142, -0.07476311922073364, 0.010949105024337769, 0.08826662600040436, 0.07033760845661163, -0.08060525357723236, -0.1011427789926529, -0.0538763552904129, -0.1867155283689499, -0.13525134325027466, 0.09775678813457489, -0.021530568599700928, 0.21269743144512177, 0.10219486057758331], [0.15103162825107574, -0.08592723309993744, 0.13257549703121185, 0.07714919745922089, 0.16762204468250275, -0.179249569773674, -0.20451988279819489, -0.1290951371192932, 0.0158204585313797, -0.1733858734369278, 0.12313161790370941, 0.023814961314201355, 0.1264486163854599, 0.13917089998722076, -0.09862398356199265, -0.1264994740486145, -0.10448164492845535, 0.07596246898174286, 0.07781697809696198, -0.1768195629119873, -0.19700011610984802], [0.020497098565101624, 0.1457521915435791, -0.22303199768066406, 0.0945511981844902, 0.1695205271244049, -0.10635340213775635, -0.13324958086013794, -0.05358821153640747, 0.1285143494606018, 0.05797639489173889, -0.1515830159187317, 0.15158505737781525, -0.08353856205940247, 0.13736653327941895, 0.13708136975765228, 0.034131359308958054, -0.15240983664989471, 0.25864067673683167, 0.19540052115917206, -0.08828531205654144, -0.076421819627285], [-0.12389791756868362, -0.17584726214408875, -0.19274133443832397, 0.05519663915038109, 0.2049667090177536, 0.14948274195194244, 0.1963692158460617, 0.05391502380371094, 0.06294392049312592, -0.015887243673205376, -0.13774269819259644, -0.19489316642284393, -0.06090832129120827, -0.12708927690982819, 0.03815719485282898, 0.15897564589977264, -0.10752829164266586, 0.08059950917959213, -0.09630793333053589, -0.032152432948350906, 0.19073936343193054], [-0.1714373379945755, 0.13638630509376526, -0.14956016838550568, -0.18505337834358215, 0.04352213814854622, 0.02359282784163952, 0.06142202019691467, 0.1159762367606163, 0.1331879198551178, 0.1868225634098053, -0.06548898667097092, 0.09381984919309616, -0.027944084256887436, 0.19572380185127258, -0.08496230095624924, -0.045223306864500046, 0.06165127083659172, 0.20622548460960388, -0.15117627382278442, 0.16134494543075562, -0.054078903049230576], [0.16059629619121552, 0.0686575323343277, 0.18992824852466583, -0.001996546983718872, -0.019587799906730652, 0.056646063923835754, 0.0906057208776474, 0.18229426443576813, -0.19410325586795807, -0.16003350913524628, 0.05432106554508209, 0.14775143563747406, 0.1568579226732254, -0.15789487957954407, 0.08962003886699677, -0.02461165189743042, 0.19316385686397552, -0.09157906472682953, -0.09268052875995636, -0.04655051231384277, 0.004550322890281677], [-0.18837127089500427, 0.13622500002384186, -0.028026998043060303, -0.0695447325706482, -0.1891370564699173, 0.057770028710365295, 0.027480870485305786, 0.0349135547876358, 0.043425723910331726, 0.10550926625728607, 0.16028176248073578, -0.07532450556755066, -0.05671334266662598, 0.1804921180009842, -0.01061992347240448, -0.08639673888683319, 0.0013920366764068604, 0.08158136904239655, -0.11907171458005905, 0.06662048399448395, -0.06376926600933075], [-0.1376015543937683, -0.01859930157661438, 0.21616540849208832, -0.06015767157077789, 0.20976556837558746, -0.17262542247772217, 0.1231357604265213, -0.009683668613433838, -0.08200657367706299, 0.12772952020168304, 0.14577285945415497, -0.0937444269657135, 0.020153000950813293, -0.21561716496944427, 0.08733780682086945, -0.14491336047649384, 0.17478550970554352, -0.018956288695335388, -0.04966448247432709, -0.07974453270435333, -0.09105485677719116], [-0.15616708993911743, 0.05379955470561981, -0.12873411178588867, 0.10731630027294159, 0.13344331085681915, 0.05379830300807953, 0.09560663998126984, -0.18016400933265686, 0.04553703963756561, 0.1749512404203415, -0.17385873198509216, -0.16298480331897736, 0.13384492695331573, 0.18840034306049347, 0.11231343448162079, 0.18972034752368927, -0.08582164347171783, 0.027983173727989197, 0.03620843589305878, -0.03500770032405853, 0.07573308050632477], [0.039279744029045105, 0.00011424288095440716, -0.09652655571699142, -0.042308494448661804, -0.07391352951526642, -0.058195486664772034, 0.17857779562473297, 0.07132001221179962, -0.21056734025478363, 0.2132788747549057, 0.029385536909103394, -0.0894431322813034, 0.16946814954280853, 0.1795547753572464, 0.1743014007806778, 0.028518781065940857, 0.20790140330791473, -0.16903522610664368, -0.09613271057605743, -0.012448593974113464, 0.039109453558921814], [0.07296044379472733, -0.003881954587996006, 0.10191841423511505, 0.015579435974359512, -0.07542311400175095, -0.12431758642196655, 0.18599748611450195, 0.18599005043506622, -0.1767595261335373, -0.12434893846511841, -0.1998177468776703, 0.06383521109819412, 0.028573354706168175, 0.07020309567451477, 0.048984333872795105, -0.09466157853603363, -0.16695590317249298, 0.23133182525634766, 0.02073107473552227, 0.08611132204532623, -0.13682012259960175], [-0.056278154253959656, -0.09132519364356995, -0.1948360651731491, 0.07203467190265656, -0.04190291464328766, 0.06037680804729462, -0.04343922436237335, 0.14450223743915558, 0.013279065489768982, 0.09226207435131073, -0.12461572885513306, -0.16023513674736023, 0.047939643263816833, -0.19035829603672028, -0.15304383635520935, -0.13597789406776428, 0.138885959982872, 0.21000371873378754, 0.18658693134784698, -0.07179626822471619, -0.015278756618499756], [-0.15577206015586853, 0.0103110671043396, 0.14288778603076935, -0.019417494535446167, -0.10918516665697098, 0.00911608338356018, -0.07314756512641907, 0.18479584157466888, -0.07400661706924438, -0.19482319056987762, -0.0485927015542984, -0.055086344480514526, -0.10755960643291473, 0.016019389033317566, -0.01934930682182312, -0.1924249678850174, 0.1197585016489029, -0.010625183582305908, 0.1083834320306778, 0.18129779398441315, 0.024043336510658264], [0.086690753698349, -0.06020524352788925, -0.05810123309493065, 0.0973176434636116, -0.09432908892631531, -0.169967383146286, -0.02129472978413105, -0.0460648350417614, 0.15976521372795105, -0.05931083858013153, 0.112476646900177, -0.10184203833341599, -0.19026996195316315, -0.05268138274550438, 0.021634474396705627, -0.159347802400589, 0.17592349648475647, -0.01683061011135578, 0.1940070241689682, 0.011647564359009266, -0.19501183927059174], [0.026888251304626465, -0.06792682409286499, 0.16596509516239166, -0.16676871478557587, -0.03593677282333374, 0.05271513760089874, 0.15006594359874725, 0.14927954971790314, 0.18048550188541412, -0.1912795603275299, 0.03403030335903168, -0.06977683305740356, -0.10863128304481506, -0.0055474042892456055, -0.04846036434173584, 0.12031863629817963, 0.09949128329753876, -0.17569398880004883, 0.13676093518733978, 0.0941431075334549, 0.20790572464466095], [0.14780034124851227, -0.13422539830207825, 0.21248921751976013, 0.025612518191337585, 0.07732749730348587, -0.1690225899219513, -0.08180070668458939, -0.10937584191560745, -0.12596790492534637, 0.14649270474910736, 0.08212029188871384, -0.006402861792594194, 0.1371220052242279, 0.11189906299114227, -0.21453049778938293, -0.04852167144417763, -0.05021345242857933, -0.09815728664398193, -0.21015538275241852, -0.10894213616847992, 0.06104815751314163], [0.10693557560443878, 0.17218954861164093, -0.03186315298080444, 0.1873764544725418, 0.04507477581501007, 0.08179308474063873, 0.12622512876987457, -0.2163425236940384, 0.1738390177488327, 0.1140153557062149, 0.0800546258687973, 0.2105824202299118, 0.071019247174263, -0.06743606925010681, -0.12515535950660706, -0.057327285408973694, 0.07345451414585114, -0.06325770914554596, 0.21589361131191254, -0.07439655065536499, 0.09865643084049225], [0.08791325986385345, -0.17808975279331207, 0.012619450688362122, 0.1511557251214981, -0.08333685994148254, 0.13579238951206207, 0.048473551869392395, 0.015156641602516174, -0.08532790839672089, 0.1747988611459732, 0.19336293637752533, 0.10826189815998077, 0.18481259047985077, -0.06180773675441742, -0.19727084040641785, 0.163728728890419, 0.009780094027519226, 0.00033302605152130127, -0.01585569977760315, -0.1584700644016266, -0.17818886041641235], [-0.21360279619693756, 0.03828931972384453, -0.016235467046499252, 0.09423942863941193, -0.04119940102100372, -0.1399797797203064, 0.10839968174695969, 0.056704167276620865, 0.0781717449426651, -0.14588317275047302, -0.04632957652211189, -0.02880442515015602, 0.07658299058675766, 0.06574365496635437, 0.06468389183282852, -0.06354842334985733, 0.09525606036186218, 0.12184969335794449, -0.07472991198301315, -0.08613281697034836, 0.040272217243909836], [0.10701347887516022, -0.10536525398492813, -0.08523337543010712, -0.18787109851837158, -0.1192752942442894, -0.01060590147972107, -0.21402598917484283, 0.055415913462638855, -0.00557340681552887, -0.040810272097587585, -0.07311977446079254, -0.12351478636264801, -0.14686550199985504, 0.012908339500427246, 0.03845597803592682, -0.19567528367042542, 0.18397994339466095, -0.13886764645576477, -0.16364939510822296, 0.1138567179441452, 0.11452724039554596], [0.1343560367822647, 0.1552489548921585, 0.06520991027355194, 0.0722561627626419, 0.043765559792518616, -0.00791330635547638, 0.07938133180141449, 0.12034095823764801, -0.11017449200153351, -0.10089609026908875, 0.0464920848608017, -0.16626787185668945, 0.0808640569448471, -0.02060753107070923, -0.0030964314937591553, 0.060543909668922424, 0.07195909321308136, -0.11818832159042358, -0.11992589384317398, -0.07399576902389526, -0.0669575184583664], [0.0804310292005539, 0.11506755650043488, 0.1372416466474533, -0.007156580686569214, 0.18794067203998566, -0.11634556949138641, 0.17549873888492584, -0.02100415527820587, -0.050959423184394836, 0.15690256655216217, 0.05454923212528229, -0.10005111247301102, -0.07143618166446686, -0.19076049327850342, 0.010338008403778076, 0.18738438189029694, -0.16961151361465454, 0.05557103455066681, -0.19356295466423035, 0.013531461358070374, 0.0727514773607254], [-0.21545878052711487, -0.1340591162443161, 0.17476549744606018, 0.061624106019735336, 0.17731204628944397, -0.03331655263900757, -0.1447606235742569, -0.18946243822574615, -0.046013496816158295, -0.03485497832298279, 0.12791728973388672, 0.17491576075553894, 0.1606098711490631, -0.21748116612434387, 0.03077344037592411, -0.0380084253847599, 0.021630704402923584, 0.07283364236354828, -0.1658870428800583, -0.060238100588321686, -0.07668328285217285], [-0.21558256447315216, -0.03253832459449768, 0.02233603596687317, -0.08292324841022491, 0.1714581996202469, 0.023725256323814392, -0.003190338611602783, 0.08999370038509369, 0.052690014243125916, 0.01784883439540863, 0.024203449487686157, 0.015502288937568665, 0.20074813067913055, 0.2106359452009201, 0.11840496957302094, -0.20195284485816956, -0.17371945083141327, 0.14917586743831635, 0.07870827615261078, 0.09919707477092743, 0.08986781537532806], [0.026368454098701477, 0.08959491550922394, -0.10378193110227585, 0.14587347209453583, -0.07718360424041748, 0.05135376751422882, -0.07092191278934479, 0.2172778695821762, 0.1655326634645462, 0.16404984891414642, 0.023458540439605713, 0.015517577528953552, -0.10089465975761414, -0.15515801310539246, 0.1942758709192276, -0.0292559415102005, -6.020069122314453e-05, 0.10835658013820648, 0.12136508524417877, 0.1307217925786972, 0.021096646785736084], [0.07653234899044037, -0.13306772708892822, -0.03220371901988983, 0.05335457623004913, 0.12023322284221649, -0.2162095159292221, -0.03581978380680084, 0.1876782327890396, -0.1238519474864006, -0.13383318483829498, 0.17452372610569, 0.09705404937267303, 0.020583942532539368, 0.16789118945598602, 0.08205513656139374, -0.021210968494415283, 0.1531497687101364, 0.17639710009098053, 0.14966712892055511, -0.10288956016302109, -0.18489816784858704], [0.08772371709346771, 0.12474973499774933, -0.06520140171051025, 0.09904690086841583, -0.03249739110469818, 0.02804429829120636, -0.1450590193271637, 0.13131378591060638, 0.10716865956783295, 0.15186186134815216, -0.2101404070854187, 0.09399949014186859, -0.04746800661087036, 0.0005360394716262817, -0.1679307222366333, 0.09996171295642853, -0.19354495406150818, -0.11886529624462128, 0.10054691135883331, -0.06344194710254669, 0.19022800028324127], [0.0353960245847702, -0.07175023853778839, -0.11672525852918625, -0.041431084275245667, 0.03200332820415497, 0.005999311804771423, 0.16602151095867157, 0.019604027271270752, -0.10455784201622009, 0.110852912068367, -0.09980279207229614, -0.17167243361473083, 0.19099579751491547, -0.2071274369955063, -0.011153802275657654, -0.015863433480262756, 0.12586049735546112, -0.02785596251487732, -0.14971940219402313, -0.2171257585287094, 0.0072404444217681885], [-0.08727908134460449, 0.16976697742938995, -0.20504507422447205, -0.13641351461410522, -0.20412661135196686, 0.061330512166023254, 0.011654585599899292, 0.1066887229681015, 0.13830752670764923, -0.011892318725585938, 0.08044491708278656, -0.020036712288856506, -0.11997511237859726, -0.0004967600107192993, -0.0783594399690628, -0.07731252908706665, 0.06115706264972687, -0.050276562571525574, 0.11965729296207428, -0.20053257048130035, -0.05334031581878662], [-0.1936454176902771, 0.17134499549865723, -0.08038409054279327, -0.054262541234493256, -0.10526340454816818, 0.08628561347723007, -0.17147263884544373, 0.1121552437543869, -0.060024358332157135, 0.19347243010997772, 0.13835832476615906, 0.0166722871363163, 0.20190317928791046, -0.015182913281023502, -0.009842253290116787, 0.017680466175079346, -0.09587801992893219, -0.0822797492146492, 0.1603904664516449, 0.17105036973953247, 0.15468013286590576], [-0.05766518414020538, -0.16718290746212006, 0.04340691864490509, 0.011708572506904602, -0.12030808627605438, -0.1135120838880539, 0.10208864510059357, -0.18295830488204956, 0.0567677766084671, -0.1987684816122055, -0.01629088819026947, -0.015269249677658081, 0.16856054961681366, 0.04266710579395294, -0.16819126904010773, 0.20396001636981964, 0.14347557723522186, 0.08286668360233307, -0.09433577209711075, 0.2002488225698471, 0.07100348174571991], [-0.030575107783079147, -0.02133849635720253, -0.030865976586937904, -0.04597622528672218, 0.15970145165920258, 0.05101907253265381, 0.07001644372940063, 0.026981810107827187, 0.1452782303094864, -0.10400474816560745, -0.18205438554286957, -0.15542356669902802, -0.22748346626758575, -0.15054543316364288, 0.028173238039016724, -0.08498772978782654, 0.011791984550654888, 0.1021679937839508, 0.3260033428668976, 0.15512870252132416, -0.07522355020046234], [0.11681719124317169, 0.14103348553180695, -0.03505106270313263, 0.015062883496284485, 0.05655623972415924, -0.11604534089565277, -0.012294620275497437, 0.173747256398201, -0.10717824101448059, -0.17979544401168823, 0.19465281069278717, -0.03669023513793945, 0.12126828730106354, 0.14323194324970245, 0.17156751453876495, -0.11937789618968964, 0.08858944475650787, 0.007868275046348572, 0.09889756143093109, -0.1469540297985077, -0.19078904390335083], [0.024339333176612854, -0.1878897249698639, -0.15191996097564697, -0.1775497943162918, -0.024050816893577576, 0.21395139396190643, 0.05872686207294464, 0.10842062532901764, -0.12971161305904388, 0.14152412116527557, -0.15576834976673126, -0.008107274770736694, 0.18061767518520355, -0.05239887535572052, -0.19128325581550598, 0.023543015122413635, 0.14259131252765656, -0.19691462814807892, 0.14863751828670502, -0.21269957721233368, 0.11556194722652435], [0.0905347615480423, 0.059482112526893616, 0.04353813827037811, 0.07953692972660065, -0.13482776284217834, 0.1702062338590622, -0.06955128908157349, 0.13454116880893707, 0.15702657401561737, 0.06523214280605316, 0.037985846400260925, 0.21479488909244537, 0.1435186117887497, 0.16435183584690094, -0.06342814862728119, -0.042801082134246826, -0.19639267027378082, 0.008413106203079224, 0.07131223380565643, 0.0622856467962265, 0.1957692950963974], [-0.014494597911834717, 0.1895492821931839, 0.029523149132728577, -0.011502772569656372, -0.18985727429389954, 0.04248838126659393, 0.15536566078662872, 0.08100472390651703, -0.02308446168899536, -0.13937610387802124, 0.1660408228635788, 0.053300902247428894, 0.1722368448972702, -0.015616491436958313, -0.12169820070266724, 0.1981644183397293, 0.04514370858669281, 0.014276936650276184, 0.03601403534412384, -0.0924949198961258, 0.12078438699245453], [-0.04293377697467804, -0.08402673900127411, -0.18126344680786133, -0.015950649976730347, 0.18043048679828644, 0.0358269065618515, 0.058539554476737976, 0.04612322151660919, 0.08713938295841217, -0.11318829655647278, 0.003911852836608887, -0.1663387417793274, 0.21159546077251434, 0.11361043155193329, 0.17597918212413788, 0.1362164169549942, -0.2171921581029892, 0.13743309676647186, -0.05167281627655029, -0.1132834255695343, -0.03147059679031372], [-0.005212917923927307, 0.0524374395608902, -0.11909348517656326, 0.08861993253231049, -0.15325137972831726, 0.05745755136013031, -0.2121443897485733, -0.11679503321647644, -0.07596170902252197, -0.05087459087371826, -0.15149131417274475, 0.1220548003911972, -0.019932478666305542, 0.11744086444377899, -0.015137732028961182, -0.009170502424240112, 0.17344780266284943, 0.09751392900943756, -0.04223416745662689, -0.1355580985546112, -0.10105261206626892], [-0.031151071190834045, 0.011085376143455505, -0.11614897847175598, 0.08887027204036713, 0.06085453927516937, 0.015662923455238342, 0.04794494807720184, -0.0849340409040451, 0.051147475838661194, -0.07067856192588806, -0.16769401729106903, -0.1822337806224823, -0.016001567244529724, -0.099298857152462, 0.11152271926403046, -0.129156693816185, -0.1648569256067276, -0.056918948888778687, -0.17191137373447418, -0.14384964108467102, 0.16081492602825165], [-0.10083802789449692, 0.17723359167575836, -0.18298722803592682, -0.20447254180908203, -0.0750778317451477, 0.19108878076076508, 0.21633096039295197, -0.05982603132724762, -0.14271706342697144, -0.145840585231781, -0.15057426691055298, -0.0911874771118164, 0.0701778382062912, -0.041626423597335815, 0.041052207350730896, 0.019572526216506958, -0.08314947783946991, 0.10069309175014496, -0.034641996026039124, -0.03873690962791443, 0.15905962884426117], [-0.1914774477481842, 0.1495891660451889, -0.0254623144865036, -0.13865435123443604, -0.007841408252716064, 0.11004327237606049, -0.18518894910812378, -0.1311696469783783, 0.12008510529994965, 0.13716460764408112, -0.05201299488544464, 0.021232008934020996, -0.13670724630355835, 0.11072991788387299, 0.21076230704784393, 0.02810761332511902, 0.12610621750354767, -0.024497807025909424, -0.2088204026222229, 0.018050655722618103, -0.08724017441272736], [0.12255863845348358, -0.16950275003910065, 0.06025885045528412, 0.0015098750591278076, -0.17973949015140533, 0.04666970670223236, -0.19938240945339203, 0.18357013165950775, -0.17225992679595947, 0.061523035168647766, -0.04033249616622925, 0.16424457728862762, 0.13645164668560028, -0.10729582607746124, 0.042801156640052795, -0.20642676949501038, -0.12150762975215912, -0.04086333513259888, 0.1597474366426468, 0.06591476500034332, -0.15177851915359497], [0.017066553235054016, -0.20020881295204163, 0.14887575805187225, -0.05265989899635315, 0.13612444698810577, 0.05516992509365082, -0.12817144393920898, -0.16459345817565918, 0.18356876075267792, 0.20402036607265472, 0.11136789619922638, 0.018610388040542603, -0.08567526936531067, 0.07748319208621979, 0.18134139478206635, -0.020995914936065674, -0.2105153203010559, 0.07997570931911469, -0.14214354753494263, -0.19690333306789398, 0.094967320561409], [-0.09410779178142548, 0.015772715210914612, -0.04206742346286774, 0.09323523938655853, 0.024822071194648743, 0.07304711639881134, 0.010256379842758179, -0.11797011643648148, -0.0935693085193634, -0.08726023137569427, -0.03884199261665344, -0.18003927171230316, -0.13558095693588257, 0.13263674080371857, -0.09390529990196228, -0.05408447980880737, -0.07947464287281036, 0.20591850578784943, -0.1317523717880249, 0.10649053752422333, -0.180718332529068], [-0.013423457741737366, 0.20514966547489166, -0.04543520510196686, -0.021302595734596252, 0.16096387803554535, 0.09015531837940216, 0.04218919575214386, -0.12757396697998047, 0.07240690290927887, -0.20911285281181335, -0.0873682051897049, 0.1064026802778244, -0.19805577397346497, 0.0005395412445068359, -0.043662577867507935, 0.2149663120508194, 0.1651185005903244, 0.04835350811481476, 0.07041837275028229, 0.19450853765010834, -0.14204023778438568], [-0.10736915469169617, -0.2163711041212082, -0.0887778103351593, -0.06451666355133057, -0.19039203226566315, -0.2043502777814865, 0.1002718061208725, 0.06552202999591827, 0.13876010477542877, -0.10200309753417969, -0.033082589507102966, -0.002179935574531555, 0.06304489076137543, 0.12971366941928864, -0.15557032823562622, -0.08719664812088013, -0.05550186336040497, 0.10852034389972687, -0.19281816482543945, 0.18963773548603058, 0.06062556803226471], [0.08677472174167633, 0.14772047102451324, 0.01974114216864109, 0.18008004128932953, -0.048939287662506104, 0.12164418399333954, -0.11715724319219589, 0.04674030840396881, 0.0862228125333786, -0.08286260068416595, 0.024936286732554436, -0.126185342669487, 0.14806567132472992, 0.14795486629009247, 0.08050744235515594, -0.20194517076015472, -0.10536468029022217, 0.10256229341030121, -0.1363467574119568, -0.011829366907477379, -0.02009604126214981], [0.1049598678946495, -0.059397999197244644, 0.02649635076522827, -0.07830566167831421, 0.1833837777376175, 0.08958807587623596, 0.10309441387653351, -0.16197916865348816, -0.03372878208756447, 0.020244523882865906, -0.05564533546566963, -0.05266452953219414, 0.021655142307281494, -0.01827736757695675, -0.18160773813724518, -0.02805365063250065, -0.08611798286437988, 0.005413130857050419, -0.007951169274747372, -0.20523710548877716, 0.14255009591579437], [-0.17408540844917297, -0.1937006413936615, 0.00012853741645812988, 0.20837841928005219, -0.04746849834918976, 0.06070776283740997, 0.1828797608613968, 0.19890914857387543, 0.19388310611248016, -0.09962831437587738, -0.08679164946079254, 0.09753839671611786, 0.20790480077266693, 0.06677989661693573, 0.10578419268131256, 0.042016491293907166, 0.19811178743839264, -0.16833242774009705, 0.047930821776390076, 0.062337979674339294, 0.19009344279766083], [0.010007321834564209, 0.031633004546165466, -0.14033180475234985, 0.08544455468654633, -0.10345101356506348, -0.13297364115715027, 0.08005852997303009, -0.18114526569843292, 0.13721777498722076, 0.17836524546146393, -0.19694285094738007, 0.12317247688770294, -0.17140159010887146, -0.10653560608625412, -0.03517499566078186, 0.028258830308914185, 0.14097537100315094, 0.10733829438686371, -0.15950921177864075, 0.2007787674665451, 0.09831936657428741]], "fc1.bias": [-0.06067328155040741, -0.060539573431015015, 0.06334991753101349, 0.10750509798526764, 0.10963724553585052, 0.19718198478221893, -0.21617268025875092, 0.10123594105243683, 0.022508546710014343, -0.2058010846376419, -0.057700276374816895, 0.1201464980840683, 0.1268831044435501, -0.0990133062005043, -0.028923943638801575, -0.15829460322856903, 0.008808767423033714, 0.07040689885616302, -0.07789759337902069, -0.09971066564321518, 0.08702363073825836, -0.11584048718214035, -0.17229044437408447, -0.10683736950159073, -0.039219871163368225, -0.06158068776130676, -0.2079383134841919, 0.05868003889918327, 0.14371053874492645, -0.17806585133075714, -0.06563572585582733, 0.12784536182880402, -0.1544976383447647, -0.15048345923423767, 0.033406004309654236, 0.12471748888492584, 0.07122837007045746, 0.02284941077232361, -0.04104495421051979, -0.14372727274894714, -0.10089502483606339, -0.1603129506111145, 0.009128634817898273, -0.09311945736408234, 0.1406250149011612, -0.20483733713626862, 0.11083050072193146, -0.05524344742298126, 0.1324860006570816, 0.16105084121227264, -0.1839580088853836, 0.00783589482307434, 0.12956330180168152, 0.12414798885583878, -0.16142046451568604, -0.06443272531032562, -0.19921381771564484, -0.047431111335754395, 0.0570916086435318, 0.16319097578525543, 0.02630421705543995, 0.15633942186832428, 0.18082083761692047, 0.1665610373020172, -0.03227663040161133, 0.11667118966579437, 0.13104452192783356, -0.1115894466638565, 0.10776729881763458, 0.058217331767082214, 0.12947215139865875, -0.16358725726604462, 0.12779487669467926, 0.17754758894443512, -0.14850537478923798, -0.1631191372871399, 0.09425453841686249, 0.015438631176948547, 0.19549046456813812, 0.0002455342619214207, 0.09408886730670929, -0.15360616147518158, 0.14406587183475494, 0.03683100640773773, 0.06434153020381927, -0.05074228346347809, 0.10724861919879913, -0.1718381643295288, 0.10670925676822662, 0.2103249579668045, 0.18970008194446564, 0.013995736837387085, 0.16896693408489227, 0.12198685109615326, -0.13529068231582642, -0.06623689830303192, -0.05079972743988037, -0.10701639950275421, -0.17455117404460907, -0.02488289773464203], "fc2.weight": [[-0.11763852089643478, -0.07095209509134293, -0.07834812253713608, -0.033572569489479065, -0.01709062047302723, 0.05166728049516678, 0.0615888386964798, -0.6746522188186646, -0.09433399140834808, 0.0035396069288253784, -0.05653923749923706, 0.09535393863916397, 0.03184621408581734, 0.006827118340879679, -0.11208363622426987, 0.030143635347485542, 0.029313301667571068, -0.10031227767467499, 0.1130964383482933, -0.2346350997686386, 0.0425756499171257, -0.05884728580713272, 0.05699983611702919, 0.005187640432268381, -0.4433474540710449, -0.11969330906867981, -0.027578726410865784, -1.0337350368499756, 0.5034828782081604, 0.05131648853421211, -0.05563369020819664, -0.10024412721395493, -0.932589054107666, 0.06736976653337479, 0.0553525947034359, -0.04771289601922035, -0.055178288370370865, 0.022065840661525726, 0.41798800230026245, 0.0241599902510643, -0.091837078332901, -0.09429437667131424, 0.3840901553630829, 1.064539909362793, -0.0126943439245224, -0.09312538057565689, -0.07582013309001923, 0.03772389143705368, 0.005362244322896004, -0.04387585073709488, -0.00874491035938263, -0.010431868955492973, -1.081566333770752, -0.0996832326054573, 0.07486309111118317, -0.0985233411192894, -0.0377841591835022, 0.027695028111338615, -0.023554163053631783, -0.010943308472633362, -0.4086017608642578, -0.093841552734375, -0.051564790308475494, 0.029868340119719505, -0.04390759766101837, 0.6601995825767517, 0.03194468468427658, 0.05299185588955879, -0.45096972584724426, 0.022611819207668304, 0.014217805117368698, 0.06746793538331985, 0.04699856415390968, -0.02483435720205307, 0.012573432177305222, 0.011681647971272469, -0.09724424034357071, 0.028295226395130157, -0.060698043555021286, -0.5390483140945435, -0.015198718756437302, -0.5308663249015808, -0.046913497149944305, -0.07369060814380646, 0.01088029146194458, 0.05054266378283501, -0.08052035421133041, -0.02312523126602173, 0.01759989559650421, -0.09517145156860352, -0.06878981739282608, 0.07152993232011795, 0.01995864510536194, -0.060229577124118805, -0.07655630260705948, 0.0983336791396141, 0.06100107729434967, 0.5584522485733032, 0.06706123054027557, -0.0965760126709938]], "fc2.bias": [0.04785063490271568]}