{"fc1.weight": [[-0.12524431943893433, -0.06240314617753029, -0.17289327085018158, 0.05476929247379303, -0.13963806629180908, -0.12925127148628235, 0.06624012440443039, 0.08480539172887802, -0.03729521483182907, -0.13561789691448212, -0.10742875933647156, 0.21024587750434875, -0.20998619496822357, -0.014812625013291836, -0.05760130286216736, 0.04631264880299568, -0.06244697794318199], [-0.2351490557193756, -0.1458970159292221, -0.050097525119781494, 0.08515254408121109, 0.027736743912100792, 0.08087285608053207, -0.20281831920146942, -0.03565966337919235, -0.08484213799238205, 0.1590672880411148, 0.0023995060473680496, -0.19233360886573792, -0.14717453718185425, -0.006264731287956238, -0.032184094190597534, -0.1762789636850357, 0.10929100960493088], [-0.12161608785390854, 0.0734257772564888, 0.02755603939294815, -0.1923062801361084, -0.14865440130233765, 0.043082255870103836, -0.057233504951000214, -0.04350695013999939, 0.05473988875746727, -0.23859207332134247, -0.04812063276767731, -0.03663202002644539, -0.11001992225646973, -0.24212399125099182, 0.03362896665930748, -0.1805649995803833, 0.12022241950035095], [-0.0632927417755127, 0.13582605123519897, 0.16065120697021484, 0.07025352120399475, 0.04576095566153526, -0.07373427599668503, 0.055672310292720795, 0.17382439970970154, -0.07049442827701569, 0.02134256437420845, -0.1576482355594635, 0.06386040896177292, 0.042055170983076096, -0.09927570074796677, -0.11564190685749054, -0.22141531109809875, 0.1951344758272171], [-0.22415733337402344, -0.21039937436580658, -0.12974579632282257, -0.22923362255096436, 0.16350778937339783, -0.20277084410190582, -0.10724397748708725, 0.10395436733961105, 0.05310390517115593, -0.20758798718452454, 0.17199887335300446, 0.09683602303266525, -0.20049363374710083, 0.15562820434570312, -0.01317814365029335, -0.145876944065094, -0.18861600756645203], [0.2294883131980896, 0.17214027047157288, 0.219756618142128, -0.16985554993152618, 0.11275007575750351, 0.11997602880001068, 0.04981924220919609, 0.14647066593170166, -0.09951283037662506, -0.2398349642753601, 0.16766491532325745, 0.17892590165138245, 0.025372596457600594, -0.08980569243431091, 0.17794889211654663, 0.17573721706867218, -0.058597221970558167], [0.20697179436683655, -0.10471757501363754, 0.12350991368293762, -0.19464249908924103, -0.19976498186588287, 0.09431491047143936, -0.04783541336655617, -0.08934780210256577, 0.22511965036392212, 0.12313529849052429, -0.056455038487911224, 0.024711744859814644, 0.008843928575515747, 0.22054220736026764, 0.20982366800308228, 0.08765599131584167, 0.20214150846004486], [-0.04505889117717743, -0.06489406526088715, -0.2450118213891983, -0.13830646872520447, -0.12886984646320343, 0.23695726692676544, -0.1467324048280716, 0.07590671628713608, -0.09870470315217972, -0.18030114471912384, 0.13132287561893463, 0.12764866650104523, 0.010761932469904423, -0.004414511378854513, 0.10210778564214706, 0.18178881704807281, 0.13365213572978973], [-0.17331504821777344, -0.0011931898770853877, 0.07658582925796509, 0.08679188042879105, 0.217935249209404, -0.18214550614356995, 0.18862587213516235, -0.007900484837591648, -0.1453731507062912, 0.15885017812252045, 0.056463856250047684, -0.0820893794298172, -0.1162567213177681, 0.0946013480424881, -0.20361775159835815, -0.1294860690832138, 0.11202225834131241], [0.032321542501449585, -0.08626258373260498, 0.14206592738628387, 0.0032441848888993263, -0.17591847479343414, -0.13798588514328003, 0.2007056176662445, 0.13656240701675415, 0.019972436130046844, -0.04790237173438072, 0.06468310207128525, 0.22552131116390228, 0.09713729470968246, -0.2163076400756836, 0.06415785104036331, 0.19904856383800507, 0.21939495205879211], [-0.21808752417564392, -0.18519192934036255, 0.09164195507764816, -0.1851252019405365, -0.005900462623685598, 0.07071219384670258, -0.21663597226142883, -0.09772311896085739, -0.09578289091587067, 0.19297672808170319, 0.10995972901582718, 0.07561586797237396, -0.08630051463842392, -0.16619037091732025, -0.0862465649843216, 0.23643893003463745, 0.083828404545784], [0.1079435721039772, 0.058277882635593414, -0.08219924569129944, 0.08531731367111206, -0.239408478140831, 0.08837958425283432, -0.14106272161006927, -0.1641806662082672, -0.03861232474446297, 0.16680026054382324, -0.16668108105659485, -0.15294602513313293, -0.025320207700133324, 0.17795763909816742, -0.006387002300471067, 0.18437767028808594, 0.03403891623020172], [0.20552536845207214, -0.015202279202640057, 0.11398697644472122, 0.16763506829738617, -0.033642929047346115, -0.0095576336607337, -0.02723011001944542, 0.19724728167057037, 0.22061017155647278, 0.15820176899433136, -0.03366027772426605, 0.14343993365764618, -0.03844107687473297, -0.2083694040775299, -0.0496673658490181, -0.09239789843559265, 0.1711418777704239], [-0.11964226514101028, -0.04861312732100487, 0.1893313080072403, -0.20673604309558868, -0.18171097338199615, -0.0860074833035469, 0.0912030041217804, 0.1667347401380539, -0.06029317155480385, -0.18754251301288605, -0.043838344514369965, -0.12690861523151398, -0.19665096700191498, 0.15609832108020782, -0.10866831988096237, -0.2034684419631958, 0.23779983818531036], [0.06362218409776688, 0.21422936022281647, -0.21217676997184753, -0.12397249042987823, 0.16676926612854004, -0.22146950662136078, -0.21370528638362885, -0.06829487532377243, 0.18600431084632874, -0.05791451036930084, -0.12758256494998932, 0.17156144976615906, 0.2371852546930313, 0.09257785230875015, 0.08196526020765305, 0.12405373156070709, 0.19547714293003082], [-0.11086463183164597, -0.13174289464950562, 0.03436669707298279, 0.08277475088834763, -0.07219286262989044, -0.20526990294456482, -0.18360406160354614, 0.0012313544284552336, -0.19660736620426178, 0.11232699453830719, -0.016265304759144783, 0.2362724244594574, -0.15892280638217926, -0.11360232532024384, 0.14528217911720276, -0.0192880779504776, 0.0338861420750618], [0.3342806398868561, -0.06332805007696152, 0.1112426146864891, 0.09195569902658463, 0.23816777765750885, -0.11053786426782608, -0.03776994347572327, 0.02671990916132927, -0.12407617270946503, -0.09764158725738525, -0.19843752682209015, -0.1385965198278427, 0.24315226078033447, 0.16749072074890137, -0.11758775264024734, -0.2088795155286789, -0.18823373317718506], [-0.07790149003267288, 0.16079148650169373, -0.011499442160129547, 0.0767507329583168, -0.015395634807646275, -0.15455879271030426, -0.08322010934352875, -0.17691367864608765, -0.00055709044681862, 0.0543811209499836, 0.13513585925102234, 0.15818986296653748, -0.14714063704013824, -0.07720896601676941, 0.064310722053051, -0.09489508718252182, 0.16280265152454376], [0.04883719980716705, -0.13448263704776764, 0.16527098417282104, -0.12313321232795715, 0.2073134332895279, -0.2034703493118286, 0.013846629299223423, 0.1398036777973175, -0.15922963619232178, -0.004270809702575207, 0.08021660149097443, -0.1622980237007141, -0.12099762260913849, -0.1036929115653038, -0.236433207988739, -0.1625029295682907, 0.08196257054805756], [-0.132505863904953, -0.005003443453460932, 0.2190980166196823, 0.04593189060688019, -0.037675656378269196, -0.040146779268980026, -0.21048329770565033, 0.06611710041761398, -0.10767875611782074, -0.22185733914375305, -0.23385383188724518, 0.2260303944349289, 0.024184122681617737, 0.15613718330860138, 0.2286994755268097, 0.07187704741954803, 0.06570158898830414], [-0.0008270420366898179, 0.1396271288394928, -0.044756751507520676, -0.03643810376524925, -0.21624180674552917, 0.12058290094137192, -0.0925111472606659, -0.13087455928325653, 0.12475775182247162, -0.15164418518543243, -0.18105125427246094, -0.11952568590641022, -0.07966917008161545, -0.1639830768108368, 0.186738058924675, -0.13227742910385132, -0.014553308486938477], [-0.23199744522571564, -0.1702646017074585, -0.03733415901660919, 0.06609669327735901, -0.12020944058895111, -0.051449619233608246, -0.14768099784851074, -0.10515663772821426, 0.17118975520133972, -0.1975962370634079, -0.0680759847164154, -0.01529439352452755, -0.07238553464412689, -0.06232450529932976, -0.1447819173336029, 0.15469442307949066, -0.2202867865562439], [-0.0576915368437767, 0.20310619473457336, -0.1104172095656395, -0.16090895235538483, -0.07361289858818054, -0.1331988424062729, 0.2109193652868271, -0.061755914241075516, 0.24010485410690308, 0.08562500029802322, -0.16373991966247559, 0.21756291389465332, 0.19464744627475739, 0.17027096450328827, -0.042783502489328384, 0.193119615316391, -0.08111569285392761], [-0.10424907505512238, -0.21143753826618195, 0.12589684128761292, 0.1665143072605133, 0.21917586028575897, -0.03030478022992611, 0.07432322204113007, 0.04523785412311554, 0.10549251735210419, -0.1417064070701599, 0.0036617100704461336, 0.009911089204251766, 0.050655998289585114, -0.0713033676147461, -0.20631106197834015, 0.029300475493073463, -0.028412196785211563], [-0.07227800786495209, -0.0279409047216177, 0.14085692167282104, -0.23683671653270721, -0.20841974020004272, 0.007700959220528603, 0.1956859976053238, -0.16750667989253998, 0.005081960465759039, 0.06285277754068375, 0.15748876333236694, -0.27734729647636414, -0.14012251794338226, -0.20115730166435242, 0.03622318431735039, -0.23725605010986328, 0.06692121177911758], [-0.03771774098277092, -0.23665761947631836, -0.1140105128288269, 0.18897570669651031, 0.09227490425109863, -0.21109555661678314, 0.19942502677440643, -0.15052106976509094, 0.019609468057751656, 0.0673745647072792, -0.2372739166021347, -0.15097343921661377, -0.16126006841659546, 0.1519811749458313, 0.14509379863739014, -0.20280463993549347, 0.07227274775505066], [0.12845204770565033, 0.10426104813814163, -0.23450730741024017, 0.17165914177894592, -0.23066678643226624, 0.20698226988315582, 0.2072078436613083, 0.031609803438186646, -0.11022913455963135, -0.009863846004009247, -0.24159717559814453, 0.24045221507549286, -0.21406184136867523, -0.17334170639514923, -0.15829887986183167, -0.2051742821931839, 0.22470109164714813], [0.20493671298027039, -0.16159415245056152, -0.08762586116790771, 0.16405200958251953, 0.10880126059055328, 0.20192423462867737, 0.19669662415981293, -0.13604213297367096, 0.1206696406006813, 0.027147015556693077, -0.1456020176410675, 0.23324309289455414, 0.22664618492126465, -0.1975807547569275, -0.06962190568447113, -0.21894481778144836, -0.12941715121269226], [0.2253153920173645, -0.0392189659178257, -0.0737418457865715, 0.1686541885137558, 0.003976885229349136, -0.12700413167476654, -0.11152131855487823, 0.16198641061782837, -0.18487027287483215, -0.23942917585372925, 0.17290174961090088, 0.13575297594070435, -0.2253994196653366, 0.039353929460048676, 0.11008567363023758, -0.15794163942337036, -0.17974533140659332], [-0.20881418883800507, 0.07169348746538162, 0.13217993080615997, -0.19545482099056244, 0.048532985150814056, -0.16920232772827148, 0.03156660869717598, 0.11149804294109344, 0.04720034822821617, -0.038734566420316696, 0.09847784787416458, 0.15715709328651428, 0.19131681323051453, 0.22293519973754883, -0.0224203709512949, 0.0011277319863438606, -0.21118979156017303], [-0.13909462094306946, 0.2351163774728775, 0.1945749670267105, 0.14561447501182556, 0.2117195576429367, 0.16381339728832245, 0.0940527617931366, 0.03951133042573929, -0.21464988589286804, 0.1424826681613922, -0.022942762821912766, 0.20455069839954376, 0.1317664533853531, -0.10135062783956528, 0.09989514201879501, 0.02524249069392681, 0.01535826176404953], [-0.12891478836536407, 0.00790201686322689, 0.08627498149871826, -0.2124641090631485, -0.2345895916223526, -0.24077805876731873, -0.08107761293649673, 0.0826931893825531, -0.23441290855407715, -0.08788081258535385, 0.10724996030330658, 0.017808711156249046, 0.21129252016544342, 0.12513147294521332, 0.10383033752441406, -0.055692728608846664, -0.13455741107463837], [0.05570536479353905, 0.1251191645860672, 0.006875132210552692, 0.10503531992435455, 0.22334024310112, 0.004342599306255579, -0.21855293214321136, -0.09395992755889893, 0.1769564300775528, 0.0611526258289814, -0.10657861083745956, 0.1838674694299698, 0.1986212134361267, 0.04901587963104248, 0.09964346140623093, 0.056218650192022324, -0.2235519289970398], [-0.239248588681221, 0.0944586992263794, -0.1386462152004242, -0.17720280587673187, -0.0386989451944828, 0.13852466642856598, -0.15253835916519165, 0.028634563088417053, 0.12294172495603561, -0.2054503709077835, 0.0990033969283104, -0.05658326297998428, -0.18640385568141937, -0.1953802853822708, -0.03879794105887413, -0.03278946131467819, 0.11804444342851639], [-0.11061409115791321, 0.11653129756450653, -0.06793259084224701, -0.16684216260910034, 0.06126381456851959, 0.0027289073914289474, -0.17349165678024292, 0.017376689240336418, 0.0018501710146665573, 0.16336672008037567, -0.20815114676952362, -0.1593809723854065, -0.07960846275091171, 0.02345125563442707, 0.1610943228006363, 0.22238309681415558, 0.026116037741303444], [0.044177547097206116, -0.12825974822044373, -0.14405953884124756, 0.10709692537784576, 0.14151878654956818, -0.058722760528326035, 0.041745226830244064, -0.030747229233384132, -0.11952994018793106, -0.19090278446674347, 0.1631755828857422, 0.07249531894922256, -0.16121768951416016, -0.016982825472950935, -0.23452676832675934, -0.11699937283992767, -0.027312712743878365], [0.23488040268421173, 0.0306754969060421, 0.022398371249437332, -0.11644280701875687, -0.13751915097236633, -0.08481947332620621, 0.005612561944872141, 0.2010560780763626, -0.03721703588962555, 0.11897400766611099, -0.16084757447242737, -0.1773960143327713, 0.0861007571220398, 0.06735923886299133, 0.06214869022369385, 0.19933687150478363, -0.17711800336837769], [0.1502334624528885, 0.13350120186805725, -0.04268529266119003, -0.03604348003864288, -0.2008540779352188, -0.21343594789505005, 0.21363498270511627, -0.14514896273612976, -0.02763458713889122, -0.21322591602802277, -0.15544277429580688, 0.1401205211877823, -0.14246311783790588, 0.13861966133117676, 0.12660610675811768, 0.23055870831012726, 0.07485313713550568], [0.19891735911369324, 0.17745676636695862, -0.05046714469790459, 0.0017448115395382047, 0.21994426846504211, 0.11709357053041458, -0.10553111135959625, -0.07947881519794464, -0.21098217368125916, -0.21786615252494812, -0.22817842662334442, 0.02997315488755703, -0.07561034709215164, 0.01652011089026928, 0.12474583834409714, -0.1668122261762619, -0.14203576743602753], [-0.07378973066806793, 0.16187041997909546, -0.16970139741897583, -0.017140254378318787, -0.036095030605793, -0.062193360179662704, -0.039910439401865005, -0.20820659399032593, 0.23446686565876007, 0.1732754409313202, -0.03190343827009201, -0.20953203737735748, -0.14977286756038666, -0.14183610677719116, -0.02069571055471897, -0.18724532425403595, 0.1170985996723175], [-0.10016882419586182, -0.06650903820991516, 0.03633517771959305, -0.2349991798400879, -0.022548770532011986, -0.017723651602864265, 0.16596470773220062, 0.16268163919448853, 0.06143666058778763, 0.07827816158533096, 0.15402211248874664, 0.01415327563881874, -0.07619735598564148, -0.22852858901023865, -0.02487209253013134, 0.11994755268096924, -0.2103268951177597], [-0.11278320848941803, 0.14385131001472473, 0.16976840794086456, 0.08437950909137726, -0.20118571817874908, -0.1282937228679657, -0.23542632162570953, -0.029164355248212814, -0.09824195504188538, -0.04199066385626793, -0.11681806296110153, -0.05443945899605751, 0.1637670397758484, 0.06236790493130684, 0.18327832221984863, -0.15609616041183472, -0.05341711267828941], [0.2029506415128708, -0.09543552249670029, -0.15142101049423218, -0.22265875339508057, 0.206912562251091, -0.010041063651442528, 0.03506358340382576, 0.09600977599620819, -0.19352440536022186, 0.044157397001981735, -0.024369271472096443, -0.06574986129999161, -0.1141284853219986, 0.21055932343006134, 0.24928435683250427, 0.17401693761348724, 0.13647429645061493], [-0.1343328207731247, 0.16456545889377594, -0.12435349822044373, 0.19122733175754547, 0.19859695434570312, -0.1451323926448822, 0.057115428149700165, 0.20171216130256653, 0.14212419092655182, -0.06474930793046951, -0.10660050064325333, 0.042722899466753006, -0.22345539927482605, -0.21292716264724731, 0.0822761282324791, 0.22797296941280365, 0.2223161906003952], [0.10824250429868698, -0.17211677134037018, -0.12271614372730255, 0.06862501055002213, 0.2283409684896469, 0.1357809454202652, 0.011783667840063572, 0.24204687774181366, 0.2237791270017624, -0.03487761691212654, -0.20586402714252472, -0.1819484680891037, 0.0004124073020648211, 0.14321593940258026, -0.14015862345695496, 0.12338081747293472, -0.0006304471171461046], [-0.009762363508343697, -0.203299418091774, -0.1641542762517929, 0.08399639278650284, 0.006142026744782925, -0.23776976764202118, 0.12321338802576065, -0.20301993191242218, -0.12608258426189423, 0.022679194808006287, -0.21954205632209778, -0.032418400049209595, 0.19601355493068695, 0.006083363201469183, 0.16038087010383606, -0.1033564880490303, 0.0509629063308239], [0.05523672699928284, -0.21866774559020996, 0.02424112893640995, -0.04863617569208145, 0.013331713154911995, -0.03424989804625511, -0.013740720227360725, 0.0992269366979599, 0.0773308202624321, 0.08286351710557938, -0.12642017006874084, 0.12596537172794342, 0.10962416976690292, -0.1756967157125473, -0.23948362469673157, -0.02787511609494686, -0.17561984062194824], [-0.044121917337179184, 0.006419731304049492, -0.1321212500333786, -0.224054753780365, -0.17745599150657654, 0.002768198261037469, 0.1026960089802742, -0.16178472340106964, 0.17865033447742462, -0.20749463140964508, 0.24137866497039795, 0.05646524205803871, -0.19198492169380188, 0.10504515469074249, 0.038798291236162186, -0.21558550000190735, -0.1030300110578537], [0.17704913020133972, 0.013571989722549915, -0.16859915852546692, 0.19037359952926636, -0.03740745410323143, 0.1111062541604042, 0.17837904393672943, -0.09484366327524185, 0.19781741499900818, 0.12688583135604858, 0.033631134778261185, 0.10780655592679977, 0.10684582591056824, -0.043178822845220566, 0.03264906257390976, -0.07851888984441757, -0.19907571375370026], [0.07593423873186111, 0.20384924113750458, 0.13201667368412018, -0.24064309895038605, 0.061435602605342865, -0.13798826932907104, -0.1212100088596344, -0.06765333563089371, -0.1159621924161911, -0.11775215715169907, -0.21000027656555176, 0.16943202912807465, 0.030572280287742615, -0.13578155636787415, 0.11245529353618622, -0.19623561203479767, 0.06609650701284409], [-0.18911027908325195, 0.19767659902572632, 0.09377159178256989, -0.12163174152374268, -0.07503540068864822, 0.1848549246788025, 0.08425627648830414, -0.09687522798776627, 0.11446563154459, 0.2003820389509201, -0.1365506798028946, 0.1580635905265808, -0.03308270126581192, -0.22125400602817535, 0.01386854238808155, -0.20724163949489594, -0.07942969352006912], [0.22423800826072693, -0.13677985966205597, 0.07500266283750534, 0.10072831809520721, -0.01738208904862404, 0.01291019469499588, -0.1724400669336319, 0.023263659328222275, 0.09611178934574127, 0.14201876521110535, -0.07285676896572113, 0.13661575317382812, 0.08830659836530685, 0.1200510635972023, -0.18732109665870667, 0.19776706397533417, -0.039421334862709045], [-0.1184365525841713, 0.016581054776906967, -0.1607952117919922, -0.2368776798248291, 0.1936667412519455, -0.0011155020911246538, -0.04160170257091522, -0.1826416701078415, -0.13376492261886597, -0.0012692586751654744, 0.03221360966563225, -0.035053838044404984, 0.21083904802799225, -0.1184360608458519, 0.05507434904575348, -0.1654966175556183, 0.06280410289764404], [-0.1457751989364624, 0.15478944778442383, 0.07171904295682907, -0.06234584376215935, 0.15383365750312805, -0.055384378880262375, -0.03388833999633789, 0.18694515526294708, 0.1377565562725067, 0.21586860716342926, -0.22740885615348816, -0.14580732583999634, 0.19864292442798615, 0.17592748999595642, -0.010799020528793335, 0.08429453521966934, -0.15866754949092865], [0.03937913104891777, 0.09869778156280518, -0.06395920366048813, -0.043623633682727814, 0.11495184898376465, 0.0343746580183506, 0.057103727012872696, 0.0704217180609703, -0.13133373856544495, 0.16547442972660065, -0.1627461016178131, 0.1457950919866562, 0.09445717930793762, -0.05473342910408974, -0.26362529397010803, 0.0846889466047287, -0.15719717741012573], [0.20711396634578705, -0.12185987830162048, -0.19589383900165558, 0.05251050367951393, 0.10610612481832504, -0.013595756143331528, 0.23208747804164886, 0.06381462514400482, -0.1271848976612091, 0.20291022956371307, 0.21794970333576202, -0.0888623371720314, 0.16338707506656647, 0.13081145286560059, 0.2040337473154068, 0.017653711140155792, -0.05102570354938507], [-0.008190975524485111, -0.07318536937236786, 0.217828169465065, 0.16410788893699646, -0.22279973328113556, 0.21964605152606964, 0.11367439478635788, -0.11669325828552246, 0.17819766700267792, -0.14361055195331573, -0.019016439095139503, -0.14012596011161804, 0.03394285961985588, 0.05717267468571663, -0.06880104541778564, -0.025380641222000122, -0.16387806832790375], [-0.16431736946105957, 0.10537339746952057, 0.10795195400714874, 0.2326374500989914, 0.047623611986637115, 0.05251738429069519, 0.017568400129675865, 0.016855871304869652, -0.19992764294147491, -0.07615714520215988, -0.07066671550273895, 0.20545676350593567, 0.15703633427619934, 0.20535889267921448, 0.14805470407009125, 0.01764308474957943, -0.11638165265321732], [0.012722829356789589, -0.08546286076307297, 0.12868866324424744, -0.20599690079689026, 0.1861565113067627, 0.07324646413326263, -0.12990030646324158, 0.10886550694704056, -0.07197434455156326, 0.08312097936868668, -0.13490141928195953, -0.15454059839248657, -0.21879778802394867, 0.21920239925384521, -0.16287656128406525, 0.058818113058805466, -0.03509373217821121], [0.18166090548038483, 0.08690649271011353, -0.11456626653671265, -0.2396085262298584, -0.1427558958530426, 0.08851810544729233, -0.1123674139380455, -0.13085921108722687, 0.03976263850927353, 0.16555725038051605, 0.2409716546535492, -0.20725803077220917, -0.23951828479766846, 0.16464731097221375, -0.19818083941936493, 0.15220873057842255, -0.0865626335144043], [-0.22450581192970276, 0.14962831139564514, -0.15887880325317383, -0.20839600265026093, 0.07135139405727386, -0.10461169481277466, -0.06144559383392334, -0.20527870953083038, -0.0945080816745758, -0.09877998381853104, 0.0827944427728653, 0.03560611978173256, -0.07618637382984161, -0.09699142724275589, -0.006316253449767828, -0.06391963362693787, 0.12448985129594803], [0.06366121768951416, 0.24094681441783905, -0.1886252909898758, -0.21820639073848724, -0.1952969878911972, 0.094650499522686, -0.06349985301494598, 0.01718200370669365, 0.15227949619293213, -0.1395212560892105, 0.18827220797538757, -0.04566946253180504, -0.21818649768829346, -0.10523484647274017, -0.1414829045534134, -0.08370920270681381, 0.09539531916379929], [0.10538377612829208, 0.12932823598384857, 0.07958954572677612, -0.014599423855543137, 0.11696681380271912, 0.11411485821008682, 0.05445380136370659, -0.015928329899907112, -0.05079079046845436, 0.026319973170757294, 0.09213713556528091, -0.1803998053073883, 0.0013890721602365375, 0.18230226635932922, -0.03747236356139183, -0.06872951984405518, -0.20167256891727448], [0.043698884546756744, 0.052986983209848404, -0.23765140771865845, -0.07113507390022278, -0.03651852533221245, 0.023501545190811157, -0.08986618369817734, 0.2831271290779114, -0.19333729147911072, 0.2237057238817215, 0.20954157412052155, 0.12540307641029358, -0.00859752669930458, -0.18697504699230194, 0.2694815695285797, 0.2057049572467804, 0.1225113570690155], [-0.13761761784553528, 0.11892382800579071, -0.02080741710960865, 0.06469840556383133, -0.021674519404768944, -0.22345851361751556, -0.2397271990776062, 0.06879353523254395, -0.17551355063915253, 0.07310863584280014, 0.1933775097131729, 0.017313338816165924, -0.025402965024113655, 0.03951335325837135, 0.15074080228805542, 0.02486204355955124, 0.03962134197354317], [-0.01737733744084835, -0.14772771298885345, -0.2419467270374298, 0.12749579548835754, 0.15765751898288727, 0.09967008978128433, 0.0014652275713160634, 0.12123626470565796, 0.2102595567703247, 0.04076613113284111, 0.03763045743107796, 0.007616361603140831, -0.09559102356433868, -0.18413089215755463, -0.062104105949401855, 0.2149105668067932, 0.1470046490430832], [-0.15709823369979858, 0.32367560267448425, -0.04525991529226303, -0.25528785586357117, 0.07752611488103867, -0.22947293519973755, 0.14600412547588348, 0.18688920140266418, -0.20781973004341125, 0.11720475554466248, 0.052526433020830154, -0.24594730138778687, -0.26309478282928467, 0.1750553399324417, 0.21237903833389282, -0.11959477514028549, 0.208791583776474], [0.0027801389805972576, 0.002245399635285139, -0.04099581390619278, -0.0887521430850029, -0.19449830055236816, 0.15064045786857605, -0.21783368289470673, 0.03100138157606125, -0.23031942546367645, 0.16119283437728882, 0.04683256149291992, -0.0969034731388092, 0.17463921010494232, 0.1318703591823578, 0.1890195608139038, 0.06174219027161598, 0.1128079891204834], [-0.20643992722034454, -0.17667898535728455, -0.0348949134349823, -0.16061650216579437, -0.05201255902647972, -0.2126016765832901, -0.14871971309185028, -0.11629471927881241, 0.20578627288341522, 0.05225983262062073, -0.17735514044761658, -0.1079287976026535, -0.0762752890586853, 0.005158972926437855, 0.202510803937912, 0.1893918812274933, 0.12289807200431824], [0.014955250546336174, -0.12140705436468124, -0.05227787420153618, -0.19083914160728455, -0.1771281212568283, -0.10000425577163696, -0.17655836045742035, 0.05266842618584633, 0.11632336676120758, 0.23698690533638, 0.018124667927622795, -0.0018544766353443265, -0.22939908504486084, 0.09379370510578156, 0.11517788469791412, -0.14046788215637207, -0.1114761009812355], [-0.19336968660354614, -0.08695787191390991, -0.025827622041106224, -0.016712002456188202, -0.09510668367147446, 0.07164259999990463, -0.11345686763525009, 0.09482565522193909, -0.1835741549730301, 0.19702041149139404, 0.020437348634004593, 0.040378764271736145, 0.013698741793632507, -0.10283661633729935, -0.10075323283672333, -0.22792266309261322, 0.13978978991508484], [-0.05586472153663635, 0.21296824514865875, -0.16066932678222656, -0.03214743360877037, 0.10888757556676865, 0.1798417717218399, 0.055996380746364594, 0.15901066362857819, -0.09211872518062592, -0.032390959560871124, -0.15665259957313538, -0.01686280220746994, 0.1997331827878952, 0.09709981083869934, -0.16238711774349213, -0.053622644394636154, 0.08189092576503754], [-0.22250530123710632, 0.014836217276751995, 0.20561927556991577, -0.181571826338768, 0.1886528730392456, -0.213267520070076, 0.013751507736742496, -0.2168365716934204, -0.23876826465129852, 0.061953239142894745, -0.23140881955623627, 0.05152802914381027, 0.052316416054964066, 0.19819806516170502, 0.15930494666099548, -0.07282396405935287, -0.14865201711654663], [0.23173198103904724, -0.056684862822294235, 0.16446146368980408, -0.20184431970119476, -0.056153856217861176, -0.12500007450580597, 0.0694863349199295, 0.13101787865161896, -0.11346045136451721, -0.22165174782276154, -0.08692600578069687, 0.19331932067871094, 0.10778221487998962, 0.08902598172426224, 0.19314639270305634, 0.02978155016899109, -0.09469708055257797], [-0.23293723165988922, 0.15889872610569, 0.12778738141059875, -0.12267362326383591, -0.11199372261762619, 0.17532996833324432, 0.051464054733514786, -0.16897813975811005, 0.16539910435676575, 0.21331657469272614, -0.13565869629383087, -0.12457449734210968, 0.07790640741586685, 0.2376856952905655, 0.05347542464733124, -0.2132871448993683, 0.2254127860069275], [-0.06619157642126083, -0.17388634383678436, -0.20405533909797668, -0.1848340630531311, 0.0705079659819603, -0.13882993161678314, -0.004353193566203117, 0.11785398423671722, 0.05271131545305252, -0.16821826994419098, -0.16791117191314697, 0.06370304524898529, 0.045869722962379456, 0.11769844591617584, 0.21417731046676636, -0.03776473179459572, -0.1607939749956131], [-0.4508696496486664, 0.4831932485103607, 0.22023244202136993, -0.22676318883895874, -0.2767467200756073, -0.02015109546482563, 0.25338056683540344, 0.09227759391069412, 0.11267326027154922, 0.06987438350915909, 0.10422928631305695, 0.10991688817739487, -0.23932965099811554, 0.03259791433811188, -0.13938996195793152, -0.17907188832759857, 0.11569187790155411], [-0.03670305758714676, -0.1903902292251587, 0.16641563177108765, 0.212588369846344, -0.05440887063741684, -0.17173407971858978, -0.15921765565872192, -0.03763606399297714, -0.24144423007965088, -0.12385683506727219, -0.14145787060260773, 0.17100733518600464, -0.1072150319814682, 0.03401578590273857, -0.20554910600185394, 0.19245168566703796, -0.01382115762680769], [0.15415059030056, -0.10481245070695877, 0.08513839542865753, 0.05229302868247032, -0.13513918220996857, -0.20284150540828705, -0.12300290167331696, 0.05961555987596512, -0.09278467297554016, 0.08101776242256165, -0.11605840176343918, 0.08175753802061081, -0.003211788833141327, 0.13212713599205017, 0.22831737995147705, -0.10464439541101456, 0.03822317346930504], [-0.0877254381775856, 0.057492446154356, 0.06283891946077347, 0.2058570832014084, 0.08251097798347473, -0.06061606481671333, -0.24001508951187134, -0.21815061569213867, -0.05612693727016449, 0.03887568786740303, -0.04150698706507683, 0.11765120178461075, -0.1961173564195633, -0.0027274894528090954, -0.21734373271465302, -0.16246064007282257, -0.137907475233078], [-0.021807627752423286, 0.2401411235332489, 0.08721686899662018, -0.15883466601371765, -0.00988171435892582, -0.05855717882514, -0.1422809213399887, -0.014611885882914066, 0.04087377339601517, -0.09256721287965775, 0.2397490292787552, -0.0747402012348175, 0.14670617878437042, -0.08943165093660355, 0.10525433719158173, -0.09662649780511856, 0.18528927862644196], [0.04579048976302147, 0.05412382259964943, 0.12189099192619324, 0.0533984936773777, 0.12730097770690918, 0.2056838721036911, 0.10922852903604507, 0.2336079329252243, 0.1490321010351181, 0.0927220955491066, 0.07226473838090897, 0.14552447199821472, -0.05929221957921982, 0.11309976875782013, 0.22587265074253082, 0.1181558147072792, 0.10600186884403229], [0.10892882198095322, 0.06477709859609604, 0.07506037503480911, 0.23658080399036407, 0.037016384303569794, -0.13852857053279877, 0.22055214643478394, -0.16165930032730103, 0.0394868403673172, -0.12031181901693344, 0.10646180808544159, -0.08546390384435654, -0.037297964096069336, -0.12332244962453842, -0.18323415517807007, 0.14882124960422516, 0.0999210774898529], [0.2097925841808319, 0.18485833704471588, -0.23916393518447876, -0.026861706748604774, 0.023641807958483696, -0.20394451916217804, -0.2288568913936615, -0.038707129657268524, -0.07451418787240982, 0.04183884337544441, 0.049512829631567, -0.1679692417383194, -0.2195228636264801, 0.056992288678884506, 0.2238968014717102, -0.045214638113975525, 0.23803779482841492], [0.09134675562381744, -0.10840469598770142, -0.08033852279186249, 0.12117540836334229, 0.08524630963802338, 0.04218029975891113, -0.19865445792675018, 0.20884981751441956, 0.1558847427368164, 0.12609095871448517, 0.027787398546934128, 0.040074460208415985, 0.234773650765419, -0.02398109622299671, -0.030423928052186966, 0.03933727741241455, 0.08957323431968689], [-0.14933933317661285, -0.09450819343328476, -0.09050800651311874, 0.08028191328048706, -0.2298489660024643, 0.19876712560653687, 0.015247555449604988, -0.10491475462913513, 0.09057531505823135, 0.23936767876148224, -0.1059352234005928, -0.0692935436964035, -0.01704545132815838, 0.17834007740020752, 0.17496603727340698, -0.14316241443157196, -0.07933136075735092], [-0.21882586181163788, -0.16229064762592316, 0.10190501064062119, -0.12208486348390579, -0.17520835995674133, 0.16134381294250488, 0.13139674067497253, 0.12782344222068787, 0.08850356936454773, 0.11351638287305832, -0.07328788936138153, -0.20706188678741455, 0.10992620140314102, 0.15993846952915192, -0.10413730144500732, 0.030808445066213608, 0.16440792381763458], [-0.24570854008197784, 0.0893348753452301, 0.003840903053060174, 0.005381160415709019, 0.10094564408063889, 0.02859552763402462, -0.03496626019477844, 0.01857018657028675, -0.2467867136001587, 0.14761091768741608, 0.16819103062152863, -0.2048371583223343, -0.18258003890514374, 0.20755720138549805, 0.029556995257735252, 0.21698413789272308, 0.14924418926239014], [-0.14341191947460175, -0.21386587619781494, 0.11452021449804306, -0.2369048297405243, 0.03397851809859276, -0.08499332517385483, 0.15215185284614563, 0.16723738610744476, -0.16890934109687805, 0.014191959984600544, -0.22731058299541473, -0.2369280755519867, 0.040562704205513, -0.19525808095932007, -0.15584643185138702, -0.12508325278759003, -0.23005296289920807], [0.2146095335483551, 0.07588689774274826, -0.12345807999372482, 0.11148963123559952, -0.2273731529712677, 0.05079052969813347, 0.13520629703998566, -0.14717508852481842, -0.09744633734226227, -0.22457191348075867, -0.07498277723789215, 0.21347610652446747, -0.19509194791316986, -0.21631744503974915, 0.056276388466358185, -0.18583396077156067, -0.09621177613735199], [-0.009330306202173233, 0.08529578894376755, 0.18645323812961578, -0.12177994847297668, -0.08811436593532562, -0.18945857882499695, 0.06064943969249725, -0.1715482771396637, 0.08450160175561905, 0.21183782815933228, -0.01828104257583618, 0.026637965813279152, -0.02083253115415573, 0.05333908647298813, -0.2092442512512207, -0.18063770234584808, 0.06938683241605759], [0.09241460263729095, -0.02024342305958271, -0.17994046211242676, 0.07969830185174942, 0.1070103794336319, 0.1635836958885193, 0.14103111624717712, -0.06787858158349991, 0.19750678539276123, 0.18101291358470917, -0.10294988006353378, -0.11545660346746445, 0.005141906440258026, -0.06956422328948975, 0.013841537758708, -0.10683995485305786, 0.18132556974887848], [-0.1414606124162674, 0.20539109408855438, -0.1301797479391098, -0.08935754746198654, 0.1087426245212555, -0.16801948845386505, -0.2193886786699295, 0.03864612430334091, 0.18343433737754822, 0.05530478060245514, 0.12001786381006241, -0.05168311670422554, 0.12707725167274475, 0.20747193694114685, 0.20168741047382355, 0.10091991722583771, -0.16384200751781464], [0.03585439175367355, 0.1069287583231926, -0.16703234612941742, 0.026822520419955254, -0.04770944267511368, 0.18979400396347046, -0.1016867384314537, -0.13315075635910034, -0.027900340035557747, 0.1601627767086029, 0.20098145306110382, 0.10069315135478973, 0.013046580366790295, -0.2043098509311676, -0.058010492473840714, -0.007863313890993595, 0.216022789478302], [-0.011046603322029114, 0.21495872735977173, -0.18254052102565765, 0.04526790603995323, -0.07082346081733704, -0.10442277044057846, -0.007150600198656321, 0.09777649492025375, 0.022737689316272736, 0.2420499324798584, -0.2303360253572464, -0.06895024329423904, 0.10816676169633865, 0.22204871475696564, -0.03432966768741608, 0.1364353448152542, -0.05948232114315033], [0.16312755644321442, -0.028529033064842224, -0.12753181159496307, -0.2411976307630539, -0.010624273680150509, -0.21947656571865082, 0.049871284514665604, -0.1457017958164215, -0.107967309653759, 0.2180778980255127, -0.10399314016103745, -0.11231149733066559, 0.20775914192199707, 0.1870604306459427, -0.1706128567457199, -0.00254030991345644, 0.1458612084388733], [-0.17107455432415009, -0.20452138781547546, -0.1843613088130951, -0.028263941407203674, 0.12890802323818207, 0.1702568382024765, 0.2400159388780594, -0.17416411638259888, -0.14206357300281525, 0.09009136259555817, 0.08843398839235306, 0.05361547693610191, 0.07949331402778625, 0.09013479202985764, 0.09047233313322067, 0.13097400963306427, 0.004850422963500023], [-0.25936686992645264, 0.14282603561878204, -0.14844952523708344, 0.016039231792092323, 0.17115823924541473, -0.17886194586753845, -0.19644276797771454, -0.04845894128084183, 0.10543206334114075, 0.2019306868314743, -0.11614196747541428, 0.03615202382206917, 0.006195276975631714, 0.19794043898582458, 0.18257947266101837, -0.02447950467467308, 0.22470064461231232], [0.21856214106082916, 0.09416254609823227, 0.08616320043802261, -0.1612405776977539, 0.001518314704298973, -0.23298874497413635, 0.03854891657829285, -0.043837495148181915, -0.1861823946237564, 0.060948580503463745, 0.2673516869544983, -0.1875106394290924, -0.1467081606388092, -0.05853413790464401, -0.027365634217858315, -0.021382754668593407, 0.13845716416835785], [-0.008099257946014404, 0.12363802641630173, -0.08024129271507263, -0.09175878763198853, 0.033764131367206573, -0.2204616814851761, 0.03835242986679077, 0.018051836639642715, -0.19748613238334656, 0.09550841897726059, -0.06003544479608536, 0.13194623589515686, -0.06938878446817398, -0.18731410801410675, -0.18229921162128448, -0.16064979135990143, 0.22695843875408173]], "fc1.bias": [0.00501923868432641, 0.08935803920030594, -0.21916095912456512, -0.15446384251117706, -0.23983611166477203, 0.17899054288864136, -0.00512919295579195, 0.1583607941865921, 0.12064587324857712, 0.05141417309641838, 0.16887198388576508, -0.1775827705860138, -0.17215634882450104, -0.0002060882980003953, -0.03826737031340599, -0.11406015604734421, 0.13049481809139252, -0.2216724306344986, -0.1341744065284729, 0.038995299488306046, 0.19555284082889557, -0.010187868028879166, -0.12856338918209076, 0.16590018570423126, -0.052271388471126556, -0.10263922810554504, 0.18926630914211273, 0.13605429232120514, 0.16022971272468567, 0.13145019114017487, 0.23906247317790985, -0.02543637901544571, 0.10376042127609253, -0.0645931214094162, 0.01093586627393961, -0.16090117394924164, -0.14113081991672516, -0.18405912816524506, 0.19907088577747345, 0.181459441781044, 0.1605207473039627, 0.029894569888710976, 0.07382810860872269, -0.11537842452526093, 0.14552584290504456, -0.20397886633872986, 0.20729367434978485, -0.004365064669400454, 0.0798829197883606, 0.05606729909777641, 0.020282745361328125, -0.17528310418128967, 0.21754805743694305, -0.16280905902385712, -0.03791145607829094, 0.22825996577739716, -0.1816217005252838, 0.1525866985321045, -0.1520126909017563, -0.19245974719524384, -0.056756045669317245, -0.22326506674289703, -0.04227267578244209, -0.20382149517536163, -0.23242387175559998, 0.22432132065296173, 0.0954866111278534, -0.17115232348442078, 0.10504069924354553, 0.144146129488945, 0.21318350732326508, 0.16075487434864044, 0.1649484932422638, 0.0037301750853657722, 0.033349741250276566, 0.17440810799598694, 0.07569102197885513, 0.13094490766525269, 0.15879911184310913, -0.14376384019851685, 0.19503027200698853, 0.057781629264354706, -0.10102561861276627, -0.1535836011171341, 0.017101338133215904, 0.024105912074446678, 0.18310852348804474, -0.1308693289756775, 0.11031758040189743, -0.1139838844537735, -0.17978903651237488, 0.08878044784069061, 0.24122169613838196, 0.030338019132614136, 0.21123525500297546, 0.0557633638381958, 0.017639242112636566, -0.0068061575293540955, -0.05674552544951439, 0.06387057155370712], "fc2.weight": [[0.01707294024527073, -0.011055183596909046, -0.0815688744187355, 0.14001880586147308, 0.00544662494212389, 0.05879199504852295, -0.008974993601441383, 0.1016952246427536, -0.04452549293637276, -0.030110642313957214, 0.0622924342751503, 0.048153817653656006, 0.07089655101299286, 0.03642306476831436, -0.05096012353897095, -0.08902132511138916, -0.25069451332092285, 0.16446924209594727, 0.051772262901067734, 0.07074622809886932, 0.00658805388957262, -0.052109718322753906, -0.012323087081313133, 0.0766381323337555, 0.24715319275856018, -0.015400457195937634, 0.053558409214019775, 0.14177493751049042, -0.06709859520196915, 0.07075990736484528, 0.054423294961452484, -0.019840752705931664, 0.04636469855904579, 0.016620172187685966, 0.026414301246404648, 0.035768773406744, 0.04250657930970192, -0.06607154756784439, -0.07909710705280304, -0.0793270692229271, 0.06398957222700119, -0.05205565690994263, 0.2190835326910019, 0.04487372934818268, 0.054641954600811005, 0.0836329236626625, -0.22607727348804474, 0.02797682397067547, -0.03146032989025116, -0.15515509247779846, 0.29466572403907776, -0.2732083797454834, 0.07853896915912628, 0.057229962199926376, 0.07487589865922928, 0.050829000771045685, -0.0008985541644506156, 0.03431152552366257, -0.08975664526224136, -0.0069374325685203075, 0.04871198162436485, 0.04162782430648804, 0.06125399097800255, -0.251767635345459, -0.04731909930706024, 0.0685587003827095, 0.47912079095840454, 0.2084706723690033, 0.006737250369042158, 0.09872864931821823, -0.02555551566183567, 0.20775404572486877, 0.08106788247823715, 0.0032080577220767736, 0.32030561566352844, 0.041079338639974594, 1.0169779062271118, -0.06873791664838791, 0.08719382435083389, -0.028963565826416016, -0.03804546967148781, 0.12657427787780762, -0.003986740950495005, 0.09532871097326279, 0.1425187885761261, 0.06284886598587036, 0.18966712057590485, -0.09823237359523773, -0.012603068724274635, -0.08137663453817368, 0.15311336517333984, 0.1238924115896225, 0.11017769575119019, 0.07465080916881561, 0.151450976729393, -0.05581791326403618, -0.03493232652544975, 0.28582513332366943, -0.07202071696519852, 0.05877580866217613]], "fc2.bias": [0.14381881058216095]}