{"fc1.weight": [[-0.1440269500017166, 0.050455108284950256, -0.07294996082782745, 0.10417185723781586, 0.00863020122051239, -0.21092376112937927, -0.02167689800262451, -0.12042307108640671, 0.1294199377298355, 0.18795113265514374, -0.1656261384487152, -0.14288711547851562, -0.19768759608268738, -0.16754287481307983, -0.19834275543689728, -0.1561552733182907, 0.025364190340042114, -0.028476566076278687, 0.06793065369129181, 0.12716306746006012, 0.1547878235578537], [0.03645797073841095, -0.06452012062072754, -0.09009082615375519, 0.18917353451251984, 0.03852103650569916, 0.08217059075832367, 0.12603457272052765, 0.20303131639957428, 0.1686321347951889, 0.004532799124717712, -0.030237525701522827, 0.021248504519462585, 0.14119307696819305, -0.07193981111049652, 0.21646510064601898, -0.16116052865982056, -0.08188855648040771, -0.12745028734207153, 0.04611538350582123, 0.002112150192260742, -0.024193033576011658], [-0.05324849858880043, 0.09979276359081268, -0.024854622781276703, -0.10993540287017822, -0.17327147722244263, -0.1692049354314804, 0.24633347988128662, -0.0643472820520401, 0.025062941014766693, 0.18642020225524902, -0.17604675889015198, -0.08875527232885361, -0.023774147033691406, -0.13470815122127533, 0.052296530455350876, 0.14830678701400757, -0.03212091699242592, 0.21028076112270355, -0.2638380825519562, -0.00015473333769477904, -0.12900783121585846], [0.18905963003635406, -0.06209540367126465, -0.10541348159313202, 0.03512187302112579, -0.21453054249286652, 0.022778525948524475, 0.19430024921894073, 0.030461356043815613, 0.21380753815174103, -0.12543362379074097, -0.1344652771949768, -0.0011879056692123413, 0.0794876366853714, -0.1500079184770584, 0.015185520052909851, 0.06483738124370575, -0.047193124890327454, -0.08268414437770844, -0.17233577370643616, -0.035473525524139404, 0.07507409155368805], [0.13763253390789032, -0.07044132053852081, -0.1074555516242981, 0.14660443365573883, 0.20349238812923431, -0.20020240545272827, -0.019409939646720886, 0.14005590975284576, -0.05897514522075653, -0.008373260498046875, 0.12785844504833221, 0.018924638628959656, 0.09830598533153534, -0.06741991639137268, 0.14604546129703522, -0.1850510835647583, 0.2054423838853836, -0.038441002368927, 0.015919625759124756, -0.13944879174232483, 0.13989658653736115], [-0.1609203964471817, 0.20244145393371582, 0.071563720703125, 0.1604301631450653, -0.18662109971046448, -0.015725180506706238, 0.18594980239868164, -0.1233484074473381, -0.19861643016338348, -0.000843879533931613, -0.08443928509950638, 0.05403297021985054, 0.2032666653394699, -0.15600624680519104, -0.11458532512187958, 0.16743314266204834, -0.05185297504067421, 0.13393130898475647, 0.15951521694660187, 0.07581320405006409, 0.10045427083969116], [0.10813403129577637, 0.03768591210246086, 0.09499344229698181, -0.08626415580511093, -0.06548701971769333, -0.21262912452220917, -0.09920445829629898, -0.19267025589942932, 0.07903018593788147, -0.05036136880517006, -0.005112749524414539, 0.07422812283039093, 0.10308542847633362, 0.012111952528357506, -0.18072305619716644, 0.1172405481338501, 0.05228128284215927, 0.07441320270299911, -0.14188379049301147, 0.04733918979763985, -0.012092013843357563], [-0.21063482761383057, -0.06767547130584717, -0.10243783891201019, 0.09727533161640167, -0.10337302833795547, 0.21777300536632538, -0.17756783962249756, -0.09584799408912659, 0.11937572062015533, -0.1983526051044464, -0.07079105079174042, 0.20011134445667267, -0.11415251344442368, -0.19762647151947021, 0.18555782735347748, -0.17480850219726562, -0.18328462541103363, 0.19384907186031342, 0.08950300514698029, -0.07838641107082367, -0.08055244386196136], [0.07545612752437592, 0.025001313537359238, -0.11549915373325348, 0.1287018358707428, -0.016872333362698555, 0.10275668650865555, 0.14879867434501648, -0.16045625507831573, 0.19636356830596924, -0.05657024309039116, -0.20223625004291534, -0.15021519362926483, -0.034595638513565063, -0.16058644652366638, 0.019746212288737297, -0.11485982686281204, 0.14146241545677185, -0.15003684163093567, -0.023970359936356544, 0.06946471333503723, -0.12184666097164154], [0.13303963840007782, 0.08842800557613373, -0.17119121551513672, -0.1840611845254898, 0.14464496076107025, 0.15940232574939728, 0.1619376689195633, -0.1744154989719391, -0.09405238181352615, -0.12738776206970215, -0.1939401626586914, 0.0651945024728775, 0.11857791244983673, -0.11507373303174973, -0.10969461500644684, -0.11098117381334305, 0.007181152701377869, 0.043075427412986755, -0.07619385421276093, -0.014437884092330933, -0.05128520727157593], [0.058833047747612, -0.05097222328186035, -0.014222174882888794, 0.2070462852716446, 0.13945798575878143, -0.20129406452178955, 0.12828578054904938, -0.0903734564781189, -0.1921730488538742, -0.07009497284889221, 0.12042774260044098, -0.08099228143692017, 0.16800184547901154, 0.16338177025318146, 0.08995862305164337, -0.16449502110481262, -0.03377358615398407, 0.11054392158985138, 0.10705088078975677, -0.07594145834445953, -0.20459634065628052], [0.0399104505777359, 0.15600605309009552, -0.11474612355232239, -0.1960834413766861, -0.06144365668296814, 0.16488708555698395, -0.03859204053878784, -0.06980611383914948, 0.215401753783226, -0.10199105739593506, -0.19651976227760315, -0.18823400139808655, 0.03520385921001434, -0.1470033824443817, -0.17342185974121094, -0.17225958406925201, -0.13792142271995544, -0.06023015081882477, -0.109256811439991, -0.12231384217739105, 0.006999015808105469], [-0.06171336770057678, 0.11575724184513092, 0.2147849053144455, -0.04679802060127258, -0.13294768333435059, 0.12902744114398956, 0.051951125264167786, -0.13975492119789124, -0.1518736183643341, -0.0480719655752182, -0.1978638470172882, -0.07486073672771454, 0.0464148074388504, 0.04545395076274872, -0.17470717430114746, 0.1835772842168808, -0.061060816049575806, -0.17758803069591522, -0.21189403533935547, -0.19240587949752808, -0.13375376164913177], [0.21194301545619965, -0.1750297248363495, -0.132034033536911, 0.19837628304958344, 0.07355745136737823, 0.1673424392938614, 0.19806088507175446, 0.1216624528169632, -0.028213858604431152, 0.08211229741573334, 0.053125664591789246, -0.03988124430179596, 0.14483754336833954, -0.14844605326652527, 0.16581518948078156, -0.10982395708560944, -0.041534021496772766, -0.09644430130720139, -0.12253779172897339, 0.17336370050907135, 0.17872287333011627], [0.09752283990383148, -0.0013515949249267578, 0.144899383187294, 0.08449582755565643, -0.039848700165748596, -0.023912087082862854, 0.16151653230190277, 0.04965938627719879, -0.15697313845157623, -0.19716431200504303, -0.07591952383518219, 0.10753612220287323, 0.0797780305147171, 0.0003198087215423584, 0.04778464138507843, 0.08712948858737946, -0.1653633862733841, 0.16110537946224213, 0.09202231466770172, -0.21814638376235962, 0.12607146799564362], [0.046897873282432556, -0.10781911760568619, 0.060932889580726624, -0.11960294097661972, -0.006144776940345764, -0.21324974298477173, 0.16948796808719635, 0.17219553887844086, 0.03154252469539642, -0.1829235553741455, 0.009729444980621338, 0.03607918322086334, -0.1901569664478302, -0.12140645831823349, 0.09491120278835297, 0.21687628328800201, -0.05538061261177063, -0.061699241399765015, -0.14258694648742676, -0.16652356088161469, -0.17265650629997253], [-0.054827433079481125, -0.03165969252586365, -0.12387754768133163, -0.04519657790660858, 0.036187488585710526, 0.12743516266345978, 0.12852483987808228, 0.09519927203655243, -0.06488800793886185, 0.04539065062999725, 0.18978288769721985, 0.20406420528888702, -0.009607333689928055, 0.07698236405849457, -0.003979322034865618, 0.009578174911439419, -0.13593906164169312, -0.008106473833322525, -0.024397054687142372, -0.0483112595975399, 0.14955829083919525], [-0.03150878846645355, -0.011639416217803955, 0.15583498775959015, 0.17440591752529144, -0.10446575284004211, 0.025774165987968445, 0.006075739860534668, 0.14950932562351227, 0.1674603670835495, -0.13965854048728943, 0.20668072998523712, 0.021101057529449463, -0.06344600021839142, 0.109586700797081, -0.12960413098335266, 0.20928101241588593, 0.20376186072826385, -0.2045055478811264, -0.01906263828277588, 0.06532059609889984, 0.16369135677814484], [0.04929926246404648, 0.2059582769870758, 0.14510512351989746, -0.0792369470000267, -0.1809411346912384, 0.13907387852668762, 0.13624028861522675, 0.1206616684794426, 0.015469406731426716, 0.18001306056976318, -0.021220240741968155, 0.13136301934719086, 0.16962312161922455, -0.07886531949043274, -0.09994133561849594, -0.1827700436115265, -0.1319970190525055, 0.21292157471179962, -0.14793738722801208, -0.03345401585102081, 0.105613574385643], [0.1614861935377121, -0.10159137845039368, 0.13493023812770844, 0.0874880701303482, -0.14087092876434326, 0.10247524082660675, -0.14344894886016846, 0.07275919616222382, -0.04254607856273651, 0.01485145092010498, -0.12654298543930054, 0.217194065451622, -0.1188354343175888, -0.20398208498954773, 0.14069341123104095, -0.2124577760696411, -0.07320882380008698, 0.15766210854053497, -0.15139350295066833, -0.18384237587451935, 0.19711072742938995], [-0.019340485334396362, 0.18079645931720734, 0.17598165571689606, 0.21506260335445404, -0.13292697072029114, -0.12152118235826492, 0.13675455749034882, -0.14425626397132874, 0.21059630811214447, 0.20946653187274933, -0.17170500755310059, 0.1119573563337326, -0.08726784586906433, -0.1458493173122406, 0.0976315587759018, 0.19133113324642181, 0.06564439833164215, 0.15278850495815277, -0.1850324273109436, -0.12988543510437012, -0.19326326251029968], [0.08983372151851654, -0.15249702334403992, 0.12169282138347626, 0.0885811597108841, 0.12179948389530182, -0.1272338479757309, -0.13548487424850464, -0.0377725213766098, -0.1829933226108551, -0.08122673630714417, 0.13675396144390106, -0.10422468930482864, 0.11889477074146271, -0.1793346107006073, -0.027662023901939392, -0.053462088108062744, 0.08053736388683319, 0.21330516040325165, 0.19143836200237274, -0.11021741479635239, 0.08992840349674225], [-0.11609110236167908, -0.08011025190353394, 0.00022289592016022652, 0.13987642526626587, 0.1340688019990921, 0.05972756817936897, -0.03771265596151352, -0.07348543405532837, 0.06729594618082047, -0.05424751341342926, -0.016117218881845474, -0.04653303325176239, 0.0642351359128952, 0.10416437685489655, -0.11216584593057632, 0.17201705276966095, -0.11299749463796616, -0.0829913541674614, -0.20522372424602509, -0.14962510764598846, 0.18515272438526154], [-0.015802010893821716, -0.13486073911190033, 0.21677182614803314, 0.10407416522502899, 0.09966691583395004, 0.18796105682849884, -0.08610885590314865, 0.1452178806066513, -0.04125767573714256, 0.1650986671447754, 0.03717491775751114, -0.11266600340604782, -0.021065177395939827, 0.18786078691482544, -0.02064630202949047, 0.1002158373594284, -0.1836864948272705, -0.005421145353466272, -0.08210596442222595, -0.17824877798557281, 0.15738995373249054], [0.08307962119579315, 0.022927816957235336, -0.34092363715171814, 0.1371830403804779, 0.18160827457904816, 0.1962815225124359, 0.05074987933039665, -0.10535480082035065, -0.05312367528676987, -0.013614763505756855, -0.16253279149532318, -0.1756887137889862, 0.0685882568359375, 0.20834589004516602, 0.1624116152524948, -0.021760158240795135, 0.04294629395008087, -0.07643262296915054, 0.12137958407402039, 0.050997376441955566, 0.228225439786911], [-0.03713516891002655, -0.02685430645942688, -0.00014926493167877197, -0.0737822949886322, -0.018755629658699036, -0.09126041829586029, -0.010672524571418762, 0.20110903680324554, 0.131814107298851, 0.044420644640922546, -0.16101151704788208, -0.1581134796142578, -0.20394465327262878, -5.449354648590088e-05, 0.16816075146198273, -0.04439988732337952, 0.02789399027824402, -0.14913153648376465, 0.17181293666362762, -0.03747355937957764, -0.023538023233413696], [-0.15870559215545654, 0.16569019854068756, -0.11109526455402374, 0.10997478663921356, 0.21631114184856415, 0.010279819369316101, -0.019369885325431824, 0.03283427655696869, 0.07556255161762238, -0.07666899263858795, 0.205653116106987, -0.09221696853637695, -0.14555230736732483, 0.15156890451908112, -0.21054206788539886, 0.09900124371051788, 0.11188973486423492, 0.16103495657444, 0.1683569699525833, 0.16504819691181183, -0.03977872431278229], [0.11144451797008514, -0.11060918122529984, -0.12313181161880493, 0.10298360884189606, 0.013575047254562378, -0.1943955272436142, -0.023816287517547607, -0.12628939747810364, 0.17002852261066437, -0.204103022813797, 0.19139285385608673, -0.016185998916625977, -0.017073556780815125, -0.02137225866317749, -0.07681486010551453, -0.02399332821369171, 0.12941671907901764, 0.1865922063589096, -0.020333245396614075, -0.0043113380670547485, -0.09241113066673279], [0.20034582912921906, -0.1944558471441269, 0.08315075933933258, 0.08645470440387726, 0.16420020163059235, 0.0668443888425827, -0.10448905825614929, -0.0930686742067337, -0.11277949064970016, -0.05753853917121887, 0.20439745485782623, 0.1322401911020279, -0.029491961002349854, 0.2154596596956253, 0.20632337033748627, -0.06614494323730469, -0.03663770854473114, -0.20595020055770874, -0.08034619688987732, 0.027804717421531677, 0.0030888766050338745], [0.1470455378293991, -0.07286424934864044, 0.009661898016929626, -0.07826288044452667, 0.16708411276340485, -0.05186031758785248, -0.04976685345172882, 0.09415735304355621, 0.16989724338054657, -0.043260231614112854, -0.05921614170074463, -0.0938555896282196, 0.026373907923698425, 0.14327086508274078, -0.12775775790214539, 0.08547122776508331, 0.20916397869586945, -0.21616508066654205, 0.10497929155826569, -0.09219841659069061, 0.07706283032894135], [0.1472153514623642, 0.0751817375421524, -0.09529483318328857, 0.031315870583057404, -0.023398812860250473, -0.15721194446086884, -0.0772247388958931, 0.05858023464679718, 0.09156857430934906, -0.14936679601669312, -0.20310045778751373, 0.18354502320289612, 0.08838225156068802, 0.11917731165885925, -0.02849063090980053, 0.03379888832569122, -0.11121509969234467, -0.05074254795908928, 0.04794095829129219, 0.16275806725025177, 0.19682002067565918], [-0.16768233478069305, 0.15882639586925507, -0.014110967516899109, -0.13954678177833557, 0.06950898468494415, 0.05597890913486481, 0.13383455574512482, -0.039712727069854736, 0.08977259695529938, 0.008413240313529968, -0.1321420669555664, -0.02323588728904724, -0.18347370624542236, 0.20122842490673065, -0.02257150411605835, -0.09436971694231033, -0.21796751022338867, -0.16524627804756165, -0.0534663051366806, 0.014709055423736572, -0.09093199670314789], [-0.01567600667476654, -0.07784655690193176, 0.1769656389951706, -0.02492322027683258, -0.21018162369728088, -0.1645122766494751, 0.0026178210973739624, 0.20402725040912628, -0.10078514367341995, 0.1181430071592331, 0.1504717320203781, 3.769993782043457e-06, 0.053997769951820374, -0.15362152457237244, 0.01898355782032013, 0.1790803223848343, -0.030334308743476868, -0.030819669365882874, -0.07038143277168274, 0.13009802997112274, -0.04884745180606842], [0.1450009047985077, -0.16832681000232697, -0.04528656229376793, 0.10435713082551956, -0.19765524566173553, -0.12385665625333786, -0.0012922292808070779, 0.15394632518291473, 0.03135842829942703, 0.058663200587034225, -0.14319899678230286, 0.16207119822502136, -0.16664236783981323, -0.03510357439517975, 0.07942017912864685, 0.1056591048836708, 0.06905796378850937, -0.20827548205852509, 0.0850636288523674, 0.0644921138882637, 0.18127252161502838], [0.06102912127971649, -0.02472439408302307, -0.11681094765663147, 0.09702952206134796, 0.04825703799724579, 0.10274313390254974, -0.18288148939609528, 0.14601899683475494, -0.07870994508266449, -0.12477808445692062, -0.1347026377916336, -0.16504746675491333, 0.1667262762784958, 0.04631046950817108, -0.08445332944393158, -0.0880013257265091, -0.12876461446285248, -0.02191738784313202, -0.19990915060043335, 0.08595435321331024, -0.1562936156988144], [-0.11360425502061844, -0.17396461963653564, 0.09597767889499664, 0.08301876485347748, -0.1555972546339035, -0.1507592797279358, -0.1948985755443573, -0.1314714252948761, -0.1565239429473877, -0.020964443683624268, -0.21791835129261017, -0.18716976046562195, 0.03993155062198639, -0.045584410429000854, 0.174636110663414, 0.008745819330215454, -0.08221369981765747, -0.16685053706169128, 0.06260691583156586, -0.16580620408058167, 0.12201978266239166], [-0.019940495491027832, -0.0847470760345459, -0.025363728404045105, 0.1210440844297409, 0.10357718169689178, 0.09264971315860748, -0.025133997201919556, 0.12870721518993378, 0.19009844958782196, -0.015088751912117004, 0.0663759857416153, -0.046803414821624756, 0.00933443009853363, 0.08055825531482697, 0.19965486228466034, 0.1958744376897812, 0.03603096306324005, -0.056184619665145874, -0.07311621308326721, -0.013436853885650635, 0.09704430401325226], [-0.14198103547096252, -0.14029407501220703, -0.0877193957567215, -0.02258150279521942, -0.16587591171264648, 0.12691818177700043, -0.21434415876865387, -0.07005420327186584, 0.062029287219047546, 0.16215433180332184, -0.010379433631896973, -0.00858817994594574, -0.18815195560455322, -0.10469438880681992, -0.21659985184669495, 0.14124567806720734, -0.11173931509256363, -0.17611967027187347, 0.10979090631008148, -0.17427855730056763, 0.12160132825374603], [-0.18945176899433136, 0.1696377694606781, -0.15475577116012573, 0.16381928324699402, -0.0060700345784425735, 0.1358928084373474, 0.07826051115989685, -0.015195302665233612, -0.029303213581442833, 0.11370676755905151, 0.17416709661483765, 0.03834941238164902, -0.05891406908631325, -0.07992521673440933, -0.16058003902435303, 0.12011414021253586, -0.13282564282417297, 0.11288358271121979, -0.1502729058265686, -0.17173613607883453, 0.10109514743089676], [0.21221642196178436, -0.061650484800338745, 0.11394892632961273, -0.033041611313819885, 0.004363343119621277, -0.2037229835987091, 0.09343449771404266, -0.04046282172203064, 0.02307172119617462, 0.1830836981534958, -0.04888564348220825, 0.08294521272182465, 0.037265196442604065, -0.037521034479141235, 0.16290660202503204, 0.20016540586948395, -0.05096137523651123, 0.021090373396873474, 0.09843505918979645, 0.1786656230688095, 0.11640195548534393], [-0.059536516666412354, -0.15078279376029968, 0.18322311341762543, 0.04883645474910736, 0.1640259474515915, 0.19689996540546417, -0.04216468334197998, -0.017137840390205383, -0.09238384664058685, 0.12058691680431366, -0.17260757088661194, 0.05994565784931183, -0.21617697179317474, -0.12086465209722519, 0.016508623957633972, -0.04620608687400818, -0.19119367003440857, 0.09611202776432037, 0.03839249908924103, -0.08726842701435089, -0.15220105648040771], [0.17551960051059723, -0.18772517144680023, -0.1883706897497177, 0.05100063979625702, -0.13333489000797272, -0.2004190981388092, 0.11043445765972137, -0.20900730788707733, -0.15523478388786316, 0.18599621951580048, -0.017729908227920532, -0.10312794893980026, 0.11967147886753082, -0.18466857075691223, -0.1840038150548935, -0.08158093690872192, 0.04199428856372833, -0.12310319393873215, 0.21433894336223602, 0.07400523126125336, 0.21139879524707794], [-0.1495683491230011, -0.01612694188952446, 0.22072143852710724, -0.07443906366825104, -0.0739268884062767, -0.1960756778717041, 0.17104865610599518, 0.11566409468650818, -0.02279324270784855, 0.21385318040847778, 0.07390708476305008, -0.18664763867855072, -0.16820164024829865, 0.19644983112812042, 0.09355192631483078, -0.07210725545883179, 0.07042644917964935, 0.002047707559540868, -0.22985035181045532, 0.033907439559698105, -0.22268003225326538], [0.07760880887508392, -0.1808956116437912, 0.10816808044910431, -0.20329298079013824, -0.16091427206993103, 0.1427737921476364, -0.1948586106300354, 0.11564905941486359, -0.20286893844604492, 0.0765305608510971, -0.10611223429441452, 0.024082928895950317, 0.09469591081142426, -0.17994192242622375, 0.11220903694629669, -0.06264564394950867, 0.12312234938144684, 0.001485973596572876, 0.042111411690711975, -0.010664254426956177, 0.1486658900976181], [-0.08961112797260284, 0.03885503113269806, 0.08210815489292145, 0.16848082840442657, -0.009036481380462646, -0.06394074857234955, -0.17983867228031158, -0.21225237846374512, 0.101507768034935, -0.06145799160003662, -0.14035846292972565, -0.12097429484128952, -0.10941783338785172, 0.048700883984565735, 0.07411687076091766, 0.1839251071214676, -0.10817040503025055, -0.07020202279090881, -0.10569635033607483, -0.04887723922729492, -0.09109517931938171], [0.03981616348028183, 0.15217137336730957, -0.18030476570129395, 0.12219095230102539, -0.010853225365281105, 0.18897680938243866, -0.13095691800117493, -0.14575564861297607, 0.040098946541547775, 0.10852982103824615, 0.10546277463436127, -0.036809127777814865, 0.17329417169094086, 0.08557020127773285, 0.003320840420201421, -0.059351153671741486, 0.20187132060527802, -0.05803043022751808, -0.062193091958761215, 0.16026191413402557, 0.16133752465248108], [0.11058305203914642, 0.20688356459140778, -0.1904076635837555, 0.02476029098033905, 0.18188993632793427, -0.07148914039134979, 0.08682490885257721, -0.17189079523086548, -0.11466141790151596, 0.127014622092247, 0.16974006593227386, -0.1295723021030426, 0.01683083176612854, 0.08389808237552643, 0.11503560841083527, 0.14051489531993866, -0.0706380307674408, 0.06509865820407867, -0.2135615050792694, -0.06896539032459259, -0.12386726588010788], [0.21070165932178497, 0.20997200906276703, 0.2066536396741867, 0.0611201673746109, 0.1049235612154007, 0.050377652049064636, -0.09568691998720169, 0.13943861424922943, 0.08829109370708466, -0.06080488860607147, -0.01817367970943451, -0.04901048541069031, -0.10282973200082779, -0.04555262625217438, 0.07336319983005524, -0.14037269353866577, -0.07332172989845276, 0.057203128933906555, -0.07411381602287292, -0.1532689332962036, -0.05117595195770264], [0.05131806433200836, 0.20946519076824188, -0.08669422566890717, -0.1359531283378601, 0.1170007735490799, -0.1126442477107048, 0.1902189999818802, 0.1973690241575241, 0.13333536684513092, 0.04816161096096039, -0.20877976715564728, 0.013277292251586914, 0.010240614414215088, 0.09850703179836273, -0.010743513703346252, 0.21120373904705048, -0.21089708805084229, 0.10516966879367828, -0.20811842381954193, 0.17999662458896637, -0.1457957625389099], [-0.13979938626289368, -0.012118905782699585, -0.047644734382629395, 0.0538799911737442, -0.2127363085746765, 0.006747901439666748, 0.060740187764167786, 0.16987960040569305, 0.09988276660442352, -0.07921671867370605, -0.11007378995418549, 0.16746728122234344, -0.19461989402770996, 0.2146325558423996, -0.20057407021522522, -0.01804444193840027, 0.0619998425245285, -0.14952877163887024, 0.1594158262014389, 0.10875110328197479, 0.0989825576543808], [0.02323477528989315, 0.1444457471370697, 0.001821243204176426, -0.07145947962999344, -0.04200466722249985, -0.049640923738479614, 0.07876954972743988, -0.13195177912712097, -0.12169206142425537, 0.031692687422037125, 0.19789746403694153, 0.15767239034175873, -0.12200848758220673, -0.0753505527973175, -0.005723839625716209, -0.07315127551555634, 0.14465604722499847, 0.160408154129982, -0.1368425190448761, -0.02623840421438217, -0.11519815027713776], [0.1320716291666031, -0.1902233362197876, 0.17393149435520172, 0.11505372822284698, 0.0038749128580093384, -0.14859390258789062, -0.18652600049972534, -0.0626138299703598, -0.17628233134746552, -0.09343796223402023, -0.06847812235355377, 0.06611065566539764, 0.19491960108280182, -0.10814610868692398, -0.056694671511650085, 0.19536419212818146, -0.20499564707279205, -0.04322095215320587, 0.1781579703092575, 0.0924559086561203, -0.15360751748085022], [0.10457231104373932, -0.017465144395828247, -0.13913241028785706, -0.05214565992355347, -0.07496747374534607, 0.011334702372550964, 0.015250622294843197, -0.050154685974121094, 0.1737920492887497, 0.1113051325082779, 0.03715614974498749, -0.030528515577316284, -0.17790228128433228, 0.17310644686222076, -0.19679324328899384, 0.20495690405368805, 0.13284064829349518, -0.06085368990898132, -0.12161290645599365, -0.0100774597376585, 0.2131713479757309], [-0.05118602514266968, -0.1695140302181244, -0.011861652135848999, 0.032187655568122864, 0.19918958842754364, -0.013490498065948486, -0.16825497150421143, 0.18748755753040314, 0.07327170670032501, 0.029851391911506653, -0.010661303997039795, 0.1959182471036911, -0.08631713688373566, -0.07853321731090546, 0.08554600179195404, 0.21672894060611725, -0.024223893880844116, -0.18497847020626068, 0.004172652959823608, -0.018590465188026428, 0.199348583817482], [-0.08459734171628952, -0.02515508234500885, 0.08851547539234161, -0.17111006379127502, -0.08173926174640656, -0.012264162302017212, 0.11495669931173325, -0.030093006789684296, -0.11562444269657135, 0.09076426923274994, -0.0009753509657457471, 0.12348882853984833, 0.17091034352779388, 0.08028323948383331, 0.10339803993701935, 0.056296080350875854, 0.1955997794866562, 0.06276536732912064, -0.02556437812745571, -0.18870167434215546, -0.19071079790592194], [-0.10205689072608948, -0.13096138834953308, 0.014689356088638306, -0.056294187903404236, -0.2021784782409668, -0.11494002491235733, -0.039030760526657104, 0.130803182721138, -0.1569434404373169, 0.14148764312267303, -0.14135369658470154, 0.18180246651172638, -0.0529647022485733, 0.21815161406993866, -0.16845661401748657, 0.09284017980098724, 0.21339239180088043, -0.08839306235313416, -0.13610321283340454, -0.19834506511688232, -0.21722836792469025], [0.05921007692813873, -0.03701569139957428, -0.10182805359363556, 0.09780965745449066, 0.1527540534734726, 0.1250939518213272, 0.07689480483531952, 0.0834200531244278, 0.19436459243297577, -0.06710314750671387, 0.11877132952213287, -0.029447272419929504, -0.15286719799041748, 0.014213994145393372, 0.19565875828266144, 0.025821983814239502, -0.0775187611579895, -0.032233864068984985, -0.18086931109428406, -0.13367339968681335, -0.16347791254520416], [0.05030103027820587, -0.11830699443817139, 0.1458979994058609, -0.16799384355545044, -0.05663265287876129, -0.03744719922542572, -0.0587022602558136, -0.1075526550412178, -0.03246226906776428, 0.09964336454868317, 0.022864103317260742, -0.06568637490272522, 0.13436461985111237, 0.12094585597515106, 0.21500013768672943, -0.017664402723312378, 0.012870460748672485, -0.0034331977367401123, -0.011250540614128113, -0.07629874348640442, 0.14535926282405853], [-0.14580200612545013, -0.13560186326503754, 0.17544716596603394, -0.10182242095470428, -0.05903226509690285, -0.048350997269153595, 0.15138758718967438, -0.09584185481071472, -0.06714905053377151, 0.1297309696674347, 0.027166718617081642, 0.01697947457432747, -0.1558532565832138, 0.15622305870056152, -0.013406853191554546, 0.1291670948266983, -0.14920715987682343, 0.24265839159488678, -0.20930346846580505, -0.0585029311478138, 0.03565862029790878], [-0.005938827991485596, -0.05286853015422821, -0.15996702015399933, -0.004620149731636047, 0.01746964454650879, 0.17758427560329437, -0.032635852694511414, -0.1297614574432373, -0.06983882188796997, 0.20049645006656647, 0.11745645105838776, -0.12000299990177155, -0.022246360778808594, 0.02369096875190735, 0.030559584498405457, -0.1635158210992813, 0.024621248245239258, 0.09325717389583588, 0.10155968368053436, -0.19360201060771942, 0.15810979902744293], [-0.1810627430677414, -0.1797199547290802, 0.09961636364459991, -0.0656127780675888, 0.04983527958393097, 0.10265041887760162, 0.17477969825267792, 0.023122817277908325, -0.1710701733827591, -0.05670939385890961, -0.027361422777175903, 0.05613107979297638, -0.10829295217990875, -0.19675703346729279, 0.10920490324497223, 0.12961240112781525, 0.19208656251430511, 0.08817966282367706, 0.12519408762454987, 0.19471235573291779, 0.12445516884326935], [0.12131370604038239, -0.04858115315437317, -0.0007123351097106934, -0.0608661025762558, 0.20969273149967194, 0.010457202792167664, 0.03951917588710785, 0.10747458040714264, 0.14275826513767242, -0.08135150372982025, -0.21093618869781494, 0.010133236646652222, 0.16005469858646393, 0.024052336812019348, 0.02683110535144806, 0.0033178478479385376, 0.15828292071819305, 0.1904771476984024, 0.11392097175121307, -0.15097209811210632, 0.013386473059654236], [-0.1859932392835617, 0.1992613822221756, 0.09601767361164093, -0.03614114224910736, -0.07668070495128632, -0.20259085297584534, 0.2001143842935562, -0.09701761603355408, 0.1897638887166977, 0.19508378207683563, 0.05111058056354523, 0.1185348778963089, -0.04506070911884308, 0.07269962131977081, -0.05947057902812958, 0.18534769117832184, -0.013872683048248291, 0.07815764844417572, -0.038767293095588684, -0.03756646811962128, -0.059425413608551025], [0.14581440389156342, 0.13631285727024078, -0.16838166117668152, 0.05767644941806793, 0.11459220945835114, 0.09585423767566681, 0.18457062542438507, 0.02419362962245941, -0.09796644002199173, -0.012224018573760986, -0.06850627064704895, 0.0871344655752182, -0.20461514592170715, 0.2029384821653366, 0.07076458632946014, 0.07740713655948639, -0.1930636465549469, -0.11108845472335815, 0.125138059258461, 0.19468025863170624, -0.0014419108629226685], [-0.08316683769226074, -0.06283244490623474, 0.04660089313983917, 0.027771204710006714, -0.13323281705379486, -0.01695854961872101, -0.08756689727306366, -0.14790338277816772, -0.08451735973358154, -0.015343546867370605, 0.10051487386226654, 0.19942490756511688, 0.012961745262145996, 0.1614283174276352, -0.17123402655124664, -0.051286518573760986, -0.18928691744804382, -0.2090771347284317, 0.10400547087192535, -0.03173893690109253, -0.02047683298587799], [-0.10752391070127487, 0.15794244408607483, -0.09532912075519562, 0.016692277044057846, -0.09276578575372696, 0.061729054898023605, 0.053066108375787735, 0.0747746080160141, 0.12272828072309494, -0.06814415752887726, 0.08165547996759415, -0.1565741002559662, -0.17594660818576813, -0.1803247183561325, 0.0707550197839737, 0.033241741359233856, -0.0013275528326630592, -0.1584693342447281, 0.1835857480764389, 0.03799760714173317, 0.22361795604228973], [-0.11166992783546448, 0.023044882342219353, 0.030477536842226982, -0.17093297839164734, 0.20733965933322906, -0.15229734778404236, 0.14962002635002136, -0.0795387476682663, -0.03222872316837311, 0.13269205391407013, 0.08622103184461594, -0.2094459980726242, 0.04843570291996002, -0.13519954681396484, -0.1221657544374466, -0.112222820520401, 0.15764538943767548, 0.19768904149532318, 0.023667234927415848, -0.032321248203516006, 0.03823939338326454], [0.11263735592365265, 0.18110449612140656, 0.04287393391132355, -0.00800524652004242, 0.19113199412822723, -0.14190366864204407, 0.03752143681049347, 0.15451712906360626, 0.10405464470386505, -0.07733000814914703, 0.052422717213630676, 0.12836836278438568, 0.17890368402004242, -0.1586242914199829, 0.14845304191112518, 0.07237471640110016, -0.0458022803068161, -0.035427212715148926, 0.07485543191432953, 0.06965599954128265, -0.18631327152252197], [-0.06254085898399353, 0.07563744485378265, 0.13544534146785736, -0.07164449989795685, 0.10054861009120941, 0.2120513767004013, -0.1879565417766571, 0.16506047546863556, -0.10642148554325104, -0.16873784363269806, 0.17179562151432037, 0.14766599237918854, 0.17294256389141083, -0.07373334467411041, -0.11149904876947403, -0.04448346793651581, -0.15428513288497925, -0.10017038881778717, -0.0583358108997345, 0.19915436208248138, 0.06896363198757172], [-0.08696195483207703, -0.16346406936645508, 0.01048228144645691, 0.14451418817043304, -0.14860579371452332, -0.0664435476064682, 0.017138540744781494, 0.14033301174640656, 0.12298010289669037, -0.09124696254730225, -0.19198226928710938, 0.1882786601781845, 0.11785851418972015, 0.1681111603975296, -0.21224413812160492, -0.040911510586738586, -0.19792057573795319, -0.19935660064220428, 0.09045536816120148, -0.09260661900043488, -0.06034731864929199], [0.025379672646522522, 0.05264677107334137, -0.0940609872341156, 0.1037888377904892, -0.18141421675682068, -0.09030026197433472, -0.030501052737236023, -0.02694360911846161, 0.18068312108516693, -0.11279002577066422, -0.11208092421293259, 0.04588685929775238, 0.21257643401622772, 0.1213199645280838, 0.15437789261341095, 0.04788242280483246, -0.09454245120286942, 0.03444091975688934, -0.2022520750761032, 0.07670243084430695, -0.040908798575401306], [0.09456102550029755, -0.15674102306365967, -0.04700826108455658, 0.007765710353851318, -0.035120829939842224, 0.15214379131793976, 0.17341287434101105, 0.12702597677707672, -0.059355512261390686, 0.04137943685054779, 0.15830929577350616, -0.1521753966808319, -0.13150981068611145, 0.07307712733745575, 0.19017113745212555, 0.0713178962469101, 0.09180192649364471, 0.03711484372615814, 0.010522738099098206, -0.07431833446025848, -0.18143458664417267], [0.15863177180290222, -0.1714668869972229, 0.009145463816821575, -0.15496502816677094, -0.09575936198234558, 0.14286093413829803, 0.17616266012191772, -0.07538758218288422, 0.015730982646346092, -0.14864154160022736, -0.02516164630651474, -0.007955297827720642, 0.033988188952207565, -0.2140817642211914, -0.2459704428911209, -0.06311609596014023, -0.17884652316570282, 0.0850977674126625, 0.1443266123533249, 0.12741345167160034, -0.1942732185125351], [0.20035873353481293, -0.06726474314928055, 0.12548500299453735, -0.1426997184753418, -0.13356097042560577, 0.2048342227935791, -0.07034678757190704, 0.028650494292378426, 0.1061478927731514, -0.08458830416202545, -0.07485717535018921, -0.11210139840841293, -0.014107880182564259, 0.05303481966257095, -0.15280255675315857, 0.22463193535804749, 0.14716453850269318, 0.026291649788618088, -0.1945345550775528, -0.23645490407943726, 0.11546002328395844], [0.05674835667014122, -0.16408602893352509, 0.2097100019454956, -0.00035771698458120227, 0.20433320105075836, -0.060199059545993805, 0.14098398387432098, 0.12739036977291107, -0.14622190594673157, 0.09518906474113464, -0.0035090388264507055, -0.20044639706611633, -0.1905573457479477, -0.1969088464975357, 0.09150578826665878, -0.07395850867033005, 0.005378115456551313, -0.16631613671779633, -0.020783191546797752, 0.12125279754400253, -0.1808294951915741], [0.20780445635318756, 0.17421449720859528, 0.05480508506298065, -0.013722747564315796, 0.142208531498909, 0.01070280373096466, -0.05556148290634155, 0.07121174037456512, -0.09451864659786224, -0.04488159716129303, 0.004635408520698547, 0.11079071462154388, -0.18344447016716003, 0.1470126360654831, -0.16249312460422516, -0.082044318318367, 0.18588779866695404, -0.13369382917881012, 0.13595445454120636, 0.015958696603775024, -0.19512653350830078], [-0.12609660625457764, 0.07755990326404572, -0.18711182475090027, 0.13263116776943207, -0.17276670038700104, -0.01868872344493866, -0.18868252635002136, -0.10627512633800507, -0.14304661750793457, 0.08313186466693878, 0.19847549498081207, -0.2181180864572525, -0.08511418104171753, -0.21292339265346527, 0.19092820584774017, -0.19359703361988068, 0.19217632710933685, 0.032468512654304504, -0.1936449259519577, 0.020824596285820007, 0.20334289968013763], [0.022619351744651794, 0.11425785720348358, 0.01688303053379059, -0.1816396266222, -0.19308310747146606, -0.19880352914333344, -0.16573482751846313, 0.19543562829494476, 0.20735441148281097, -0.19473975896835327, -0.16428717970848083, 0.11254589259624481, 0.07653529942035675, 0.09355197846889496, -0.2086820900440216, -0.01836898922920227, -0.14738033711910248, -0.19517499208450317, -0.21695049107074738, 0.08415384590625763, -0.20009341835975647], [0.05839945375919342, 0.20510725677013397, 0.0493764728307724, 0.026413947343826294, 0.06054554879665375, 0.006023287773132324, -0.10244649648666382, -0.11901900917291641, 0.050169095396995544, -0.0029853731393814087, 0.11482267081737518, 0.12871910631656647, 0.1501818150281906, -0.007351189851760864, 0.16564641892910004, -0.07342812418937683, 0.06174652278423309, 0.2149784415960312, -0.15365815162658691, 0.19108082354068756, -0.18559516966342926], [-0.05592291057109833, 0.2020777463912964, -0.1950431615114212, 0.17166149616241455, 0.1939203292131424, -0.0013749696081504226, 0.0044091129675507545, -0.01627180352807045, -0.21702347695827484, 0.1858435869216919, 0.15872961282730103, -0.021043220534920692, -0.11773347109556198, 0.07802912592887878, -0.0363299623131752, 0.25101521611213684, -0.13918298482894897, 0.05188507214188576, -0.07939489185810089, -0.1599850058555603, 0.27469998598098755], [-0.010881587862968445, -0.08859983086585999, -0.03747373819351196, -0.052886590361595154, 0.1505359560251236, -0.19947826862335205, -0.11298193037509918, -0.07628123462200165, -0.1893218755722046, 0.047754451632499695, -0.17600204050540924, 0.007891878485679626, 0.074885293841362, -0.03911587595939636, -0.07703529298305511, -0.19157463312149048, 0.16180668771266937, -0.14043346047401428, -0.09989118576049805, 0.19829554855823517, 0.18843574821949005], [-0.11420495808124542, 0.14815334975719452, -0.10563717037439346, -0.17224791646003723, -0.18824705481529236, 0.19286201894283295, 0.08032496273517609, 0.195597842335701, 0.20081160962581635, 0.059353604912757874, -0.012522295117378235, -0.07247303426265717, -0.16547079384326935, -0.08739973604679108, -0.18741656839847565, -0.05405394732952118, -0.08604536950588226, -0.060413360595703125, 0.11594463884830475, -0.02887342870235443, -0.0347304493188858], [0.10476922988891602, 0.1359466314315796, -0.34131646156311035, -0.16064493358135223, 0.026255812495946884, -0.02647043764591217, -0.11232569068670273, -0.17552600800991058, -0.09397953748703003, -0.1971791833639145, 0.05022067204117775, 0.05272498354315758, 0.19408129155635834, 0.06629317998886108, 0.14586369693279266, -0.023328639566898346, 0.14855584502220154, -0.023499080911278725, 0.13367533683776855, 0.02807840332388878, 0.1157456710934639], [0.17988453805446625, 0.1563386768102646, 0.19274692237377167, 0.09013868868350983, 0.0400819331407547, 0.0904655009508133, -0.04364868998527527, 0.0420653373003006, 0.12494023144245148, 0.12106655538082123, 0.12794770300388336, 0.1257697194814682, -0.15626762807369232, 0.17055650055408478, 0.033877596259117126, -0.02206726372241974, -0.1884251981973648, -0.15498223900794983, 0.0546652227640152, 0.04518575966358185, 0.06257931888103485], [-0.14518120884895325, -0.04360334575176239, -0.11513908207416534, -0.16076193749904633, 0.1514144092798233, 0.21104462444782257, -0.2130735218524933, -0.15324699878692627, 0.18655680119991302, 0.09872893989086151, 0.018557220697402954, -0.11255910247564316, 0.059607431292533875, 0.10169254243373871, -0.0480639785528183, -0.11571086198091507, 0.051199331879615784, 0.0422259122133255, 0.06546838581562042, -0.19946177303791046, 0.14565376937389374], [-0.06009063124656677, -0.12243402004241943, 0.12296049296855927, 0.1866513341665268, 0.21662215888500214, -0.1674526333808899, -0.04608927667140961, -0.17960718274116516, 0.14990051090717316, -0.17203477025032043, 0.11880071461200714, 0.09301362931728363, 0.1904275268316269, -0.03395393490791321, 0.10613252222537994, -0.14909911155700684, -0.11946360766887665, 0.06667591631412506, -0.01857157051563263, -0.08542254567146301, -0.2161833494901657], [-0.09608615189790726, -0.052979446947574615, 0.21766968071460724, -0.051727186888456345, 0.04208618402481079, -0.17364878952503204, -0.004592921119183302, -0.06322451680898666, -0.08544129878282547, -0.0662933737039566, -0.0003671700833365321, 0.14218881726264954, 0.0021247677505016327, -0.037325646728277206, -0.08727344125509262, 0.09313783049583435, 0.19361889362335205, 0.09995687007904053, -0.1641010344028473, -0.07323559373617172, -0.2555425465106964], [0.19560067355632782, 0.014516934752464294, 0.1449444741010666, 0.15576504170894623, 0.05406440794467926, 0.04170413315296173, 0.07474805414676666, 0.033427461981773376, -0.14053207635879517, 0.047481611371040344, 0.18269173800945282, 0.14388062059879303, -0.11758068948984146, -0.18576255440711975, 0.12027667462825775, 0.08082301914691925, 0.03506992757320404, -0.09953740239143372, 0.10339720547199249, 0.050690099596977234, -0.10602623224258423], [0.17058423161506653, -0.12711651623249054, 0.22663328051567078, 0.12938065826892853, 0.032258130609989166, -0.19359073042869568, -0.058822717517614365, -0.15004397928714752, 0.13506178557872772, -0.0035579281393438578, -0.16605167090892792, -0.12403905391693115, -0.030304301530122757, -0.13556663691997528, -0.1735391616821289, -0.021009277552366257, 0.12430381029844284, -0.05591564252972603, -0.209413081407547, 0.1261826902627945, -0.05967715010046959], [-0.21251791715621948, 0.05565337836742401, -0.04826480150222778, -0.20066823065280914, -0.028212115168571472, -0.11509787291288376, -0.12012836337089539, -0.1089186817407608, -0.16768082976341248, -5.650520324707031e-05, 0.19870252907276154, 0.0003393441438674927, 0.07543833553791046, 0.06136997044086456, -0.13354501128196716, 0.12523378431797028, 0.17528073489665985, -0.1896994709968567, -0.02338196337223053, -0.1171482652425766, 0.19687442481517792], [0.07141868770122528, 0.15642936527729034, 0.05489562451839447, -0.13936112821102142, 0.08262865245342255, -0.053680285811424255, 0.16380701959133148, -0.13450166583061218, -0.07253527641296387, 0.043180063366889954, 0.030750185251235962, 0.20740996301174164, 0.17887257039546967, -0.17024600505828857, -0.03351384401321411, 0.18319840729236603, -0.15822504460811615, -0.16401439905166626, 0.18736623227596283, -0.09502427279949188, 0.17173506319522858], [-0.07093624770641327, -0.009570091962814331, -0.1735941469669342, -0.13296927511692047, -0.030759260058403015, 0.06987456977367401, -0.07306861877441406, -0.08969208598136902, -0.1121913492679596, -0.11104243248701096, 0.07197685539722443, 0.17809157073497772, -0.042339473962783813, -0.156478613615036, -0.12781783938407898, -0.11654293537139893, 0.15361402928829193, -0.16292211413383484, 0.20028658211231232, 0.11562936007976532, -0.15880835056304932], [0.008434414863586426, 0.05531090125441551, 0.11407161504030228, 0.17557547986507416, 0.10774113237857819, -0.07803769409656525, 0.05705887824296951, 0.19512906670570374, -0.08218524605035782, 0.051935095340013504, -0.16104941070079803, -0.05669156834483147, -0.11146567761898041, 0.16881784796714783, 0.10965106636285782, -0.05500687286257744, 0.030477222055196762, -0.06429737061262131, -0.11837781220674515, -0.062396127730607986, -0.02922934666275978], [-0.04377037286758423, -0.13896311819553375, -0.022292688488960266, 0.040837362408638, 0.17861272394657135, -0.11836328357458115, -0.10139627754688263, 0.046381816267967224, 0.16829214990139008, 0.11102081835269928, -0.0862884372472763, -0.1845545768737793, 0.057633087038993835, -0.11636505275964737, 0.10131488740444183, 0.18226279318332672, -0.18419064581394196, -0.18833468854427338, 0.21042688190937042, -0.029013514518737793, 0.08990819752216339], [0.054258376359939575, 0.1609857976436615, -0.07185017317533493, 0.12857116758823395, -0.05716276913881302, -0.1836462914943695, -0.05765146762132645, 0.1970851570367813, -0.13685186207294464, 0.13649015128612518, 0.0716085135936737, 0.01638612151145935, -0.0014290951658040285, -0.16691315174102783, 0.02411193773150444, -0.0703616514801979, 0.051117803901433945, -0.04770559072494507, -0.011019750498235226, 0.03399442136287689, -0.13394279778003693], [-0.14889904856681824, 0.12956224381923676, -0.022396564483642578, -0.004894375801086426, -0.19313570857048035, 0.1831638664007187, -0.16599681973457336, 0.11246354877948761, -0.022413909435272217, -0.21707189083099365, -0.03789830207824707, -0.0011198371648788452, -0.05565789341926575, 0.15906061232089996, 0.061853304505348206, -0.20768490433692932, -0.21013614535331726, 0.1628023236989975, -0.140682190656662, -0.04950404167175293, -0.02866712212562561], [0.009136319160461426, 0.03349103033542633, -0.13191017508506775, 0.11729247868061066, 0.1782931238412857, 0.09501577913761139, -0.032280802726745605, -0.14670738577842712, -0.025270074605941772, 0.05200006067752838, 0.14404429495334625, 0.0401911586523056, -0.048541098833084106, -0.05874617397785187, 0.008622676134109497, 0.17403168976306915, 0.1735147088766098, 0.1141219288110733, -0.013296723365783691, -0.11047112196683884, 0.14340649545192719], [0.07965472340583801, 0.026868605986237526, -0.00970516074448824, -0.0681258887052536, 0.0027325579430907965, -0.021357214078307152, -0.19392938911914825, 0.18251554667949677, -0.17335429787635803, 0.07100874930620193, 0.16450616717338562, -0.0015407227911055088, 0.1418566256761551, -0.21706734597682953, -0.11444590985774994, 0.08600269258022308, -0.15611205995082855, -0.17628952860832214, 0.02462543360888958, -0.13336068391799927, -0.15211725234985352], [-0.09076648950576782, -0.026866411790251732, 0.16400374472141266, 0.18731240928173065, 0.13679170608520508, 0.20574860274791718, 0.1584838181734085, 0.02028404176235199, -0.15023629367351532, -0.05177804082632065, 0.031717680394649506, -0.062129661440849304, -0.1651162952184677, 0.14821495115756989, 0.10785047709941864, -0.03140099346637726, -0.06704087555408478, -0.1605181097984314, -0.1776731163263321, 0.2214605063199997, -0.1482389271259308], [-0.18826386332511902, -0.002903565764427185, 0.1046166867017746, 0.07361321151256561, -0.014569222927093506, 0.20003236830234528, 0.015540838241577148, 0.009039565920829773, -0.1250731348991394, -0.17577436566352844, -0.20757286250591278, -0.022911429405212402, -0.1967320442199707, -0.14764244854450226, 0.14931760728359222, -0.14105257391929626, 0.16358424723148346, 0.12084822356700897, -0.08775734901428223, -0.13331949710845947, -0.052812784910202026]], "fc1.bias": [0.1799904853105545, -0.07438629865646362, 0.033923275768756866, 0.09570984542369843, -0.13391827046871185, -0.13312867283821106, 0.008252166211605072, -0.09952504187822342, 0.03487231209874153, -0.015402674674987793, -0.12272090464830399, 0.018450021743774414, 0.002561122179031372, -0.14255252480506897, 0.054983094334602356, -0.1040559858083725, -0.15637096762657166, -0.052082329988479614, 0.0027458069380372763, 0.09918023645877838, 0.10881675779819489, 0.07449130713939667, -0.1958255171775818, 0.16766126453876495, 0.018002662807703018, 0.11330820620059967, -0.10585764050483704, 0.020185962319374084, -0.11171101033687592, -0.11896804720163345, 0.1524648219347, -0.21700194478034973, -0.1651315689086914, 0.10536765307188034, -0.03134612739086151, 0.06393958628177643, -0.04506775736808777, 0.1467822939157486, -0.03428233042359352, 0.211003378033638, 0.07654698193073273, 0.12216265499591827, -0.016301950439810753, 0.12236140668392181, 0.1144724041223526, 0.1344548612833023, -0.18856358528137207, 0.11679567396640778, 0.21698559820652008, -0.0214625746011734, 0.08964698016643524, 0.013199463486671448, -0.09751934558153152, 0.16121919453144073, 0.1305735856294632, -0.06679324805736542, -0.21817640960216522, 0.02476125955581665, 0.034816674888134, 0.1945182830095291, 0.16716964542865753, -0.1387639343738556, -0.20065636932849884, -0.20041005313396454, 0.11420793831348419, -0.021226108074188232, 0.15723451972007751, 0.11281995475292206, -0.20403388142585754, 0.1795358806848526, -0.21017178893089294, 0.1909022480249405, 0.12905851006507874, 0.07719774544239044, -0.04140086844563484, -0.2003835141658783, 0.1475742608308792, -0.02577453851699829, 0.04492850601673126, 0.17882509529590607, -0.18952372670173645, -0.16137617826461792, 0.18969260156154633, 0.1305515021085739, -0.09099094569683075, -0.16451093554496765, 0.17946778237819672, 0.15693475306034088, -0.18803416192531586, -0.21107470989227295, 0.04206128418445587, -0.15966807305812836, -0.15316089987754822, 0.061006560921669006, 0.1683701127767563, -0.08884604275226593, -0.14335310459136963, -0.038501739501953125, -0.06496502459049225, 0.20273838937282562], "fc2.weight": [[0.024171531200408936, -0.05732986330986023, 0.8511583209037781, 0.05452999100089073, -0.10940162092447281, -0.07471488416194916, -0.06521816551685333, 0.03965219110250473, 0.01080240122973919, -0.08052040636539459, -0.07261168956756592, -0.01200103759765625, -0.07287410646677017, -0.12827792763710022, -0.140580415725708, -0.08330583572387695, 0.03350149095058441, -0.07022900134325027, -0.13277742266654968, 0.02475907653570175, 0.043321698904037476, 0.01468790415674448, -0.4766494929790497, -0.12649695575237274, -0.9700051546096802, -0.07830394804477692, -0.12442187964916229, 0.03268818184733391, -0.07488740235567093, 0.03145601972937584, 0.02655121125280857, 0.07957432419061661, -0.0662311464548111, 0.0685759037733078, 0.004107549786567688, 0.01961474120616913, -0.07358893007040024, 0.057975418865680695, 0.06701986491680145, -0.01660594344139099, 0.018404200673103333, -0.0513622872531414, 1.119807243347168, -0.09117259085178375, 0.07615550607442856, 0.05521240085363388, 0.002563763875514269, -0.09997596591711044, -0.09344321489334106, -0.07903988659381866, -0.08926539868116379, -0.11054041236639023, -0.022218510508537292, -0.02915981411933899, 0.00892836507409811, 0.010213389992713928, -0.12828359007835388, -0.006818797439336777, 0.9036353230476379, -0.024777933955192566, 0.047276828438043594, -0.044550806283950806, -0.005359116476029158, -0.11973059922456741, -0.02555622160434723, -0.6587457060813904, -0.11268339306116104, -0.024023545905947685, -0.1216767355799675, -0.0031823739409446716, -0.021081432700157166, -0.037676867097616196, 0.7053611278533936, -0.271853506565094, -0.061510175466537476, -0.07422947883605957, 0.020761355757713318, -0.04764914512634277, 0.03423622250556946, -0.7441166043281555, 0.06418047100305557, 0.030992813408374786, -0.8067076802253723, -0.08214445412158966, 0.07232261449098587, -0.11708506941795349, 1.0261934995651245, 0.04204093664884567, 0.56379634141922, 0.0007385462522506714, -0.13638286292552948, 0.02043745666742325, 0.0906142145395279, -0.021174408495426178, 0.030974453315138817, -0.07843277603387833, -0.1392057240009308, -0.020000316202640533, -0.06721048802137375, 0.02585568279027939]], "fc2.bias": [-0.02357357367873192]}