{"fc1.weight": [[-0.017166867852211, 0.027300208806991577, 0.15290041267871857, 0.04776670038700104, 0.1794929951429367, 0.1903262585401535, 0.11157666146755219, -0.002830222249031067, -0.069450244307518, -0.21306860446929932, 0.09986869990825653, 0.05467759072780609, 0.0900835245847702, -0.1110672801733017, -0.04920046031475067, -0.011283352971076965, 0.0514802485704422, 0.2017412930727005, -0.09159737825393677, -0.00354824960231781, 0.05834762752056122], [0.064483642578125, 0.1145026907324791, 0.22337010502815247, -0.13408468663692474, 0.20660509169101715, -0.06678640842437744, -0.016464948654174805, -0.15194931626319885, -0.17147865891456604, 0.028867699205875397, -0.09244842827320099, -0.045390963554382324, 0.062023330479860306, 0.18108521401882172, 0.037253111600875854, -0.10293832421302795, 0.1472279280424118, 0.11470905691385269, -0.04908066615462303, 0.19772598147392273, -0.13048216700553894], [0.1505378633737564, -0.030108720064163208, -0.005519568920135498, -0.08904603123664856, 0.07925795018672943, -0.14947891235351562, -0.0952828973531723, -0.12268708646297455, 0.1041172593832016, 0.05076731741428375, 0.0026298463344573975, -0.18383319675922394, -0.16683684289455414, 0.14397390186786652, -0.013270840048789978, 0.001836434006690979, -0.045995429158210754, -0.21454742550849915, -0.09929271787405014, -0.13661041855812073, -0.19117535650730133], [-0.11236642301082611, -0.05890756472945213, -0.0025113984011113644, -0.09544053673744202, 0.14055632054805756, -0.2035265862941742, -0.022762427106499672, 0.0769750103354454, -0.1410774290561676, 0.011161671951413155, -0.05072415620088577, -0.10309706628322601, -0.0714598223567009, 0.12923330068588257, 0.23361219465732574, 0.22425822913646698, -0.09592728316783905, -0.16486014425754547, 0.005298044066876173, -0.16190898418426514, -0.05283293128013611], [-0.25432661175727844, -0.08030430227518082, 0.023822687566280365, -0.1744507998228073, 0.16945256292819977, -0.08997108042240143, 0.10672163218259811, 0.13718555867671967, -0.12837769091129303, 0.11906491965055466, -0.017641615122556686, 0.17864537239074707, -0.0018941076705232263, -0.051094092428684235, -0.16242608428001404, 0.09479481726884842, 0.08077959716320038, 0.13594135642051697, 0.007915863767266273, 0.08895453065633774, -0.00190096499864012], [0.06291906535625458, 0.17135260999202728, 0.1541450172662735, -0.15709581971168518, -0.1573604792356491, -0.06558850407600403, -0.01964627206325531, -0.12588009238243103, 0.07859237492084503, 0.15103642642498016, -0.20118212699890137, -0.0474683940410614, -0.09025683999061584, 0.010784357786178589, -0.21821558475494385, -0.18517646193504333, -0.1838994324207306, 0.16766370832920074, -0.1935425102710724, -0.1951540857553482, -0.190976083278656], [0.06097699701786041, 0.0027631372213363647, -0.13445594906806946, 0.09835086762905121, 0.0735241025686264, 0.02311648428440094, 0.08454759418964386, 0.04959239065647125, 0.04584436118602753, 0.13375575840473175, 0.16978050768375397, 0.013343259692192078, 0.16658838093280792, -0.11852600425481796, -0.11283336579799652, -0.10511884838342667, 0.0008479952812194824, 0.18019865453243256, -0.05736108124256134, 0.1161816269159317, 0.20189763605594635], [-0.0352034717798233, 0.17473061382770538, -0.17415174841880798, -0.09303267300128937, 0.0676262229681015, 0.09917725622653961, -0.030871346592903137, 0.19261889159679413, -0.05524034798145294, -0.19650091230869293, -0.16416163742542267, 0.03318770229816437, 0.012376382946968079, -0.058040037751197815, -0.16577036678791046, -0.05134749412536621, 0.21035178005695343, -0.15072274208068848, 0.039533719420433044, -0.03640583157539368, 0.12482117116451263], [0.21790431439876556, -0.07135982811450958, 0.06862311065196991, 0.1887483447790146, -0.09920918196439743, 0.10026203095912933, 0.17714394629001617, -0.08800481259822845, -0.12575705349445343, -0.19417141377925873, 0.1663500815629959, 0.1585637480020523, 0.02188459038734436, -0.13013198971748352, 0.1744416207075119, -0.2153794765472412, 0.19817699491977692, -0.12000861763954163, -0.08150976896286011, -0.14862102270126343, 0.19345252215862274], [-0.12789498269557953, -0.06993207335472107, -0.09387340396642685, -0.1989031285047531, 0.20662616193294525, -0.16138964891433716, 0.027874097228050232, 0.007302924990653992, 0.16306333243846893, 0.11839668452739716, 0.16979952156543732, -0.07140806317329407, 0.09848685562610626, -0.11893441528081894, 0.05482299625873566, -0.10238680243492126, 0.08712799847126007, 0.181487038731575, -0.009813547134399414, -0.10506898164749146, 0.20552457869052887], [0.029353484511375427, 0.03540654480457306, -0.19023962318897247, 0.12966810166835785, 0.16980929672718048, -0.1584690809249878, 0.01873907446861267, 0.056241825222969055, 0.19495944678783417, 0.07944194972515106, 0.17470870912075043, -0.04454988241195679, 0.1299016922712326, 0.14433620870113373, 0.11318297684192657, 0.0890807956457138, -0.06488275527954102, 0.08066080510616302, -0.16779841482639313, 0.11609192192554474, -0.16950827836990356], [0.13831157982349396, 0.09107644855976105, 0.13827766478061676, -0.08669865131378174, 0.18537820875644684, -0.07618136703968048, -0.13552357256412506, -0.0862722098827362, 0.10115872323513031, 0.19940246641635895, -0.022967204451560974, -0.1958167999982834, 0.1620205193758011, 0.07043667137622833, -0.015445291996002197, -0.20987561345100403, 0.017794519662857056, -0.08568412065505981, -0.16038617491722107, -0.0018261222867295146, 0.09293366968631744], [-0.08398784697055817, -0.2127792090177536, -0.16066579520702362, 0.08558724820613861, 0.049195632338523865, -0.046625494956970215, -0.026540473103523254, -0.14969214797019958, -0.12403131276369095, -0.2053651660680771, -0.019763857126235962, -0.09520259499549866, -0.0488714873790741, 0.1693655401468277, 0.052845075726509094, -0.14793410897254944, -0.1611984670162201, -0.061402395367622375, -0.0913192629814148, -0.027626052498817444, 0.16526736319065094], [0.21452511847019196, -0.14837989211082458, 0.09072436392307281, -0.1847638338804245, -0.21270623803138733, -0.0030601918697357178, 0.07787041366100311, 0.16302244365215302, -0.019221007823944092, -0.10185810178518295, 0.21587340533733368, 0.10011546313762665, 0.15512622892856598, 0.11078308522701263, 0.12476025521755219, 0.11232300102710724, 0.2129005640745163, 0.036150261759757996, -0.001477956771850586, -0.039736032485961914, -0.20939324796199799], [-0.2156522572040558, 0.14120224118232727, 0.18690288066864014, -0.23068004846572876, -0.2241419106721878, 0.08976111561059952, 0.14154687523841858, -0.15453550219535828, 0.034810151904821396, -0.18377692997455597, -0.11510108411312103, 0.03973891958594322, 0.0847146138548851, 0.19510070979595184, -0.22676822543144226, 0.18871323764324188, 0.07558633387088776, -0.06746792048215866, 0.06938229501247406, 0.09803984314203262, 0.07375790923833847], [-0.07523003220558167, 0.06505227088928223, 0.10218100994825363, 0.10723315924406052, 0.17387980222702026, 0.20919524133205414, -0.09816685318946838, -0.10412408411502838, 0.19588680565357208, -0.11472070217132568, -0.18351897597312927, 0.0754036009311676, -0.1486724466085434, -0.1639334261417389, -0.10474824160337448, -0.05944861099123955, -0.07104680687189102, 0.10515771061182022, 0.09160232543945312, 0.04560054466128349, 0.16859827935695648], [0.06521393358707428, 0.12477989494800568, -0.15710638463497162, 0.01134653389453888, 0.030042201280593872, 0.17861898243427277, -0.05206182599067688, 0.1299653798341751, 0.09458909928798676, 0.19019506871700287, 0.18426568806171417, 0.1452711671590805, -0.1424093246459961, 0.06854788959026337, 0.06251047551631927, 0.09250636398792267, -0.1539226770401001, 0.15574218332767487, 0.03448806703090668, -0.053819894790649414, 0.01883411407470703], [0.05438309535384178, 0.16578635573387146, -0.09448885917663574, 0.17134244740009308, -0.1537005752325058, 0.2110983431339264, 0.19625072181224823, 0.0795908272266388, -0.11518499255180359, -0.049331359565258026, 0.05946001037955284, -0.10624656826257706, 0.06022801250219345, 0.09088461101055145, -0.23464232683181763, 0.05881518870592117, -0.20842982828617096, 0.06835174560546875, -0.05999911203980446, 0.18555042147636414, -0.07757814973592758], [0.016493668779730797, 0.04211002215743065, 0.22616025805473328, 0.02841341495513916, 0.04613839089870453, -0.18331575393676758, -0.1425258070230484, 0.08555112779140472, -0.14509721100330353, -0.14529599249362946, -0.06976780295372009, 0.032900065183639526, -0.19666197896003723, -0.13349506258964539, 0.08264223486185074, 0.183450847864151, -0.06679936498403549, 0.18823747336864471, 0.08245856314897537, -0.03797277808189392, 0.19223658740520477], [-0.08603932708501816, 0.07889644056558609, -0.14286190271377563, 0.16262398660182953, 0.20414474606513977, 0.045655202120542526, -0.04073946550488472, -0.04495922848582268, -0.01616802252829075, -0.11264553666114807, 0.084741972386837, -0.21339111030101776, -0.12850894033908844, 0.21629825234413147, -0.23272262513637543, 0.1489642858505249, -0.11030162870883942, 0.18332131206989288, 0.09837761521339417, 0.07114177197217941, -0.0203042421489954], [0.010189741849899292, 0.21689172089099884, 0.06756691634654999, -0.018906325101852417, 0.06904853880405426, -0.036962494254112244, 0.14568893611431122, -0.11388072371482849, -0.15805098414421082, -0.02388550341129303, 0.14905916154384613, -0.015284940600395203, -0.09210659563541412, 0.20207814872264862, -0.06272779405117035, -0.01930619776248932, 0.0005454272031784058, 0.2091316431760788, -0.022521406412124634, 0.02928169071674347, 0.03543488681316376], [0.07608640938997269, -0.22624899446964264, -0.003998551983386278, -0.061438899487257004, 0.1951972395181656, 0.20163479447364807, -0.01839153841137886, 0.20028091967105865, 0.035426512360572815, -0.17284230887889862, -0.007287606596946716, -0.02767353318631649, -0.12319964170455933, 0.12081310898065567, 0.01629042439162731, 0.07072565704584122, 0.010995459742844105, -0.20623637735843658, 0.09413667768239975, -0.14268025755882263, 0.03556877002120018], [-0.15008214116096497, -0.1807343065738678, -0.20798426866531372, 0.07977335155010223, -0.06212781369686127, 0.06474803388118744, 0.13429541885852814, -0.1099240854382515, -0.047438785433769226, -0.05856896936893463, 0.21329499781131744, 0.1738365739583969, -0.10443003475666046, -0.18930357694625854, -0.049524515867233276, -0.07120075821876526, -0.10956421494483948, 0.1614239364862442, -0.19332386553287506, 0.07781217992305756, -0.05905976891517639], [0.20988403260707855, -0.1428440362215042, -0.05566103756427765, -0.19143231213092804, -0.028545871376991272, 0.133354052901268, 0.10285665094852448, 0.17437990009784698, 0.14758582413196564, 0.08543570339679718, 0.18943043053150177, 0.029481545090675354, -0.21534788608551025, 0.17906729876995087, 0.06547616422176361, -0.1547362208366394, -0.1887938529253006, -0.01781630516052246, 0.08125723898410797, 0.20573435723781586, -0.18078455328941345], [-0.060787931084632874, 0.03451322019100189, 0.20142467319965363, 0.12826769053936005, 0.05135415494441986, -0.20227666199207306, 0.1835130900144577, 0.10767464339733124, -0.06057937443256378, -0.14951398968696594, -0.0488152801990509, -0.01843048632144928, -0.15577802062034607, -0.0679585337638855, -0.15732094645500183, -0.05591230094432831, -0.020919248461723328, -0.02505536377429962, -0.12363241612911224, -0.06583282351493835, -0.08728894591331482], [0.21549303829669952, 0.11249338090419769, -0.02934180200099945, 0.01925055682659149, 0.14901421964168549, 0.037619784474372864, 0.10206566751003265, -0.09555783867835999, -0.10413403064012527, -0.21198157966136932, 0.17525459825992584, -0.05270279943943024, -0.1418999433517456, 0.14828310906887054, 0.04060392081737518, -0.12804006040096283, -0.1971239149570465, -0.13796204328536987, 0.02958865463733673, -0.006721422076225281, -0.04184874892234802], [0.10302697122097015, 0.03950602188706398, -0.06933115422725677, -0.1481303870677948, -0.1357703059911728, -0.01702224835753441, 0.15167482197284698, -0.04201022535562515, -0.14855985343456268, -0.19797736406326294, -0.057907164096832275, 0.019552458077669144, 0.20786771178245544, -0.16028231382369995, -0.08843681961297989, 0.20141538977622986, -0.12246329337358475, 0.09814123809337616, 0.004633322358131409, -0.04669325053691864, -0.20931857824325562], [-0.2537207305431366, -0.013134059496223927, 0.0005346609395928681, -0.052668556571006775, 0.09948066622018814, 0.11855516582727432, 0.05814557522535324, 0.04918588325381279, 0.06528258323669434, 0.06694073975086212, 0.067960724234581, -0.10401246696710587, -0.16466762125492096, -0.014073256403207779, -0.003146441886201501, -0.011968856677412987, 0.01699642464518547, 0.23485204577445984, -0.13781976699829102, 0.062140658497810364, 0.009281298145651817], [-0.029714509844779968, 0.12916482985019684, 0.12071479856967926, 0.02824622392654419, -0.13435426354408264, 0.07781188189983368, 0.1851557344198227, 0.022606655955314636, -0.09021136164665222, 0.20265640318393707, -0.09744564443826675, -0.21021533012390137, -0.03708004951477051, 0.07170988619327545, -0.09982914477586746, 0.012570679187774658, 0.181078240275383, -0.08668310940265656, -0.0901339203119278, -0.16242946684360504, -0.1371864676475525], [0.21083895862102509, -0.17896810173988342, 0.1074991375207901, -0.04585003852844238, -0.10275039076805115, 0.16244091093540192, 0.20423682034015656, -0.17754466831684113, 0.15512530505657196, 0.08586196601390839, 0.1535690575838089, -0.16932514309883118, -0.12256224453449249, -0.0724492222070694, -0.16574396193027496, 0.1098029762506485, 0.10785479843616486, 0.1116441935300827, -0.17219388484954834, -0.061187729239463806, 0.13390083611011505], [-0.006495490670204163, -0.1768970787525177, -0.21220120787620544, -0.07804015278816223, 0.09305490553379059, 0.11211003363132477, -0.03203593194484711, -0.2124662548303604, 0.19056938588619232, 0.03694029152393341, 0.11999677121639252, -0.10503357648849487, 0.17833657562732697, 0.09596608579158783, -0.11380385607481003, 0.15093885362148285, -0.14182361960411072, -0.01240578293800354, 0.09593518078327179, -0.19840911030769348, -0.18221372365951538], [0.14036792516708374, 0.16207729279994965, 0.00011944497236981988, 0.2119053453207016, -0.08259394019842148, 0.07782277464866638, -0.10347072035074234, -0.012519855983555317, 0.20906689763069153, 0.0023060094099491835, 0.05790803208947182, -0.07186862081289291, -0.03089052252471447, -0.024341974407434464, -0.16188213229179382, 0.017170744016766548, 0.1339491903781891, -0.21964533627033234, 0.07007579505443573, 0.06650213897228241, -0.17596526443958282], [0.03252403438091278, -0.05082331597805023, 0.21176289021968842, -0.022907838225364685, -0.14577484130859375, -0.08620376884937286, -0.03302600979804993, 0.12363596260547638, -0.20784510672092438, -0.17845430970191956, -0.10726549476385117, -0.04413667321205139, 0.13067887723445892, -0.11552033573389053, 0.14107324182987213, -0.0025263577699661255, 0.14326567947864532, 0.21368847787380219, 0.10627831518650055, 0.12699519097805023, 0.16945381462574005], [-0.07067389786243439, -0.17584098875522614, 0.036185458302497864, 0.023980841040611267, -0.1309424191713333, -0.10326046496629715, 0.11782960593700409, -0.14842522144317627, -0.09970703721046448, -0.14932149648666382, -0.05586561560630798, 0.05799223482608795, 0.05165471136569977, 0.1598539501428604, -0.14124205708503723, -0.00831235945224762, -0.17203295230865479, 0.1471870392560959, -0.21552273631095886, 0.20170868933200836, -0.10357772558927536], [0.02909647673368454, 0.04226326942443848, 0.12452788650989532, -0.19714617729187012, -0.1059650406241417, -0.055358849465847015, 0.21491461992263794, 0.07356665283441544, -0.14026100933551788, -0.17151227593421936, -0.07328064739704132, 0.14541329443454742, 0.09410049021244049, 0.2036391645669937, 0.012881461530923843, -0.1551838517189026, 0.16056464612483978, 0.25015968084335327, -0.047656767070293427, -0.1650802493095398, -0.040668439120054245], [-0.13052219152450562, 0.13622967898845673, 0.17851252853870392, 0.049159273505210876, 0.04645363986492157, 0.10394595563411713, -0.035621196031570435, -0.08729267120361328, -0.12272438406944275, -0.13471046090126038, -0.0182570219039917, 0.07965011894702911, -0.07584990561008453, 0.19477804005146027, -0.14445877075195312, -0.04838927090167999, -0.0325181782245636, 0.2057664543390274, 0.20902381837368011, -0.12415003776550293, 0.07388480007648468], [-0.1651894599199295, -0.07549989223480225, 0.17303059995174408, -0.04869626462459564, 0.21820826828479767, 0.21610857546329498, -0.04520149528980255, 0.10597507655620575, 0.047795578837394714, 0.14723046123981476, -0.023217707872390747, 0.040425583720207214, 0.1577606350183487, 0.08051835000514984, 0.19573567807674408, 0.18783827126026154, -0.02025972306728363, -0.1400156319141388, -0.105850949883461, -0.035228729248046875, 0.1431490033864975], [0.03390252962708473, 0.150517076253891, 0.011496040970087051, 0.07978633791208267, 0.06077076122164726, 0.05620133876800537, -0.05561073496937752, -0.19310131669044495, 0.118404321372509, 0.1504434198141098, -0.18119172751903534, 0.07610882818698883, 0.19955413043498993, -0.12665875256061554, 0.0037595604080706835, -0.11404858529567719, 0.11469552665948868, -0.2097337245941162, -0.03589737415313721, -0.1225343644618988, 0.1097903922200203], [0.14039082825183868, 0.03203444182872772, 0.18569128215312958, 0.00675162672996521, 0.06072820723056793, 0.14547587931156158, 0.09205843508243561, -0.2015281468629837, 0.1031915694475174, -0.07787606120109558, 0.16710059344768524, 0.18444429337978363, 0.009538739919662476, 0.10433919727802277, 0.14491502940654755, 0.19539155066013336, 0.0399104505777359, -0.02427297830581665, 0.11061884462833405, 0.09986568987369537, 0.1883082240819931], [-0.16992972791194916, 0.0923682302236557, -0.05514064431190491, 0.20960210263729095, -0.10569585859775543, 0.16241900622844696, -0.09937075525522232, -0.11001661419868469, -0.09543029218912125, 0.12003354728221893, 0.15499185025691986, 0.20884160697460175, -0.20138603448867798, -0.11880031228065491, -0.08939599990844727, -0.14486263692378998, 0.06467662751674652, -0.1403476893901825, -0.07298357784748077, -0.002892524003982544, 0.11465860903263092], [0.09583431482315063, 0.07043694704771042, 0.03708576783537865, 0.13689686357975006, -0.19649077951908112, 0.15550599992275238, -0.04588135704398155, 0.09840849786996841, -0.01798466220498085, -0.07063306868076324, 0.02767174132168293, -0.18958555161952972, 0.21870961785316467, 0.1671818196773529, -0.1731499582529068, 0.07343891263008118, 0.14652851223945618, -0.12581272423267365, -0.0015531530370935798, 0.20492428541183472, -0.09994851797819138], [0.10954020917415619, -0.19854432344436646, -0.1428203582763672, -0.10985621809959412, -0.09759977459907532, 0.04854477196931839, 0.001783919520676136, 0.1591358780860901, 0.14285489916801453, 0.15282149612903595, -0.11316657066345215, -0.12769174575805664, -0.10957846790552139, 0.15372903645038605, 0.06389955431222916, 0.13247239589691162, -0.18126192688941956, 0.16144497692584991, -0.18097949028015137, -0.0983387678861618, 0.08113144338130951], [-0.14967146515846252, 0.21022973954677582, -0.13344627618789673, 0.14331959187984467, 0.020504355430603027, 0.13949896395206451, 0.010420262813568115, 0.18857328593730927, 0.02395033836364746, -0.09165683388710022, -0.10166346281766891, -0.04514595866203308, 0.12632755935192108, 0.004630908370018005, 0.005730718374252319, -0.09064452350139618, -0.15450266003608704, -0.059667155146598816, -0.0008650273084640503, -0.07771497964859009, 0.006635621190071106], [0.0773722380399704, -0.02273021638393402, -0.048260122537612915, 0.09020097553730011, 0.2098548859357834, 0.2167702168226242, -0.17998461425304413, -0.18636387586593628, -0.16754387319087982, 0.20890553295612335, -0.16437236964702606, -0.17754867672920227, 0.1564876288175583, 0.12629662454128265, 0.03680764138698578, -0.17100979387760162, 0.15701211988925934, -0.018796339631080627, 0.12569288909435272, 0.12171317636966705, 0.12095414102077484], [-0.15657049417495728, 0.19421617686748505, 0.1762818545103073, -0.017526865005493164, -0.07391178607940674, -0.030983343720436096, -0.08729560673236847, -0.2026994228363037, 0.1440247744321823, -0.1339302361011505, -0.17861229181289673, -0.012831106781959534, -0.1491086184978485, 0.12456317245960236, -0.07938948273658752, 0.09130819141864777, -0.012751296162605286, -0.06248605251312256, -0.006623029708862305, 0.1972423642873764, 0.04604484140872955], [-0.04527677595615387, -0.0369073748588562, 0.10255227982997894, -0.04446673393249512, -0.04483269155025482, -0.02666112780570984, 0.1655203253030777, -0.10054056346416473, 0.10607685148715973, -0.05637913942337036, -0.04526376724243164, -0.08960515260696411, 0.18263284862041473, -0.12227596342563629, 0.022284477949142456, 0.13415442407131195, 0.039966896176338196, -0.007272601127624512, -0.1534862518310547, -0.03179861605167389, -0.18509404361248016], [0.21425701677799225, 0.08173911273479462, -0.16469363868236542, 0.18687351047992706, 0.1850123554468155, 0.040341220796108246, 0.07323459535837173, -0.0132677610963583, -0.13089746236801147, -0.025000056251883507, -0.10651671886444092, -0.009729767218232155, 0.05149522423744202, 0.04536333680152893, -0.008893934078514576, -0.011626907624304295, 0.06154535338282585, -0.06568948924541473, -0.03638290986418724, -0.028622742742300034, -0.060315877199172974], [0.008582249283790588, 0.03591056168079376, -0.1594931036233902, 0.0025922805070877075, -0.17009057104587555, 0.15172164142131805, 0.051443710923194885, 0.14814068377017975, -0.18287266790866852, 0.2001463621854782, 0.09652917087078094, -0.14132845401763916, -0.2153613418340683, -0.12645749747753143, 0.06361879408359528, -0.08938676118850708, 0.0846346765756607, 0.16378603875637054, 0.12903980910778046, -0.17608939111232758, 0.03062032163143158], [0.09512866288423538, -0.1276053488254547, 0.0748695433139801, -0.15571865439414978, 0.18336157500743866, 0.0205389354377985, -0.1719200611114502, -0.05462012067437172, -0.19996458292007446, -0.052570637315511703, -0.02161821909248829, 0.19275730848312378, -0.035465601831674576, 0.04908696562051773, 0.0752900168299675, 0.11509484797716141, 0.15243621170520782, -0.21106502413749695, 0.1686682403087616, -0.013494179584085941, 0.021152988076210022], [-0.019151706248521805, 0.04824884235858917, -0.017078958451747894, 0.10146315395832062, 0.025547370314598083, 0.06548704206943512, -0.012997627258300781, -0.1353200376033783, 0.017072172835469246, 0.02779032289981842, -0.028678741306066513, 0.028326287865638733, 0.15027780830860138, 0.16491128504276276, 0.0636928528547287, -0.13153646886348724, 0.09290482103824615, -0.006162434816360474, 0.0807596892118454, 0.09938080608844757, -0.039454132318496704], [-0.04552525281906128, -0.15374094247817993, -0.17475354671478271, -0.16176965832710266, 0.1658637970685959, 0.19261707365512848, -0.20522350072860718, 0.1304447203874588, -0.04589870572090149, -0.15547248721122742, 0.15963827073574066, 0.00693163275718689, 0.03251548111438751, 0.19523338973522186, -0.1858091950416565, 0.003930002450942993, -0.011711999773979187, 0.11357451975345612, -0.1811951845884323, 0.16187627613544464, 0.14101476967334747], [0.12461723387241364, -0.15805788338184357, -0.01635364443063736, -0.16890011727809906, 0.03650669753551483, -0.0626428872346878, 0.10485310852527618, -0.08543971180915833, -0.21176837384700775, 0.2039523869752884, 0.14692826569080353, 0.009788081049919128, 0.14647938311100006, 0.012182533740997314, -0.06303615868091583, -0.13688775897026062, -0.16678377985954285, -0.11178363859653473, -0.18688037991523743, -0.19007501006126404, 0.030722737312316895], [0.03933030366897583, -0.18739445507526398, -0.09615898132324219, 0.14433328807353973, -0.07280272245407104, -0.07744526863098145, -0.07556024938821793, 0.21293674409389496, 0.14027300477027893, -0.10373619943857193, 0.1944190263748169, 0.1611902266740799, 0.09006217122077942, -0.01238582469522953, -0.08531943708658218, -0.029404010623693466, 0.07766016572713852, 0.12577663362026215, -0.17950136959552765, 0.1029578447341919, 0.12379861623048782], [-0.08328697830438614, 0.13686157763004303, 0.02717434987425804, 0.1802133172750473, 0.20906811952590942, 0.026876743882894516, -0.20104558765888214, -0.20129179954528809, 0.04361214488744736, -0.024235615506768227, -0.11643484979867935, -0.08132030069828033, 0.20742323994636536, -0.13213375210762024, -0.14689742028713226, 0.10753033310174942, -0.011105041950941086, 0.18053984642028809, 0.015574941411614418, 0.06262325495481491, -0.07132520526647568], [-0.1866365522146225, -0.007364603690803051, -0.025840137153863907, -0.02079777419567108, -0.04827083647251129, 0.004242792725563049, 0.11820171773433685, -0.00916963815689087, -0.0014065743889659643, -0.18988320231437683, -0.13086675107479095, -0.21041789650917053, 0.08010761439800262, -0.11100947111845016, 0.18546892702579498, 0.2130376547574997, -0.024176031351089478, 0.1601646989583969, -0.15495231747627258, -0.0033029215410351753, -0.13967648148536682], [0.042197421193122864, 0.025884030386805534, -0.06204395741224289, 0.16130954027175903, 0.16141192615032196, -0.14079609513282776, -0.09473227709531784, 0.08783075213432312, -0.19299228489398956, 0.11392001807689667, 0.023674186319112778, 0.041260071098804474, -0.08899462223052979, -0.17975962162017822, 0.09911952912807465, 0.18942734599113464, -0.05151763930916786, -0.08575169742107391, 0.041365109384059906, 0.01909041404724121, -0.25604382157325745], [-0.12965862452983856, -0.11348898708820343, 0.008953218348324299, -0.17761380970478058, -0.16597461700439453, -0.16261440515518188, 0.1632385104894638, -0.19935175776481628, 0.21449126303195953, -0.08420306444168091, -0.20399977266788483, 0.09416671097278595, 0.09856967628002167, 0.20134995877742767, -0.2017468363046646, 0.20208518207073212, -0.16969940066337585, -0.04555623233318329, -0.14199869334697723, -0.11998799443244934, 0.15122981369495392], [-0.21521519124507904, 0.12840460240840912, -0.10341077297925949, 0.11256973445415497, -0.11092492938041687, 0.13913102447986603, -0.15656372904777527, -0.1989717036485672, 0.13830511271953583, -0.20811496675014496, 0.09307561814785004, -0.2096540629863739, -0.11448486894369125, 0.07612983882427216, 0.020730450749397278, -0.009223327040672302, 0.13337726891040802, 0.15319861471652985, 0.14330093562602997, -0.12787304818630219, 0.20837019383907318], [-0.03731807693839073, -0.06879719346761703, 0.07138770818710327, -0.1607261747121811, -0.07672078907489777, 0.14757102727890015, 0.17258132994174957, -0.21877837181091309, -0.13099049031734467, 0.17485149204730988, -0.07184740155935287, 0.17855487763881683, 0.20067287981510162, -0.11811396479606628, -0.14272688329219818, -0.06516925990581512, 0.04710608348250389, 0.05939967557787895, -0.028096143156290054, 0.030689116567373276, 0.22381648421287537], [-0.027765095233917236, -0.049651920795440674, -0.05038219690322876, -0.11433128267526627, 0.10145522654056549, -0.155368834733963, -0.08265465497970581, 0.075193390250206, 0.12012667953968048, 0.03269203007221222, -0.20308347046375275, -0.1258067637681961, 0.04850982129573822, -0.18889333307743073, -0.19419914484024048, -0.0010840147733688354, -0.18487074971199036, -0.04941798746585846, 0.14103473722934723, -0.03719715774059296, 0.1130097359418869], [-0.15790604054927826, 0.02630983665585518, -0.043728578835725784, -0.07549308985471725, 0.1353592723608017, 0.048411011695861816, 0.046172793954610825, 0.19986627995967865, -0.010153664276003838, 0.1031782478094101, -0.01816091686487198, -0.10100401192903519, 0.010324208997189999, -0.01837076060473919, 0.029110200703144073, -0.11440040171146393, 0.017945490777492523, -0.178392693400383, -0.038534000515937805, 0.1281198114156723, 0.08871298283338547], [-0.018348023295402527, 0.024551689624786377, 0.03496070206165314, 0.04397241771221161, 0.01933838427066803, -0.03944618999958038, -0.08276736736297607, -0.09331705421209335, 0.018385455012321472, -0.11165926605463028, -0.07966269552707672, -0.0021175891160964966, -0.1453721672296524, 0.1391434520483017, 0.10829712450504303, -0.13728776574134827, -0.005214273929595947, 0.013096541166305542, -0.19180461764335632, 0.03061114251613617, 0.20245368778705597], [0.11619849503040314, 0.18822897970676422, -0.14479266107082367, -0.05297812819480896, -0.02871042490005493, 0.03449307382106781, -0.2027665227651596, 0.2086925357580185, -0.08133196830749512, 0.0823879987001419, 0.10668517649173737, -0.044708773493766785, 0.05072222650051117, 0.10316447913646698, -0.023779451847076416, 0.2025570124387741, 0.13790263235569, 0.1749228686094284, 0.13434584438800812, -0.0558343380689621, 0.18608205020427704], [0.11366520822048187, -0.20003743469715118, -0.1705368459224701, -0.08997438848018646, 0.008744031190872192, -0.10087975114583969, -0.14438030123710632, 0.05880357325077057, 0.2013825923204422, 0.11743254959583282, -0.2042471319437027, 0.04501594603061676, -0.17695306241512299, -0.048330336809158325, -0.13525909185409546, 0.059113577008247375, -0.14634037017822266, -0.19734083116054535, -0.14335109293460846, 0.1371423453092575, 0.0006181150674819946], [-0.031021714210510254, -0.2134169489145279, -0.1221805214881897, -0.17422428727149963, -0.1741829812526703, -0.07312653958797455, 0.19487278163433075, 0.1943788379430771, -0.08420328795909882, 0.13770358264446259, -0.09256638586521149, 0.21017886698246002, 0.20035366714000702, -0.17283594608306885, -0.20731998980045319, -0.17343784868717194, -0.006956994533538818, -0.17094938457012177, 0.11156748235225677, -0.162509024143219, -0.07376910746097565], [0.07215218245983124, -0.1826159656047821, 0.2155306488275528, 4.9173831939697266e-06, 0.14605213701725006, -0.18288710713386536, 0.019320040941238403, -0.13722938299179077, 0.1369159072637558, 0.021354377269744873, -0.08966976404190063, 0.10549439489841461, 0.02362649142742157, -0.05647630989551544, -0.0949663445353508, 0.20722104609012604, -0.0597979873418808, 0.06327374279499054, 0.15801481902599335, 0.05062665045261383, -0.19673430919647217], [-0.20468348264694214, -0.0845567137002945, 0.21020202338695526, 0.1568027287721634, 0.1362331360578537, -0.08791910111904144, 0.16629736125469208, 0.047593846917152405, 0.10929958522319794, -0.0029539763927459717, 0.06789548695087433, 0.014713272452354431, -0.11841367185115814, 0.16474507749080658, -0.019036725163459778, -0.15349921584129333, 0.18687544763088226, 0.20468302071094513, 0.08480091392993927, -0.05211465060710907, 0.02063766121864319], [0.1843016892671585, -0.006299898028373718, -0.15952976047992706, -0.09753908962011337, 0.1425914317369461, 0.0743599683046341, -0.01996763050556183, 0.156386598944664, 0.179495707154274, -0.11112260818481445, -0.027517661452293396, -0.011888638138771057, 0.17396505177021027, -0.18153159320354462, 0.17136810719966888, -0.14583057165145874, -0.1673818826675415, -0.18585067987442017, 0.13299737870693207, -0.19435133039951324, -0.020477041602134705], [-0.1220526397228241, 0.014126092195510864, 0.09397219121456146, -0.16097618639469147, -0.16651475429534912, 0.008069813251495361, -0.13290920853614807, -0.026957526803016663, 0.011664986610412598, 0.0419437438249588, 0.08445380628108978, -0.04203857481479645, 0.11141715943813324, -0.06459800899028778, 0.1522211879491806, -0.2179691046476364, -0.07994569838047028, -0.1460748165845871, -0.08777876198291779, -0.026198089122772217, -0.037512749433517456], [0.03333904221653938, 0.16368243098258972, 0.013270429335534573, 0.05335577204823494, 0.16759471595287323, -0.2037733793258667, 0.1318322867155075, 0.13438737392425537, -0.1577724814414978, 0.025926873087882996, -0.14931830763816833, 0.05286296829581261, -0.22168900072574615, 0.07369528710842133, -0.1318601667881012, 0.164138525724411, -0.03479938581585884, 0.21544784307479858, -0.11331195384263992, -0.05682453513145447, 0.1924489438533783], [0.19698895514011383, 0.01813162863254547, 0.2056550830602646, 0.2069978564977646, 0.015207648277282715, 0.15049852430820465, -0.020003437995910645, 0.20329146087169647, 0.05797477066516876, -0.2055855542421341, 0.08401615917682648, 0.20449493825435638, 0.06401209533214569, 0.009804755449295044, 0.16471867263317108, 0.02507677674293518, 0.09312610328197479, -0.13668683171272278, 0.1256825178861618, -0.061848342418670654, 0.1343616098165512], [-0.021446287631988525, 0.07637442648410797, -0.13793128728866577, -0.056265830993652344, -0.03839653730392456, 0.09634719789028168, -0.015619948506355286, 0.04145161807537079, -0.14333850145339966, 0.20278625190258026, -0.017986655235290527, 0.134458526968956, -0.04696834087371826, -0.21086512506008148, -0.04284638166427612, -0.07139135897159576, -0.02289654314517975, 0.15001808106899261, -0.1570291966199875, 0.17364667356014252, 0.029163450002670288], [0.12189777195453644, 0.17487601935863495, 0.07728420197963715, -0.18483632802963257, 0.06339435279369354, -0.14562632143497467, 0.18149571120738983, -0.11403943598270416, 0.07248254120349884, -0.025699779391288757, 0.12763242423534393, -0.21216964721679688, -0.016306906938552856, -0.21141713857650757, -0.16602599620819092, -0.05391605198383331, 0.14064081013202667, -0.01338176429271698, 0.008899405598640442, -0.19888222217559814, -0.11546380817890167], [-0.06108708307147026, -0.08750497549772263, -0.06346575170755386, -0.13830800354480743, -0.1837308555841446, -0.18265564739704132, 0.12117543816566467, -0.10513308644294739, 0.019596638157963753, 0.17058268189430237, -0.14882168173789978, -0.1579897403717041, 0.07831735908985138, -0.09159094840288162, 0.045707497745752335, 0.025173190981149673, -0.007091111969202757, 0.10389962047338486, 0.03988242149353027, 0.1281241476535797, 0.20446796715259552], [0.14366741478443146, -0.03636316955089569, -0.08674630522727966, -0.15134736895561218, -0.10799387097358704, 0.19665645062923431, 0.13781626522541046, 0.17413078248500824, -0.0787474662065506, -0.06474290788173676, 0.016597464680671692, -0.09127084910869598, -0.11885210871696472, -0.030607685446739197, -0.1685134470462799, -0.21755020320415497, 0.07953490316867828, 0.0706954151391983, -0.0975583866238594, 0.07570619881153107, 0.09494413435459137], [0.01081666350364685, 0.014500990509986877, 0.07217733561992645, 0.11214415729045868, 0.1618884652853012, -0.04367212951183319, 0.03216637670993805, -0.11426851153373718, -0.07333774864673615, -0.041685670614242554, -0.126968652009964, -0.19345222413539886, 0.059245482087135315, -0.16220290958881378, 0.10010133683681488, -0.1071736142039299, -0.060406625270843506, -0.020849749445915222, 0.0685640424489975, 0.1993032544851303, -0.07366868853569031], [0.041308894753456116, 0.05588267743587494, -0.04464724659919739, 0.15443645417690277, 0.20329011976718903, 0.07735075056552887, 0.1690581887960434, -0.06104637682437897, 0.0893179327249527, 0.05734340846538544, -0.1141689270734787, -0.06121601164340973, 0.1379881352186203, -0.16383323073387146, -0.07178811728954315, 0.11401320993900299, 0.10248841345310211, -0.12742316722869873, 0.11124660074710846, -0.02975448966026306, 0.04494448006153107], [-0.11092092096805573, 0.20965583622455597, -0.2178870290517807, 0.18472139537334442, -0.18328414857387543, 0.05595804750919342, 0.007338181138038635, -0.0964653491973877, -0.08164045214653015, 0.20415069162845612, 0.17268984019756317, 0.11335296928882599, -0.14413681626319885, 0.08939345180988312, 0.07951761782169342, -0.10625998675823212, 0.04906143248081207, -0.11298609524965286, -0.07291936874389648, -0.00551249086856842, -0.1613830178976059], [-0.010691073723137379, 0.00817504245787859, 0.1766573041677475, 0.06312740594148636, -0.20224310457706451, 0.17341504991054535, 0.08962330222129822, 0.1977805346250534, 0.04338391497731209, -0.20110121369361877, -0.0619785375893116, -0.12768658995628357, 0.21583455801010132, 0.1998111456632614, -0.014156728982925415, -0.09639644622802734, -0.06951780617237091, -0.15387220680713654, -0.18126456439495087, 0.15734413266181946, -0.11734354496002197], [-0.1720028966665268, 0.11718800663948059, -0.04261253774166107, -0.05360567197203636, 0.040416084229946136, 0.1387818455696106, 0.03609617054462433, 0.03805362433195114, -0.1501542627811432, 0.20480795204639435, 0.1841609627008438, 0.15225371718406677, -0.09312285482883453, -0.1898297816514969, -0.11163286119699478, 0.038410428911447525, 0.01757478527724743, 0.09247040003538132, -0.06463786959648132, 0.179931640625, 0.22047807276248932], [0.019715026021003723, -0.13246983289718628, 0.04216529428958893, 0.18270213901996613, -0.2158336639404297, -0.1652565747499466, 0.07300539314746857, 0.10130001604557037, 0.037694528698921204, -0.15701821446418762, 0.06852070987224579, 0.010994121432304382, 0.2133314460515976, -0.016799509525299072, 0.05701424181461334, 0.17696835100650787, 0.02343679964542389, -0.09127448499202728, 0.05200318992137909, -0.07007309794425964, -0.06702578067779541], [0.000963255763053894, 0.15049488842487335, -0.05087672173976898, -0.14965228736400604, -0.03818054497241974, 0.18690280616283417, -0.19879886507987976, -0.13207444548606873, -0.1933431625366211, 0.2144704908132553, -0.12588085234165192, 0.12438227236270905, -0.13191767036914825, 0.014419227838516235, -0.17542044818401337, -0.2087789624929428, 0.025278791785240173, 0.13253958523273468, -0.17933422327041626, -0.015324890613555908, -0.013861611485481262], [0.17342568933963776, -0.08097729086875916, 0.1911604255437851, 0.21221719682216644, 0.0019900649785995483, -0.05873426795005798, 0.08401994407176971, 0.20038415491580963, 0.20370973646640778, 0.010770171880722046, 0.15652714669704437, 0.014350846409797668, 0.18921728432178497, -0.07163828611373901, 0.10125516355037689, 0.20836009085178375, -0.160713791847229, 0.09447361528873444, -0.13663172721862793, 0.18784181773662567, -0.02681487798690796], [-0.007815107703208923, 0.2078668624162674, -0.17002499103546143, -0.17587190866470337, 0.16740791499614716, 0.1238420158624649, 0.033093586564064026, -0.04552912712097168, -0.07629729807376862, 0.16605089604854584, 0.03385327756404877, 0.17749382555484772, -0.10674649477005005, 0.0627516657114029, -0.1613336205482483, -0.11276614665985107, -0.12854477763175964, 0.07186006009578705, 0.17061321437358856, 0.15616555511951447, 0.12216489017009735], [-0.13720855116844177, 0.0998736321926117, 0.07959409058094025, 0.023913659155368805, -0.05561407282948494, 0.0906004086136818, 0.13712209463119507, -0.002810141071677208, 0.05261906236410141, -0.1656201332807541, -0.14276009798049927, 0.20596306025981903, 0.0942830964922905, 0.1888926476240158, -0.0445505790412426, -0.07483596354722977, 0.07172304391860962, 0.010540897957980633, -0.19353404641151428, -0.20077988505363464, 0.08108891546726227], [-0.07001141458749771, -0.09378501027822495, 0.09892277419567108, -0.06460100412368774, -0.1864888221025467, 0.026966527104377747, 0.08098822087049484, -0.0648772120475769, 0.1622300148010254, -0.021115660667419434, -0.10210157930850983, 0.009733295068144798, -0.13392822444438934, 0.15271390974521637, 0.16352438926696777, -0.07864479720592499, 0.0900992602109909, -0.09594885259866714, 0.018127979710698128, -0.018921716138720512, 0.10412587225437164], [-0.1958823800086975, 0.07936693727970123, 0.10200326144695282, -0.09274730086326599, 0.11486326158046722, -0.14470845460891724, -0.011433258652687073, 0.07084907591342926, 0.19825498759746552, 0.1133323460817337, -0.1266210973262787, 0.1462051421403885, -0.01880684494972229, 0.09014339745044708, 0.09268437325954437, -0.015700921416282654, -0.17659494280815125, 0.020915329456329346, 0.013300523161888123, 0.10726769268512726, -0.17924213409423828], [0.18640972673892975, -0.18034669756889343, -0.18104958534240723, -0.1713247299194336, 0.16702009737491608, 0.043898388743400574, 0.027927130460739136, 0.15851227939128876, -0.09076444804668427, 0.07230393588542938, 0.09731753170490265, 0.07267339527606964, 0.07000420987606049, -0.17262141406536102, 0.013252243399620056, 0.08787955343723297, 0.08335579931735992, 0.10339044034481049, 0.05258055031299591, 0.05123738944530487, -0.09444516152143478], [0.21132700145244598, -0.06884630024433136, 0.20408649742603302, 0.2129405289888382, 0.11383850872516632, 0.1979501098394394, -0.018278852105140686, -0.06385935842990875, 0.026322245597839355, 0.1540946215391159, -0.07855328917503357, 0.18635500967502594, -0.2133072316646576, -0.20193777978420258, 0.15681897103786469, 0.12172619998455048, 0.09108351171016693, -0.000567898154258728, 0.06908027827739716, 0.1493266373872757, -0.1054629310965538], [0.15279723703861237, 0.07990048825740814, 0.1268206387758255, -0.12132823467254639, -0.20987556874752045, -0.07994931936264038, 0.05673609673976898, 0.10649006068706512, 0.054567500948905945, -0.10204342007637024, 0.10062147676944733, 0.07067887485027313, 0.07504452764987946, -0.053380295634269714, 0.10198496282100677, 0.03497092425823212, 0.01019299030303955, 0.013221174478530884, -0.026551514863967896, -0.14589670300483704, 0.1625814288854599], [-0.09395045787096024, 0.018201008439064026, 0.046640411019325256, 0.15621711313724518, 0.2116944044828415, -0.11790016293525696, -0.07507748901844025, 0.08442418277263641, -0.2124478667974472, 0.2004270702600479, -0.08011764287948608, 0.19712038338184357, -0.14609229564666748, 0.0953296571969986, -0.04966387152671814, 0.048133447766304016, -0.06851129233837128, 0.1359076350927353, 0.13574044406414032, -0.025354519486427307, -0.11800369620323181], [-0.21267683804035187, -0.06899446249008179, 0.0705316811800003, 0.08859242498874664, -0.032135456800460815, 0.08267746865749359, 0.21436022222042084, 0.08763028681278229, -0.01318088173866272, -0.1568407267332077, 0.0019878745079040527, 0.043273136019706726, 0.13355429470539093, 0.01735149323940277, 0.20534862577915192, 0.10718066990375519, -0.09078486263751984, 0.10641239583492279, 0.21061502397060394, -0.005179539322853088, -0.020714402198791504], [0.14690609276294708, -0.15090137720108032, 0.20522819459438324, 0.21605242788791656, -0.006708875298500061, -0.2142188549041748, 0.14739347994327545, 0.12590940296649933, -0.04427619278430939, -0.19117996096611023, 0.15834461152553558, 0.12881089746952057, 0.19174782931804657, -0.09214641153812408, -0.031712427735328674, -0.027843132615089417, 0.019201159477233887, -0.20715655386447906, -0.12791909277439117, 0.07982669770717621, -0.10659070312976837], [0.16614572703838348, -0.06892995536327362, 0.09711743891239166, 0.0851442962884903, 0.16363783180713654, 0.09481145441532135, -0.03363481163978577, 0.21067185699939728, 0.11959047615528107, 0.21333016455173492, 0.20243601500988007, 0.15075676143169403, 0.20523394644260406, -0.07014524936676025, -0.035645678639411926, 0.041875168681144714, 0.14281494915485382, -0.20228441059589386, -0.11484793573617935, 0.19222910702228546, -0.09830576181411743], [0.015082222409546375, 0.09968751668930054, 0.05214322730898857, -0.15748199820518494, 0.15097525715827942, -0.16522616147994995, -0.12484195828437805, -0.11042194068431854, -0.20868809521198273, 0.06430913507938385, -0.059157997369766235, 0.07749559730291367, 0.010116682387888432, 0.16138596832752228, -0.06258077174425125, 0.14027932286262512, -0.14348790049552917, 0.2108367532491684, -0.0858280211687088, -0.0614132434129715, 0.1196007952094078], [0.2137843817472458, -0.15971890091896057, 0.17300169169902802, -0.003075897693634033, 0.09155641496181488, 0.08711804449558258, 0.08250667154788971, -0.10523010790348053, -0.15799157321453094, -0.16439253091812134, 0.04954098165035248, 0.13641305267810822, 0.1021551638841629, 0.2108282893896103, 0.16738449037075043, -0.15154749155044556, 0.1721651703119278, -0.057500362396240234, -0.08147753775119781, -0.06762485206127167, -0.15401789546012878], [-0.03998084366321564, -0.08490400016307831, 0.1797776073217392, -0.1985788196325302, 0.08446924388408661, 0.08169956505298615, 0.09011520445346832, 0.014875069260597229, 0.19975627958774567, -0.03192168474197388, 0.15609629452228546, 0.017964467406272888, 0.19260476529598236, 0.1383267492055893, -0.1638917475938797, -0.08048795163631439, 0.08239610493183136, -0.07583791017532349, 0.036819323897361755, 0.07149378955364227, -0.0017450451850891113], [-0.020150654017925262, -0.17018014192581177, -0.21081234514713287, 0.06575965136289597, 0.053619224578142166, 0.02228016033768654, -0.06623605638742447, 0.2170763611793518, 0.06662309914827347, -0.07038259506225586, -0.05672817677259445, -0.12333732098340988, 0.14971759915351868, 0.00868202280253172, 0.08846751600503922, -0.0644109770655632, 0.005976356565952301, -0.006199181545525789, -0.14605648815631866, -0.12571386992931366, 0.025016319006681442], [-0.13399562239646912, -0.15885896980762482, -0.14488768577575684, 0.01395416259765625, -0.04194334149360657, 0.09634174406528473, -0.05568161606788635, -0.13770999014377594, -0.13355115056037903, -0.10954072326421738, -0.15883681178092957, -0.10989396274089813, 0.06577281653881073, 0.21688149869441986, -0.20319688320159912, 0.061098501086235046, -0.11114940047264099, -0.08752237260341644, -0.1428532600402832, -0.05264894664287567, -0.01308286190032959], [-0.016612261533737183, 0.0022587329149246216, 0.11736507713794708, 0.21193839609622955, 0.12997139990329742, 0.11454989016056061, 0.1777334362268448, -0.19372551143169403, 0.07901977002620697, 0.04408477246761322, -0.16470512747764587, 0.18582533299922943, 0.1560424119234085, -0.08851461112499237, 0.16387175023555756, 0.0878957062959671, -0.08608511090278625, 0.01619116961956024, -0.2010481357574463, -0.1554262936115265, -0.06720644235610962]], "fc1.bias": [0.03172363340854645, 0.062096647918224335, -0.17045658826828003, -0.07038234174251556, -0.13927429914474487, -0.20806606113910675, -0.02835412323474884, -0.08191445469856262, 0.13485749065876007, -0.15404026210308075, 0.027345553040504456, 0.031402990221977234, -0.05073055624961853, -0.11558401584625244, -0.1849168986082077, 0.19170540571212769, -0.1640327125787735, 0.061191119253635406, 0.04677991569042206, 0.08033968508243561, 0.05767829716205597, 0.059178054332733154, 0.030674397945404053, -0.09913887083530426, -0.035739123821258545, -0.009379416704177856, -0.16528427600860596, 0.06946394592523575, 0.2116815596818924, -0.10070125013589859, -0.15402626991271973, -0.07596777379512787, -0.1957530677318573, 0.20358620584011078, 0.02896966226398945, -0.1796046644449234, 0.0022060126066207886, 0.1805615872144699, -0.047033920884132385, -0.012628644704818726, -0.06592164933681488, -0.038428302854299545, -0.15161915123462677, 0.0374569445848465, 0.17591623961925507, 0.01536540687084198, -0.11431216448545456, 0.2016661912202835, 0.1903553456068039, 0.0018513649702072144, 0.08350549638271332, -0.17109587788581848, 0.1212722584605217, 0.10831606388092041, 0.2099602371454239, 0.016552023589611053, 0.16958175599575043, -0.11871467530727386, 0.1461075395345688, 0.16948316991329193, 0.13822095096111298, 0.10883696377277374, -0.026161804795265198, -0.05186581611633301, -0.21700794994831085, 0.1386624127626419, -0.1661582589149475, 0.09836070239543915, -0.011062055826187134, 0.20292362570762634, -0.02169482409954071, 0.14174045622348785, 0.17877106368541718, -0.08535673469305038, -0.16968916356563568, 0.17414595186710358, -0.19653277099132538, 0.11703725159168243, 0.17931430041790009, 0.08631449937820435, 0.048147156834602356, 0.15427689254283905, -0.18780286610126495, 0.04366876184940338, -0.15644438564777374, 0.14651010930538177, -0.04610450565814972, -0.13355043530464172, -0.05634322762489319, -0.10788056254386902, 0.09003548324108124, 0.18965260684490204, -0.13713324069976807, 0.2160281091928482, 0.21428553760051727, -0.12770229578018188, -0.15230056643486023, 0.11482201516628265, -0.09628468751907349, 0.08488686382770538], "fc2.weight": [[0.0338263064622879, -0.05106201022863388, 0.012240111827850342, -0.2839239835739136, 0.5356630086898804, 0.052384696900844574, -0.1390124261379242, -0.047341909259557724, -0.08558430522680283, 0.044651150703430176, 0.019274288788437843, -0.06780783832073212, 0.07726175338029861, -0.02713310532271862, 0.5731331706047058, 0.4073505401611328, -0.09637786448001862, 0.19289782643318176, -0.10867146402597427, 0.32984891533851624, 0.028421571478247643, -0.5614428520202637, 0.04556751996278763, -0.11013244092464447, 0.05338483303785324, -0.08710714429616928, -0.10435456037521362, 0.6769203543663025, -0.07453024387359619, 0.04153919219970703, -0.07846750319004059, -0.7485927939414978, 0.01888233982026577, -0.07058550417423248, 0.20983904600143433, -0.04444580152630806, -0.12927007675170898, -0.31971776485443115, -0.09864623099565506, 0.03270599991083145, -0.04964211583137512, 0.012158237397670746, 0.0695786103606224, -0.08011700958013535, -0.08118852227926254, -0.07888369262218475, -0.5619391202926636, -0.024010561406612396, -0.5197009444236755, -0.057171061635017395, -0.011977508664131165, -0.04200488328933716, -0.08960036188364029, -0.13957369327545166, -0.05646863207221031, -0.6776591539382935, -0.017272114753723145, -0.0023631229996681213, 0.5734516978263855, 0.06570292264223099, 0.013529319316148758, -0.0061267465353012085, -0.11198875308036804, 0.05817589908838272, 0.0341934934258461, -0.11397478729486465, -0.009082897566258907, -0.14651180803775787, 0.07481155544519424, 0.7710332870483398, -0.06758083403110504, 0.09467986971139908, -0.14286112785339355, 0.6243041753768921, 0.08565343171358109, -0.03819308429956436, 0.038623545318841934, 0.03363562375307083, -0.10932426154613495, 0.6840621829032898, -0.15223290026187897, -0.06117130443453789, 0.023278577253222466, 0.07573125511407852, 0.03873321786522865, 0.057034559547901154, -0.0322713665664196, -0.03147951886057854, 0.018532458692789078, 0.021873585879802704, -0.0302751287817955, -0.04178307205438614, 0.035349756479263306, -0.1295582801103592, 0.6923242211341858, 0.0007062632939778268, -0.12969009578227997, 0.0969940796494484, 0.002524539828300476, -0.12490669637918472]], "fc2.bias": [-0.10169919580221176]}