{"fc1.weight": [[-0.1959058940410614, 0.013901740312576294, -0.12830573320388794, -0.08305184543132782, 0.14299343526363373, -0.20737074315547943, 0.11172296106815338, 0.16244329512119293, -0.2090672254562378, 0.10162718594074249, -0.21318012475967407, -0.1827925145626068, 0.21004821360111237, -0.08585058152675629, -0.09846722334623337, -0.02973569929599762, -0.005480095744132996, -0.10136477649211884, -0.06508496403694153, -0.10438456386327744, -0.18692070245742798], [-0.19529934227466583, -0.0827891081571579, -0.053550273180007935, 0.005551174283027649, 0.1441333144903183, -0.053760826587677, -0.038356319069862366, 0.15728582441806793, 0.0569901317358017, 0.19384394586086273, -0.13142690062522888, -0.19892987608909607, -0.10539860278367996, -0.0074764639139175415, -0.09732571989297867, -0.15258784592151642, -0.15909118950366974, 0.050856396555900574, 0.13860435783863068, 0.16485776007175446, -0.1461230218410492], [-0.20883263647556305, -0.030235135927796364, -0.21406316757202148, 0.09862218797206879, -0.18666133284568787, 0.1807088404893875, -0.15618112683296204, -0.14169949293136597, 0.12682898342609406, 0.17957456409931183, 0.024020111188292503, 0.20242251455783844, 0.07633092999458313, 0.10431475937366486, -0.16099593043327332, 0.1534578651189804, 0.0020462870597839355, 0.12715564668178558, 0.1757248193025589, 0.20859649777412415, -0.053171977400779724], [0.12156642973423004, -0.11628838628530502, -0.12758469581604004, 0.0303611159324646, 0.2083864063024521, -0.1319209486246109, -0.03586664795875549, -0.14881719648838043, -0.034242480993270874, 0.1988646537065506, -0.14553964138031006, 0.17050738632678986, -0.04202871024608612, 0.18822552263736725, -0.11851190030574799, -0.11435648798942566, -0.1942192018032074, -0.18812234699726105, 0.15593232214450836, -0.060732290148735046, 0.0006242245435714722], [-0.017207235097885132, -0.050142958760261536, 0.0926470011472702, -0.06524929404258728, -0.1927989423274994, 0.17533011734485626, -0.1881488561630249, 0.12659884989261627, 0.17551837861537933, 0.19927023351192474, -0.1684805154800415, -0.17062486708164215, -0.1533908247947693, -0.009652167558670044, -0.1121000200510025, -0.1400715857744217, 0.058310702443122864, -0.18247178196907043, -0.06672975420951843, 0.14913572371006012, -0.07749229669570923], [-0.12167637795209885, 0.10410548746585846, 0.04543320834636688, 0.2127276211977005, -0.13853368163108826, 0.1603282243013382, -0.21240924298763275, 0.21409542858600616, 0.17990024387836456, -0.022725746035575867, 0.11983264982700348, 0.0790843814611435, -0.035841360688209534, 0.15054987370967865, 0.2100534588098526, 0.09078048169612885, 0.057925835251808167, 0.12552498281002045, -0.04095442593097687, 0.09189029037952423, -0.0705871731042862], [-0.11731704324483871, -0.18870899081230164, 0.17077429592609406, 0.0013816440477967262, 0.004423287231475115, -0.11499466001987457, 0.043362807482481, 0.19514033198356628, -0.2150103896856308, -0.11385629326105118, 0.10143178701400757, 0.05834236368536949, -0.003934252075850964, -0.08732106536626816, -0.1306580901145935, -0.12470872700214386, -0.16292507946491241, 0.1255938708782196, 0.17470325529575348, 0.08292873948812485, -0.05501413345336914], [-0.15178179740905762, -0.08746865391731262, -0.15665288269519806, -0.028227180242538452, 0.12813161313533783, 0.20011083781719208, -0.05491413176059723, -0.1389114260673523, -0.11629364639520645, 0.20390774309635162, 0.1780981570482254, 0.14196766912937164, -0.16719868779182434, -0.07420381903648376, 0.052542224526405334, -0.1272815316915512, 0.09097082912921906, -0.15985417366027832, -0.04931621253490448, 0.18962182104587555, -0.16391703486442566], [-0.1531287431716919, -0.06948934495449066, 0.033489421010017395, -0.15605641901493073, 0.036017611622810364, 0.19443963468074799, 0.2109340876340866, -0.21123149991035461, -0.004296541213989258, 0.10024847090244293, -0.13368088006973267, 0.037611231207847595, 0.11375637352466583, 0.0868549793958664, 0.21311859786510468, 0.13379044830799103, 0.20438523590564728, -0.16872134804725647, -0.13932548463344574, 0.05840514600276947, 0.1969091147184372], [-0.19714614748954773, -0.018892094492912292, -0.11692634969949722, -0.07980036735534668, -0.11512771248817444, 0.08113892376422882, 0.18189148604869843, 0.1552160531282425, -0.1103699579834938, -0.039529457688331604, -0.016801565885543823, 0.21400736272335052, -0.16337937116622925, -0.11193160712718964, -0.037149056792259216, 0.0870773047208786, 0.041214123368263245, -0.2026362121105194, -0.12904702126979828, 0.11313046514987946, 0.06834979355335236], [0.05509556829929352, 0.0344281941652298, 0.1156463772058487, -0.189761221408844, -0.16280822455883026, -0.06447367370128632, 0.027675479650497437, -0.011210307478904724, 0.18080656230449677, -0.14377593994140625, 0.07036145031452179, -0.20938187837600708, 0.011616915464401245, -0.17094676196575165, 0.17014555633068085, 0.1535641998052597, -0.11142192035913467, 0.1544373482465744, -0.19576521217823029, 0.16948844492435455, 0.1794770509004593], [0.04669502377510071, 0.18100325763225555, 0.061400070786476135, 0.17053352296352386, -0.009525617584586143, 0.19654418528079987, -0.027639729902148247, 0.2367158681154251, -0.09714222699403763, 0.0054684411734342575, -0.019114898517727852, 0.016046220436692238, 0.06439514458179474, 0.1687210649251938, -0.06449096649885178, -0.13467596471309662, -0.09478272497653961, 0.07391718029975891, 0.11485656350851059, -0.024505872279405594, -0.22202840447425842], [0.1043538898229599, -0.06799547374248505, -0.1527075618505478, 0.012574508786201477, 0.13106797635555267, -0.20661333203315735, 0.06969653069972992, -0.14988534152507782, 0.1816430538892746, 0.19616560637950897, 0.0030942708253860474, -0.039552584290504456, 0.0481979101896286, 0.19423185288906097, 0.1555405706167221, 0.1921321302652359, 0.16602541506290436, 0.20128370821475983, -0.01931200921535492, -0.02644355595111847, 0.08208523690700531], [0.19034652411937714, 0.10296504199504852, 0.19160710275173187, -0.021049007773399353, 0.011180415749549866, 0.028084412217140198, -0.17228779196739197, 0.16806383430957794, -0.1454375982284546, -0.10345596075057983, 0.1021440178155899, 0.11005805432796478, 0.18925707042217255, -0.06669962406158447, -0.05163939297199249, 0.15032480657100677, -0.1986624002456665, -0.06802202761173248, 0.15703760087490082, -0.12765157222747803, -0.03382475674152374], [0.21458189189434052, -0.08386701345443726, -0.0041913422755897045, 0.06227290630340576, 0.10730774700641632, -0.20853358507156372, -0.06763852387666702, -0.19649551808834076, 0.07715799659490585, 0.0758734866976738, 0.0373983234167099, 0.07474235445261002, 0.08261369168758392, -0.11006966978311539, -0.1930765062570572, -0.11254129558801651, 0.10335960984230042, 0.19342461228370667, 0.02602752298116684, 0.1712953895330429, -0.1200011745095253], [-0.15681539475917816, 0.007371729705482721, -0.17078454792499542, 0.08142319321632385, 0.05844230577349663, -0.08561208099126816, -0.0862586498260498, 0.09928558766841888, 0.15092353522777557, -0.04731682687997818, 0.062350038439035416, 0.022408263757824898, 0.13803614675998688, 0.01581244170665741, -0.02280467376112938, -0.017080171033740044, 0.13007062673568726, 0.15807019174098969, -0.18768861889839172, -0.08143675327301025, 0.2165069729089737], [-0.029439404606819153, -0.1888781040906906, 0.018360819667577744, -0.08677401393651962, -0.1238773763179779, 0.1469137817621231, 0.08939383924007416, 0.16638925671577454, 0.19233079254627228, 0.19565515220165253, 0.07843827456235886, 0.011005593463778496, 0.19494740664958954, 0.16221638023853302, -0.17461882531642914, -0.10454010963439941, 0.0672256201505661, -0.15224502980709076, 0.09177163243293762, 0.13450980186462402, -0.17364436388015747], [-0.045648131519556046, 0.15240812301635742, -0.001507765962742269, 0.15961255133152008, 0.15571612119674683, -0.03178177773952484, -0.11326365172863007, 0.06951099634170532, 0.1337011605501175, -0.083855539560318, 0.04685518518090248, 0.20473426580429077, 0.1906396746635437, -0.07216139137744904, -0.15010987222194672, 0.028547128662467003, -0.13368521630764008, -0.15175560116767883, -0.20547828078269958, -0.19840407371520996, 0.03735059127211571], [0.06442441046237946, -0.03369855880737305, 0.202728733420372, -0.054745152592659, 0.12402103841304779, -0.18892046809196472, 0.19916923344135284, 0.1047801524400711, 0.12687398493289948, 0.14055518805980682, -0.04198962450027466, 0.11937610805034637, 0.21627478301525116, 0.006268814206123352, 0.016774266958236694, 0.15616203844547272, -0.06682571768760681, -0.11488445848226547, 0.012745410203933716, -0.011593267321586609, 0.05236966907978058], [-0.20172303915023804, -0.2050505429506302, -0.14562779664993286, 0.03960733115673065, -0.08968354761600494, -0.12307409197092056, -0.09868774563074112, 0.200186088681221, -0.09598430246114731, 0.1781667321920395, -0.10041938722133636, -0.08985245227813721, 0.1961929351091385, 0.16700680553913116, -0.06861995160579681, -0.05613735318183899, -0.10614633560180664, 0.12414215505123138, -0.06428347527980804, 0.1161009818315506, 0.06272362172603607], [-0.18434123694896698, 0.02699035406112671, -0.1370776742696762, 0.01614759862422943, 0.10438226163387299, 0.12782873213291168, -0.020872563123703003, 0.09018634259700775, 0.0512060672044754, 0.06540419161319733, 0.15377165377140045, -0.20425738394260406, 0.03164374828338623, 0.18018926680088043, 0.21112366020679474, 0.1136598140001297, -0.07794871926307678, 0.007967934012413025, 0.0356089323759079, 0.06339789927005768, -0.07859481871128082], [-0.1625504493713379, 0.025729864835739136, -0.1915772408246994, 0.1558806151151657, -0.19823476672172546, -0.20040263235569, -0.05606094002723694, 0.020478248596191406, 0.048981502652168274, -0.148783877491951, 0.1315508931875229, -0.07897093892097473, -0.07567611336708069, 0.16659747064113617, 0.08787061274051666, 0.08065246045589447, -0.04815283417701721, -0.1586885303258896, -0.044834017753601074, -0.05148091912269592, 0.18737445771694183], [-0.1710723340511322, 0.13917261362075806, -0.14496253430843353, -0.0059647588059306145, -0.20280428230762482, 0.19998222589492798, -0.01703101396560669, 0.18162290751934052, 0.08322978764772415, -0.21345192193984985, 0.09327694028615952, 0.24051254987716675, 0.18181215226650238, -0.06154278665781021, -0.11517104506492615, -0.038170237094163895, 0.17907670140266418, 0.2410140037536621, 0.028045203536748886, 0.09120812267065048, 0.017950888723134995], [-0.18044300377368927, -0.029459550976753235, -0.05866838991641998, -0.21406035125255585, 0.1859758049249649, 0.030264243483543396, 0.17054374516010284, -0.12622681260108948, 0.11751683056354523, -0.17259107530117035, 0.21624521911144257, -0.1527194231748581, 0.14035560190677643, 0.20993708074092865, 0.1627875715494156, 0.10302476584911346, -0.15169775485992432, 0.20447073876857758, 0.08137939870357513, -0.01553545892238617, -0.03233295679092407], [0.08547140657901764, 0.10777418315410614, -0.18516108393669128, 0.08041353523731232, -0.20276188850402832, 0.1269926279783249, -0.013286888599395752, -0.1565597653388977, -0.19839805364608765, 0.0030029118061065674, -0.19346371293067932, -0.056478410959243774, 0.010817021131515503, -0.06564971804618835, 0.13932566344738007, -0.1724070906639099, 0.11779601871967316, 0.1522359400987625, 0.16330187022686005, -0.1094483733177185, 0.08403952419757843], [-0.16835695505142212, 0.014452287927269936, -0.05400965362787247, 0.087900809943676, -0.21150586009025574, -0.038289785385131836, 0.10469306260347366, -0.02986600063741207, 0.11049135774374008, 0.07664497941732407, -0.039690855890512466, -0.09646529704332352, -0.02009052224457264, -0.1499004065990448, -0.02570383995771408, 0.10230308771133423, 0.1441846638917923, -0.14849287271499634, 0.08430356532335281, -0.042508307844400406, -0.005192517302930355], [0.07200165092945099, 0.16593630611896515, -0.10140054672956467, 0.2154874950647354, -0.0774984359741211, -0.043510422110557556, -0.09200938045978546, 0.1454068273305893, -0.1386842429637909, 0.12282444536685944, -0.05160057544708252, 0.017609357833862305, -0.12276020646095276, 0.21676884591579437, -0.13156935572624207, -0.1582103669643402, 0.06203599274158478, 0.20175985991954803, -0.11291322857141495, 0.05813969671726227, 0.13917894661426544], [-0.029856622219085693, 0.14198829233646393, 0.07961507141590118, 0.04207618534564972, -0.07449352741241455, -0.2108662724494934, -0.15058255195617676, -0.07347114384174347, -0.19807863235473633, -0.03796429932117462, -0.04163214564323425, -0.03497655689716339, -0.08062909543514252, 0.19503487646579742, -0.11523572355508804, 0.04895143210887909, 0.10726623237133026, -0.18627247214317322, -0.18552184104919434, 0.11477114260196686, 0.048527494072914124], [-0.1622663140296936, 0.11467255651950836, 0.1180252805352211, 0.20734058320522308, 0.05552509427070618, 0.19475646317005157, -0.09280529618263245, -0.05846415087580681, 0.09020166099071503, -0.043486226350069046, -0.20848247408866882, -0.11525216698646545, 0.1261286437511444, -0.17701439559459686, -0.08467192202806473, 0.14850829541683197, 0.09113159030675888, 0.037505947053432465, 0.07449590414762497, -0.11618254333734512, 0.1793750524520874], [-0.04337973892688751, -0.07979936897754669, 0.17244736850261688, 0.14034704864025116, 0.18259955942630768, -0.08943644165992737, 0.21300120651721954, -0.1609003096818924, -0.057858437299728394, 0.21340973675251007, -0.06824654340744019, -0.021691620349884033, 0.04605273902416229, 0.09642200171947479, -0.09231191873550415, 0.08652855455875397, -0.12331484258174896, -0.06763871014118195, -0.00244140625, -0.13819235563278198, 0.08297590911388397], [0.18052323162555695, -0.12020910531282425, -0.12611237168312073, 0.018394997343420982, 0.071541927754879, -0.1331055611371994, 0.1249101310968399, -0.1844715029001236, 0.11541638523340225, 0.09785769134759903, -0.0621744766831398, -0.006165037862956524, 0.14534063637256622, -0.047392457723617554, -0.10283658653497696, -0.14381907880306244, -0.03922471031546593, -0.23307931423187256, 0.07910889387130737, -0.024723012000322342, 0.00397784449160099], [0.0968160405755043, 0.2254624217748642, -0.08976110070943832, 0.1875150203704834, -0.20044687390327454, 0.17766129970550537, 0.03853282704949379, -0.10826761275529861, -0.18350635468959808, -0.17186826467514038, 0.1997850388288498, -0.07137008756399155, -0.16067254543304443, -0.21674087643623352, -0.012630329467356205, 0.12386801093816757, 0.21322157979011536, -0.1609099805355072, 0.0037899943999946117, 0.2230941504240036, -0.09599794447422028], [0.14974582195281982, -0.1414460688829422, -0.08207608014345169, 0.07809817045927048, 0.04192211478948593, 0.053554173558950424, -0.0582268200814724, 0.2040494680404663, 0.11684337258338928, 0.17796027660369873, -0.18194065988063812, -0.03674646094441414, -0.09179776906967163, 0.08678208291530609, 0.06807133555412292, 0.10481840372085571, -0.20024080574512482, 0.15139150619506836, 0.20699447393417358, 0.18411682546138763, -0.14845623075962067], [0.0018291473388671875, 0.14327006042003632, 0.05498166382312775, 0.08599500358104706, -0.1529713273048401, 0.08873654901981354, -0.06781747937202454, 0.07336054742336273, -0.20401665568351746, -0.14115864038467407, -0.1832786351442337, 0.027716249227523804, 0.026334136724472046, 0.08923827111721039, 0.011632144451141357, -0.13372452557086945, 0.04056374728679657, -0.043183207511901855, 0.07934121787548065, -0.13299375772476196, -0.19172431528568268], [-0.04122383892536163, 0.08968929946422577, -0.20685262978076935, -0.08217349648475647, 0.003997900988906622, -0.13170790672302246, 0.07551568001508713, 0.10306097567081451, 0.07292529195547104, -0.10520678013563156, -0.06013492867350578, -0.013248026371002197, 0.0765327736735344, -0.021949857473373413, -0.13394507765769958, 0.10948119312524796, 0.02113935351371765, 0.1721910983324051, -0.13102386891841888, -0.06424815952777863, -0.1843729019165039], [-0.07898648828268051, 0.038673464208841324, 0.03258095681667328, -0.12048174440860748, 0.0918378159403801, -0.21736961603164673, 0.041124127805233, 0.021622678264975548, -0.0354280099272728, 0.0984347015619278, -0.08733021467924118, -0.1727781593799591, -0.002005919348448515, -0.004871943034231663, 0.13290734589099884, 0.0996493548154831, -0.18020857870578766, 0.0005158566636964679, 0.04251449182629585, -0.14492058753967285, 0.1972745805978775], [0.014403180219233036, 0.17297638952732086, -0.08031174540519714, -0.03352766111493111, 0.051590148359537125, -0.19871850311756134, 0.07813230156898499, -0.09795839339494705, -0.019970247521996498, 0.015643376857042313, 0.11559832841157913, 0.1485910564661026, -0.09782206267118454, 0.18952135741710663, -0.10577651858329773, -0.185546413064003, 0.00934555009007454, 0.02837548591196537, 0.033146873116493225, 0.11612299829721451, -0.04758261889219284], [0.13701146841049194, -0.0563325472176075, 0.08209071308374405, -0.016778888180851936, -0.038203850388526917, 0.11926855146884918, -0.14004118740558624, 0.21478116512298584, 0.06567716598510742, 0.06356581300497055, -0.2001671940088272, -0.04840473085641861, -0.10636378824710846, 0.20929895341396332, -0.18785102665424347, 0.16610954701900482, 0.0344318151473999, 0.15206629037857056, 0.010494925081729889, 0.10620170086622238, -0.1401657611131668], [0.046324655413627625, 0.03403027355670929, 0.1755899041891098, -0.09570994228124619, 0.18983368575572968, -0.0484684556722641, -0.019141748547554016, 0.20924519002437592, 0.21752841770648956, -0.1393720805644989, 0.03905807435512543, -0.07558998465538025, -0.0852074921131134, 0.1963133066892624, 0.19403953850269318, -0.08507232367992401, -0.08046907186508179, -0.2048809826374054, 0.12808923423290253, 0.058206066489219666, -0.08738306164741516], [-0.0687565952539444, -0.1496640145778656, -0.14488285779953003, 0.21192918717861176, -0.14314644038677216, 0.04059861600399017, 0.19163642823696136, 0.07764296233654022, -0.16463136672973633, 0.12423010170459747, 0.1834041327238083, -0.00472654402256012, 0.11882208287715912, 0.05046229064464569, 0.21397344768047333, 0.16456501185894012, -0.11876972019672394, 0.0073585957288742065, 0.0351913720369339, 0.02456808090209961, -0.1370619386434555], [0.03457663953304291, 0.08567990362644196, -0.05714581906795502, 0.12526755034923553, -0.034394770860672, -0.05121089518070221, 0.15093781054019928, -0.10282822698354721, 0.14554984867572784, -0.16784346103668213, 0.12330760061740875, -0.05190938711166382, -0.20159868896007538, -0.16607420146465302, 0.21557699143886566, 0.016785070300102234, -0.18879815936088562, 0.19393141567707062, 0.10002990067005157, -0.19322605431079865, 0.15609924495220184], [0.10556717216968536, 0.16153861582279205, -0.017624661326408386, 0.008695721626281738, 0.16722996532917023, -0.16203910112380981, -0.15716484189033508, 0.012973189353942871, -0.12276411056518555, -0.20482879877090454, 0.040991172194480896, 0.12361715734004974, -0.08273768424987793, 0.19731517136096954, -0.1514749526977539, 0.11805175244808197, -0.20421138405799866, 0.07819651067256927, -0.08068986237049103, -0.08900171518325806, -0.14811578392982483], [-0.04437313973903656, 0.09640727937221527, 0.13128553330898285, 0.20435328781604767, -0.14189352095127106, -0.21596871316432953, 0.16245205700397491, -0.11407268047332764, 0.07686083018779755, 0.06672753393650055, -0.001880452036857605, -0.03521278500556946, 0.14676250517368317, 0.07782037556171417, 0.15676920115947723, 0.12425519526004791, -0.02955886721611023, 0.02294906973838806, -0.16711948812007904, 0.16168396174907684, -0.13872140645980835], [0.06222851574420929, 0.057156339287757874, -0.10264521837234497, -0.1447952687740326, 0.197102352976799, -0.003512769937515259, -0.15936177968978882, 0.19630824029445648, -0.18078884482383728, -0.013197347521781921, 0.11542372405529022, 0.1393088549375534, -0.028352513909339905, -0.18353375792503357, -0.11023510247468948, -0.21802927553653717, -0.19708234071731567, -0.1811157912015915, 0.17259906232357025, 0.15320123732089996, 0.18023262917995453], [0.09041976183652878, 0.014225775375962257, 0.13814355432987213, 0.14586728811264038, -0.18381857872009277, -0.03283288702368736, 0.15472936630249023, -0.07140108942985535, -0.20380091667175293, -0.004999715834856033, -0.14819955825805664, -0.011374372988939285, 0.14102229475975037, 0.11374683678150177, -0.1736220270395279, 0.10989201068878174, 0.14205127954483032, -0.009193133562803268, 0.1882518082857132, -0.20123466849327087, -0.10260660946369171], [0.019513115286827087, -0.007459580898284912, 0.06201024353504181, 0.03472773730754852, 0.03339610993862152, 0.21548350155353546, 0.14710433781147003, 0.18490971624851227, -0.18113155663013458, 0.010463371872901917, -0.17612290382385254, -0.06837674975395203, 0.21278436481952667, 0.19048352539539337, -0.12059459835290909, 0.18987442553043365, -0.11297003924846649, -0.16997335851192474, 0.10641051828861237, 0.11745630204677582, -0.08691143989562988], [-0.09323107451200485, -0.07756298780441284, 0.15698681771755219, -0.01069687306880951, 0.061854287981987, 0.1721011847257614, 0.10443328320980072, 0.0012999773025512695, -0.037417396903038025, 0.014732882380485535, -0.027511924505233765, -0.0391385555267334, -0.028550103306770325, -0.06226186454296112, 0.2147415727376938, 0.011158868670463562, 0.09792710840702057, -0.14266714453697205, -0.19843541085720062, 0.18591062724590302, 0.0725008100271225], [0.02648189663887024, -0.06501924991607666, -0.09961627423763275, 0.12733332812786102, -0.19411775469779968, 0.014984697103500366, 0.16692928969860077, -0.07739733159542084, 0.19261489808559418, 0.14361973106861115, 0.20736892521381378, -0.15749701857566833, 0.18277598917484283, -0.07529275119304657, 0.09025539457798004, 0.20203588902950287, -0.0011391043663024902, 0.20683343708515167, 0.06030450761318207, 0.17489512264728546, 0.1293715089559555], [-0.18491289019584656, 0.1930556446313858, 0.07436652481555939, 0.0900435596704483, 0.12421499192714691, 0.08777888119220734, -0.16851334273815155, -0.1522115021944046, -0.06680497527122498, 0.019116953015327454, 0.17919860780239105, 0.02972850203514099, 0.01414574682712555, -0.079474076628685, -0.19653725624084473, -0.19817493855953217, 0.05311371386051178, 0.020735472440719604, 0.16266314685344696, -0.017274275422096252, 0.04498802125453949], [-0.16885000467300415, -0.1535436511039734, -0.10011906176805496, 0.024859502911567688, 0.12064643204212189, -0.05233192443847656, -0.05679932236671448, -0.16643670201301575, 0.03951014578342438, 0.07329897582530975, -0.18794302642345428, -6.896257400512695e-05, -0.12403414398431778, -0.15279603004455566, 0.09587131440639496, 0.10329075157642365, 0.16618479788303375, 0.1690833419561386, -0.20583443343639374, 0.19590096175670624, -0.031488701701164246], [-0.007404044270515442, -0.06435023248195648, -0.07850395143032074, -0.00390586256980896, -0.15643946826457977, 0.126093789935112, 0.13677306473255157, 0.10474438965320587, -0.04006350040435791, -0.13828125596046448, -0.02004578709602356, 0.11851514875888824, 0.043062642216682434, -0.022797614336013794, 0.01944810152053833, -0.15116065740585327, -0.09502385556697845, -0.06695052981376648, 0.1353878527879715, 0.09608171880245209, -0.2076984941959381], [0.1013895720243454, -0.21289777755737305, 0.021911151707172394, -0.009209249168634415, 0.2361045777797699, -0.033619754016399384, -0.03773309290409088, -0.06400196254253387, 0.13794159889221191, 0.07355885207653046, 0.05898609384894371, -0.16757391393184662, -0.15732091665267944, -0.20195624232292175, -0.1791122555732727, 0.08867759257555008, 0.17580176889896393, -0.18920856714248657, 0.16903293132781982, -0.18271233141422272, -0.07532751560211182], [-0.12236879765987396, 0.18765482306480408, -0.05849755182862282, 0.18446828424930573, -0.0671074390411377, -0.17414890229701996, 0.15543383359909058, 0.10054746270179749, -0.1242922842502594, 0.05881953239440918, 0.1440155953168869, -0.07321576774120331, -0.1671312153339386, -0.1430055797100067, 0.1753096580505371, 0.07768154889345169, 0.0646396204829216, -0.1888829469680786, 0.07659202814102173, -0.17102763056755066, -0.03933403640985489], [-0.19396379590034485, -0.1317027509212494, -0.21031847596168518, 0.099794402718544, -0.015703782439231873, -0.20821571350097656, -0.18823251128196716, 0.040161535143852234, 0.059671297669410706, 0.07466648519039154, 0.03687600791454315, -0.09548237174749374, -0.19598081707954407, -0.21148213744163513, 0.06403230130672455, 0.03766725957393646, 0.14223666489124298, -0.042680203914642334, 0.10595737397670746, 0.011524498462677002, 0.13366727530956268], [0.01796691305935383, 0.20710840821266174, -0.09775791317224503, -0.07512485235929489, 0.21094146370887756, -0.09138743579387665, 0.167996346950531, -0.011942203156650066, 0.015821970999240875, -0.11330054700374603, -0.012709119357168674, 0.1642918586730957, -0.10415109992027283, -0.09290148317813873, -0.1668618768453598, -0.1174747422337532, -0.005623549222946167, -0.10785049200057983, -0.18216630816459656, 0.13175033032894135, -0.19884929060935974], [0.1228269413113594, -0.0847705751657486, -0.13177916407585144, -0.18885338306427002, 0.13659267127513885, -0.02836546301841736, -0.0998438149690628, 0.07075279206037521, 0.10886134207248688, -0.14121508598327637, -0.06472174823284149, -0.1357635259628296, 0.09887673705816269, 0.1484392136335373, -0.135625422000885, 0.17125362157821655, -0.19163990020751953, -0.029190825298428535, 0.1847047656774521, -0.1346563994884491, -0.04084179177880287], [-0.1486968696117401, 0.14484594762325287, -0.21526552736759186, 0.15239395201206207, -0.18659274280071259, -0.0724874883890152, -0.12618571519851685, 0.06032721698284149, -0.11919450014829636, 0.06522493064403534, -0.1919335126876831, -0.06841319799423218, -0.07474355399608612, -0.19914254546165466, -0.08868426084518433, 0.0844482034444809, 0.21005715429782867, -0.008510798215866089, -0.20486953854560852, -0.1865944266319275, -0.16224679350852966], [0.047488026320934296, -0.023116692900657654, -0.15926434099674225, -0.16686616837978363, -0.0503210574388504, -0.10458363592624664, -0.18428032100200653, 0.09024228900671005, -0.2346695214509964, -0.1721714287996292, 0.16010062396526337, -0.026367314159870148, -0.004649295471608639, -0.012311945669353008, 0.04124259948730469, 0.14564447104930878, -0.023920709267258644, 0.1975005716085434, 0.1289500892162323, 0.015463553369045258, -0.13424253463745117], [-0.037357717752456665, 0.2171553522348404, 0.02111378312110901, 0.024078965187072754, -0.1083366796374321, -0.10358701646327972, -0.15602955222129822, 0.01587069034576416, 0.05837078392505646, 0.21333400905132294, 0.11186827719211578, 0.13208366930484772, 0.021000385284423828, 0.19263462722301483, -0.12428247183561325, -0.16756439208984375, 0.1315128356218338, 0.21606124937534332, 0.20032773911952972, -0.11704252660274506, -0.038437455892562866], [0.04015223681926727, 0.006211087107658386, -0.05148932337760925, 0.04401801526546478, 0.08962292969226837, 0.0945519357919693, 0.14320982992649078, -0.20013755559921265, -0.10847694426774979, -0.010113000869750977, -0.20558558404445648, -0.06380800902843475, -0.08108946681022644, -0.03525170683860779, 0.004327595233917236, -0.21163377165794373, -0.05435079336166382, 0.1286151260137558, -0.04061238467693329, 0.13279728591442108, 0.14530889689922333], [-0.040463488548994064, 0.21364937722682953, 0.1635691076517105, -0.06001003459095955, -0.07184396684169769, 0.19061672687530518, -0.2686806321144104, 0.11511070281267166, 0.0763574093580246, 0.2077774554491043, 0.18764610588550568, 0.17453031241893768, -0.07114927470684052, 0.011625171639025211, -0.10754939168691635, 0.11364933103322983, 0.14342932403087616, -0.023371543735265732, -0.03800027444958687, -0.13155019283294678, -0.07675528526306152], [0.15276481211185455, 0.05537407100200653, 0.05189596116542816, -0.1316726803779602, 0.1063029021024704, 0.03318949043750763, -0.08626621961593628, -0.07288508117198944, -0.11201900988817215, -0.006581827998161316, 0.1097479909658432, -0.0960603728890419, -0.07946313917636871, 0.10273812711238861, -0.15476010739803314, -0.15478748083114624, -0.134071946144104, -0.02372319996356964, 0.09646229445934296, -0.13261979818344116, 0.14090920984745026], [-0.012907961383461952, -0.011633285321295261, -0.010794918984174728, 0.0026265084743499756, 0.06868431717157364, -0.025268368422985077, -0.2565067410469055, 0.16843770444393158, -0.1008618026971817, -0.13150560855865479, 0.1467304527759552, -0.016824353486299515, -0.11756877601146698, 0.14514535665512085, 0.23017823696136475, -0.13103371858596802, -0.06909796595573425, 0.16305148601531982, -0.11492683738470078, 0.10537992417812347, 0.06588151305913925], [-0.07331305742263794, 0.20956285297870636, -0.15126824378967285, 0.16806913912296295, -0.1144789606332779, 0.11040444672107697, 0.11593295633792877, -0.12524369359016418, 0.11955191195011139, -0.06564711034297943, -0.07901433110237122, 0.1808435171842575, -0.07898829877376556, -0.18020032346248627, -0.030471235513687134, -0.02798709273338318, 0.1895889788866043, -0.07030323147773743, -0.09059980511665344, 0.05651046335697174, 0.09268097579479218], [0.10534654557704926, -0.14408347010612488, 0.062143757939338684, -0.14424388110637665, -0.1658635437488556, -0.056889429688453674, -0.20367936789989471, -0.054713889956474304, -0.16414335370063782, 0.183297798037529, -0.10362517833709717, -0.0477713942527771, 0.0492178350687027, 0.09205447137355804, 0.04717598855495453, 0.07002599537372589, -0.09108076989650726, -0.09960310906171799, -0.05007794499397278, 0.016547948122024536, -0.08232805132865906], [0.006498882547020912, 0.03775347024202347, -0.21473261713981628, 0.09299973398447037, 0.0914868637919426, -0.17585763335227966, 0.06341663748025894, -0.09076964855194092, -0.006491681095212698, -0.2060052454471588, 0.09862668812274933, -0.14204400777816772, -0.1972150206565857, -0.15604108572006226, -0.1158367171883583, 0.11309175938367844, -0.15231160819530487, 0.11140605062246323, -0.08867832273244858, 0.046705134212970734, 0.12724518775939941], [0.09752736985683441, -0.053808510303497314, -0.15963482856750488, 0.1785028725862503, -0.08701819181442261, -0.06668472290039062, -0.15547266602516174, 0.09841956198215485, 0.05129213631153107, 0.21151860058307648, -0.06237652897834778, -0.20667999982833862, -9.12100076675415e-05, -0.021727800369262695, -0.0005480051040649414, 0.17700187861919403, 0.08482389152050018, 0.08826179802417755, -0.16985562443733215, -0.15596090257167816, -0.12024274468421936], [-0.13360321521759033, -0.01418641209602356, 0.1943187564611435, 0.14967577159404755, -0.126466304063797, 0.20390121638774872, -0.0038593709468841553, -0.07152140140533447, -0.01892024278640747, 0.1080055683851242, 0.12253381311893463, -0.1379929631948471, -0.15359961986541748, -0.062437474727630615, -0.004840657114982605, -0.015380725264549255, -0.1794731616973877, -0.13909608125686646, -0.17632988095283508, 0.17597492039203644, -0.11397572606801987], [0.11692841351032257, 0.1833164244890213, -0.12284433841705322, 0.00801713764667511, -0.15087541937828064, -0.21247901022434235, -0.16839568316936493, -0.1316637545824051, -0.14550423622131348, -0.1894482523202896, -0.039971739053726196, -0.0149431973695755, 0.01748889684677124, 0.21079428493976593, -0.16684971749782562, -0.17719507217407227, -0.13996216654777527, 0.14951957762241364, 0.2149936705827713, 0.11190725862979889, -0.14133861660957336], [0.07399557530879974, -0.029709085822105408, 0.17920051515102386, 0.016768336296081543, -0.09855827689170837, -0.10256967693567276, 0.0343603640794754, -0.07217280566692352, 0.10500495135784149, -0.0262279212474823, 0.056275442242622375, 0.027351796627044678, 0.17037110030651093, -0.10882388800382614, -0.048022955656051636, 0.07290695607662201, 0.0599561482667923, 0.083412304520607, -0.016994819045066833, -0.0003401339054107666, -0.17494182288646698], [-0.2456393986940384, 0.07655177265405655, 0.10146309435367584, -0.18025141954421997, -0.05350891500711441, 0.12159702926874161, -0.023853542283177376, -0.2729828357696533, -0.049668408930301666, 0.16171376407146454, 0.1491747796535492, -0.20232082903385162, 0.15466740727424622, -0.1376214325428009, 0.15500986576080322, -0.13449612259864807, -0.14456011354923248, 0.05721665546298027, 0.19354504346847534, -0.10115689784288406, 0.12458096444606781], [0.02371157705783844, -0.0571250319480896, 0.05490390956401825, -0.0019264668226242065, 0.14401580393314362, 0.0729464739561081, 0.07133077085018158, -0.11386420577764511, -0.10701633244752884, -0.19145117700099945, -0.1065724641084671, -0.12386401742696762, 0.11783470213413239, 0.08669371902942657, -0.0017942339181900024, 0.15031124651432037, -0.038211822509765625, -0.18886898458003998, -0.1302529275417328, 0.1294819861650467, -0.1608843356370926], [0.047733381390571594, -0.17090511322021484, 0.1191587895154953, 0.01477697491645813, -0.18095427751541138, 0.05837254226207733, -0.2146298587322235, 0.15881852805614471, -0.06820370256900787, 0.0768037885427475, -0.08125327527523041, -0.022798582911491394, 0.17968152463436127, -0.0721854567527771, 0.1416221410036087, -0.08192494511604309, -0.12852036952972412, -0.04711213707923889, -0.17381227016448975, -0.04481211304664612, 0.14238415658473969], [0.09796132147312164, -0.1959618777036667, -0.2060522735118866, -0.08275766670703888, 0.06409882009029388, -0.0763709545135498, 0.15203256905078888, 0.0243847519159317, 0.08880080282688141, 0.03846268355846405, 0.041105762124061584, 0.012214109301567078, -0.20527683198451996, -0.01600208878517151, -0.031140416860580444, 0.013991698622703552, 0.1675833910703659, -0.045561909675598145, -0.166440948843956, -0.046029478311538696, 0.09093452990055084], [-0.14269909262657166, 0.13981805741786957, 0.0031161950901150703, 0.09152081608772278, 0.0250425785779953, 0.06850587576627731, -0.1562977433204651, -0.1330762654542923, 0.18298085033893585, -0.17683184146881104, 0.07282070070505142, 0.1615147441625595, -0.08775139600038528, -0.19979384541511536, 0.15074343979358673, 0.028340734541416168, 0.10877803713083267, -0.09655706584453583, -0.14834004640579224, -0.11959569156169891, 0.21297693252563477], [0.1284293383359909, 0.1771688014268875, 0.09147141873836517, 0.021325722336769104, 0.010183081030845642, -0.13666871190071106, 0.08407638967037201, -0.0846293717622757, 0.08873845636844635, -0.20314978063106537, 0.21139807999134064, 0.10171376168727875, 0.0031071901321411133, -0.11706286668777466, -0.19036957621574402, -0.14986279606819153, 0.030976012349128723, 0.1920761913061142, -0.2151053100824356, -0.03974199295043945, 0.01885606348514557], [-0.05571852624416351, -0.1175084039568901, -0.14848509430885315, -0.08656269311904907, -0.03611746430397034, 0.15325145423412323, -0.0933847650885582, -0.16365839540958405, 0.097490593791008, 0.19823305308818817, 0.07158710062503815, -0.040336742997169495, 0.11346493661403656, -0.11283840984106064, 0.011797219514846802, -0.20980629324913025, 0.11647753417491913, 0.1607085019350052, -0.12933529913425446, 0.060811713337898254, 0.08896185457706451], [-0.09109726548194885, 0.05447109043598175, 0.1614220291376114, 0.11761493980884552, -0.15471875667572021, -0.1981954574584961, -0.14208564162254333, 0.023477479815483093, 0.07000128924846649, -0.06876042485237122, -0.032550036907196045, -0.05368359386920929, -0.18617463111877441, -0.017558708786964417, -0.12630994617938995, -0.18754221498966217, -0.12322317063808441, -0.16556331515312195, -0.11570721864700317, 0.19324441254138947, 0.16650153696537018], [0.09890688955783844, 0.050160422921180725, 0.02749873697757721, 0.09298692643642426, -0.09626210480928421, -0.06852521002292633, 0.059776946902275085, 0.10748864710330963, 0.11234195530414581, -0.13048866391181946, -0.0954132005572319, -0.009292885661125183, 0.10784007608890533, -0.20916716754436493, 0.21267031133174896, 0.010385468602180481, -0.20039446651935577, 0.014156445860862732, -0.16983634233474731, 0.17460326850414276, -0.07929453253746033], [-0.16269542276859283, 0.059128664433956146, 0.09976862370967865, 0.08917609602212906, 0.23384083807468414, -0.04866369813680649, -0.10136333853006363, -0.08675319701433182, -0.10960613191127777, 0.01775023527443409, -0.21563281118869781, -0.09394282102584839, 0.23477137088775635, -0.19932898879051208, -0.07442459464073181, 0.07217499613761902, 0.07247976958751678, 0.20587430894374847, -0.15868136286735535, 0.07150507718324661, 0.010113283060491085], [-0.011096775531768799, 0.11441759765148163, -0.13700605928897858, -0.17250029742717743, -0.1064557433128357, 0.06882227957248688, 0.12783633172512054, 0.01256813108921051, -0.07868000864982605, -0.07788914442062378, 0.11327217519283295, 0.18444587290287018, -0.01798880100250244, 0.02921740710735321, -0.1694054752588272, 0.1269337385892868, 0.04682566225528717, -0.0037010610103607178, -0.21356219053268433, -0.016074761748313904, -0.21329426765441895], [-0.07723591476678848, 0.18920032680034637, -0.01417466439306736, 0.10466045886278152, -0.02891775593161583, -0.027992546558380127, 0.06903912872076035, -0.22988103330135345, 0.06843242049217224, 0.04959147796034813, 0.18677178025245667, 0.0034240172244608402, -0.07406988739967346, -0.11532527953386307, -0.21720415353775024, 0.15049749612808228, -0.022501230239868164, -0.07608408480882645, 0.054371338337659836, -0.13231343030929565, 0.21845757961273193], [0.011713412590324879, 0.1621003895998001, -0.007910062558948994, 0.21500881016254425, 0.07797516137361526, -0.07797408103942871, -0.11501367390155792, -0.041069839149713516, 0.1528976857662201, -0.20587660372257233, 0.0547674223780632, 0.0173184834420681, -0.000492965686134994, 0.0841277688741684, 0.03506238013505936, 0.09982942789793015, -0.11267304420471191, -0.11188090592622757, -0.12473370134830475, -0.18568335473537445, 0.08717866241931915], [0.043041326105594635, -0.15515245497226715, -0.10166942328214645, 0.10728883743286133, -0.05676192790269852, 0.1527426391839981, -0.16695638000965118, -0.018933018669486046, -0.17135408520698547, 0.06432362645864487, 0.0956633985042572, -0.02414420247077942, 0.008434711955487728, 0.11736015230417252, 0.026942728087306023, 0.120834119617939, -0.1775885671377182, -0.18086744844913483, 0.18966901302337646, 0.21467863023281097, -0.054273635149002075], [0.07111706584692001, -0.06272570788860321, -0.15330147743225098, -0.06252221018075943, -0.016105903312563896, 0.04083904251456261, -0.18603339791297913, 0.12290820479393005, -0.05257297307252884, -0.09345787018537521, 0.01870589144527912, 0.04119277372956276, 0.019491402432322502, -0.01926484704017639, 0.20291738212108612, -0.07410643994808197, 0.206599622964859, 0.025612706318497658, 0.015616017393767834, 0.1189785748720169, -0.10874784737825394], [-0.15288351476192474, -0.05399855971336365, -0.166314959526062, -0.06465256214141846, 0.184975728392601, -0.18692046403884888, -0.06573285162448883, -0.07866989076137543, -0.0048299431800842285, 0.1582515388727188, -0.19470103085041046, -0.12742431461811066, 0.07339166104793549, 0.05833335220813751, -0.1015225201845169, -0.1860440969467163, -0.04479058086872101, -0.16484907269477844, 0.12034113705158234, -0.13092631101608276, 0.0740991085767746], [0.2144099920988083, -0.00667746365070343, 0.1553630381822586, 0.007588684558868408, 0.11496610939502716, -0.06376056373119354, -0.18948189914226532, 0.10523830354213715, 0.06306903064250946, -0.08118976652622223, -0.06982742249965668, 0.2108830362558365, -0.06401897966861725, 0.1989661008119583, -0.003868013620376587, 0.03711025416851044, -0.13803021609783173, -0.1065516248345375, -0.18223096430301666, 0.12333725392818451, 0.1222023218870163], [-0.19639787077903748, 0.11072807013988495, 0.16664965450763702, 0.02795572578907013, -0.11661514639854431, -0.014399304986000061, -0.10270624607801437, 0.14867828786373138, -0.20738378167152405, 0.1356586366891861, -0.15084171295166016, 0.06469042599201202, 0.14343659579753876, -0.06294573843479156, 0.1425311416387558, -0.008709773421287537, 0.03170500695705414, 0.0910264402627945, -0.03524874150753021, -0.17651621997356415, 0.11365680396556854], [0.06385631859302521, 0.14792664349079132, -0.15154056251049042, -0.10811080783605576, -0.12394775450229645, 0.15205632150173187, -0.005765050649642944, -0.01930546760559082, 0.11451242864131927, -0.21445682644844055, 0.1858222931623459, -0.008013874292373657, -0.1673659384250641, -0.007103279232978821, -0.0750560462474823, 0.16272751986980438, 0.19787000119686127, -0.17891152203083038, -0.13616448640823364, -0.08002033829689026, -0.20585136115550995], [0.1443227082490921, -0.15148533880710602, -0.1440766602754593, 0.009599149227142334, 0.0854983776807785, -0.20690174400806427, 0.11627344787120819, 0.1825840026140213, 0.12308688461780548, -0.08800822496414185, 0.16772077977657318, 0.053703173995018005, -0.0007914155721664429, -0.20152784883975983, 0.011004745960235596, -0.009675443172454834, 0.06570930778980255, -0.19037668406963348, 0.13906122744083405, 0.07025687396526337, -0.17621853947639465], [-0.06081917881965637, 0.02020663022994995, -0.16484901309013367, 0.07237239181995392, 0.1337057501077652, -0.16180488467216492, -0.12200305610895157, -0.11771859228610992, -0.07311588525772095, -0.006367146968841553, 0.024516955018043518, -0.126202791929245, 0.11253075301647186, -0.21700942516326904, -0.007845968008041382, -0.1162281185388565, 0.011500611901283264, 0.09310312569141388, -0.10289304703474045, -0.06492632627487183, -0.2153467983007431], [0.12194974720478058, 0.14540646970272064, 0.06536148488521576, -0.12912781536579132, -0.19216080009937286, -0.20825499296188354, 0.13453467190265656, 0.13492541015148163, 0.1484351009130478, 0.18660299479961395, 0.2016676515340805, 0.20074714720249176, -0.1508834958076477, -0.12346809357404709, -0.11979340761899948, -0.04197278618812561, -0.12211384624242783, 0.07527507841587067, -0.17933934926986694, 0.173692986369133, 0.09973026812076569], [0.03801320120692253, 0.11639896035194397, -0.08853596448898315, -0.18130646646022797, -0.0398879200220108, 0.14049188792705536, -0.19102032482624054, 0.0578325018286705, 0.12196744233369827, 0.17531967163085938, 0.2089368999004364, 0.10228455066680908, -0.17010796070098877, 0.06237105280160904, 0.04925825819373131, 0.09561576694250107, -0.08138101547956467, -0.0923587903380394, 0.08167506009340286, -0.15078793466091156, -0.18544472754001617], [-0.16566750407218933, -0.10038062930107117, -0.1701432764530182, 0.1712694615125656, -0.1999366283416748, -0.16580608487129211, 0.1642581969499588, 0.011128872632980347, 0.010291427373886108, -0.10632085800170898, -0.10799868404865265, 0.052305832505226135, -0.16769154369831085, -0.06328131258487701, 0.0766204446554184, 0.1311406046152115, -0.16108708083629608, 0.04537321627140045, -0.024049624800682068, -0.15212979912757874, -0.014433696866035461], [0.08610464632511139, 0.1392361968755722, 0.014477863907814026, 0.08165724575519562, 0.09351135790348053, 0.002890348434448242, 0.1538085788488388, 0.12137825787067413, 0.19181720912456512, -0.20218989253044128, 0.00702822208404541, -0.12217295169830322, 0.14661554992198944, -0.006397813558578491, 0.0751214474439621, 0.17020617425441742, 0.07036547362804413, -0.025492370128631592, 0.17146740853786469, 0.03326030075550079, -0.0702606588602066], [-0.12670862674713135, 0.17138944566249847, -0.19502568244934082, 0.08635704219341278, 0.01651008427143097, -0.0284053236246109, 0.07630519568920135, 0.05039413273334503, -0.10202760249376297, 0.15404747426509857, 0.00799579918384552, 0.12001080811023712, -0.09868595004081726, 0.13720931112766266, 0.08408422768115997, 0.01848125457763672, 0.14450903236865997, 0.173670694231987, -0.13018396496772766, -0.03604672849178314, -0.030428260564804077], [0.16273829340934753, -0.09261985868215561, 0.015765340998768806, -0.17923423647880554, 0.10193070769309998, -0.039314787834882736, 0.06660904735326767, -0.15358145534992218, 0.1264006644487381, -0.08244607597589493, -0.0647081509232521, -0.19642242789268494, -0.102000392973423, 0.18924345076084137, -0.030316220596432686, -0.11124725639820099, -0.2103140950202942, -0.0945487841963768, -0.2252970039844513, -0.052321549504995346, -0.03833107277750969], [-0.15114271640777588, 0.05180110037326813, 0.1659398376941681, 0.05457708239555359, 0.1900058388710022, 0.043038610368967056, 0.31066372990608215, -0.0024871663190424442, -0.11952971667051315, -0.18660157918930054, 0.014883165247738361, -0.19413898885250092, -0.01881393976509571, -0.04153406620025635, 0.10439839214086533, -0.23116378486156464, -0.00751361483708024, -0.16022787988185883, -0.02845172956585884, -0.1553031951189041, -0.03935927152633667], [0.08818773925304413, 0.03575025498867035, 0.029120326042175293, 0.09843595325946808, -0.033078327775001526, 0.026192501187324524, -0.0400138795375824, 0.061665281653404236, -0.11842022836208344, 0.17516092956066132, 0.16212229430675507, -0.10709226876497269, 0.06415928900241852, -0.022021964192390442, 0.2036939412355423, 0.17089791595935822, 0.20021690428256989, 0.1346062272787094, 0.06721775233745575, 0.17489726841449738, -0.02903898060321808], [0.19780509173870087, -0.03443589806556702, -0.06472742557525635, 0.03938718140125275, 0.14241467416286469, -0.03959070146083832, 0.062202855944633484, 0.11132948100566864, -0.17212951183319092, 0.05802525579929352, 0.043444469571113586, -0.12314606457948685, -0.14931970834732056, 0.0631202906370163, 0.10979725420475006, 0.11258549988269806, 0.18506865203380585, 0.1552383154630661, 0.18184639513492584, 0.11933161318302155, -0.17998245358467102]], "fc1.bias": [0.033539220690727234, 0.05198328197002411, -0.03705476224422455, 0.03304027020931244, -0.16306188702583313, -0.08968490362167358, -0.1614108383655548, 0.06719376146793365, 0.09764786064624786, -0.214050754904747, 0.08188317716121674, -0.19846948981285095, -0.15011301636695862, 0.005496025085449219, -0.158235564827919, 0.14797234535217285, 0.19340403378009796, -0.14053748548030853, -0.13611361384391785, 0.19945721328258514, 0.002175569534301758, -0.15050998330116272, -0.016785256564617157, 0.05566827952861786, 0.15284927189350128, -0.11655336618423462, -0.08823168277740479, 0.03885851800441742, -0.17994873225688934, 0.01609499752521515, -0.2038372904062271, 0.02729123830795288, -0.028493303805589676, 0.026073098182678223, -0.2006707340478897, 0.056607190519571304, -0.04322012513875961, 0.03855149820446968, 0.20810537040233612, 0.022661924362182617, 0.20839859545230865, 0.04994361102581024, 0.18167541921138763, 0.005669385194778442, 0.11270015686750412, -0.08310361206531525, 0.09917955100536346, 0.03575979173183441, 0.16669030487537384, 0.16030536592006683, -0.09020715951919556, -0.10906390100717545, 0.12008167803287506, -0.17504151165485382, 0.15018554031848907, 0.08278883993625641, -0.11880658566951752, -0.1884414702653885, -0.1327497661113739, -0.09185324609279633, -0.07006765902042389, 0.016545400023460388, -0.16733647882938385, 0.15121115744113922, 0.1295299381017685, 0.13251668214797974, -0.1074700877070427, 0.08610512316226959, 0.13143669068813324, 0.19246302545070648, 0.10247501730918884, 0.049696847796440125, 0.17017735540866852, -0.018885686993598938, 0.17411932349205017, 0.1930844634771347, -0.046003907918930054, -0.03750656545162201, -0.034354209899902344, 0.1540842056274414, 0.1218038946390152, -0.16693933308124542, 0.15962164103984833, -0.0375543013215065, -0.18856897950172424, -0.21269674599170685, -0.12996447086334229, 0.20795051753520966, -0.06059230864048004, 0.09657315909862518, -0.20944738388061523, 0.20531202852725983, -0.10614079982042313, 0.0540880411863327, -0.14848989248275757, 0.1600598245859146, -0.03501365706324577, 0.1457919031381607, 0.13334791362285614, 0.057358160614967346], "fc2.weight": [[-0.06458399444818497, -0.010595932602882385, -0.05300462245941162, -0.057698678225278854, -0.012452647089958191, -0.03758232668042183, 0.07043875753879547, -0.07789333164691925, -0.08546194434165955, 0.008224904537200928, -0.08754026889801025, 0.5359746217727661, -0.037641119211912155, -0.04849302023649216, -0.051568906754255295, -0.39338889718055725, -0.01783907599747181, 0.1933651715517044, -0.1290622502565384, -0.0651654452085495, -0.004429217427968979, 0.04397856444120407, 0.44555822014808655, -0.05961855128407478, 0.010342583060264587, 0.053490933030843735, -0.08267167955636978, 0.0498984232544899, -0.6433617472648621, 0.011653251945972443, -0.7999570369720459, 0.6472708582878113, -0.09835191071033478, -0.023118436336517334, 0.010882019996643066, -0.08159681409597397, 0.04505063220858574, -0.04751532897353172, -0.03393314406275749, -0.16146475076675415, -0.14682264626026154, 0.012552544474601746, -0.05306503549218178, -0.008961856365203857, 0.010286993347108364, -0.06713437288999557, -0.08323187381029129, 0.019241297617554665, -0.05836118385195732, 0.06028486043214798, 0.008767619729042053, -0.3772053122520447, 0.26237183809280396, -0.09846311807632446, -0.08116312325000763, -0.11296223849058151, -0.03979462385177612, 0.7004061937332153, 0.04250367730855942, -0.00402841717004776, 0.2616336941719055, 0.09612991660833359, 0.648003101348877, 0.06948279589414597, 0.006781592965126038, 0.09362965822219849, 0.04610379785299301, -0.0606558695435524, -0.03138701617717743, -0.07095524668693542, -0.6041819453239441, -0.1736428141593933, 0.0865175798535347, -0.046274054795503616, -0.5953270792961121, 0.0067190625704824924, -0.06907287985086441, 0.05745282024145126, -0.1264840066432953, -0.37034401297569275, 0.07616367191076279, -0.7675711512565613, 0.022178763523697853, 0.37815845012664795, 0.8000484704971313, 0.018904387950897217, -0.05696428194642067, 0.08581412583589554, 0.019748367369174957, -0.021734265610575676, 0.013923943042755127, -0.002640169346705079, 0.42340341210365295, -0.05445711687207222, 0.0049116360023617744, 0.019124485552310944, 0.03319331258535385, -0.7045096755027771, -0.09967966377735138, 0.007754070218652487]], "fc2.bias": [-0.031198915094137192]}