{"fc1.weight": [[-0.06912153959274292, -0.15400280058383942, 0.05520258843898773, 0.20024563372135162, 0.12132032215595245, 0.19326700270175934, 0.07635457813739777, -0.012242913246154785, -0.04064953327178955, -0.059162139892578125, -0.18692165613174438, -0.010928422212600708, -0.07477237284183502, -0.04040226340293884, -0.11490163207054138, 0.01617361605167389, 0.07671003043651581, -0.18331852555274963, -0.1466711312532425, -0.20302912592887878, 0.19680894911289215], [0.0899747759103775, 0.03625865280628204, 0.04775606095790863, -0.1657867729663849, 0.212477907538414, -0.015240386128425598, 0.03266991674900055, 0.21430222690105438, -0.13334444165229797, 0.19054611027240753, -0.05916100740432739, 0.09716995060443878, 0.19014675915241241, -0.18030816316604614, 0.11633147299289703, 0.19781525433063507, -0.07197163999080658, 0.10405276715755463, -0.19313742220401764, 0.11120729148387909, -0.10262692719697952], [0.15679872035980225, -0.152161106467247, -0.11233335733413696, -0.0783030092716217, 0.08122312277555466, 0.1295344978570938, 0.18564800918102264, 0.07680759578943253, -0.14775626361370087, 0.12612366676330566, -0.15616977214813232, -0.03651311993598938, -0.12041755765676498, 0.10641494393348694, 0.05501484498381615, -0.007926322519779205, 0.11786764115095139, -0.1486564576625824, 0.09700372815132141, 0.016258738934993744, 0.132454514503479], [0.07764984667301178, 0.12596826255321503, -0.05604135990142822, -0.07520565390586853, 0.13267995417118073, -0.08918356895446777, -0.023328691720962524, -0.10600575804710388, 0.05280967056751251, -0.16845518350601196, 0.16047726571559906, 0.03088568150997162, -0.08397050201892853, 0.14320464432239532, 0.07899604737758636, 0.05789290368556976, -0.07636937499046326, -0.09235936403274536, 0.1998516172170639, 0.18239234387874603, -0.16993030905723572], [-0.07344023883342743, 0.12679289281368256, -0.021148622035980225, -0.21714837849140167, 0.17036624252796173, -0.17689862847328186, 0.10823668539524078, 0.04407523572444916, 0.18040664494037628, 0.12535084784030914, -0.0026665013283491135, 0.02577359974384308, -0.008630692958831787, 0.09580965340137482, -0.032240450382232666, -0.14386558532714844, -0.1361454278230667, 0.06480143964290619, -0.16104775667190552, 0.16745536029338837, -0.09858904778957367], [0.20702575147151947, 0.08412592858076096, -0.14015816152095795, -0.03204071894288063, 0.0020382916554808617, 0.17055007815361023, 0.15103240311145782, -0.040791649371385574, -0.20921587944030762, 0.019999852403998375, 0.04153745248913765, -0.20696522295475006, 0.13610664010047913, -0.11940616369247437, -0.17605404555797577, -0.030865447595715523, -0.10552535951137543, -0.03939658775925636, 0.1161818653345108, -0.056691255420446396, -0.16089865565299988], [0.12160059809684753, 0.07131752371788025, 0.00749499537050724, -0.21897906064987183, 0.12002724409103394, 0.17699651420116425, -0.07058362662792206, -0.15974874794483185, 0.06974585354328156, 0.17241661250591278, -0.037227313965559006, -0.13727909326553345, 0.0942341536283493, 0.04790249094367027, -0.0430498942732811, -0.12500135600566864, -0.16272671520709991, 0.10630461573600769, 0.18106593191623688, -0.12267182767391205, 0.18442685902118683], [-0.23393665254116058, 0.049591064453125, -0.015197237022221088, 0.022064030170440674, -0.12138233333826065, 0.02427636831998825, -0.1736508011817932, -0.031072121113538742, 0.08662311732769012, -0.013249306939542294, 0.020191142335534096, -0.19450592994689941, 0.030714960768818855, -0.05361488461494446, 0.1578967124223709, 0.12930810451507568, -0.1887480765581131, 0.14158007502555847, 0.12027251720428467, -0.13623696565628052, 0.19768784940242767], [0.12752582132816315, 0.09702609479427338, -0.21024058759212494, 0.21131844818592072, -0.1546977460384369, -0.058484554290771484, 0.2084471434354782, 0.10008539259433746, 0.15175823867321014, 0.007643967866897583, 0.06171874701976776, -0.20488199591636658, 0.10000087320804596, 0.18475885689258575, 0.1327746957540512, -0.09679949283599854, -0.20256407558918, 0.0005426704883575439, 0.0376257449388504, 0.21461202204227448, 0.1303590089082718], [-0.02638229727745056, 0.07085643708705902, -0.0019239187240600586, -0.07572624087333679, 0.21493001282215118, 0.11488558351993561, -0.011732235550880432, -0.08219386637210846, -0.1974641978740692, -0.0737602561712265, -0.05431181192398071, 0.10528905689716339, -0.036990195512771606, -0.20054084062576294, 0.1418789178133011, -0.05098959803581238, 0.020495831966400146, -0.06568264961242676, -0.21255990862846375, -0.11490665376186371, -0.14018328487873077], [-0.1578875482082367, 0.11090309917926788, -0.05664578080177307, 0.13610921800136566, -0.17542245984077454, -0.1396937072277069, 0.20212425291538239, -0.059037819504737854, -0.07923224568367004, -0.19234438240528107, 0.1673078089952469, 0.007886573672294617, 0.16684509813785553, 0.050720974802970886, 0.17091526091098785, -0.15463487803936005, -0.020420774817466736, 0.20850981771945953, 0.011140838265419006, -0.07079242169857025, 0.13943655788898468], [-0.02144673466682434, -0.045950233936309814, 0.0017141848802566528, 0.0655965656042099, -0.09138697385787964, -0.1569714993238449, 0.04906336963176727, -0.1785534769296646, 0.13271556794643402, -0.11053834110498428, -0.11905106157064438, 0.042284026741981506, 0.09668533504009247, 0.14945100247859955, -0.13334475457668304, -0.19799336791038513, 0.05138231813907623, -0.08067624270915985, -0.10807953774929047, -0.1448379009962082, 0.0018007904291152954], [0.17924807965755463, -0.0023202896118164062, 0.17169435322284698, -0.11834114789962769, 0.10916338860988617, -0.08226598799228668, -0.09243552386760712, 0.03763057291507721, 0.033218011260032654, 0.15375004708766937, 0.1220298558473587, -0.0975860133767128, 0.21780212223529816, 0.13483546674251556, -0.0727081149816513, -0.06450550258159637, -0.15744830667972565, 0.19844798743724823, 0.056878432631492615, 0.13206832110881805, -0.030113190412521362], [-0.02365824580192566, 0.17364172637462616, 0.19088424742221832, 0.1068909615278244, -0.14975111186504364, 0.09412513673305511, -0.21228913962841034, -0.16543278098106384, 0.04908491671085358, 0.07634980976581573, 0.20476101338863373, -0.1490940898656845, -0.1358720064163208, -0.000774577260017395, -0.05803361535072327, 0.20282675325870514, -0.17451094090938568, 0.19549046456813812, -0.02130948007106781, 0.19567228853702545, -0.19955797493457794], [-0.1603529304265976, 0.028709776699543, 0.10489007830619812, -0.17266833782196045, -0.19444090127944946, -0.1912464201450348, 0.0006251446320675313, 0.1706882268190384, 0.12503060698509216, -0.057046450674533844, -0.17625072598457336, -0.13073508441448212, 0.09924723953008652, 0.20676231384277344, 0.1864170879125595, -0.1404588520526886, -0.027986077591776848, 0.09743621200323105, 0.10838238149881363, -0.10848396271467209, 0.08022136241197586], [0.15405242145061493, 0.05087803304195404, -0.14310035109519958, -0.06974704563617706, 0.2147117704153061, -0.06918874382972717, 0.08149556815624237, -0.20515090227127075, -0.18015912175178528, 0.08803384006023407, 0.17775695025920868, -0.06425155699253082, 0.21417860686779022, -0.1622883379459381, 0.044099703431129456, 0.19286511838436127, -0.18093238770961761, -0.029901936650276184, 0.20509566366672516, -0.04341256618499756, 0.059424564242362976], [-0.159933939576149, -0.047502551227808, -0.01687873899936676, 0.2427477240562439, 0.05898604542016983, 0.0011801980435848236, -0.05463240668177605, 0.03128444403409958, -0.00016806414350867271, -0.19726046919822693, -0.046176567673683167, 0.0032609268091619015, 0.19254764914512634, -0.1911875605583191, -0.11332061886787415, 0.029324259608983994, -0.07424547523260117, -0.13661782443523407, -0.1411072164773941, 0.12478961795568466, 0.14974480867385864], [-0.18809863924980164, -0.04754416644573212, -0.13005764782428741, -0.16571831703186035, 0.04831840097904205, -0.09132574498653412, 0.11914752423763275, 0.0896785706281662, -0.04683467745780945, 0.06272532045841217, -0.10090214759111404, -0.18889063596725464, -0.1250590980052948, -0.10335822403430939, -0.08355027437210083, 0.19661863148212433, 0.1456761509180069, -0.10736468434333801, 0.08752112090587616, 0.19577033817768097, 0.0465974360704422], [-0.03501889109611511, 0.11894764006137848, -0.05640271306037903, 0.04297097027301788, -0.1775909662246704, -0.05258810520172119, -0.14268270134925842, -0.06961292028427124, -0.017893552780151367, -0.1569797396659851, 0.0012659281492233276, -0.1066138818860054, 0.0030332058668136597, -0.12545940279960632, -0.20038242638111115, -0.16705945134162903, -0.10162480920553207, -0.015207335352897644, 0.042060837149620056, -0.13094043731689453, 0.03317786753177643], [0.0036557167768478394, -0.13464727997779846, 0.18094031512737274, -0.09582366794347763, 0.0620848685503006, 0.17785771191120148, 0.0005395710468292236, 0.20451219379901886, 0.019223064184188843, -0.21588031947612762, -0.07633617520332336, -0.006944403052330017, 0.019834041595458984, 0.06465460360050201, -0.13351762294769287, 0.19445554912090302, -0.008294358849525452, 0.02828875184059143, -0.1798281967639923, -0.024088799953460693, 0.03340648114681244], [0.1090744286775589, -0.020436182618141174, 0.0960606187582016, -0.05464312434196472, -0.0814555287361145, -0.15973615646362305, 0.20927198231220245, -0.0849146842956543, 0.17601890861988068, -0.05348882079124451, -0.11990614980459213, -0.19399413466453552, 0.06046350300312042, -0.1261049509048462, -0.07938458025455475, 0.14116306602954865, 0.05936311185359955, 0.0594392865896225, 0.09711481630802155, -0.13135811686515808, 0.13332076370716095], [-0.15464268624782562, -0.1832263171672821, -0.09360018372535706, 0.07847471535205841, -0.018787384033203125, 0.0916808694601059, -0.11819495260715485, 0.20525647699832916, -0.18196885287761688, 0.05963580310344696, 0.15245284140110016, 0.17687444388866425, -0.11872786283493042, -0.10193090885877609, 0.08439968526363373, -0.14045143127441406, -0.12661948800086975, -0.2145160585641861, -0.06997047364711761, -0.08782421052455902, -0.1509261131286621], [-0.041702479124069214, -0.07033485919237137, 0.0627390444278717, 0.10250925272703171, 0.12580610811710358, -0.17138615250587463, -0.16029669344425201, -0.10251343995332718, 0.11515961587429047, -0.10508634895086288, 0.2193998098373413, -0.030956480652093887, -0.07396672666072845, 0.01103269588202238, -0.18725930154323578, -0.021241500973701477, -0.04622292146086693, 0.19493386149406433, 0.21564139425754547, -0.13789458572864532, 0.07496153563261032], [-0.026164501905441284, 0.009589135646820068, -0.023886054754257202, 0.20005224645137787, 0.08065633475780487, 0.09935157001018524, -0.02620607614517212, 0.023005440831184387, -0.14089012145996094, 0.0598311573266983, -0.008735179901123047, -0.16750063002109528, 0.07893238961696625, 0.05105273425579071, -0.1390029937028885, -0.0648479014635086, -0.09152546525001526, -0.21422448754310608, -0.19488801062107086, -0.06797231733798981, 0.2053186446428299], [0.2069525569677353, -0.14751935005187988, -0.11351138353347778, -0.1721254289150238, -0.038394197821617126, 0.1536485105752945, -0.029924064874649048, 0.12121860682964325, 0.0921967476606369, -0.11935786157846451, 0.11893470585346222, 0.1817178875207901, 0.009724482893943787, -0.11497446894645691, 0.21341247856616974, -0.16090837121009827, 0.038896188139915466, 0.14604105055332184, 0.21785597503185272, -0.0635177493095398, 0.14056329429149628], [0.08599333465099335, -0.18010815978050232, 0.09092579782009125, 0.060601040720939636, -0.2165704220533371, 0.039087191224098206, -0.03629666566848755, -0.20898647606372833, -0.0908910483121872, -0.06598864495754242, 0.0049658119678497314, -0.12278091162443161, -0.02393604815006256, -0.021857023239135742, -0.02321237325668335, 0.1825399249792099, 0.07794015109539032, -0.051104649901390076, -0.15449216961860657, -0.08858528733253479, 0.06840930879116058], [-0.11992605030536652, -0.020280536264181137, 0.15308943390846252, -0.11620667576789856, -0.03445742651820183, -0.12764257192611694, 0.005280585028231144, 0.11629147827625275, 0.14012368023395538, -0.02659117989242077, 0.11672912538051605, -0.13596101105213165, 0.18033424019813538, -0.12749943137168884, -0.10929326713085175, -0.11910691112279892, -0.18843305110931396, -0.04455089941620827, -0.11081524938344955, -0.22145746648311615, 0.023271499201655388], [0.161478191614151, 0.0458776131272316, -0.21630175411701202, 0.0724959746003151, -0.08349369466304779, 0.15413568913936615, -0.013066167943179607, -0.19190925359725952, -0.006733469665050507, -0.0722472071647644, 0.2180858701467514, -0.04467792436480522, -0.10245630890130997, -0.03066129982471466, 0.05844386667013168, -0.18165506422519684, -0.08768312633037567, -0.028937339782714844, -0.04314270615577698, 0.12685880064964294, 0.061322495341300964], [-0.09150069952011108, -0.013220608234405518, -0.21713456511497498, 0.13460756838321686, 0.20909292995929718, -0.1944732815027237, 0.15612782537937164, -0.033346593379974365, 0.03089989721775055, 0.18478144705295563, 0.1516401320695877, 0.11071111261844635, -0.18897342681884766, -0.18995900452136993, 0.1665034145116806, 0.1411527544260025, -0.0971488282084465, -0.205102801322937, -0.1327822506427765, 0.1009920984506607, -0.04414796829223633], [0.12859894335269928, -0.20007368922233582, -0.2090374380350113, 0.1654946357011795, 0.10115914046764374, -0.07131458818912506, -0.033704549074172974, 0.1444004625082016, 0.20750601589679718, 0.033892467617988586, 0.17270009219646454, -0.155890554189682, -0.06483931839466095, -0.1735648214817047, -0.1612493395805359, -0.20783883333206177, -0.1544451117515564, -0.0721898227930069, -0.18096663057804108, 0.0665089339017868, -0.11532999575138092], [-0.09203171730041504, -0.0693831592798233, 0.05534948408603668, 0.10922826826572418, -0.0741519182920456, 0.12894214689731598, -0.0072498619556427, 0.02952706813812256, 0.073145791888237, 0.11521647870540619, -0.04757718741893768, -0.16226285696029663, -0.0061458200216293335, 0.16412870585918427, -0.1477075219154358, 0.17385335266590118, 0.1584436446428299, -0.13163875043392181, -0.19278603792190552, -0.063287153840065, 0.19398744404315948], [-0.05344618856906891, 0.04355679452419281, 0.1966225653886795, -0.10363953560590744, -0.075318843126297, 0.18532977998256683, 0.06416256725788116, 0.20662038028240204, -0.10450492799282074, -0.027851402759552002, 0.12047348916530609, -0.20498274266719818, -0.18506833910942078, 0.1853615790605545, 0.1434662789106369, 0.14234216511249542, 0.12032000720500946, 0.011949092149734497, 0.1570248156785965, 0.014765188097953796, 0.15295182168483734], [-0.030076593160629272, -0.20418834686279297, 0.16813017427921295, -0.002358078956604004, -0.12019989639520645, 0.08129824697971344, -0.1384163200855255, 0.042498961091041565, 0.19361363351345062, -0.19079488515853882, 0.0179995596408844, 0.0066084712743759155, 0.19652564823627472, -0.0072050392627716064, 0.09195728600025177, -0.056458115577697754, -0.12607765197753906, -0.1564941257238388, -0.11915966868400574, -0.020021215081214905, 0.07992048561573029], [0.06895063817501068, -0.0036304891109466553, -0.2051909863948822, 0.1988697201013565, 0.11715169250965118, 0.1257958561182022, -0.0758831799030304, 0.21057967841625214, 0.1629362255334854, 0.0037524551153182983, 0.10038454830646515, 0.1351732462644577, 0.018226683139801025, -0.14201898872852325, 0.20330436527729034, -0.1487480103969574, -0.13762709498405457, 0.10090033710002899, 0.0037230700254440308, -0.21181024610996246, 0.17642085254192352], [0.18995250761508942, 0.21270893514156342, -0.11896396428346634, 0.13984890282154083, -0.09574591368436813, 0.14188794791698456, 0.13793887197971344, 0.06895788013935089, -0.021098077297210693, -0.01291249692440033, 0.13231103122234344, -0.16296471655368805, 0.09048928320407867, -0.12053105235099792, 0.1881130188703537, 0.19807009398937225, -0.09313739836215973, -0.14972107112407684, 0.0432572215795517, -0.019378289580345154, -0.0645887553691864], [0.10253046452999115, -0.19115886092185974, -0.08641359210014343, 0.14001469314098358, -0.15153485536575317, -0.18469205498695374, -0.183209627866745, -0.2179931104183197, -0.003990769386291504, 0.05551178753376007, 0.06161205470561981, 0.12305836379528046, -0.13611465692520142, -0.12050589919090271, -0.14097720384597778, -0.065728560090065, 0.1778106838464737, -0.17373472452163696, -0.17697572708129883, 0.020855262875556946, 0.19312243163585663], [-0.10760752111673355, -0.1870431900024414, 0.0968160480260849, -0.062067121267318726, 0.028664574027061462, 0.08607114851474762, 0.04700221121311188, 0.0010546892881393433, -0.08438286185264587, -0.15386977791786194, -0.14143893122673035, -0.2004181444644928, 0.0065011149272322655, -0.0330464243888855, -0.11269346624612808, 0.02262452244758606, 0.04995296895503998, 0.07996352016925812, 0.0323135107755661, 0.17917464673519135, 0.006807342171669006], [-0.1697312742471695, 0.18676336109638214, -0.12623929977416992, 0.17491717636585236, 0.11456369608640671, 0.04401232674717903, 0.09989814460277557, -0.1764054149389267, -0.1848766803741455, 0.10701705515384674, 0.14507421851158142, -0.10851917415857315, -0.1936740279197693, 0.06837232410907745, -0.0275302492082119, 0.14995354413986206, -0.1472950428724289, 0.017234722152352333, -0.12600091099739075, 0.016633817926049232, -0.06102806329727173], [-0.16888093948364258, -0.056155428290367126, -0.13169655203819275, -0.07418553531169891, -0.18678441643714905, 0.11864952743053436, -0.17126238346099854, 0.20673243701457977, 0.21082530915737152, 0.12045083940029144, -0.09040994942188263, -0.10884753614664078, 0.13211776316165924, -0.1285383254289627, -0.2113526463508606, -0.16374772787094116, -0.1731829196214676, -0.20074419677257538, -0.09516186267137527, -0.19706152379512787, 0.047730013728141785], [0.24872127175331116, -0.15886303782463074, 0.08926356583833694, 0.06512092053890228, 0.24151593446731567, 0.08201479911804199, -0.03863932192325592, -0.10926981270313263, 0.20567311346530914, -0.20613804459571838, -0.1573360562324524, -0.0012114547425881028, 0.07976207137107849, 0.02888903208076954, -0.1446007341146469, -0.14702880382537842, 0.11148153245449066, 0.07090167701244354, -0.19527210295200348, -0.27348923683166504, 0.10637819021940231], [0.07450032979249954, 0.08963242173194885, 0.14448173344135284, 0.19897617399692535, 0.1668950468301773, 0.19774551689624786, -0.14217481017112732, -0.18841344118118286, -0.21061913669109344, 0.09573493897914886, 0.06939677894115448, -0.17432764172554016, -0.055241264402866364, -0.11134510487318039, -0.14990054070949554, 0.19981372356414795, -0.06246422231197357, 0.16206824779510498, -0.08937054872512817, 0.16144965589046478, -0.16119122505187988], [-0.0463750958442688, 0.1510731428861618, -0.18100881576538086, -0.1934373676776886, -0.007636472582817078, -0.1864245980978012, -0.08113881945610046, -0.13365493714809418, 0.07355411350727081, 0.033895447850227356, -0.09263001382350922, 0.19675804674625397, -0.11761987209320068, 0.15345348417758942, 0.07164721190929413, -0.20506133139133453, 0.10279984772205353, -0.16338445246219635, -0.07027877867221832, 0.21365664899349213, 0.12507809698581696], [-0.18710412085056305, 0.0339268296957016, -0.16173240542411804, 0.13572318851947784, -0.12477737665176392, 0.11756358295679092, 0.18457762897014618, 0.08766571432352066, 0.15229271352291107, 0.04832620918750763, 0.07599985599517822, -0.16553744673728943, -0.14573056995868683, -0.19240976870059967, -0.1942235380411148, 0.19680103659629822, 0.2051389366388321, 0.041046448051929474, 0.14385856688022614, 0.009237349964678288, -0.11941216886043549], [-0.17891232669353485, -0.061571214348077774, 0.030865926295518875, -0.035283271223306656, 0.19526700675487518, -0.0922660231590271, -0.026283346116542816, 0.11414705216884613, -0.068231001496315, 0.15562155842781067, -0.07243096083402634, -0.054903436452150345, -0.0005308112595230341, 0.07392039149999619, 0.14698526263237, -0.051139943301677704, 0.18243372440338135, -0.13784058392047882, -0.004777141846716404, -0.011770653538405895, -0.04764323681592941], [-0.19668099284172058, 0.07084466516971588, 0.08291615545749664, 0.13578198850154877, 0.02910532057285309, -0.1018422544002533, 0.01275680959224701, -0.015652179718017578, 0.05752287805080414, 0.17636223137378693, -0.05977647006511688, 0.0064988285303115845, 0.13539864122867584, 0.21198539435863495, -0.08553968369960785, 0.09499834477901459, 0.13841907680034637, 0.17036210000514984, -0.09276498854160309, 0.12972186505794525, 0.0796278566122055], [-0.19718743860721588, -0.21368418633937836, -0.07893072068691254, -0.18425607681274414, -0.03569953143596649, 0.11697803437709808, -0.053641289472579956, 0.03025880455970764, 0.06567199528217316, -0.21810059249401093, -0.02716478705406189, -0.15929177403450012, 0.00814153254032135, -0.003439992666244507, 0.12382300198078156, -0.15860624611377716, 0.15778537094593048, 0.06706900894641876, -0.11112385988235474, 0.15315352380275726, 0.10373453795909882], [-0.0037194788455963135, -0.016872763633728027, -0.0842892974615097, -0.2067449390888214, 0.1243506520986557, -0.13954631984233856, 0.16321389377117157, -0.13592368364334106, -0.16789866983890533, 0.015887051820755005, 0.04022778570652008, -0.010778501629829407, 0.07755626738071442, -0.1926259994506836, 0.20136819779872894, -0.035698771476745605, 0.06687705218791962, -0.0007896125316619873, 0.0678517073392868, -0.005255863070487976, -0.16202539205551147], [-0.16068166494369507, -0.19441337883472443, -0.20205242931842804, -0.0866544172167778, -0.21197091042995453, -0.12034633755683899, 0.24481192231178284, 0.09926509857177734, -0.04641536995768547, 0.019518310204148293, -0.1889956146478653, -0.03230935335159302, 0.1700955182313919, -0.18111608922481537, 0.16370540857315063, 0.047293521463871, -0.15518589317798615, 0.012585073709487915, -0.12074851244688034, 0.26596638560295105, 0.021180061623454094], [-0.07968565076589584, -0.006993904709815979, 0.13741979002952576, -0.08430680632591248, 0.19438591599464417, 0.1676671802997589, -0.11616291105747223, -0.1413278728723526, -0.008754096925258636, 0.0294125247746706, -0.10814773291349411, -0.18102851510047913, 0.1721383035182953, -0.09402799606323242, -0.12392084300518036, -0.03531347215175629, -0.02724599279463291, -0.1473391205072403, -0.10923434048891068, 0.09944897890090942, -0.10127077251672745], [0.11119901388883591, 0.12025829404592514, -0.19840508699417114, 0.08112628757953644, 0.0845794826745987, 0.15486782789230347, -0.016734153032302856, 0.16567052900791168, 0.0817674770951271, 0.15694855153560638, -0.008577020838856697, 0.17670661211013794, -0.2020760029554367, -0.0322703942656517, -0.09971798211336136, 0.07751090824604034, 0.06406665593385696, 0.09606368839740753, -0.12930966913700104, 0.19319376349449158, -0.20029199123382568], [0.1751604825258255, 0.1018071323633194, -0.08284129202365875, 0.11961893737316132, -0.1216183677315712, -0.06955048441886902, 0.027085617184638977, -0.16113176941871643, 0.04593305289745331, 0.08171893656253815, 0.07608838379383087, -0.21642784774303436, 0.02683892846107483, -0.06779752671718597, 0.17195017635822296, 0.1785457879304886, -0.14620429277420044, -0.16880209743976593, 0.1906179040670395, 0.056661322712898254, -0.16276457905769348], [0.1446639448404312, -0.010502815246582031, 0.10701559484004974, -0.11448363959789276, 0.10587696731090546, 0.02357587218284607, -0.07567043602466583, -0.04989418387413025, -0.00970129668712616, -0.08255220949649811, 0.0703543871641159, 0.018051981925964355, 0.08379970490932465, 0.21277950704097748, 0.14922361075878143, 0.13303910195827484, 0.17546628415584564, -0.1920796036720276, -0.061205893754959106, 0.08980615437030792, -0.2014397233724594], [0.14169679582118988, -0.06583657115697861, -0.012781208381056786, -0.05828138813376427, 0.14994408190250397, 0.1285654604434967, 0.14609435200691223, 0.15663303434848785, 0.12191076576709747, -0.08401963114738464, 0.007118741516023874, 0.08858707547187805, -0.10200269520282745, -0.1638333946466446, -0.08171609789133072, -0.1844717413187027, -0.13510392606258392, -0.1430981159210205, 0.06701293587684631, -0.11532778292894363, 0.21534448862075806], [0.19014902412891388, -0.0023913532495498657, -0.09265035390853882, -0.2144225388765335, -0.20299197733402252, 0.12493909895420074, 0.07424668967723846, -0.11948743462562561, -0.16558897495269775, 0.019177407026290894, 0.04463930428028107, 0.16006843745708466, -0.010107889771461487, 0.12935437262058258, -0.07548677921295166, -0.08057059347629547, -0.09444084018468857, 0.17804373800754547, 0.046373024582862854, 0.07021822035312653, -0.12608537077903748], [-0.1493280827999115, 0.213347390294075, 0.08848889172077179, 0.09972451627254486, -0.18773439526557922, -0.07612983882427216, 0.031007513403892517, 0.16992829740047455, 0.08194144070148468, -0.09376753121614456, 0.16089694201946259, 0.024402841925621033, 0.12333972752094269, -0.16610471904277802, -0.012517929077148438, 0.21334414184093475, -0.05753128230571747, -0.14596576988697052, -0.057270318269729614, -0.14300261437892914, -0.13876770436763763], [-0.17685578763484955, -0.0617852658033371, -0.18259070813655853, 0.08044594526290894, -0.08423515409231186, 0.1718289703130722, 0.1580798327922821, -0.03624546527862549, 0.1506589651107788, -0.1412445604801178, 0.11949440091848373, -0.20045864582061768, 0.14162155985832214, -0.06112939119338989, 0.22180110216140747, -0.11010082811117172, -0.10352380573749542, -0.09040019661188126, 0.048631686717271805, -0.15825560688972473, -0.030942685902118683], [-0.244491845369339, 0.13160555064678192, -0.1287795603275299, 0.08884672820568085, -0.16629192233085632, 0.104878269135952, 0.00018059014109894633, -0.012957463972270489, -0.06783180683851242, 0.02062266878783703, 0.06848736107349396, -0.12964928150177002, 0.06028671935200691, 0.09144824743270874, 0.06655102223157883, 0.17926351726055145, -0.01964917592704296, -0.01657983288168907, 0.01913454383611679, 0.006344843190163374, 0.12272979319095612], [-0.08789604902267456, 0.09715180099010468, 0.020496293902397156, -0.21806173026561737, 0.03473760187625885, -0.16866186261177063, -0.03192660212516785, 0.0005628764629364014, 0.057316944003105164, 0.017399922013282776, 0.0659712702035904, -0.07100091874599457, -0.18345771729946136, -0.13481105864048004, -0.11176150292158127, -0.13828757405281067, 0.07091464102268219, -0.11570149660110474, -0.08982621133327484, 0.1929718405008316, -0.12584063410758972], [-0.07308432459831238, -0.062193602323532104, -0.17720302939414978, -0.003992825746536255, 0.1341877430677414, 0.17046169936656952, -0.2024250626564026, 0.03312535583972931, 0.1601458042860031, -0.18173450231552124, -0.1135500967502594, 0.05405138432979584, -0.1601884514093399, 0.0021189898252487183, 0.09737037122249603, 0.0030221492052078247, 0.1356472223997116, 0.16666270792484283, 0.024545863270759583, -0.012817323207855225, -0.13901446759700775], [0.09590829908847809, -0.05258987843990326, 0.12609772384166718, -0.15782147645950317, 0.16636405885219574, 0.13985620439052582, -0.1757526993751526, 0.04301641881465912, -0.1545206606388092, -0.03963448107242584, 0.08114121854305267, -0.027792304754257202, -0.10879561305046082, 0.01509431004524231, -0.19276811182498932, 0.07050962746143341, -0.15459316968917847, -0.0027966946363449097, -0.020121514797210693, -0.1458665132522583, 0.09690459072589874], [-0.06365509331226349, -0.03974851965904236, -0.0026391297578811646, -0.07482190430164337, 0.10612310469150543, -0.042471930384635925, -0.039665356278419495, 0.09044124186038971, -0.2102048695087433, -0.09931492805480957, -0.14123818278312683, 0.1740473359823227, -0.12057901918888092, 0.10022155940532684, -0.12453904747962952, 0.1036076694726944, -0.012932419776916504, -0.10884308815002441, -0.1869778037071228, 0.013772249221801758, 0.09186653792858124], [0.11239059269428253, 0.15611495077610016, 0.13967131078243256, -0.06917497515678406, -0.06044788658618927, -0.18828386068344116, 0.10570751130580902, -0.08921726047992706, -0.051347702741622925, 0.008138611912727356, 0.05752430856227875, 0.0025960206985473633, 0.19705097377300262, -0.10220098495483398, 0.10517241060733795, 0.1774025410413742, 0.12408946454524994, -0.13414084911346436, -0.16436521708965302, -0.18122249841690063, -0.14843906462192535], [0.0668172687292099, 0.15949876606464386, 0.1984000951051712, -0.03427918255329132, -0.0427713543176651, 0.1951972395181656, 0.18843166530132294, -0.17573878169059753, -0.017567604780197144, -0.19566912949085236, -0.17918579280376434, -0.1720513254404068, 0.17497171461582184, 0.14632342755794525, -0.031103789806365967, -0.2006993442773819, -0.20999403297901154, 0.1310756355524063, 0.11279387772083282, 0.19435633718967438, -0.06489111483097076], [-0.0025657666847109795, -0.12307484447956085, -0.07871576398611069, -0.09023667871952057, 0.16214078664779663, -0.008270286954939365, 0.003522587241604924, 0.023801526054739952, 0.1849658042192459, 0.07803632318973541, 0.09783843159675598, 0.12548543512821198, 0.15768402814865112, 0.0025503053329885006, -0.02575981244444847, -0.18957754969596863, -0.024995237588882446, -0.2076023519039154, 0.01139339990913868, -0.2015654295682907, 0.1596015840768814], [0.2119850367307663, 0.19101180136203766, 0.21387054026126862, -0.19244694709777832, -0.015550300478935242, -0.08020047843456268, -0.18613456189632416, 0.03670497238636017, 0.11744408309459686, 0.014711186289787292, -0.2136654406785965, 0.12218259274959564, 0.07317309081554413, -0.1270628571510315, 0.19402576982975006, 0.11235366761684418, 0.04250718653202057, 0.15203489363193512, 0.07479463517665863, 0.0852888971567154, -0.13405273854732513], [0.061846211552619934, 0.02653433382511139, -0.08113077282905579, -0.012437880039215088, -0.19324101507663727, 0.04225783050060272, -0.12504824995994568, 0.04307861626148224, 0.00808456540107727, -0.1693771481513977, -0.18078726530075073, -0.2144121527671814, 0.06442581117153168, -0.1860918253660202, 0.19204775989055634, -0.20722144842147827, 0.20806388556957245, -0.19846969842910767, 0.1360383778810501, -0.12004272639751434, 0.0573744922876358], [-0.20796358585357666, 0.11853642761707306, 0.10812263190746307, 0.055242493748664856, 0.040838196873664856, -0.0496990829706192, 0.07061697542667389, -0.15538781881332397, -0.18078957498073578, -0.04820163547992706, 0.16783778369426727, 0.08294875919818878, 0.10536639392375946, 0.08890809118747711, -0.038115471601486206, -0.040990278124809265, 0.021644383668899536, 0.16938941180706024, 0.08660067617893219, -0.033998265862464905, 0.11203159391880035], [-0.24837082624435425, -0.13118089735507965, 0.11377289891242981, 0.10957242548465729, -0.10555843263864517, 0.06126527860760689, 0.03847730904817581, -0.18501190841197968, 0.07216456532478333, 0.05899331718683243, -0.18985700607299805, -0.027586111798882484, 0.10261182487010956, -0.14566539227962494, 0.004410966765135527, 0.07379674166440964, 0.20505531132221222, 0.14993934333324432, 0.012476607225835323, 0.016305776312947273, -0.08055554330348969], [0.17447032034397125, 0.15067541599273682, 0.2092762440443039, -0.0632132887840271, -0.15738767385482788, -0.20777267217636108, -0.08623196184635162, -0.17297713458538055, 0.03008134476840496, 0.11738256365060806, 0.008348513394594193, -0.20358705520629883, -0.10647352039813995, 0.1694709211587906, -0.020761385560035706, 0.021706318482756615, 0.055915478616952896, -0.031899385154247284, -0.1342744529247284, -0.1664259135723114, 0.023874320089817047], [-0.1955874115228653, 0.08392633497714996, -0.11983110010623932, 0.13337476551532745, -0.030324414372444153, 0.05900271236896515, -0.16641734540462494, -0.1721508800983429, 0.14387638866901398, 0.1883252114057541, -0.09406077861785889, 0.13360701501369476, 0.18536938726902008, 0.051053211092948914, -0.000672757625579834, -0.1834893524646759, 0.21624018251895905, -0.1718587726354599, -0.0782397985458374, -0.14003419876098633, 0.06017811596393585], [0.17474029958248138, -0.023970991373062134, -0.16851969063282013, -0.17597126960754395, -0.16202211380004883, -0.045936450362205505, -0.21626128256320953, 0.19146628677845, 0.044718220829963684, 0.08567638695240021, -0.15125542879104614, 0.014415174722671509, 0.05495990812778473, -0.03987015783786774, -0.11542195081710815, -0.191409170627594, 0.20285336673259735, 0.18630985915660858, 0.20046158134937286, -0.026212185621261597, -0.037192583084106445], [0.17700663208961487, 0.19746096432209015, -0.09359107911586761, -0.09393104910850525, 0.2635343670845032, -0.13961473107337952, -0.18461889028549194, -0.025854336097836494, 0.06141357868909836, -0.1354372203350067, -0.1708255112171173, 0.002200232818722725, -0.03563924878835678, 0.1628296971321106, 0.06362677365541458, 0.08949989080429077, 0.017285607755184174, -0.156009241938591, 0.09040307253599167, -0.1363876760005951, 0.17646420001983643], [0.15773971378803253, -0.07556971907615662, 0.15422041714191437, -0.03573967516422272, -0.05155561864376068, 0.20814450085163116, -0.012936204671859741, 0.06117047369480133, 0.1530243307352066, -0.176584392786026, -0.09819822013378143, -0.09754873812198639, 0.17430679500102997, 0.006638884544372559, -0.024711132049560547, -0.014623492956161499, -0.1687210351228714, -0.1834670603275299, 0.004015922546386719, -0.009975910186767578, -0.02022954821586609], [-0.14588019251823425, -0.13998332619667053, 0.20428799092769623, 0.13860757648944855, -0.046458885073661804, 0.1949872523546219, -0.20396561920642853, -0.09854937344789505, -0.2107713222503662, -0.09279225766658783, 0.03150354325771332, -0.14125758409500122, 0.19430215656757355, -0.06252826750278473, -0.21321381628513336, 0.05654953420162201, 0.018994972109794617, -0.11935682594776154, 0.022062361240386963, 0.043502405285835266, -0.002733170986175537], [0.21034614741802216, 0.16607271134853363, 0.014711424708366394, -0.12619325518608093, 0.10894317924976349, 0.007952958345413208, -0.07428742945194244, 0.04707874357700348, 0.08031685650348663, -0.1721767634153366, 0.19074930250644684, -0.038981854915618896, -0.17785859107971191, -0.17555935680866241, 0.2109963744878769, -0.06161056458950043, -0.21429190039634705, 0.18697212636470795, 0.11671249568462372, 0.1853855699300766, -0.18880102038383484], [-0.19311641156673431, -0.06919971108436584, -0.10936231911182404, 0.20546717941761017, 0.1491202563047409, 0.2115512639284134, -0.151605486869812, 0.12128342688083649, -0.1954876333475113, -0.04687903821468353, 0.09408168494701385, -0.19859279692173004, -0.11804495751857758, -0.06410260498523712, -0.18459688127040863, -0.054617270827293396, 0.05575384199619293, 0.07120560109615326, 0.05162496864795685, -0.14446231722831726, 0.16713766753673553], [-0.16766610741615295, -0.08971534669399261, -0.08997569978237152, 0.11648392677307129, 0.03546315059065819, -0.014722663909196854, 0.1438479721546173, -0.027993077412247658, 0.1205519363284111, -0.18542827665805817, 0.1412326693534851, 0.13996045291423798, -0.13653390109539032, 0.03691209480166435, -0.18370607495307922, -0.03386465832591057, 0.14215168356895447, 0.058490268886089325, -0.06238238513469696, 0.13748450577259064, -0.028143836185336113], [0.021161988377571106, 0.13354350626468658, -0.03621256351470947, 0.1818336695432663, 0.0590769499540329, -0.08679258823394775, -0.09132789075374603, 0.05105225741863251, 0.03708262741565704, 0.0634193867444992, 0.20464612543582916, 0.21591024100780487, 0.1598912626504898, 0.003261372447013855, -0.16149213910102844, -0.07377155125141144, 0.1849873811006546, 0.04155443608760834, -0.08928507566452026, 0.13951866328716278, -0.12777850031852722], [0.09553427994251251, -0.20905527472496033, 0.13953645527362823, -0.03835323452949524, 0.13413308560848236, -0.03364340960979462, -0.05973216891288757, -0.005138128995895386, 0.03815867006778717, 0.09881852567195892, 0.0613379031419754, 0.09597022831439972, -0.15771833062171936, 0.10418014228343964, 0.14272083342075348, 0.07288332283496857, -0.09133955836296082, 0.0003184080123901367, -0.19301971793174744, 0.16793407499790192, -0.07301141321659088], [0.046121105551719666, -0.1692122519016266, -0.19716159999370575, -0.022690877318382263, -0.1956666260957718, -0.041625455021858215, 0.14605988562107086, 0.12725163996219635, 0.12300966680049896, 0.055350497364997864, 0.018946126103401184, 0.18845029175281525, -0.15047301352024078, 0.1301821619272232, -0.13716819882392883, -0.17614859342575073, -0.21444667875766754, -0.12009228020906448, -0.058798521757125854, 0.04723350703716278, 0.06768019497394562], [-0.035743460059165955, -0.14785946905612946, 0.14223019778728485, -0.08990493416786194, 0.14754068851470947, -0.18213039636611938, 0.11711554229259491, -0.0766630470752716, 0.05180343985557556, -0.19652283191680908, -0.09189887344837189, 0.06905902177095413, -0.08418747782707214, 0.03174512833356857, -0.1707928329706192, -0.01568290963768959, -0.17894931137561798, 0.06049727648496628, -0.16713251173496246, 0.14394064247608185, 0.041346751153469086], [0.04340721666812897, -0.16450336575508118, -0.1533103883266449, 0.0022728294134140015, 0.06620489060878754, -0.025833189487457275, 0.007774248719215393, 0.14525161683559418, 0.08591516315937042, -0.07747560739517212, -0.10851510614156723, 0.07556574046611786, 0.09981004893779755, -0.20516525208950043, 0.03587646782398224, 0.13532228767871857, -0.13144126534461975, 0.09141652286052704, 0.1752890795469284, 0.17959825694561005, -0.16196350753307343], [-0.18911436200141907, 0.07192525267601013, -0.1715485006570816, -0.1272154450416565, 0.000980278942734003, 0.205861896276474, 0.09965576976537704, -0.13410887122154236, 0.17795796692371368, 0.12366177886724472, 0.07336145639419556, -0.1271919310092926, -0.0003615492314565927, -0.1559194028377533, -0.17893099784851074, 0.15305408835411072, 0.06799952685832977, 0.0563264936208725, 0.21666403114795685, 0.05610298365354538, 0.0004197999951429665], [-0.19545885920524597, -0.10860875993967056, -0.12379201501607895, 0.14834953844547272, 0.13434867560863495, -0.11107945442199707, 0.08296255767345428, -0.107334665954113, -0.1120455414056778, 0.07614870369434357, -0.07503946125507355, 0.20655213296413422, -0.21470342576503754, 0.14341075718402863, 0.0297163724899292, -0.1195785403251648, -0.0642220675945282, 0.00413241982460022, -0.19891934096813202, 0.1303343027830124, 0.0175054669380188], [0.16048215329647064, -0.10779757797718048, -0.21148107945919037, -0.043286919593811035, 0.0799475759267807, -0.09382850676774979, 0.13344521820545197, -0.0890398919582367, -0.14795123040676117, -0.09287071228027344, 0.00011239945888519287, -0.12323024868965149, 0.027433156967163086, 0.04640732705593109, 0.031230881810188293, 0.21459870040416718, 0.06285499036312103, 0.21274380385875702, -0.13117703795433044, 0.06933490931987762, -0.15242999792099], [-0.08549746870994568, 0.09959585964679718, 0.17124642431735992, -0.19212549924850464, -0.019418373703956604, -0.0823325514793396, -0.1324610710144043, -0.15611742436885834, 0.1376643031835556, 0.008739873766899109, -0.050025954842567444, 0.15440867841243744, 0.1495123952627182, 0.1720750480890274, -0.18372981250286102, -0.1867627501487732, 0.12659282982349396, 0.006860509514808655, 0.1622699648141861, -0.11349803954362869, -0.1139262467622757], [-0.11500415951013565, 0.18135946989059448, 0.10146983712911606, -0.1902903914451599, -0.05260593816637993, -0.2091381847858429, -0.07332852482795715, 0.11228720843791962, 0.0014801317593082786, -0.12413150817155838, 0.049446795135736465, -0.1587933748960495, 0.0652569904923439, -0.046184513717889786, 0.09858223795890808, -0.021134693175554276, 0.06146429106593132, -0.18123851716518402, 0.10419012606143951, -0.06145316734910011, 0.19129395484924316], [-0.1922735571861267, 0.03443915396928787, 0.09860169887542725, 0.20959492027759552, 0.09573645889759064, -0.10727107524871826, -0.09950384497642517, -0.19525466859340668, 0.20253312587738037, 0.04478413611650467, 0.007895184680819511, -0.1986410766839981, 0.1646558940410614, -0.0898125022649765, -0.10506666451692581, 0.09829632192850113, 0.035703737288713455, -0.19860681891441345, 0.20771946012973785, -0.1588975191116333, -0.07722532749176025], [-0.20456120371818542, 0.0707128494977951, -0.11988476663827896, -0.014560729265213013, -0.1744566261768341, -0.10791276395320892, -0.15246495604515076, 0.11019034683704376, -0.1618489772081375, -0.18118834495544434, 0.1777888983488083, 0.05089576542377472, -0.21326859295368195, -0.06437401473522186, 0.12236453592777252, -0.15106074512004852, 0.01983240246772766, -0.16960760951042175, -0.09808248281478882, -0.15266333520412445, -0.08268354833126068], [0.15024320781230927, -0.027350574731826782, 0.1855345517396927, 0.21387378871440887, -0.04140952229499817, -0.12511813640594482, -0.02273830771446228, 0.010066553950309753, -0.03340083360671997, -0.19071079790592194, 0.18821163475513458, 0.007790237665176392, 0.11056368052959442, 0.159421905875206, 0.054456815123558044, -0.09077601134777069, 0.04157595336437225, -0.1090860515832901, 0.07500861585140228, 0.12473471462726593, -0.07452470064163208], [-0.14864376187324524, -0.0682089626789093, -0.06341229379177094, 0.21158446371555328, 0.0656166523694992, 0.06441463530063629, 0.04176132380962372, 0.21118439733982086, -0.09439453482627869, 0.12127865850925446, -0.16829651594161987, 0.2162718027830124, 0.058790579438209534, -0.10256465524435043, -0.0852804183959961, -0.10123972594738007, -0.08717459440231323, -0.16194194555282593, -0.07041303813457489, -0.10527876019477844, -0.05860137939453125], [-0.11903766542673111, 0.03482873737812042, 0.05530188977718353, 0.057382479310035706, 0.031016182154417038, 0.16000069677829742, 0.1731461137533188, 0.2053210586309433, -0.11542892456054688, 0.056233301758766174, -0.03838732838630676, -0.0002065482403850183, 0.08600635826587677, 0.03254960477352142, 0.06520159542560577, 0.14314718544483185, -0.02610282599925995, -0.196751207113266, -0.21655625104904175, -0.005508885253220797, -0.09412630647420883], [-0.17947043478488922, 0.15271835029125214, 0.012130474671721458, -0.1483364999294281, -0.0067643835209310055, 0.11535505950450897, 0.17052146792411804, 0.023565443232655525, -0.189290389418602, -0.14997267723083496, -0.07879544794559479, -0.10458365082740784, -0.10065028071403503, -0.07039681077003479, 0.14462141692638397, -0.04091375321149826, 0.1900714784860611, -0.13419310748577118, 0.11960019916296005, 0.17288650572299957, -0.03746509552001953], [-0.15178045630455017, -0.009947061538696289, 0.16531334817409515, 0.13682256639003754, 0.12020672857761383, 0.1780572384595871, 0.07298488914966583, -0.0024639517068862915, 0.03527317941188812, 0.21791885793209076, 0.033259108662605286, -0.16362479329109192, 0.10187987983226776, 0.20089761912822723, -0.029820218682289124, 0.10144735872745514, 0.050622060894966125, 0.18879200518131256, 0.16392485797405243, -0.0784359723329544, 0.18538446724414825], [0.035355135798454285, 0.0008351951837539673, 0.15370525419712067, -0.18813540041446686, -0.12885892391204834, -0.10771773755550385, -0.13617518544197083, -0.14645370841026306, -0.048568353056907654, 0.13929851353168488, 0.14923660457134247, -0.12776845693588257, 0.13679681718349457, 0.04192794859409332, -0.036194562911987305, 0.031126707792282104, -0.13800933957099915, 0.15306513011455536, 0.1389702409505844, -0.09025126695632935, 0.026661500334739685], [-0.13723665475845337, 0.12207596004009247, -0.13651227951049805, 0.052363231778144836, -0.047215282917022705, 0.09583793580532074, -0.20578598976135254, 0.058233216404914856, -0.02044762670993805, -0.13042572140693665, 0.11427073180675507, -0.19538547098636627, 0.09328983724117279, -0.19301937520503998, 0.21607880294322968, -0.20895817875862122, -0.11424842476844788, -0.1532478928565979, 0.0414554625749588, -0.09408067911863327, 0.08538521826267242], [0.023638427257537842, 0.06708396971225739, 0.10430483520030975, 0.16645167768001556, 0.021363258361816406, -0.08093169331550598, 0.1600029617547989, -0.0823000818490982, -0.14236751198768616, -0.06928038597106934, 0.003788873553276062, -0.18980154395103455, 0.16413156688213348, -0.20431005954742432, 0.14132459461688995, -0.1228199377655983, -0.02564077079296112, 0.10820181667804718, 0.1501859575510025, 0.0780264288187027, 0.14167244732379913], [-0.0035440996289253235, -0.049969494342803955, 0.12387756258249283, -0.1631103903055191, -0.1756262630224228, 0.12489104270935059, -0.1855647712945938, -0.00978163629770279, 0.0816652849316597, 0.07558425515890121, 0.07196525484323502, 0.08957140892744064, -0.12787722051143646, 0.18557454645633698, 0.1325255036354065, 0.11137981712818146, -0.11696352064609528, 0.16261722147464752, 0.044062115252017975, -0.07755130529403687, -0.05550328269600868], [-0.1665247678756714, 0.12600474059581757, -0.09942356497049332, 0.08092702925205231, -0.12860608100891113, -0.023714154958724976, -0.16457779705524445, 0.029556959867477417, 0.03782053291797638, 0.047428056597709656, 0.17234112322330475, -0.12223567068576813, -0.07990743219852448, -0.09974241256713867, 0.011710047721862793, -0.06975877285003662, -0.11990445852279663, 0.030713066458702087, 0.07670508325099945, 0.14927203953266144, -0.07109931111335754], [0.0016218721866607666, 0.1512492150068283, 0.14052830636501312, 0.015288010239601135, 0.029373854398727417, -0.12209727615118027, -0.11371450126171112, 0.011476963758468628, 0.20332373678684235, -0.16891610622406006, -0.02996116876602173, 0.1832892745733261, -0.0782565325498581, -0.05503983795642853, -0.07273277640342712, 0.09532539546489716, -0.03907454013824463, -0.1185838058590889, 0.06357787549495697, 0.1881767064332962, 0.002397388219833374]], "fc1.bias": [0.19701875746250153, -0.1447727382183075, -0.09020832926034927, 0.07647581398487091, -0.01814456284046173, -0.09613852947950363, 0.15473797917366028, -0.15475256741046906, 0.18054111301898956, 0.15555329620838165, -0.18951092660427094, -0.01625959575176239, 0.15651194751262665, -0.20895954966545105, 0.1400444656610489, 0.0361337810754776, -0.013461576774716377, 0.10306711494922638, 0.06834335625171661, 0.17434687912464142, -0.09000048041343689, -0.07024897634983063, 0.1017599031329155, -0.09533672034740448, -0.13280153274536133, -0.09641928225755692, -0.09044469147920609, -0.16354480385780334, 0.05396299064159393, 0.19433169066905975, -0.005563318729400635, 0.1782786101102829, -0.05645503103733063, -0.18840056657791138, -0.024304762482643127, -0.022259056568145752, -0.07305264472961426, 0.21237750351428986, -0.07303008437156677, 0.005375651177018881, -0.1782185435295105, -0.2067747712135315, -0.05489050969481468, 0.057236429303884506, 0.11800901591777802, 0.17264528572559357, 0.14002545177936554, -0.21174046397209167, 0.04203466325998306, 0.1823136955499649, 0.10209478437900543, 0.07052110135555267, 0.06714023649692535, -0.032000988721847534, 0.08284159004688263, -0.033807311207056046, -0.018589824438095093, 0.08508415520191193, -0.04831834137439728, 0.15089081227779388, -0.14156575500965118, 0.14598451554775238, 0.030796363949775696, -0.09932883828878403, -0.04110901057720184, -0.16309621930122375, 0.21420635282993317, -0.029999498277902603, 0.16592586040496826, -0.14654341340065002, 0.15887023508548737, -0.2127108871936798, -0.21378470957279205, 0.02153638005256653, -0.04543688893318176, -0.12540709972381592, 0.17444829642772675, -0.1532973349094391, 0.007112219929695129, 0.19179116189479828, 0.19020959734916687, 0.14698843657970428, 0.12082355469465256, -0.07776352763175964, -0.1747821569442749, -0.11087027937173843, -0.1790584921836853, -0.023984648287296295, 0.06516478955745697, 0.1974463313817978, -0.18969541788101196, -0.06274875998497009, -0.16534236073493958, 0.16888196766376495, -0.07619956135749817, 0.031205400824546814, 0.140725776553154, -0.20000715553760529, -0.18655575811862946, -0.042868465185165405], "fc2.weight": [[-0.09313887357711792, -0.018417062237858772, 0.05008326470851898, -0.03648710250854492, -0.02279951050877571, 0.0940442606806755, -0.5358694791793823, 0.20165565609931946, -0.11523191630840302, -0.08095965534448624, -0.046479661017656326, 0.025441132485866547, -0.12271147966384888, -0.04191536456346512, 0.008098204620182514, 0.041165344417095184, 0.6855260133743286, 0.009418904781341553, 0.0941479429602623, -0.0867377519607544, 0.03157319501042366, 0.025983773171901703, -0.10057589411735535, 0.0071178823709487915, -0.10677560418844223, 0.09552884846925735, -0.6219906806945801, 0.07101822644472122, -0.10864361375570297, -0.07974331080913544, 0.02983706444501877, -0.08139162510633469, 0.040934789925813675, 0.020947381854057312, -0.04190957546234131, 0.051224030554294586, -0.07233975827693939, -0.03114909864962101, 0.07284944504499435, -0.7284375429153442, -0.10088243335485458, 0.034390874207019806, 0.7777791619300842, 0.06141046807169914, -0.03044838272035122, 0.06394196301698685, -0.09042800962924957, 0.8323032259941101, 0.003157075960189104, 0.5475874543190002, -0.13102388381958008, 0.05730680748820305, -0.8501238226890564, -0.00015141069889068604, -0.04237411543726921, -0.06027641519904137, 0.45641621947288513, 0.07600568979978561, -0.09503896534442902, 0.04143456369638443, -0.08736521005630493, -0.09985242784023285, -0.02814473770558834, 0.005623150616884232, -0.05379607528448105, 0.08301986008882523, -0.028090395033359528, 0.7965303659439087, 0.0014632585225626826, -0.006940104067325592, -0.06312289834022522, -0.7398392558097839, -0.028807245194911957, 0.09092437475919724, -0.08010854572057724, -0.01574838161468506, 0.8750198483467102, -0.1176687702536583, -0.10038983821868896, -0.07677485793828964, -0.27257004380226135, -0.07314047962427139, -0.03381916508078575, -0.0362987145781517, 0.04391931742429733, 0.07004272192716599, -0.6524212956428528, -0.12123531103134155, 0.03921084851026535, -0.03857358545064926, 0.011117950081825256, -0.07802058756351471, -0.09055494517087936, 0.028332028537988663, 0.047783445566892624, 0.0966164842247963, -0.016287412494421005, -0.11942083388566971, -0.07157780975103378, -0.05125376209616661]], "fc2.bias": [-0.10381569713354111]}