{"fc1.weight": [[-0.11537273228168488, -0.09887777268886566, 0.024778753519058228, 0.08927972614765167, 0.03195299208164215, 0.09342004358768463, -0.19438698887825012, -0.21423856914043427, 0.14281000196933746, -0.006726577877998352, -0.07917150855064392, -0.07105833292007446, -0.139456644654274, -0.12670215964317322, 0.14342491328716278, -0.07470905780792236, -0.05321040749549866, -0.16664065420627594, 0.14787481725215912, 0.19798533618450165, -0.0603703111410141], [-0.14084257185459137, 0.1678154617547989, -0.07519368827342987, 0.1921113282442093, -0.043325260281562805, -0.14214715361595154, 0.0508565753698349, -0.13980498909950256, 0.053201332688331604, 0.02247902750968933, -0.18012964725494385, 0.06158764660358429, -0.15143413841724396, -0.04512447118759155, -0.1871730536222458, -0.022042259573936462, -0.1083260178565979, -0.21789871156215668, -0.001222461462020874, -0.044587939977645874, 0.05404619872570038], [-0.1033514067530632, -0.043449342250823975, -0.11490969359874725, -0.07875058054924011, 0.14826034009456635, 0.00399017333984375, 0.13618962466716766, 0.15498797595500946, 0.11638699471950531, 0.052268341183662415, 0.15181227028369904, 0.02632039785385132, 0.07757888734340668, 0.13776321709156036, 0.11118833720684052, -0.0006023496389389038, 0.12464417517185211, 0.06593914330005646, 0.1165233701467514, -0.08124193549156189, -0.08859527111053467], [0.06537304818630219, -0.06274920701980591, -0.087103933095932, -0.10689982026815414, 0.10355277359485626, -0.09911816567182541, -0.0930684357881546, 0.1876996010541916, 0.1537788361310959, -0.05967327952384949, 0.02856278419494629, -0.125399649143219, -0.20317678153514862, 0.16744132339954376, 0.08893637359142303, 0.13182811439037323, -0.11889965832233429, 0.19755591452121735, 0.008826285600662231, -0.13578040897846222, 0.0006190389394760132], [-0.061423491686582565, -0.15564370155334473, 0.10513755679130554, 0.26979485154151917, 0.04188310354948044, -0.19653619825839996, 0.045236971229314804, 0.1298394650220871, -0.012024451978504658, 0.12874524295330048, -0.21592548489570618, -0.0794568583369255, -0.02559036947786808, 0.09287448972463608, 0.18519775569438934, -0.05867055058479309, 0.21222838759422302, -0.08328717201948166, 0.03540899604558945, -0.11908450722694397, -0.01700493134558201], [0.06256972253322601, 0.1415756493806839, 0.016327232122421265, 0.17364667356014252, 0.013375908136367798, -0.10751504451036453, 0.014683395624160767, -0.13343024253845215, 0.11879687011241913, -0.06896078586578369, 0.02245984971523285, -0.09410087019205093, -0.19332902133464813, 0.135680690407753, -0.11996028572320938, -0.13675862550735474, 0.08515696227550507, 0.011533647775650024, -0.09661173075437546, -0.12345768511295319, 0.03132016956806183], [0.1297302395105362, -0.057191237807273865, -0.06182970106601715, -0.2129039466381073, -0.011323854327201843, -0.03731425106525421, 0.11821506917476654, 0.058527037501335144, -0.15084874629974365, 0.18606941401958466, 0.09181483089923859, -0.03840214014053345, -0.21548904478549957, 0.0010644495487213135, -0.12011948972940445, -0.11772756278514862, 0.05176295340061188, 0.041600242257118225, 0.11190788447856903, -0.16418899595737457, 0.1782713383436203], [-0.205738365650177, 0.06644578278064728, -0.07410085201263428, 0.0626022070646286, -0.15940554440021515, -0.10414425283670425, -0.1217876672744751, -0.1259727030992508, 0.09596793353557587, 0.03380279242992401, -0.03801529109477997, 0.17050619423389435, -0.1321045309305191, -0.07606194913387299, 0.06836216151714325, 0.18503759801387787, 0.19083444774150848, -0.027531445026397705, 0.1837836652994156, -0.08885075151920319, -0.07061204314231873], [-0.1641669124364853, -0.046066731214523315, -0.21588733792304993, 0.018505170941352844, 0.21693305671215057, -0.020299583673477173, 0.08359630405902863, -0.18983645737171173, 0.11115829646587372, 0.13855619728565216, 0.13479562103748322, -0.15546903014183044, -0.0787452757358551, 0.11159239709377289, 0.21373431384563446, -0.01064346730709076, 0.15685920417308807, 0.039380237460136414, 0.05407901108264923, -0.07737894356250763, 0.048503026366233826], [0.18667732179164886, -0.13998661935329437, 0.10858671367168427, 0.07299552857875824, -0.15151600539684296, -0.12827655673027039, -0.10192497819662094, -0.1893651932477951, -0.1320723593235016, -0.18546870350837708, -0.007002159953117371, -0.13026192784309387, -0.06885011494159698, -0.07614968717098236, 0.026242747902870178, 0.015311628580093384, -0.16786079108715057, -0.0010743290185928345, -0.037743210792541504, 0.08969263732433319, -0.11626781523227692], [-0.0921945720911026, 0.12322212755680084, 0.21206064522266388, -0.141274556517601, -0.0011596530675888062, 0.059877052903175354, 0.11268721520900726, 0.10082967579364777, -0.14558781683444977, 0.13602904975414276, -0.15135514736175537, 0.10593082010746002, -0.021714642643928528, -0.06237725913524628, 0.18354909121990204, 0.19847334921360016, -0.11654561012983322, -0.08293689787387848, 0.1988210529088974, -0.1977040320634842, -0.025689780712127686], [0.04684613645076752, -0.1914622038602829, -0.08505776524543762, -0.003842860460281372, 0.14598040282726288, -0.1984824687242508, -0.2128210812807083, -0.1761867105960846, 0.2138042002916336, 0.0007792860269546509, -0.11347121745347977, -0.11680738627910614, -0.04069192707538605, -0.03435294330120087, -0.08970391750335693, -0.16439633071422577, 0.10238181054592133, 0.20291556417942047, -0.02468906342983246, 0.10421033203601837, -0.1774636059999466], [0.09280480444431305, -0.049534961581230164, -0.09769896417856216, 0.1635769158601761, 0.11305360496044159, 0.07953740656375885, 0.007599741220474243, -0.023440957069396973, -0.14226073026657104, 0.152629092335701, 0.18940632045269012, -0.033700570464134216, -0.10108848661184311, 0.20744149386882782, -0.18047484755516052, -0.047993212938308716, -0.06383198499679565, -0.11848971247673035, -0.07254162430763245, -0.19645267724990845, 0.10304124653339386], [-0.21133263409137726, 0.1299671083688736, 0.20360495150089264, 0.03635166585445404, -0.1459169089794159, 0.07723541557788849, 0.05840589106082916, 0.18866051733493805, -0.17078246176242828, 0.08229999244213104, -0.17242899537086487, 0.21268342435359955, 0.10892318189144135, 0.08436162769794464, 0.02843211591243744, 0.014134883880615234, -0.1930110603570938, 0.05616207420825958, -0.02562524378299713, -0.16127045452594757, -0.18375886976718903], [0.14776207506656647, -0.05771384388208389, 0.16315287351608276, 0.05421321839094162, -0.19346222281455994, 0.21433086693286896, -0.07846356183290482, 0.11213599145412445, -0.07555434852838516, 0.03417264670133591, 0.17319230735301971, 0.06940267235040665, 0.09383630752563477, -0.05217721313238144, 0.011703579686582088, -0.09947443753480911, 0.016022175550460815, -0.014027679339051247, 0.16069382429122925, -0.17292043566703796, 0.0219194944947958], [-0.05162854865193367, 0.19483652710914612, 0.07877226173877716, -0.08077766001224518, 0.09439001977443695, -0.08039134740829468, -0.1385524570941925, 0.101753368973732, -0.20272983610630035, -0.056308191269636154, -0.15086017549037933, 0.05065688490867615, 0.1520877182483673, 0.06506425142288208, -0.15341147780418396, 0.1588447391986847, 0.11711138486862183, 0.013424776494503021, 0.14850212633609772, -0.0748329758644104, -0.1028294563293457], [0.08757908642292023, -0.07141856849193573, 0.1619190126657486, 0.10046003758907318, 0.12312550842761993, 0.13169430196285248, -0.020054638385772705, -0.0748242735862732, 0.1646997481584549, -0.06605906784534454, -0.18164004385471344, -0.1748051941394806, 0.03897036612033844, 0.10787247121334076, -0.0480852872133255, 0.058906689286231995, -0.20473656058311462, 0.13943292200565338, 0.043990448117256165, 0.1878480464220047, -0.030525296926498413], [0.014869492501020432, 0.15223084390163422, -0.2787010371685028, 0.17951525747776031, 0.006363712251186371, -0.11991427838802338, 0.019924884662032127, 0.07156477868556976, 0.1973659247159958, 0.0012815531808882952, -0.02790277637541294, -0.2113763839006424, 0.2009381353855133, -0.12269588559865952, -0.031161634251475334, -0.16246241331100464, 0.13705399632453918, -0.14660727977752686, -0.21054792404174805, -0.048608265817165375, 0.18404200673103333], [-0.16550993919372559, 0.21429716050624847, -0.20713043212890625, -0.009762093424797058, 0.12621985375881195, 0.06426025927066803, 0.06249536573886871, -0.20059731602668762, -0.1710432469844818, -0.18833747506141663, 0.09211130440235138, -0.03988644480705261, -0.17166668176651, -0.1349785029888153, -0.020506083965301514, 0.01763303577899933, -0.08629792928695679, -0.11374077200889587, -0.08568260073661804, 0.042916253209114075, 0.2098284512758255], [0.14128461480140686, -0.21008959412574768, 0.18222449719905853, -0.0181137565523386, -0.07114467769861221, 0.12257091701030731, 0.14073996245861053, -0.0676703006029129, -0.16683800518512726, -0.06605373322963715, 0.08043395727872849, 0.1962834894657135, -0.22225910425186157, 0.1434159129858017, -0.11362804472446442, 0.0920090302824974, -0.09049694240093231, -0.1672561764717102, -0.1414189636707306, -0.0858699157834053, 0.13758304715156555], [-0.20190440118312836, -0.0952179953455925, -0.060960352420806885, 0.0044447630643844604, -0.020157858729362488, 0.06945435702800751, -0.192886084318161, 0.15546710789203644, 0.18150384724140167, 0.029803723096847534, 0.09829442203044891, -0.08023376762866974, 0.17352212965488434, -0.008198529481887817, -0.1494791954755783, 0.17946089804172516, 0.14558474719524384, 0.07625718414783478, 0.04020841419696808, 0.12071897089481354, 0.18293188512325287], [0.15990446507930756, -0.18292997777462006, 0.1217251643538475, 0.049426838755607605, -0.10401462763547897, 0.09980946034193039, 0.03359409421682358, 0.039234742522239685, -0.11577887833118439, 0.13030879199504852, 0.18573112785816193, 0.030614906921982765, -0.1420011669397354, -0.0965542271733284, -0.12337645143270493, 0.08703529834747314, 0.12840040028095245, 0.021696722134947777, 0.04274771735072136, 0.12896771728992462, -0.1931002289056778], [-0.04795365035533905, -0.040081292390823364, 0.2018672674894333, -0.05630454421043396, 0.1914394050836563, -0.10455914586782455, 0.010823085904121399, -0.10658349841833115, 0.039751097559928894, -0.0759783685207367, 0.16339369118213654, -0.06126147508621216, -0.1557016223669052, -0.189239963889122, -0.17836026847362518, 0.15506894886493683, -0.021676763892173767, -0.10746002197265625, -0.033734649419784546, 0.11680169403553009, 0.07009027898311615], [0.16808824241161346, 0.04388315975666046, 0.20144660770893097, 0.03097786009311676, 0.06571738421916962, -0.12355390936136246, 0.17721329629421234, -0.01098497211933136, 0.19679813086986542, -0.0596594363451004, -0.04995003342628479, -0.0003743022680282593, -0.09043198823928833, -0.20472003519535065, -0.1596057116985321, -0.17813143134117126, -0.027460739016532898, -0.07436461746692657, 0.1645764261484146, -0.10050666332244873, 0.14441703259944916], [0.20338203012943268, 0.19884558022022247, 0.19363059103488922, 0.02660757303237915, -0.19749881327152252, -0.17641694843769073, -0.05686071515083313, 0.10894928872585297, 0.014708980917930603, 0.015049979090690613, 0.09677763283252716, 0.08960099518299103, -0.10501815378665924, 0.1918666511774063, -0.1892281323671341, 0.14762066304683685, 0.11770530045032501, -0.21749728918075562, 0.12705178558826447, 0.19188497960567474, -0.08842813968658447], [-0.2132960706949234, 0.09088273346424103, 0.0008074343204498291, 0.20985911786556244, 0.18364547193050385, 0.12287141382694244, 0.20138730108737946, -0.10401298850774765, -0.17478540539741516, 0.15984569489955902, -0.055111080408096313, 0.18903733789920807, -0.193414568901062, 0.10317651927471161, -0.02539663016796112, -0.1441972255706787, 0.11170946061611176, -0.154959037899971, 0.10510052740573883, 0.08538921177387238, 0.1946810632944107], [0.0763893574476242, -0.17823830246925354, 0.12917838990688324, -0.0471266508102417, 0.059211596846580505, -0.019976913928985596, -0.0038210004568099976, -0.1008620411157608, 0.13747315108776093, -0.034900128841400146, 0.14040113985538483, -0.002031773328781128, 0.18655861914157867, 0.11045615375041962, -0.0030917376279830933, 0.18604068458080292, 0.02445310354232788, -0.20137107372283936, -0.19704920053482056, 0.18788696825504303, -0.11810598522424698], [-0.09788387268781662, 0.0008554953965358436, -0.004299622494727373, 0.20826353132724762, -0.020591560751199722, -0.08797073364257812, 0.1854131668806076, -0.15884339809417725, -0.08675744384527206, -0.12252770364284515, -0.1570795774459839, 0.11607073247432709, 0.15058346092700958, -0.08464641869068146, -0.20229965448379517, 0.10379104316234589, 0.20473428070545197, -0.08915670216083527, 0.05933518707752228, -0.07087504118680954, 0.10749534517526627], [0.1280342936515808, -0.0951233059167862, 0.18194741010665894, -0.18379029631614685, -0.0644579753279686, -0.09351778030395508, 0.03230724111199379, -0.05468602851033211, 0.08223016560077667, 0.1887344866991043, 0.03695959970355034, 0.05782276391983032, -0.12225683778524399, 0.16850219666957855, -0.22927196323871613, 0.05627857521176338, 0.18712641298770905, 0.2738139033317566, 0.1671253740787506, -0.07002867013216019, -0.12292347848415375], [0.18613918125629425, 0.07557277381420135, -0.14398565888404846, 0.15180246531963348, 0.21335174143314362, 0.19155101478099823, 0.04462294280529022, 0.011430814862251282, 0.06139148771762848, -0.19767479598522186, 0.12371720373630524, -0.09105409681797028, -0.13100053369998932, -0.19538216292858124, -0.01220346987247467, 0.06289063394069672, -0.1765580028295517, 0.10569934546947479, 0.09906627237796783, 0.05008922517299652, 0.18762986361980438], [-0.19402451813220978, -0.1605733186006546, 0.07704983651638031, -0.11336281895637512, -0.1281106173992157, 0.15504567325115204, -0.11141276359558105, 0.16385622322559357, 0.03792838752269745, 0.20626847445964813, -0.20543938875198364, -0.07412661612033844, 0.12398003041744232, -0.2114817500114441, -0.16242478787899017, -0.045380204916000366, -0.2161475569009781, 0.038985177874565125, -0.14433902502059937, -0.1796104609966278, 0.1913401037454605], [0.09986250102519989, 0.15892468392848969, 0.18597374856472015, 0.051020458340644836, -0.16232098639011383, -0.08255265653133392, 0.14674516022205353, -0.08648921549320221, 0.11368830502033234, 0.21302716434001923, 0.142323300242424, 0.11011277139186859, 0.140556201338768, 0.0843275934457779, -0.16625294089317322, 0.14962027966976166, -0.08529971539974213, 0.052991196513175964, -0.17630386352539062, -0.15433484315872192, 0.03832991421222687], [-0.07438936084508896, -0.09490840882062912, -0.11014941334724426, 0.15683448314666748, -0.13870373368263245, -0.1317579448223114, 0.015671662986278534, 0.0436091348528862, 0.021329306066036224, 0.19350174069404602, -0.14861232042312622, -0.01559472270309925, -0.09957216680049896, -0.11357949674129486, 0.19021053612232208, 0.1698468029499054, -0.03290430083870888, -0.21304412186145782, 0.1339336782693863, 0.04822371527552605, 0.06868795305490494], [-0.03591872751712799, -0.14011166989803314, -0.11676456034183502, -0.026748327538371086, -0.09705633670091629, 0.18257595598697662, -0.17063269019126892, -0.15568184852600098, -0.1817985624074936, 0.02643580734729767, 0.21034716069698334, 0.18934959173202515, -0.13493488729000092, 0.06881247460842133, 0.14958009123802185, 0.17109136283397675, -0.16408276557922363, 0.04859791323542595, -0.1999766230583191, 0.21766532957553864, 0.07597647607326508], [-0.06617104262113571, 0.19201995432376862, 0.11829224973917007, 0.0373830571770668, 0.07961505651473999, 0.12128791958093643, -0.17877908051013947, -0.07730939239263535, -0.02969461865723133, -0.06553369015455246, 0.19337709248065948, -0.054583631455898285, -0.14239642024040222, -0.21136386692523956, -0.008970942348241806, 0.1611756980419159, 0.05713214725255966, -0.07891424745321274, -0.14569638669490814, -0.15003742277622223, -0.02382015436887741], [0.21841801702976227, 0.0474775992333889, 0.16157515347003937, 0.10373028367757797, 0.21328943967819214, 0.1621624380350113, -0.136093869805336, 0.02494640089571476, 0.1680799275636673, -0.13926872611045837, -0.19876086711883545, 0.015015365555882454, 0.04732542857527733, 0.11168580502271652, -0.10282198339700699, -0.027913598343729973, -0.019017063081264496, -0.16031183302402496, -0.11569119244813919, -0.13992474973201752, 0.06593868881464005], [-0.033750634640455246, 0.025924144312739372, -0.18701507151126862, -0.0881708413362503, 0.03932114690542221, -0.007268950343132019, 0.16533134877681732, -0.0933307334780693, 0.21025390923023224, -0.07667547464370728, -0.09992425888776779, 0.0230599083006382, 0.09611815214157104, 0.00649242103099823, 0.16781502962112427, -0.21515023708343506, -0.014975085854530334, 0.01662934571504593, 0.1755891591310501, -0.11722240597009659, -0.17653709650039673], [0.030788704752922058, -0.059324488043785095, 0.09234143793582916, -0.09075210988521576, -0.01383054256439209, 0.13272850215435028, 0.07777367532253265, -0.17890700697898865, 0.07174579799175262, 0.12352977693080902, 0.012714952230453491, -0.20630605518817902, -0.18145418167114258, 0.019519805908203125, -0.0485147088766098, 0.204559788107872, 0.11036054790019989, 0.18283449113368988, -0.20515966415405273, 0.15710310637950897, 0.06441818177700043], [0.16094544529914856, 0.0806194320321083, -0.07750505208969116, -0.13595952093601227, 0.20261463522911072, -0.012510709464550018, -0.18362703919410706, 0.2107389122247696, 0.13169537484645844, -0.07518623769283295, -0.05475131422281265, 0.022959304973483086, -0.18474915623664856, 0.04901592433452606, -0.03506797179579735, -0.11054598540067673, -0.08571567386388779, 0.14085640013217926, 0.09931652247905731, -0.19349248707294464, 0.17687834799289703], [-0.11250918358564377, -0.16374385356903076, -0.08159157633781433, 0.12150423228740692, -0.17015527188777924, 0.0011874735355377197, -0.11896342039108276, 0.04771856963634491, -0.21405546367168427, 0.14595957100391388, 0.13039593398571014, -0.0416695773601532, 0.07629995048046112, 0.16706927120685577, 0.038835540413856506, -0.08685764670372009, 0.015148937702178955, 0.08435733616352081, -0.0608622282743454, -0.17849916219711304, -0.05861818790435791], [0.18981815874576569, 0.07496659457683563, 0.1418987661600113, 0.08195693790912628, 0.10369028151035309, -0.049632444977760315, 0.0757499486207962, -0.11846949905157089, -0.1851993203163147, -0.01264256238937378, 0.18909268081188202, 0.04911692440509796, -0.11051074415445328, 0.08402766287326813, 0.06619225442409515, -0.1297033131122589, 0.13861854374408722, 0.024629756808280945, 0.19024796783924103, 0.0015689581632614136, 0.06717874109745026], [-0.16285265982151031, -0.11012176424264908, 0.14014498889446259, -0.1649220883846283, -0.05074329674243927, -0.1548728048801422, -0.08717826008796692, -0.2077871710062027, 0.11253051459789276, 0.18409566581249237, 0.1545657366514206, 0.1803121119737625, 0.20213763415813446, -0.19278188049793243, 0.1706555038690567, 0.025145605206489563, 0.21634380519390106, -0.08555583655834198, -0.07272495329380035, -0.10020917654037476, 0.12903113663196564], [0.06312425434589386, 0.2102510780096054, -0.08866553008556366, 0.022552907466888428, -0.06828242540359497, 0.08104915916919708, 0.21136163175106049, 0.21309907734394073, 0.14582358300685883, -0.16696137189865112, 0.03962509334087372, 0.19299350678920746, 0.21312500536441803, 0.03605760633945465, 0.19784076511859894, -0.0980231761932373, -0.12030218541622162, -0.21649670600891113, -0.017208904027938843, -0.0032355189323425293, -0.1451667845249176], [-0.2056562602519989, 0.0763651579618454, -0.06823565065860748, 0.08025847375392914, 0.032084718346595764, 0.03405629098415375, 0.09966675937175751, 0.21467353403568268, -0.03622971475124359, 0.10273455083370209, 0.1305757611989975, 0.17035357654094696, 0.19659282267093658, 0.19626547396183014, 0.10213802754878998, -0.058046385645866394, 0.032107725739479065, 0.04767100512981415, 0.21554039418697357, -0.15747381746768951, -0.09553130716085434], [0.14160899817943573, -0.027731746435165405, 0.13448862731456757, 0.015826210379600525, -0.14094170928001404, 0.2123553603887558, 0.1607644110918045, 0.0005760490894317627, -0.08854816854000092, 0.10539920628070831, 0.06477595865726471, -0.16521677374839783, -0.08017250895500183, -0.1964559257030487, 0.11208657920360565, -0.0843690037727356, 0.1298093944787979, -0.15978942811489105, 0.14919264614582062, 0.03514234721660614, 0.008051112294197083], [0.2059355229139328, -0.11855417490005493, 0.03313206136226654, -0.11555162817239761, -0.14705927670001984, 0.01371869444847107, 0.023298636078834534, -0.019388660788536072, 0.061380282044410706, 0.1461092084646225, 0.1696728616952896, -0.2002619206905365, 0.17134283483028412, 0.18443582952022552, -0.09337323904037476, 0.19087530672550201, -0.1135922372341156, -0.21646223962306976, 0.06113775074481964, 0.2109568864107132, -0.027807191014289856], [0.2070748656988144, 0.1301831752061844, -0.213529571890831, -0.17502428591251373, 0.17819739878177643, 0.18299700319766998, -0.12873902916908264, -0.16971372067928314, -0.047265663743019104, -0.149540513753891, -0.162472203373909, 0.1498219519853592, -0.03987416625022888, -0.05773895978927612, -0.036545827984809875, -0.1568860113620758, -0.0938926562666893, -0.05777154862880707, -0.018586277961730957, 0.13149668276309967, 0.12385396659374237], [-0.13620029389858246, -0.12246959656476974, -0.015692081302404404, -0.08054795861244202, -0.10359978675842285, -0.0737326443195343, 0.22026100754737854, 0.202997088432312, 0.19153089821338654, -0.06535424292087555, 0.007849961519241333, -0.08804766833782196, 0.06518153846263885, 0.03568217158317566, -0.15920671820640564, 0.10269992053508759, 0.1556084156036377, -0.2112261950969696, 0.14341731369495392, -0.06941302120685577, 0.17301447689533234], [-0.11084476113319397, -0.21212078630924225, 0.15194803476333618, -0.17001639306545258, 0.15139642357826233, -0.10266901552677155, 0.06650466471910477, 0.16424104571342468, 0.08505712449550629, -0.06860831379890442, -0.07660054415464401, 0.15671944618225098, -0.171676903963089, 0.0680268406867981, -0.16612593829631805, 0.11066395789384842, -0.14241518080234528, 0.20192305743694305, 0.11076879501342773, 0.014247575774788857, -0.011792318895459175], [0.2017630785703659, 0.03657670319080353, -0.1542099118232727, -0.1229122057557106, 0.16859035193920135, -0.13778069615364075, -0.040353380143642426, -0.12486988306045532, -0.06054701656103134, 0.0492466539144516, -0.11949960887432098, 0.012434661388397217, -0.019032763317227364, 0.17403770983219147, -0.15386950969696045, -0.024481376633048058, 0.09248249232769012, 0.007336380425840616, -0.002741378266364336, 0.15140007436275482, 0.17881794273853302], [-0.022601842880249023, -0.151825413107872, -0.15746945142745972, -0.06817613542079926, -0.10353056341409683, -0.00014975666999816895, -0.12270700931549072, -0.06654864549636841, -0.08313684165477753, -0.053500667214393616, 0.1347762793302536, -0.21580950915813446, 0.013397231698036194, -0.028248190879821777, -0.19075091183185577, 0.14579571783542633, -0.009609609842300415, -0.02246437966823578, 0.19852162897586823, 0.021999776363372803, 0.11383937299251556], [-0.18068896234035492, 0.1433655172586441, 0.11171026527881622, -0.1691790372133255, -0.1977342963218689, -0.14963296055793762, 0.1357131153345108, -0.06522728502750397, 0.130697563290596, -0.0777072012424469, 0.022092461585998535, 0.1082993894815445, -0.11631806939840317, -0.1082274466753006, 0.20145468413829803, 0.10099171102046967, 0.10725007951259613, 0.19966860115528107, -0.1006634533405304, 0.16343508660793304, -0.16889618337154388], [-0.1243516132235527, -0.020669803023338318, -0.11965423822402954, 0.11963887512683868, -0.1704113483428955, -0.1237841546535492, 0.1940862089395523, -0.06932441890239716, -0.07753077149391174, 0.18489421904087067, -0.21168643236160278, -0.07683296501636505, 0.09072132408618927, -0.13398054242134094, 0.03333906829357147, -0.1888841837644577, -0.19423699378967285, 0.12458501756191254, -0.06918659806251526, -0.2123970091342926, 0.2112962156534195], [0.1905578225851059, -0.19554565846920013, -0.060243964195251465, 0.12898613512516022, -0.022675305604934692, -0.09768898040056229, 0.033391520380973816, 0.19778697192668915, 0.13530908524990082, 0.09643526375293732, 0.1052660197019577, 0.025428682565689087, -0.15497414767742157, -0.0802641361951828, 0.09055612981319427, 0.023688167333602905, 0.11228318512439728, -0.19875961542129517, 0.06791989505290985, 0.0866977721452713, 0.16880543529987335], [-0.017988666892051697, -0.10610104352235794, -0.05949179828166962, -0.18036361038684845, 0.16265322268009186, -0.179550439119339, 0.012277483940124512, -0.08165188133716583, 0.1360722929239273, 0.06538186967372894, -0.16185513138771057, 0.16699133813381195, 0.12831063568592072, -0.09142579138278961, -0.15593074262142181, -0.2089320570230484, 0.12410329282283783, -0.10118195414543152, -0.13016773760318756, -0.09396791458129883, 0.21638934314250946], [0.06056760251522064, -0.07217715680599213, 0.12939821183681488, -0.15162479877471924, 0.1031612902879715, -0.18642649054527283, -0.1711374670267105, 0.03445221483707428, -0.17657046020030975, 0.049795910716056824, -0.025727033615112305, -0.17073498666286469, -0.2101183980703354, -0.14734119176864624, -0.08631637692451477, -0.2074522227048874, -0.05601617693901062, -0.052015677094459534, 0.015322014689445496, -0.05861163139343262, 0.0615549236536026], [0.1918836534023285, -0.05660805478692055, -0.09341452270746231, -0.18801045417785645, -0.07843676954507828, 0.16766850650310516, 0.056976523250341415, 0.136424258351326, -0.1993114948272705, 0.15395189821720123, -0.1496650129556656, 0.21455122530460358, 0.04629941284656525, -0.0510423481464386, -0.011241346597671509, 0.12328377366065979, -0.02644146978855133, -0.19706527888774872, 0.07574170082807541, -0.17527484893798828, 0.13054488599300385], [0.1295815110206604, 0.18106481432914734, 0.002607503207400441, -0.14347316324710846, 0.17261917889118195, -0.18492993712425232, -0.17871271073818207, 0.1465338170528412, 0.10723462700843811, -0.039177391678094864, -0.0632314682006836, -0.19056634604930878, -0.15569756925106049, -0.14550814032554626, 0.032386407256126404, -0.13810454308986664, -0.16446535289287567, 0.234132781624794, 0.13345986604690552, 0.17677469551563263, 0.1406945139169693], [0.16909052431583405, 0.053013041615486145, 0.004307195544242859, 0.08263279497623444, -0.16457368433475494, -0.21112284064292908, -0.04410499334335327, 0.1810450702905655, 0.044347867369651794, 0.06688998639583588, -0.033927932381629944, 0.18058069050312042, 0.07555536925792694, 0.214183047413826, -0.008110985159873962, -0.023831114172935486, 0.1035558432340622, 0.015898138284683228, 0.15972571074962616, 0.12866301834583282, 0.18642376363277435], [-0.1126394122838974, 0.10653655230998993, -0.18682774901390076, 0.12386693060398102, -0.08822603523731232, -0.05695350468158722, 0.21759550273418427, 0.05219517648220062, 0.057648345828056335, -0.20974943041801453, 0.20479880273342133, 0.07368294894695282, 0.2064192146062851, 0.1948981136083603, 0.0995946079492569, -0.11788848787546158, 0.05868314206600189, 0.21770192682743073, -0.1893751323223114, 0.024453148245811462, 0.025812149047851562], [-0.18805928528308868, -0.21087534725666046, -0.1399589478969574, -0.2159150093793869, 0.02187349647283554, -0.07735167443752289, 0.21473585069179535, 0.12230272591114044, 0.1872110217809677, -0.12820693850517273, -0.20313172042369843, -0.21511541306972504, 0.007698451168835163, -0.21389985084533691, -0.081321120262146, 0.1189083606004715, 0.20457111299037933, -0.13874974846839905, 0.09239025413990021, 0.06935526430606842, -0.1079961359500885], [-0.1012612134218216, 0.029907360672950745, 0.0823664516210556, -0.03975744545459747, 0.0921580046415329, 0.20482556521892548, 0.04886828362941742, -0.19812965393066406, 0.08774591982364655, -0.168131485581398, 0.03876931965351105, -0.04970940947532654, -0.04779413342475891, 0.07638446986675262, 0.15249378979206085, 0.0004589259624481201, 0.15101324021816254, 0.1186922937631607, 0.20689304172992706, -0.05387060344219208, -0.007732853293418884], [-0.1028757318854332, 0.15280552208423615, 0.17786453664302826, 0.02519914321601391, -0.1691337525844574, -0.16357040405273438, -0.12910306453704834, -0.1659088283777237, 0.2181067019701004, -0.16290800273418427, 0.0018509647343307734, -0.09815778583288193, -0.045029833912849426, 0.04185430705547333, 0.1677369922399521, 0.1550561487674713, -0.11817879229784012, -0.13362076878547668, 0.04650557041168213, -0.1968807727098465, 0.07229051738977432], [-0.12263942509889603, 0.034321025013923645, -0.12377866357564926, 0.006191059947013855, 0.019568786025047302, 0.0007486641407012939, -0.06448261439800262, 0.10751836001873016, -0.20184080302715302, 0.10956965386867523, 0.19839335978031158, -0.20599542558193207, 0.18522022664546967, 0.20720456540584564, -0.19994723796844482, 0.18684224784374237, -0.16509810090065002, -0.15503337979316711, -0.12827527523040771, -0.1654357612133026, -0.1168321743607521], [-0.013137832283973694, 0.21052928268909454, 0.02782362699508667, -0.13999833166599274, 0.08987079560756683, 0.21095936000347137, 0.21391050517559052, -0.05195087194442749, 0.101935014128685, -0.123723104596138, 0.032903894782066345, 0.20805762708187103, 0.16574181616306305, 0.21383021771907806, 0.13545827567577362, 0.10508139431476593, -0.15401628613471985, -0.10245391726493835, 0.1133289784193039, -0.049635618925094604, 0.05847339332103729], [0.08254937827587128, 0.1250741332769394, -0.216455340385437, -0.06920897960662842, 0.1490871161222458, 0.19323714077472687, 0.10630880296230316, 0.08995465934276581, -0.015395477414131165, 0.16950874030590057, 0.10236750543117523, 0.17688961327075958, -0.11907847970724106, 0.003782927989959717, -0.07368986308574677, -0.169693261384964, 0.07419545948505402, 0.015037134289741516, -0.10290894657373428, -0.039932772517204285, -0.14387792348861694], [0.2032119482755661, -0.12882140278816223, -0.17029860615730286, 0.039199694991111755, 0.00587087869644165, -0.1458664834499359, -0.029737010598182678, 0.1179581731557846, -0.0710151195526123, -0.19900061190128326, -0.11556016653776169, -0.17129015922546387, -0.08388714492321014, -0.061593279242515564, 0.08619911968708038, -0.08162152767181396, -0.03473640978336334, 0.16545163094997406, 0.049318358302116394, 0.006639003753662109, -0.04253515601158142], [0.07507126033306122, 0.05703474581241608, 0.044259920716285706, -0.15451577305793762, 0.08627961575984955, 0.04418481886386871, -0.11869373917579651, -0.07502993941307068, -0.1606084108352661, -0.13703900575637817, 0.10802324116230011, -0.07162480056285858, -0.03132602572441101, 0.014416053891181946, 0.1263268142938614, 0.010183826088905334, 0.047916099429130554, 0.1263190656900406, 0.20222674310207367, 0.10543133318424225, -0.11931481212377548], [-0.03514713793992996, 0.15018731355667114, 0.04372560232877731, 0.045824404805898666, 0.05257508158683777, -0.0695207417011261, -0.13172705471515656, 0.013125441037118435, -0.018875043839216232, 0.07158252596855164, -0.1811414659023285, 0.20978710055351257, -0.0598391555249691, 0.1391552984714508, -0.11814180016517639, 0.2004399448633194, 0.07881554961204529, -0.0011525241425260901, -0.061342574656009674, 0.2032172977924347, -0.0407528430223465], [-0.03432798385620117, 0.1102091521024704, 0.11769555509090424, 0.07300828397274017, 0.16982345283031464, 0.1394152194261551, -0.04794342815876007, -0.04942828416824341, -0.013255000114440918, -0.1468682587146759, 0.012683242559432983, -0.16196930408477783, 0.0079345703125, 0.14559192955493927, 0.05850975215435028, -0.14242768287658691, -0.10005855560302734, -0.13991796970367432, -0.0592585951089859, 0.1828869730234146, -0.008380800485610962], [-0.03533822298049927, -0.10602649301290512, 0.199820414185524, 0.07764478027820587, -0.16061358153820038, -0.0780269056558609, 0.11104916036128998, 0.1250680834054947, -0.14302857220172882, -0.07737290859222412, 0.17906729876995087, -0.19411619007587433, 0.1393118053674698, 0.1996222287416458, 0.2005375772714615, 0.056024327874183655, 0.030961856245994568, 0.08212952315807343, 0.15571896731853485, -0.19814693927764893, 0.09540165960788727], [0.025986533612012863, -0.06303709745407104, -0.08587750047445297, 0.17122024297714233, -0.16918356716632843, 0.18098387122154236, 0.17346301674842834, 0.04236240312457085, 0.05572151392698288, 0.030869420617818832, 0.13492392003536224, -0.08139535784721375, -0.030703173950314522, 0.17060087621212006, -0.0031993412412703037, -0.1883874386548996, 0.1490734964609146, -0.16074591875076294, 0.12529778480529785, -0.03221949562430382, -0.009943420998752117], [-0.1168261170387268, 0.15420754253864288, 0.048078492283821106, -0.02785886824131012, -0.21262359619140625, -0.030382946133613586, -0.15579591691493988, 0.13676495850086212, -0.04336924850940704, 0.17086084187030792, -0.005944937467575073, 0.010018065571784973, 0.14373145997524261, -0.12289384007453918, -0.15725937485694885, 0.08849970996379852, 0.12741072475910187, -0.15962094068527222, 0.17674066126346588, 0.07302232086658478, -0.12464544177055359], [0.1897522360086441, -0.1830831617116928, -0.0846051350235939, -0.027844341471791267, -0.13380134105682373, 0.11659487336874008, 0.08365954458713531, 0.17054146528244019, -0.049630057066679, 0.04265037551522255, -0.005157297011464834, 0.1790478527545929, -0.1750316023826599, 0.0878445953130722, 0.16828416287899017, 0.19644436240196228, -0.0236859992146492, 0.06585339456796646, -0.16645145416259766, -0.2286839485168457, -0.0031741324346512556], [0.1793295294046402, 0.07427982985973358, 0.11668528616428375, -0.09487451612949371, 0.08226470649242401, -0.18055596947669983, 0.0336637943983078, -0.08515369892120361, -0.09714542329311371, -0.14358174800872803, -0.040526121854782104, -0.01922418177127838, 0.04785020649433136, 0.13082696497440338, -0.19484837353229523, 0.12827737629413605, 0.16863946616649628, -0.05157695710659027, -0.008006468415260315, -0.028980374336242676, 0.0260021835565567], [-0.19053244590759277, 0.16745959222316742, 0.18487070500850677, -0.12399671226739883, -0.08563359081745148, -0.08969104290008545, -0.13793182373046875, 0.17087911069393158, -0.07972666621208191, -0.20574843883514404, 0.04506324231624603, 0.09114183485507965, -0.1564309298992157, -0.20203295350074768, 0.01943431794643402, 0.055882528424263, -0.09784173220396042, -0.09179127216339111, -0.15860861539840698, -0.06685732305049896, 0.12648262083530426], [0.20734582841396332, -0.06318539381027222, -0.0887531191110611, 0.029583647847175598, 0.19129396975040436, -0.21440458297729492, 0.18712516129016876, -0.0893939882516861, 0.10734112560749054, -0.08533933758735657, 0.2126408964395523, 0.03159110248088837, -0.16602885723114014, 0.08463545143604279, -0.18884685635566711, -0.1825776994228363, -0.19179832935333252, 0.04028995335102081, 0.001615568995475769, 0.0780087262392044, 0.09411002695560455], [0.17225514352321625, 0.03722958266735077, -0.14099881052970886, 0.21654318273067474, 0.12100546061992645, -0.09033128619194031, 0.1828933209180832, 0.08845256268978119, 0.1970198005437851, -0.20422668755054474, 0.0017813891172409058, -0.1508801281452179, 0.1920580118894577, 0.06908102333545685, -0.09893661737442017, -0.16719944775104523, 0.056214556097984314, 0.004054173827171326, 0.005223691463470459, -0.05951930582523346, 0.08083565533161163], [-0.0420876145362854, -0.01916038990020752, 0.13738183677196503, 0.08841417729854584, 0.1863795667886734, 0.17149241268634796, 0.05322475731372833, 0.026284068822860718, 0.16151906549930573, 0.009860917925834656, 0.17281387746334076, 0.09951160848140717, 0.04745088517665863, 0.2135068029165268, 0.09594292938709259, -0.059407591819763184, -0.03828081488609314, 0.08951206505298615, 0.2039804309606552, 0.21485231816768646, -0.11471144109964371], [0.2010582834482193, 0.21347667276859283, 0.06073950231075287, 0.17977117002010345, 0.1367044895887375, 0.029137343168258667, -0.21374017000198364, -0.09607056528329849, -0.03283397853374481, -0.005437985062599182, 0.17907004058361053, -0.1558057963848114, 0.14499260485172272, -0.19169999659061432, 0.14752419292926788, 0.045346543192863464, 0.19915874302387238, 0.03435136377811432, -0.045585811138153076, -0.00034627318382263184, -0.11403407901525497], [-0.0027981847524642944, 0.05235038697719574, 0.05290038883686066, -0.05547022819519043, -0.1289745420217514, 0.16423435509204865, -0.15903864800930023, -0.0699361115694046, -0.010778844356536865, -0.12127397209405899, 0.015691816806793213, -0.21130558848381042, -0.2173670083284378, -0.050617024302482605, -0.19591456651687622, 0.002938702702522278, 0.14883409440517426, 0.06919421255588531, -0.10302087664604187, 0.11659099161624908, 0.13191179931163788], [0.0030647290404886007, 0.20086358487606049, -0.029211895540356636, -0.18523821234703064, 0.04298846423625946, -0.03901559114456177, 0.10887275636196136, 0.07056699693202972, -0.20224186778068542, -0.19779300689697266, -0.08803975582122803, -0.1350666880607605, 0.10988537967205048, -0.030761107802391052, 0.07149554789066315, 0.11571614444255829, -0.01721273362636566, -0.05453771352767944, -0.19861388206481934, 0.14688585698604584, 0.024555981159210205], [-0.08489120006561279, -0.16111254692077637, -0.1595943719148636, -0.10735359787940979, -0.049531370401382446, -0.12930405139923096, -0.08055666089057922, 0.10493491590023041, 0.048115894198417664, 0.017775848507881165, -0.05467696487903595, -0.1339884102344513, -0.17642202973365784, -0.19453321397304535, -0.1937875598669052, 0.010821923613548279, -0.11523577570915222, 0.061419472098350525, 0.17124657332897186, -0.12726768851280212, 0.1413053423166275], [-0.12112798541784286, -0.14009270071983337, -0.21327462792396545, -0.04744438827037811, 0.007329925894737244, 0.187520369887352, -0.0502810925245285, 0.09167231619358063, -0.12534570693969727, -0.1634334921836853, -0.08083604276180267, -0.14695358276367188, -0.05984002351760864, 0.08573602139949799, 0.05807103216648102, -0.12758934497833252, 0.0793205052614212, 0.1945219188928604, -0.07120522856712341, -0.08342441916465759, 0.027006298303604126], [-0.014000073075294495, 0.08313746750354767, 0.12207843363285065, 0.18866713345050812, -0.0015333741903305054, -0.18125483393669128, 0.009098440408706665, 0.012599378824234009, 0.02711459994316101, -0.2125128209590912, -0.0692005455493927, 0.06495518982410431, 0.13898731768131256, 0.1103343814611435, 0.13355831801891327, -0.06453357636928558, -0.027727797627449036, 0.09586288034915924, 0.1441146582365036, -0.21820491552352905, -0.0995521992444992], [-0.01885765604674816, -0.15099743008613586, -0.04450354725122452, -0.09322051703929901, 0.1856299787759781, 0.1032143384218216, -0.06670483946800232, 0.15947045385837555, -0.20952028036117554, 0.11619503796100616, 0.21449783444404602, 0.13140331208705902, 0.023913513869047165, 0.18107615411281586, 0.1426897644996643, 0.05577553063631058, 0.10715310275554657, 0.03080495074391365, -0.014453153125941753, -0.1965237408876419, -0.1772613525390625], [-0.012738436460494995, 0.06118454039096832, 0.14758040010929108, -0.028400376439094543, 0.18599818646907806, -0.04531483352184296, -0.04986336827278137, 0.13324998319149017, -0.09484381973743439, 0.0032196789979934692, -0.0024617761373519897, -0.15932214260101318, 0.007842525839805603, -0.07705405354499817, -0.07217423617839813, 0.16321216523647308, 0.12612460553646088, -0.19569846987724304, -0.05061286687850952, -0.043653011322021484, 0.1473829597234726], [-0.04838880896568298, -0.08424311876296997, 0.11545644700527191, -0.09169822931289673, -0.10134068876504898, -0.016466692090034485, -0.14037758111953735, -0.18766461312770844, -0.1266002655029297, 0.10753534734249115, -0.13825127482414246, 0.19014932215213776, 0.07532848417758942, 0.11489085853099823, -0.130607008934021, -0.17495569586753845, -0.20957797765731812, 0.1840164214372635, 0.17619575560092926, 0.104190394282341, 0.13500536978244781], [-0.10265208780765533, -0.14464253187179565, 0.21254737675189972, 0.08528958261013031, -0.020311906933784485, -0.13916875422000885, 0.20843906700611115, -0.16773933172225952, 0.08310560882091522, 0.14940746128559113, -0.19930100440979004, 0.1073884516954422, 0.15354464948177338, -0.20462729036808014, -0.09252607822418213, -0.045610055327415466, -0.029578298330307007, 0.05493612587451935, 0.07298378646373749, 0.17288793623447418, 0.16132529079914093], [-0.08308904618024826, 0.04664931073784828, -0.14336568117141724, 0.18359926342964172, -0.19356940686702728, -0.01643991470336914, 0.18620368838310242, 0.14900557696819305, 0.043202903121709824, -0.14000296592712402, -0.20742729306221008, -0.10690643638372421, 0.04130537435412407, 0.08979363739490509, 0.12764890491962433, 0.05164138972759247, 0.03709910809993744, -0.1667356640100479, -0.02260788530111313, 0.1434924304485321, -0.06320599466562271], [-0.07325295358896255, 0.10362587124109268, 0.1431126743555069, -0.14436176419258118, 0.2132181078195572, -0.030022958293557167, -0.10647781938314438, 0.11446935683488846, 0.021020887419581413, 0.009974651969969273, -0.1450532227754593, 0.1789153665304184, -0.05513108894228935, -0.07145671546459198, 0.0544363409280777, -0.01399280596524477, 0.12167482823133469, -0.08596793562173843, 0.13057158887386322, 0.029100120067596436, -0.13352565467357635], [0.2068723887205124, -0.08105161786079407, -0.10317607969045639, -0.13671422004699707, -0.2125261127948761, -0.11976203322410583, -0.2060592919588089, -0.004854664206504822, -0.10912211239337921, 0.20834796130657196, -0.19219987094402313, -0.15290570259094238, -0.02831338346004486, -0.1708608865737915, -0.19148361682891846, 0.05159787833690643, 0.1049136370420456, 0.0761512964963913, 0.191518172621727, 0.06238837540149689, 0.13780821859836578], [0.19839687645435333, -0.06427153944969177, 0.10870043933391571, 0.02422511577606201, 0.020245060324668884, -0.13085618615150452, 0.058943942189216614, -0.16200366616249084, 0.16657088696956635, 0.10358287394046783, 0.05038900673389435, 0.1634424775838852, 0.029182836413383484, -0.18567967414855957, -0.02920059859752655, -0.19051949679851532, 0.2027442306280136, 0.026983410120010376, 0.006543248891830444, 0.15769703686237335, 0.10833053290843964], [0.14372099936008453, 0.06873925030231476, 0.1901446133852005, -0.0583890825510025, 0.047649458050727844, 0.12299762666225433, 0.1459754854440689, -0.15111412107944489, 0.15266217291355133, -0.053163886070251465, 0.17707009613513947, -0.01891125738620758, 0.13487564027309418, 0.16690678894519806, 0.11682407557964325, -0.07299819588661194, -0.1999114453792572, -0.05799382925033569, 0.029748141765594482, -0.14428451657295227, -0.129353329539299], [-0.06854069232940674, -0.02167518436908722, 0.03103339672088623, -0.0013869702816009521, -0.12643270194530487, 0.11066599190235138, -0.05062033236026764, -0.030750319361686707, 0.016809359192848206, -0.06310504674911499, -0.20889680087566376, -0.08510617911815643, 0.047394558787345886, -0.13523107767105103, 0.0511653870344162, -0.03580532968044281, 0.1593601554632187, -0.021005645394325256, -0.20490840077400208, 0.07510016858577728, 0.08785499632358551], [-0.05817413702607155, -0.18429620563983917, -0.14452312886714935, 0.08873501420021057, 0.05357279255986214, -0.010161683894693851, 0.07808755338191986, 0.039963219314813614, -0.14505355060100555, 0.2047913521528244, 0.1827448308467865, -0.039748262614011765, -0.09446731954813004, -0.14170482754707336, 0.11699730902910233, 0.07500042766332626, -0.003347583580762148, 0.08652600646018982, 0.16909845173358917, 0.011475061997771263, -0.06669950485229492], [-0.10396775603294373, 0.07514149695634842, 0.1785036325454712, -0.1502099186182022, 0.06990396976470947, 0.16166937351226807, 0.14604109525680542, -0.19456599652767181, -0.21460871398448944, -0.06483719497919083, -0.197662353515625, 0.10488671809434891, -0.07755322009325027, -0.11877512186765671, 0.07726792991161346, 0.11715663224458694, -0.07032264024019241, 0.19586947560310364, -0.040603019297122955, 0.16742385923862457, -0.06986424326896667], [-0.18848229944705963, -0.2056540846824646, -0.17558112740516663, 0.19276194274425507, -0.0338924378156662, 0.02335888147354126, 0.08182702958583832, 0.010085180401802063, 0.12304039299488068, 0.08175317943096161, 0.1912374347448349, 0.07056160271167755, -0.13921675086021423, 0.19566811621189117, -0.06627035140991211, 0.09389202296733856, -0.15746289491653442, 0.03046952188014984, -0.21144148707389832, -0.12357693165540695, -0.13749313354492188], [-0.2076171487569809, 0.10904426872730255, 0.008977130055427551, -0.012282446026802063, -0.05899694561958313, -0.2100951224565506, 0.004395514726638794, 0.10579030215740204, 0.01132868230342865, 0.022094309329986572, -0.03921225666999817, -0.014162272214889526, 0.014285057783126831, 0.009882301092147827, -0.02122652530670166, -0.03339911997318268, -0.21080268919467926, -0.1911274790763855, -0.06305865943431854, 0.012374386191368103, 0.17083369195461273], [-0.1800885945558548, -0.1796690970659256, 0.1803530603647232, -0.20181109011173248, 0.02107127010822296, -0.18784938752651215, -0.19181619584560394, 0.07349260151386261, 0.045851096510887146, -0.08215318620204926, 0.08616523444652557, -0.04350012540817261, -0.102637879550457, -0.17062141001224518, -0.04104113578796387, -0.18880797922611237, 0.13697077333927155, 0.2152688354253769, -0.15959946811199188, 0.1451139897108078, 0.010396435856819153]], "fc1.bias": [-0.11985152214765549, 0.051346614956855774, 0.053218498826026917, 0.10224376618862152, 0.13942426443099976, 0.13367776572704315, -0.004674360156059265, 0.20148764550685883, -0.18635249137878418, 0.032728925347328186, -0.2147129327058792, -0.12959372997283936, -0.07643178105354309, -0.08652566373348236, -0.1859329342842102, 0.00502765690907836, -0.06338892877101898, 0.03195915371179581, -0.12169601768255234, 0.19753408432006836, -0.09543266147375107, -0.1981768161058426, 0.16563235223293304, -0.12567138671875, -0.12252143025398254, -0.11609645932912827, 0.20001928508281708, 0.17545291781425476, -0.21405348181724548, 0.19300417602062225, -0.027982056140899658, -0.16027787327766418, 0.14900195598602295, -0.20023055374622345, 0.1596401184797287, 0.07566247135400772, -0.08916082978248596, 0.11374078691005707, 0.026377549394965172, -0.05332210659980774, 0.03268180787563324, 0.1342056542634964, -0.03472812473773956, -0.15140919387340546, 0.036883965134620667, -0.20950762927532196, -0.05796545743942261, -0.05673223361372948, 0.054376374930143356, -0.1305442601442337, -0.19121778011322021, -0.1069401428103447, 0.1229916363954544, -0.06015348434448242, 0.1374499648809433, 0.17950867116451263, -0.18950730562210083, 0.05494141951203346, -0.17906078696250916, 0.14228777587413788, -0.12278598546981812, -0.009946659207344055, -0.005441727582365274, -0.0926506370306015, 0.10677842795848846, 0.04713423550128937, -0.16524018347263336, 0.06220747530460358, -0.012217029929161072, -0.02976338565349579, -0.04630228877067566, -0.19110487401485443, 0.14162154495716095, -0.11631082743406296, 0.1261747032403946, -0.20726877450942993, 0.0633016973733902, -0.1290830671787262, -0.211381733417511, 0.1135278195142746, 0.058778271079063416, -0.010197252035140991, -0.2083752304315567, 0.10263656079769135, 0.09040908515453339, -0.12748470902442932, 0.004242166876792908, -0.1161060556769371, -0.15834540128707886, -0.1851513534784317, -0.057337064296007156, -0.014685139060020447, 0.033643171191215515, -0.03461813926696777, -0.0559113472700119, 0.08691195398569107, 0.158592090010643, 0.16301636397838593, -0.20982526242733002, 0.08841417729854584], "fc2.weight": [[-0.037896525114774704, 0.0515371635556221, 0.05404949560761452, 0.06832781434059143, 0.9209068417549133, 0.06660934537649155, 0.052528493106365204, 0.08097565919160843, -0.11227287352085114, 0.01953335851430893, -0.1094728410243988, -0.013383187353610992, 0.0468483492732048, -0.0495615117251873, -0.07363864779472351, 0.053541190922260284, -0.007461016997694969, 0.8510357737541199, -0.03768433257937431, 0.06619808822870255, -0.10135187208652496, 0.08586683869361877, -0.05454188957810402, 0.007310647051781416, -0.10735618323087692, 0.08919472247362137, -0.09686461836099625, 0.7418352365493774, -0.8881094455718994, -0.10969225317239761, 0.007073923945426941, -0.09830743074417114, 0.6204568147659302, -0.02023867331445217, 0.1480494737625122, -0.09281051158905029, -0.0983327105641365, 0.04838915169239044, 0.018260153010487556, -0.023428700864315033, -0.025545181706547737, -0.08287451416254044, -0.06982078403234482, -0.06615684181451797, -0.07392764091491699, -0.03532682731747627, 0.08461066335439682, -0.05835415795445442, -0.8770363330841064, -0.04998994991183281, 0.011666998267173767, -0.09386670589447021, 0.0010938048362731934, -0.09308594465255737, 0.0701439306139946, 0.09415770322084427, 0.07500345259904861, -0.84264075756073, -0.018688056617975235, 0.023481935262680054, -0.0836109071969986, 0.041866883635520935, -0.06669001281261444, -0.043446529656648636, 0.017044417560100555, 0.013950526714324951, -0.09382601827383041, -0.051891155540943146, 0.057612426578998566, 0.008515860885381699, 0.06310763955116272, 0.7573984861373901, -0.0016501694917678833, 0.18784624338150024, -0.08954449743032455, 0.07247448712587357, -0.0874805673956871, 0.034469880163669586, -0.0813688188791275, 0.022838858887553215, 0.07876191288232803, -0.05816519260406494, 0.06590308994054794, 0.01479128748178482, 0.08275483548641205, -0.06658115983009338, -0.038700032979249954, 0.08173035830259323, -0.10278546810150146, 0.6876497864723206, -0.7287900447845459, -0.0005561262369155884, 0.005287459585815668, -0.06553801894187927, -0.07550494372844696, -0.04417385905981064, -0.6494715213775635, -0.03765277937054634, -0.07708504050970078, -0.08617480099201202]], "fc2.bias": [0.05893494933843613]}