{"fc1.weight": [[0.20136849582195282, -0.09245705604553223, 0.05011669546365738, -0.24134650826454163, -0.06725206226110458, 0.17630110681056976, -0.0015091457171365619, -0.1234021857380867, 0.2178029716014862, 0.0066010416485369205, 0.19028949737548828, -0.24218560755252838, 0.12168585509061813, 0.15628893673419952, 0.08789564669132233, 0.14049586653709412, 0.008398618549108505], [-0.1621922105550766, 0.1370866745710373, 0.212964728474617, -0.23658397793769836, -0.18420404195785522, -0.2223082333803177, 0.20026113092899323, 0.23523908853530884, -0.237919420003891, -0.00899065937846899, -0.23381413519382477, -0.04328860342502594, -0.0716339573264122, 0.07725890725851059, -0.19996072351932526, 0.1342717558145523, -0.14765150845050812], [-0.22082708775997162, -0.1553938239812851, 0.14191892743110657, -0.12043408304452896, 0.020517289638519287, 0.0736662745475769, -0.049076952040195465, -0.1481185406446457, 0.0764719620347023, 0.13856595754623413, 0.217012420296669, -0.17102015018463135, -0.07670622318983078, 0.04728584364056587, -0.05385414883494377, 0.2156400978565216, 0.07358048856258392], [0.06365472823381424, -0.025606738403439522, 0.11543388664722443, 0.09052752703428268, -0.2265630066394806, 0.11449146270751953, 0.10809477418661118, -0.14944609999656677, -0.22723489999771118, 0.008391321636736393, 0.0534648671746254, -0.12478259205818176, -0.1686551421880722, -0.05904970318078995, 0.1531650871038437, 0.1595095545053482, 0.0032707422506064177], [-0.014939522370696068, 0.125998392701149, 0.21405206620693207, -0.20810887217521667, 0.09596587717533112, -0.1877765655517578, 0.03748849406838417, -0.14316383004188538, 0.0558902882039547, 0.11858600378036499, -0.031908296048641205, 0.06637563556432724, -0.14323151111602783, -0.05584278702735901, 0.23113282024860382, 0.13433122634887695, -0.10200867801904678], [0.0694165974855423, 0.0030453824438154697, 0.22033795714378357, -0.1334356665611267, -0.19118019938468933, 0.18746641278266907, -0.05126076191663742, 0.08779890090227127, -0.13543927669525146, 0.19746679067611694, -0.1763400137424469, 0.10561264306306839, 0.14806953072547913, 0.10602886974811554, -0.14530514180660248, 0.0010794192785397172, -0.050533294677734375], [0.19317573308944702, -0.01553063839673996, -0.23370599746704102, 0.07927500456571579, 0.2188849300146103, 0.20290976762771606, 0.23495042324066162, 0.1351843774318695, 0.0853930339217186, 0.14598628878593445, 0.2002677470445633, 0.1588708907365799, -0.1813337653875351, -0.149017795920372, 0.1437794268131256, -0.03506889566779137, 0.07803744077682495], [0.21876737475395203, -0.15238626301288605, -0.14650948345661163, 0.05622968450188637, 0.08491118252277374, 0.17489539086818695, 0.002126940991729498, -0.15357273817062378, -0.06616515666246414, -0.24210527539253235, 0.024615464732050896, -0.14469021558761597, -0.10148506611585617, -0.20229941606521606, 0.051429592072963715, -0.08497024327516556, 0.08818791806697845], [0.1683366894721985, 0.22975647449493408, -0.23987387120723724, -0.0020224160980433226, 0.2089344710111618, 0.12429040670394897, -0.05398134887218475, 0.022745564579963684, -0.027990838512778282, -0.050383295863866806, -0.1369912475347519, -0.05396570637822151, -0.08922650665044785, -0.09805934131145477, 0.13182200491428375, 0.15679144859313965, -0.13011546432971954], [-0.0033641427289694548, -0.1679532825946808, 0.11875146627426147, -0.1526372879743576, -0.17604371905326843, 0.18500393629074097, 0.031241400167346, -0.032243162393569946, -0.12838517129421234, 0.08734263479709625, 0.018572434782981873, -0.07627854496240616, 0.18967944383621216, -0.22508969902992249, -0.21413345634937286, -0.15616971254348755, -0.16540615260601044], [0.13596351444721222, 0.12497895956039429, 0.01436482835561037, 0.1756371259689331, 0.1615123599767685, -0.08107252418994904, -0.2119593769311905, -0.1890256404876709, 0.04547930136322975, -0.13065651059150696, 0.22807694971561432, 0.16198574006557465, 0.13912585377693176, -0.22471921145915985, -0.23158307373523712, 0.16187243163585663, 0.12582644820213318], [0.008454940281808376, -0.059248216450214386, 0.062200065702199936, -0.010340988636016846, -0.19236595928668976, -0.19018933176994324, -0.0745469480752945, 0.15963530540466309, 0.029714416712522507, 0.08247081935405731, -0.17030376195907593, 0.203624427318573, 0.14199775457382202, 0.22742031514644623, -0.21059930324554443, 0.077090784907341, -0.17436879873275757], [-0.06289339065551758, -0.20256052911281586, -0.040905144065618515, -0.2294493317604065, -0.21599341928958893, -0.21502313017845154, -0.17941012978553772, -0.2158714085817337, -0.02779138833284378, 0.1382889747619629, -0.19651079177856445, 0.18452969193458557, -0.13516829907894135, 0.034832101315259933, -0.0052333069033920765, -0.11768078058958054, 0.19623592495918274], [-0.1210923120379448, 0.1391572207212448, -0.01315614115446806, 0.1228506863117218, 0.13294722139835358, 0.04695123806595802, 0.07245304435491562, -0.1222146674990654, 0.04008035734295845, 0.2244393527507782, 0.08999688923358917, -0.057630300521850586, 0.1434335708618164, 0.033633388578891754, -0.18035483360290527, 0.11490391194820404, -0.07507853209972382], [-0.22144627571105957, -0.17418086528778076, 0.11249523609876633, -0.05749280005693436, 0.17099058628082275, 0.06436558067798615, 0.07401502132415771, -0.07767113298177719, 0.16786636412143707, -0.1351071000099182, -0.21634146571159363, 0.1864386796951294, 0.039379484951496124, -0.1093510314822197, -0.136015847325325, -0.14908424019813538, -0.10522802174091339], [0.11932124942541122, 0.18338464200496674, 0.015231220051646233, 0.2244812697172165, -0.052579231560230255, 0.1556878238916397, -0.1939210444688797, 0.23807939887046814, -0.0298322644084692, 0.1229887381196022, -0.17941509187221527, 0.017489632591605186, -0.22628071904182434, -0.11551962792873383, -0.022672776132822037, 0.1915358155965805, -0.0539686493575573], [0.2056639939546585, -0.14231394231319427, -0.17649242281913757, 0.1825961470603943, -0.25241541862487793, -0.17524665594100952, 0.036157846450805664, -0.11930497735738754, 0.09908445179462433, 0.05387599766254425, -0.014592857100069523, -0.013175979256629944, -0.1405075639486313, 0.009679843671619892, -0.051424790173769, 0.18998068571090698, -0.09345662593841553], [-0.10982999950647354, 0.05450911074876785, -0.16105614602565765, 0.1853555142879486, -0.18252143263816833, 0.1469353437423706, 0.16135773062705994, 0.1856602281332016, 0.22814971208572388, -0.23566123843193054, 0.1793672740459442, 0.014195458963513374, -0.08907666057348251, -0.005532927345484495, 0.10956917703151703, -0.040760841220617294, 0.08304672688245773], [0.10966785997152328, -0.15145009756088257, 0.006621512584388256, -0.02731391042470932, 0.12757712602615356, -0.07663770020008087, 0.008003337308764458, -0.20273862779140472, 0.10427229851484299, -0.22845661640167236, -0.20411129295825958, 0.11974428594112396, -0.05139326676726341, 0.19011859595775604, -0.06597202271223068, -0.09899161010980606, -0.18895171582698822], [0.24350066483020782, 0.1446365863084793, -0.11556217074394226, 0.23219458758831024, -0.07797442376613617, 0.04796849563717842, 0.07190191745758057, 0.22264616191387177, -0.17823639512062073, -0.08302125334739685, 0.2039177268743515, -0.1323278248310089, -0.1997605711221695, 0.03294266015291214, 0.010742074809968472, -0.004533032421022654, 0.2041565179824829], [-0.19211775064468384, -0.15631239116191864, 0.0003400109999347478, 0.07424397021532059, 0.08939435333013535, -0.14119425415992737, 0.21131466329097748, -0.17706964910030365, -0.14484933018684387, -0.08491687476634979, -0.08900470286607742, -0.1439414620399475, 0.03852174058556557, 0.13886289298534393, -0.0506213903427124, -0.01704530604183674, -0.0886889174580574], [0.20364533364772797, 0.04888166859745979, 0.1602514535188675, -0.006742857396602631, -0.010343764908611774, -0.053525131195783615, 0.11081652343273163, -0.011494915932416916, -0.22563575208187103, -0.19873006641864777, -0.037442583590745926, -0.08912543952465057, 0.0011112230131402612, -0.18472276628017426, -0.16144965589046478, 0.15362393856048584, 0.2258879840373993], [-0.011738301254808903, 0.1753121018409729, -0.02724575065076351, 0.18134057521820068, 0.08531511574983597, 0.21340981125831604, -0.03014075942337513, 0.06595657765865326, -0.12650439143180847, -0.2299884408712387, -0.21933415532112122, -0.12194635719060898, -0.009510968811810017, -0.02596810832619667, -0.17689818143844604, -0.00600281311199069, -0.1840331107378006], [-0.2287866175174713, 0.012097119353711605, -0.07038625329732895, 0.07398571819067001, -0.01463132444769144, 0.14597371220588684, 0.01708737574517727, 0.03315243870019913, 0.06193028762936592, -0.1796969324350357, 0.18196383118629456, 0.08852527290582657, -0.1170201525092125, -0.04426833242177963, -0.1162542924284935, 0.07320597022771835, 0.09208948910236359], [0.022345056757330894, 0.07798907160758972, 0.033365365117788315, -0.09711401164531708, -0.21839137375354767, -0.058306507766246796, -0.0469844788312912, -0.07950145751237869, 0.10018520057201385, -0.11146274209022522, 0.16019253432750702, -0.14808760583400726, 0.1352720409631729, -0.17181330919265747, -0.20751452445983887, 0.21135763823986053, -0.05553729832172394], [0.22589869797229767, -0.10093578696250916, -0.09053105115890503, -0.05179593339562416, -0.12839937210083008, 0.1432424634695053, -0.09894513338804245, -0.16527818143367767, 0.23680241405963898, -0.16388261318206787, 0.10325026512145996, -0.05799257382750511, 0.05936996638774872, 0.043698783963918686, -0.0967174544930458, 0.23929105699062347, -0.020619498565793037], [0.15512557327747345, 0.08193767815828323, 0.1945454329252243, -0.09128429740667343, -0.19013886153697968, -0.23130390048027039, -0.17386484146118164, 0.040474843233823776, 0.12794366478919983, 0.027282238006591797, -0.1084064245223999, -0.08252814412117004, 0.08114083111286163, -0.06216360628604889, -0.14768560230731964, -0.030229369178414345, 0.007885479368269444], [-0.025093484669923782, -0.19758808612823486, -0.01519686821848154, 0.1515006273984909, -0.04445752501487732, -0.22736148536205292, 0.24258914589881897, -0.14791209995746613, -0.22546784579753876, 0.1327895075082779, -0.1674511432647705, -0.046318743377923965, 0.18140551447868347, 0.05866236612200737, 0.15036261081695557, 0.03773094713687897, 0.06553323566913605], [0.2223208248615265, -0.10948296636343002, -0.0036741564981639385, 0.13027074933052063, 0.005866885185241699, 0.24203094840049744, 0.050373055040836334, -0.20643119513988495, 0.0510973185300827, -0.10499825328588486, 0.13616502285003662, -0.23927274346351624, -0.18682469427585602, 0.0014126701280474663, 0.19998911023139954, -0.1566597819328308, 0.11828149855136871], [0.13152377307415009, -0.18194913864135742, -0.06196451559662819, 0.008973109535872936, 0.17853282392024994, -0.14992666244506836, -0.09386806935071945, 0.18290509283542633, -0.09663112461566925, 0.11688227951526642, 0.07813345640897751, -0.22555048763751984, -0.19810977578163147, 0.10912178456783295, -0.10226749628782272, -0.2312406599521637, 0.019537130370736122], [0.08897121995687485, -0.19192226231098175, 0.21910600364208221, 0.1430654078722, 0.0584857352077961, 0.008233354426920414, 0.1417156606912613, 0.23507660627365112, -0.0028982756193727255, 0.03580090031027794, 0.15906989574432373, 0.10272315889596939, -0.20541375875473022, -0.07689625769853592, -0.09763774275779724, 0.13452008366584778, 0.12009361386299133], [-0.13690906763076782, -0.18575675785541534, -0.15959613025188446, -0.1189679354429245, -0.061480145901441574, -0.1380515694618225, 0.1297684907913208, -0.05365963280200958, -0.059107065200805664, 0.035900041460990906, 0.03220412880182266, -0.09824328124523163, -0.13837392628192902, -0.1672230362892151, -0.014130550436675549, -0.05215863883495331, 0.09873421490192413], [0.14275355637073517, 0.10833701491355896, -0.10397885739803314, -0.03889638930559158, -0.13775348663330078, -0.007721458561718464, 0.21711121499538422, -0.19042621552944183, -0.24031458795070648, 0.08945038914680481, -0.1890188753604889, 0.07563894242048264, 0.057075440883636475, -0.12474343925714493, -0.11506223678588867, 0.11011304706335068, -0.13742142915725708], [0.22124488651752472, 0.21651315689086914, -0.17012444138526917, -0.038308482617139816, -0.01946493610739708, 0.21890078485012054, 0.1918007731437683, 0.14702783524990082, 0.07096274942159653, 0.1706893891096115, 0.21138116717338562, -0.06649091094732285, -0.0840691328048706, 0.1109088659286499, 0.1509886384010315, -0.1819423884153366, 0.22153238952159882], [-0.05460483953356743, -0.22058990597724915, 0.0887775644659996, 0.18274018168449402, 0.029686342924833298, -0.08489877730607986, 0.23514050245285034, 0.15562614798545837, -0.22427089512348175, 0.0379609540104866, -0.13388186693191528, -0.12362781912088394, 0.08341559767723083, -0.13601858913898468, -0.16982205212116241, -0.1267133355140686, -0.17186687886714935], [-0.06329573690891266, 0.1273108720779419, -0.07384177297353745, 0.21759599447250366, -0.08350782841444016, -0.15696494281291962, -0.12681280076503754, -0.015255969017744064, 0.1485368013381958, 0.03707224130630493, -0.2029537409543991, 0.20366089046001434, -0.1652374416589737, 0.009025904349982738, -0.10347636044025421, 0.1385316103696823, 0.15731510519981384], [-0.019403694197535515, 0.16387975215911865, 0.2522277534008026, -0.2157505303621292, 0.14847780764102936, 0.18087553977966309, -0.19903428852558136, -0.15609273314476013, -0.005390848033130169, -0.21109417080879211, -0.1459529846906662, 0.12285154312849045, 0.15476366877555847, 0.07207553833723068, -0.11778327822685242, -0.10741918534040451, 0.1203351691365242], [0.07591401785612106, 0.22379155457019806, 0.05965781956911087, -0.01810413971543312, -0.04516996815800667, -0.03537927195429802, -0.22401629388332367, -0.10808376967906952, -0.18007363379001617, 0.02184206247329712, 0.12496447563171387, 0.160339817404747, -0.07810899615287781, -0.2235824018716812, -0.036031998693943024, -0.19560681283473969, -0.009222942404448986], [-0.04259328544139862, 0.02944064326584339, 0.05523053556680679, 0.08300816267728806, -0.20390291512012482, -0.16832385957241058, -0.2112760990858078, -0.1640375256538391, 0.10078977793455124, -0.23528005182743073, 0.05691199749708176, 0.017840370535850525, -0.15393789112567902, -0.1963450163602829, 0.16067273914813995, -0.18347999453544617, -0.10722000896930695], [0.12310488522052765, 0.19420196115970612, -0.0896257683634758, 0.12734423577785492, 0.0755009725689888, -0.05321420729160309, 0.23975978791713715, 0.0009183188085444272, 0.16155269742012024, -0.19249077141284943, -0.06226060912013054, 0.10032755881547928, 0.00394343351945281, 0.04439311847090721, -0.11303535103797913, -0.12036475539207458, 0.19058465957641602], [-0.22560319304466248, -0.019328700378537178, 0.23274561762809753, 0.22149090468883514, 0.1527545303106308, -0.13950853049755096, 0.20624849200248718, 0.008781014941632748, -0.1829809844493866, -0.028956213966012, 0.24212229251861572, -0.09871016442775726, 0.10224810242652893, 0.18822169303894043, -0.11330001801252365, -0.014163857325911522, 0.031958431005477905], [0.2078588604927063, 0.24006406962871552, 0.08347102254629135, 0.22195157408714294, 0.2354697287082672, 0.10234544426202774, 0.0003906656929757446, 0.09183164685964584, -0.18122200667858124, -0.08659293502569199, -0.17949576675891876, -0.12877164781093597, 0.05707613378763199, 0.017572352662682533, 0.13334253430366516, 0.009831955656409264, -0.11469420790672302], [-0.07025815546512604, 0.18421627581119537, 0.042263973504304886, 0.016539394855499268, 0.12843091785907745, 0.14774194359779358, 0.07496076822280884, -0.09218385815620422, -0.1559150218963623, -0.12795105576515198, 0.03810146823525429, -0.09506085515022278, -0.04768185690045357, 0.08340206742286682, -0.21390625834465027, -0.18281994760036469, -0.1494738906621933], [0.1738658845424652, 0.0499347485601902, 0.15364986658096313, 0.17746712267398834, 0.03466128557920456, -0.1671459674835205, -0.23437388241291046, 0.005582049489021301, -0.11589694023132324, 0.012041362002491951, -0.007491315249353647, -0.007904648780822754, 0.18488721549510956, 0.0943993404507637, 0.05828135460615158, 0.04302966222167015, -0.0018114259000867605], [0.17001453042030334, 0.012936262413859367, 0.05387749522924423, 0.10216925293207169, 0.03984549641609192, -0.11690394580364227, -0.09061320126056671, 0.09180280566215515, 0.23354484140872955, 0.23368871212005615, -0.16798926889896393, 0.04927439987659454, 0.02095869742333889, 0.16769154369831085, -0.16759701073169708, -0.04157746583223343, -0.14547452330589294], [0.09439067542552948, 0.14835114777088165, 0.02414785698056221, 0.021434735506772995, 0.04154333844780922, 0.1759793758392334, -0.22673667967319489, -0.19774897396564484, -0.22222834825515747, 0.0997176468372345, -0.02712029218673706, 0.05517386272549629, 0.23679372668266296, -0.09966547042131424, -0.051771409809589386, 0.14147886633872986, 0.1465870887041092], [-0.1962888389825821, 0.12021459639072418, -0.2278747260570526, 0.11420764774084091, 0.203983336687088, -0.1625714898109436, -0.12362746894359589, -0.12203940749168396, 0.18626458942890167, 0.09870472550392151, -0.0806800127029419, 0.18169263005256653, -0.031568966805934906, 0.1505005955696106, 0.21833786368370056, 0.18763095140457153, -0.20656448602676392], [0.21912258863449097, 0.050868190824985504, -0.09410948306322098, -0.19020810723304749, -0.16374781727790833, -0.1853543072938919, 0.09792754799127579, 0.1153176948428154, -0.16684824228286743, 0.017130715772509575, 0.11222010105848312, 0.08611395955085754, -0.1387149542570114, -0.184821218252182, 0.0844169408082962, 0.1909451186656952, 0.10214836895465851], [-0.05816960707306862, -0.026082023978233337, -0.15448607504367828, 0.05053132772445679, 0.09308326989412308, -0.011502057313919067, 0.2370758205652237, 0.21042777597904205, -0.1210130900144577, 0.1358502358198166, 0.046871352940797806, -0.13389748334884644, 0.13974148035049438, -0.15049059689044952, 0.13506676256656647, 0.09986258298158646, -0.15117250382900238], [-0.026661690324544907, -0.1834261268377304, 0.08948291093111038, -0.0819849744439125, -0.09017620235681534, -0.021180428564548492, 0.008506490848958492, 0.021640600636601448, 0.17166587710380554, 0.023599538952112198, 0.1768285036087036, -0.1430962234735489, 0.15006650984287262, 0.026814665645360947, -0.07426366209983826, 0.14172236621379852, 0.059801891446113586], [0.16132722795009613, -0.0714104026556015, -0.06733234971761703, -0.22449928522109985, 0.2334280163049698, -0.08672298491001129, 0.16226400434970856, -0.037797048687934875, 0.12134957313537598, -0.1762731522321701, -0.07744502276182175, -0.24008652567863464, -0.04308216646313667, -0.04173189774155617, 0.15991225838661194, -0.2258797138929367, -0.0010290825739502907], [0.08776753395795822, 0.01602695696055889, 0.2204328179359436, 0.18859079480171204, -0.03431911766529083, 0.22464558482170105, -0.16543671488761902, -0.04080652445554733, -0.21456246078014374, 0.18600697815418243, -0.199136421084404, 0.22113551199436188, -0.20763221383094788, -0.20770572125911713, 0.17943236231803894, 0.020431607961654663, -0.0338425412774086], [0.027389243245124817, 0.06334798038005829, -0.14699687063694, 0.12691369652748108, 0.04037806764245033, -0.10847339034080505, 0.12771674990653992, 0.16447637975215912, 0.009429609403014183, 0.0866866409778595, 0.10818756371736526, 0.06163974106311798, 0.13987025618553162, -0.2102527618408203, -0.20644065737724304, 0.17067942023277283, 0.06560948491096497], [0.04826352000236511, -0.01877155527472496, -0.2332194596529007, 0.21400876343250275, 0.1925041377544403, 0.03326943889260292, 0.06354640424251556, 0.02755381353199482, -0.15983757376670837, -0.14931721985340118, 0.058923617005348206, -0.22171342372894287, -0.04185815900564194, 0.1599874645471573, 0.18974798917770386, 0.20200790464878082, -0.22826772928237915], [-0.11767861247062683, 0.21671120822429657, -0.08693927526473999, -0.11242668330669403, 0.1561511754989624, -0.09071528166532516, 0.004276852589100599, -0.1606854349374771, -0.04148249700665474, 0.07593853771686554, 0.10162167996168137, 0.2184576392173767, 0.18486987054347992, -0.0038573320489376783, -0.06430555880069733, 0.14533552527427673, 0.16649428009986877], [-0.00015068752691149712, -0.16813169419765472, -0.06689637899398804, -0.1915937215089798, -0.08332327753305435, -0.15265591442584991, 0.04732847213745117, -0.1040886864066124, 0.1358107328414917, 0.04117955267429352, 0.10012543201446533, -0.0218772254884243, 0.1559273600578308, 0.07906323671340942, -0.23559634387493134, 0.1378210484981537, 0.06916382163763046], [0.2401505410671234, -0.12001306563615799, -0.09788233786821365, -0.0021652281284332275, -0.13954336941242218, 0.16329972445964813, -0.06533363461494446, 0.19974009692668915, -0.021073972806334496, 0.197768434882164, 0.03838293254375458, -0.11286407709121704, -0.10279136151075363, 0.15758369863033295, -0.12192080169916153, 0.0019214957719668746, -0.1788959503173828], [0.23248958587646484, -0.1255820393562317, 0.14328645169734955, 0.1847374141216278, 0.05046369507908821, 0.154558002948761, 0.061803750693798065, 0.22735440731048584, 0.048429906368255615, -0.2269299030303955, -0.0724223256111145, 0.18611076474189758, -0.10917556285858154, -0.00929652526974678, -0.14147010445594788, -0.07295522838830948, -0.2188003659248352], [0.11696126312017441, -0.11436573415994644, -0.07621432840824127, 0.04350307583808899, 0.07810315489768982, -0.2199535071849823, 0.06043915078043938, 0.12267544120550156, -0.18684467673301697, -0.1089523583650589, 0.012105981819331646, 0.17109884321689606, -0.1841537058353424, -0.1876600980758667, -0.13231094181537628, 0.1010604277253151, 0.15244977176189423], [0.24086543917655945, -0.17248326539993286, 0.1990189552307129, 0.07396259903907776, -0.14211970567703247, -0.09048273414373398, -0.1474720686674118, 0.20093871653079987, 0.2397138774394989, 0.22737367451190948, -0.1669318974018097, 0.052041977643966675, 0.22991782426834106, 0.22675999999046326, -0.1253463476896286, -0.08807206898927689, -0.2421596646308899], [-0.21055950224399567, 0.163199782371521, -0.002519955625757575, -0.11430279165506363, -0.05941368266940117, 0.039512284100055695, -0.23224152624607086, -0.19519619643688202, -0.10677278786897659, -0.013716233894228935, 0.09844445437192917, 0.14889679849147797, -0.07209363579750061, -0.0778011605143547, 0.048174094408750534, 0.13466612994670868, -0.01306249387562275], [0.13131563365459442, 0.18545159697532654, 0.06405321508646011, -0.13320575654506683, 0.11012227088212967, -0.2186257392168045, -0.04464688524603844, 0.22910669445991516, -0.064261294901371, -0.22394156455993652, 0.043425995856523514, -0.12235914170742035, -0.0805114209651947, 0.22431734204292297, 0.21256567537784576, 0.10194619745016098, -0.1797989159822464], [0.20523743331432343, 0.09905873239040375, -0.2204737365245819, -0.1335887312889099, -0.06554955244064331, -0.16375787556171417, 0.14030270278453827, -0.16118235886096954, -0.14804333448410034, -0.030775995925068855, -0.2209058552980423, -0.18732032179832458, 0.16485802829265594, 0.015811292454600334, -0.21626587212085724, -0.08105318248271942, -0.11360140144824982], [0.05566529184579849, -0.05535136163234711, 0.10086338967084885, 0.03154440224170685, 0.042907074093818665, 0.21536681056022644, 0.23444321751594543, 0.060340385884046555, 0.009676290675997734, -0.09682498127222061, -0.13858501613140106, 0.19695790112018585, 0.1272551566362381, -0.1430457979440689, 0.035645440220832825, -0.15586228668689728, -0.19802144169807434], [0.03321259841322899, 0.0395503044128418, 0.14302900433540344, 0.21950817108154297, 0.2309974581003189, 0.0578603595495224, 0.2192138135433197, -0.032690927386283875, 0.01640414260327816, -0.20769988000392914, 0.06793414056301117, -0.09598168730735779, 0.17234978079795837, 0.03456908464431763, -0.06431527435779572, -0.2370622754096985, -0.23847633600234985], [0.05139034613966942, -0.1071930006146431, -0.23917992413043976, -0.2201683670282364, 0.029959188774228096, 0.2368486523628235, -0.17636635899543762, 0.10738154500722885, -0.141803577542305, -0.2225251942873001, 0.08852327615022659, -0.14286646246910095, -0.17494985461235046, -0.0610511414706707, 0.005479236599057913, 0.026981346309185028, 0.093739815056324], [-0.218733549118042, -0.2086530476808548, 0.20170776546001434, 0.05043395236134529, -0.215030699968338, -0.210178405046463, 0.1807004064321518, -0.11594494432210922, -0.23726846277713776, 0.1876690536737442, 0.19595614075660706, 0.1252008080482483, -0.14953739941120148, 0.142173632979393, 0.02843381278216839, 0.014399006962776184, -0.06227218732237816], [-0.17520445585250854, 0.07650889456272125, 0.11615891754627228, 0.20919375121593475, -0.1697595715522766, 0.10226853936910629, -0.1273128092288971, 0.23915372788906097, 0.052512701600790024, -0.08462011814117432, -0.03756462037563324, -0.14832039177417755, -0.004168141633272171, -0.2357071191072464, -0.14624835550785065, 0.10081114619970322, -0.044332921504974365], [-0.04114332050085068, 0.18683908879756927, -0.04186562821269035, 0.17262540757656097, -0.2346380650997162, -0.1714347004890442, 0.11371500045061111, -0.14621540904045105, 0.04459266737103462, -0.053836092352867126, 0.08229800313711166, 0.13173165917396545, -0.1936381459236145, 0.22094932198524475, 0.20986546576023102, -0.2399345338344574, -0.10329292714595795], [0.260555624961853, -0.06488195806741714, -0.07003258913755417, 0.0037608440034091473, -0.11561513692140579, 0.23528754711151123, -0.19841527938842773, 0.03124280832707882, 0.19723379611968994, 0.2048993706703186, -0.20987719297409058, -0.05240669846534729, 0.19773048162460327, 0.06334929168224335, 0.11741186678409576, -0.08445603400468826, -0.16187463700771332], [0.033259838819503784, -0.09827876091003418, -0.1299135982990265, -0.04813650622963905, 0.002271452685818076, 0.06824775040149689, 0.018385950475931168, 0.13183972239494324, -0.13074971735477448, -0.23700861632823944, -0.12660907208919525, -0.056593671441078186, -0.22791586816310883, 0.19228872656822205, -0.09075980633497238, 0.08870594948530197, 0.22400245070457458], [0.21792688965797424, 0.0278996080160141, -0.1338685154914856, 0.20556208491325378, 0.001869366504251957, 0.006784982979297638, 0.04144936427474022, 0.11338187009096146, -0.03239819034934044, -0.2267395406961441, 0.10737364739179611, 0.11480213701725006, -0.09190826863050461, -0.08863681554794312, 0.03614805266261101, -0.006174437701702118, -0.23979729413986206], [-0.118751659989357, 0.03156518191099167, 0.0974142998456955, 0.012367192655801773, 0.2074100822210312, -0.2303176075220108, 0.12151405960321426, -0.11746163666248322, -0.014114568009972572, 0.0993538647890091, -0.09956296533346176, 0.17541423439979553, -0.1194448471069336, -0.19671876728534698, 0.05363462120294571, -0.052421893924474716, 0.14906735718250275], [0.048665113747119904, 0.15419866144657135, 0.20784848928451538, -0.23432274162769318, -0.04623279348015785, -0.21324902772903442, 0.18764841556549072, -0.21065154671669006, -0.1416998654603958, 0.03672034665942192, -0.16143296658992767, 0.17422929406166077, 0.2375349998474121, 0.09791454672813416, 0.07071121037006378, 0.06733333319425583, -0.10669171810150146], [0.18916629254817963, -0.14342646300792694, -0.03407861292362213, -0.11399750411510468, 0.04926825687289238, -0.17607630789279938, 0.10412833839654922, -0.2022889256477356, 0.2063753306865692, -0.02306240238249302, 0.1484835147857666, -0.01672949455678463, 0.06823878735303879, -0.06635432690382004, -0.08578688651323318, 0.13790452480316162, -0.11906155198812485], [-0.14933422207832336, -0.13053351640701294, 0.1177600547671318, 0.1948728710412979, 0.1668892651796341, -0.09580269455909729, 0.11659599095582962, 0.1636567860841751, -0.10825527459383011, -0.11475104093551636, 0.23651662468910217, 0.12227469682693481, -0.009631472639739513, 0.20370467007160187, -0.21080586314201355, -0.2005084604024887, -0.04666508361697197], [-0.20610743761062622, 0.20614710450172424, 0.10267921537160873, 0.10152921825647354, 0.04205363616347313, -0.2096269577741623, 0.21960777044296265, -0.05451171100139618, 0.07388632744550705, 0.1758827120065689, -0.24192316830158234, -0.13876093924045563, 0.2216891646385193, -0.23477226495742798, -0.11652214080095291, 0.2245064526796341, -0.016331225633621216], [0.16506528854370117, 0.15625545382499695, -0.15660536289215088, 0.0992213785648346, -0.15814237296581268, 0.2016741931438446, -0.2160022258758545, 0.04899059236049652, -0.22769001126289368, -0.22550490498542786, -0.019161494448781013, 0.21701474487781525, 0.17677541077136993, -0.15980155766010284, 0.1470828503370285, 0.003775449236854911, -0.14721666276454926], [0.05496397241950035, -0.1384025663137436, -0.16508233547210693, -0.017642522230744362, 0.18098756670951843, -0.06294828653335571, 0.1807197481393814, 0.17597700655460358, -0.18159900605678558, 0.08059045672416687, 0.1374208629131317, -0.12826935946941376, -0.22083072364330292, -0.03055393509566784, 0.1314026415348053, 0.12391305714845657, 0.10142241418361664], [-0.1602991372346878, 0.14327441155910492, -0.20077967643737793, 0.02872493490576744, 0.1352100819349289, 0.021648652851581573, 0.1800934076309204, -0.16078267991542816, -0.06689932197332382, 0.19094440340995789, 0.02237388677895069, 0.009207060560584068, 0.04661012440919876, 0.1895272135734558, 0.01040259376168251, -0.05132545158267021, 0.03919755294919014], [-0.21586523950099945, 0.09964365512132645, 0.022560911253094673, 0.23801134526729584, 0.17831026017665863, -0.18189218640327454, -0.06596211344003677, -0.02059486135840416, -0.1851220577955246, 0.014991776086390018, 0.010675511322915554, 0.20027828216552734, 0.15522779524326324, -0.20994265377521515, 0.05746989697217941, 0.02170451730489731, 0.1268407106399536], [-0.2076423317193985, -0.00040958114550448954, 0.053551699966192245, 0.17530491948127747, -0.1579505205154419, 0.09279096126556396, 0.015940900892019272, -0.22986307740211487, 0.01796751469373703, -0.08517654240131378, -0.09094380587339401, 0.08377867937088013, 0.024782933294773102, -0.15748921036720276, 0.07497178763151169, 0.21384304761886597, 0.08119180798530579], [0.20675700902938843, 0.16535107791423798, 0.09116370975971222, -0.020556440576910973, 0.13049311935901642, 0.12459930777549744, 0.05199771374464035, 0.21451643109321594, -0.031362660229206085, -0.18380451202392578, -0.2274729311466217, -0.07005874067544937, 0.20231929421424866, 0.16871339082717896, -0.16422398388385773, 0.051148753613233566, -0.08124200999736786], [0.007310612127184868, -0.09167193621397018, -0.03469473868608475, -0.10330533981323242, -0.17170797288417816, -0.19067198038101196, 0.1690891683101654, -0.20346000790596008, -0.0248141810297966, 0.08979467302560806, -0.0626024380326271, -0.16277536749839783, -0.2352765053510666, -0.05568099021911621, -0.053321704268455505, 0.23538446426391602, -0.04748481884598732], [-0.17112666368484497, 0.15085087716579437, 0.07879575341939926, 0.10934892296791077, -0.11251767724752426, 0.07715820521116257, -0.012079382315278053, -0.12451045960187912, -0.16711685061454773, -0.0069085839204490185, -0.11195943504571915, -0.154120534658432, -0.08778933435678482, -0.08015990257263184, -0.08029697835445404, -0.22646237909793854, -0.02100284956395626], [-0.2253320813179016, -0.13392703235149384, -0.13795101642608643, -0.015396079048514366, -0.044929590076208115, 0.16898299753665924, 0.11914580315351486, -0.17258168756961823, 0.1185796707868576, 0.07904694229364395, 0.10307002067565918, 0.0910765677690506, -0.21984882652759552, 0.1866409331560135, -0.06281289458274841, -0.21863041818141937, -0.22483576834201813], [-0.043682534247636795, 0.05437053367495537, 0.02017667330801487, -0.2053278386592865, -0.055265460163354874, -0.16311229765415192, 0.02649284154176712, 0.01572958566248417, -0.11252224445343018, -0.14990074932575226, -0.20895731449127197, 0.14395469427108765, -0.1383749544620514, 0.23480959236621857, -0.004513327963650227, 0.173608660697937, -0.03343319892883301], [-0.14581328630447388, 0.06737219542264938, 0.17604205012321472, -0.22478045523166656, -0.17585958540439606, -0.13820648193359375, 0.10505671799182892, -0.1970328986644745, -0.19561581313610077, -0.1890917867422104, 0.06533657759428024, -0.2275814712047577, -0.04461606219410896, -0.05654111132025719, 0.08305387198925018, -0.10347390174865723, -0.011895238421857357], [0.12077383697032928, -0.06894005835056305, -0.03230506181716919, 0.0326426737010479, 0.13241760432720184, -0.238418310880661, 0.11708217859268188, -0.173691064119339, 0.047578033059835434, 0.19158460199832916, -0.23732030391693115, 0.09462517499923706, -0.09624458849430084, -0.13453616201877594, -0.22109907865524292, -0.16912256181240082, -0.24243323504924774], [0.032601695507764816, 0.0991383045911789, -0.07209797948598862, 0.10836626589298248, 0.018656868487596512, -0.17515255510807037, -0.20259003341197968, 0.019536271691322327, 0.09760695695877075, -0.19474877417087555, 0.017645426094532013, -0.23712188005447388, 0.04470892623066902, -0.21853019297122955, 0.014389969408512115, 0.1543044000864029, -0.20657899975776672], [0.023837760090827942, 0.013754663057625294, -0.18791192770004272, 0.14352557063102722, 0.0674578920006752, -0.1268308311700821, 0.23356904089450836, -0.18447498977184296, 0.21217584609985352, 0.14709089696407318, -0.14713899791240692, 0.15134510397911072, 0.21979385614395142, -0.21396006643772125, -0.21868835389614105, 0.013850808143615723, 0.1294139325618744], [0.05869326367974281, 0.1265474259853363, 0.16034680604934692, -0.18596425652503967, 0.01584838703274727, -0.10572008788585663, -0.07129412889480591, 0.03381306305527687, 0.21789495646953583, -0.05222473293542862, -0.18799741566181183, 0.1621745228767395, 0.09460143744945526, 0.1397981494665146, 0.10122509300708771, -0.2306465208530426, 0.01909593865275383], [0.046839434653520584, 0.18390537798404694, -0.1273384839296341, -0.10256069898605347, -0.19096077978610992, -0.04257385805249214, 0.16713425517082214, 0.09704309701919556, 0.11699488759040833, -0.08509477227926254, -0.22931723296642303, -0.09300951659679413, -0.19712698459625244, 0.23937274515628815, 0.15619966387748718, -0.038124483078718185, -0.23284927010536194], [-0.2045421153306961, 0.2292759120464325, -0.06667826324701309, 0.06828892230987549, -0.11404555290937424, -0.2051822692155838, 0.0394231453537941, 0.06603337079286575, 0.08400488644838333, -0.01609535701572895, -0.002871820703148842, 0.22010552883148193, 0.10373818874359131, -0.199782595038414, -0.02612883225083351, -0.23423178493976593, 0.10048004239797592], [0.10796228796243668, 0.004011079668998718, 0.2041052132844925, -0.07998364418745041, 0.0031315693631768227, -0.22199386358261108, -0.22560419142246246, -0.141551673412323, 0.10134707391262054, 0.20142754912376404, -0.14929978549480438, -0.20901963114738464, -0.03803214058279991, 0.18360988795757294, 0.02994184009730816, 0.01975194737315178, 0.1285465806722641], [0.1108187735080719, 0.05695585906505585, -0.10558147728443146, -0.14765778183937073, -0.10758092254400253, -0.14524905383586884, 0.18940366804599762, 0.19622421264648438, -0.21998101472854614, 0.018665533512830734, -0.039219632744789124, 0.1353958696126938, -0.18987971544265747, -0.0355919785797596, -0.12784609198570251, -0.18109193444252014, 0.22727739810943604], [0.10107840597629547, 0.09266234934329987, -0.06440750509500504, -0.11168615520000458, -0.05645535886287689, 0.0010762519668787718, -0.11057064682245255, -0.11545829474925995, -0.04889043793082237, 0.22559894621372223, 0.18187659978866577, 0.22391964495182037, -0.10996028780937195, -0.1339603215456009, -0.07374514639377594, 0.021902967244386673, 0.0032544422429054976], [-0.050862476229667664, -0.16980357468128204, 0.14779187738895416, -0.11185647547245026, -0.025915712118148804, 0.010011762380599976, -0.004333105403929949, 0.03066667728126049, 0.14706724882125854, 0.22707673907279968, -0.018350092694163322, -0.03139013051986694, 0.11024317890405655, -0.09221112728118896, -0.055324479937553406, -0.0429396890103817, 0.22276027500629425], [-0.0926855206489563, 0.13265889883041382, 0.17057056725025177, 0.21867823600769043, 0.1800253540277481, -0.04291623830795288, -0.10151638090610504, 0.06931017339229584, -0.13250216841697693, -0.1544778048992157, -0.21494664251804352, -0.23633894324302673, -0.08235424757003784, 0.1261785477399826, -0.13315613567829132, -0.20744679868221283, -0.18657411634922028], [0.19176657497882843, 0.030130872502923012, -0.0858672633767128, -0.0581616535782814, -0.22282899916172028, -0.20277301967144012, 0.07050174474716187, 0.16466575860977173, -0.1355702131986618, 0.0628850907087326, -0.21267203986644745, -0.09375675767660141, -0.12573891878128052, 0.06681802868843079, -0.020655782893300056, -0.08140814304351807, -0.05418870225548744]], "fc1.bias": [0.04301965981721878, -0.22065278887748718, -0.04446883872151375, -0.09186886996030807, 0.12179453670978546, 0.14206330478191376, 0.15625691413879395, 0.1655321717262268, -0.23314660787582397, 0.1614188551902771, -0.2000485360622406, -0.005523183383047581, 0.01579434797167778, 0.07594330608844757, -0.2016373574733734, -0.1507374793291092, 0.16766947507858276, 0.07258818298578262, 0.16410185396671295, -0.09242600947618484, -0.1681618094444275, -0.0419408455491066, -0.0596991628408432, 0.13294526934623718, 0.04794938489794731, 0.1120445504784584, -0.003056808840483427, -0.23855091631412506, 0.014991525560617447, 0.22549939155578613, -0.18845996260643005, -0.15263257920742035, -0.20235678553581238, -0.17473985254764557, 0.11055992543697357, -0.1976703554391861, -0.08356067538261414, -0.1649671196937561, 0.03205031529068947, -0.1859406977891922, -0.2373250424861908, 0.15532778203487396, -0.018675971776247025, 0.2166595458984375, -0.1943020075559616, -0.05648064985871315, -0.058425046503543854, 0.1158556193113327, 0.22672902047634125, 0.1792001575231552, 0.18427346646785736, -0.004140067379921675, 0.02224770560860634, -0.1494680494070053, -0.0622565895318985, -0.1827758103609085, -0.22574254870414734, -0.16539062559604645, 0.14266549050807953, -0.14265039563179016, 0.06311190873384476, -0.2389388233423233, -0.08360514789819717, -0.15943141281604767, -0.07810460031032562, -0.10065126419067383, 0.10447413474321365, -0.17940859496593475, -0.16569900512695312, 0.03958353027701378, -0.07737571746110916, 0.23907695710659027, -0.01229074690490961, -0.02628166414797306, 0.19374187290668488, 0.0019558281637728214, 0.08130825310945511, -0.19154198467731476, 0.18176108598709106, -0.12612596154212952, 0.12539328634738922, -0.17000500857830048, 0.16239216923713684, 0.13862840831279755, 0.11690346896648407, -0.02738068625330925, 0.09067509323358536, -0.07107207179069519, 0.19304479658603668, 0.20678527653217316, -0.21171461045742035, 0.106979139149189, 0.03121991828083992, -0.23992586135864258, -0.010887065902352333, -0.14469332993030548, -0.22940437495708466, 0.19181349873542786, -0.07973477244377136, 0.150272399187088], "fc2.weight": [[0.06737860292196274, -0.0661095529794693, -0.07277275621891022, -0.13072483241558075, 0.08761852979660034, -0.06372815370559692, 0.05730203166604042, 0.062926284968853, -0.010046700946986675, -0.049893151968717575, 0.06285828351974487, -0.015438580885529518, 0.05481189489364624, 0.025812966749072075, 0.059081222862005234, 0.011985385790467262, 0.03530040755867958, 0.04359215125441551, 0.037857554852962494, -0.1920543909072876, 0.08826807886362076, -0.015786582604050636, 0.03048781119287014, 0.06777279078960419, -0.09653649479150772, -0.02272207662463188, -0.026098718866705894, 0.10403554886579514, -0.1059054434299469, -0.047452833503484726, -0.07478556036949158, -0.009554648771882057, 0.04149278625845909, 0.021612847223877907, 0.038754452019929886, 0.06222352012991905, 0.29285475611686707, 0.09262224286794662, 0.01288903970271349, -0.027264798060059547, -0.06232744827866554, -0.09013113379478455, 0.03352651745080948, -0.07017558068037033, 0.013680865988135338, 0.10582034289836884, -0.085624098777771, -0.009346555918455124, -0.09338229149580002, -0.01033931877464056, 0.06878060102462769, 0.06976256519556046, 0.007325485348701477, 0.05928140878677368, 0.06170494854450226, 0.025560183450579643, 0.06977834552526474, -0.067716583609581, 0.07316514104604721, 0.025053374469280243, -0.013588249683380127, -0.025961758568882942, -0.09604120254516602, 0.018435562029480934, 0.053133267909288406, 0.08492614328861237, 0.06861589103937149, -0.048423197120428085, -0.04049647971987724, -0.3181683123111725, 0.08733927458524704, -0.09420239180326462, 0.007524098269641399, 0.05150547996163368, 0.0332803800702095, -0.09812980145215988, -0.004835238214582205, -0.06586170941591263, -0.08630542457103729, 0.3469982147216797, -0.010888026095926762, 0.20240631699562073, 0.052566345781087875, 0.012407302856445312, 0.00020735264115501195, -0.08808030188083649, -0.02749311923980713, -0.027587926015257835, 0.005965495016425848, -0.016670748591423035, -0.06949058175086975, 0.08510836958885193, 0.01369777973741293, -9.452003723708913e-06, -0.07063443958759308, -0.058496881276369095, 0.06739936769008636, 0.04669300094246864, -0.08560458570718765, -0.0007386207580566406]], "fc2.bias": [-0.06528870761394501]}