{"fc1.weight": [[0.012580927461385727, -0.13336586952209473, 0.059856679290533066, 0.01080327108502388, 0.13636524975299835, -0.16764213144779205, -0.17886197566986084, 0.09303316473960876, -0.011766635812819004, -0.06306114047765732, 0.21744486689567566, -0.1494114100933075, -0.0324057936668396, 0.10089687258005142, 0.1015370562672615, 0.01810922846198082, -0.20348304510116577], [0.048541612923145294, 0.07423603534698486, 0.027677610516548157, 0.2623036503791809, -0.18817134201526642, -0.06968766450881958, -0.003505699336528778, -0.08589305728673935, 0.11470479518175125, 0.058065980672836304, 0.06404724717140198, 0.2165536880493164, -0.08584978431463242, -0.08984166383743286, -0.10882002115249634, 0.05158371478319168, 0.09277025610208511], [0.026810241863131523, 0.06689903885126114, -0.010795291513204575, 0.1772291660308838, -0.023253513500094414, -0.1342153549194336, 0.12140124291181564, 0.0061180004850029945, -0.09017661213874817, -0.11294962465763092, -0.19619742035865784, -0.020545337349176407, 0.11067222058773041, -0.13240939378738403, 0.18768294155597687, 0.1897430121898651, 0.22061969339847565], [-0.03971484303474426, -0.014517862349748611, 0.2062903642654419, 0.07021836936473846, -0.01150350272655487, 0.04554516449570656, -0.0476662740111351, -0.15283361077308655, 0.015377314761281013, 0.031595781445503235, 0.0666540116071701, 0.13507091999053955, -0.016348110511898994, -0.10324011743068695, 0.10128152370452881, -0.009337898343801498, -0.031047340482473373], [0.06382833421230316, -0.09851045161485672, -0.07639361172914505, 0.07776985317468643, -0.1251501441001892, 0.08921002596616745, -0.05708257108926773, 0.17860834300518036, 0.08927666395902634, -0.23716989159584045, -0.20932616293430328, 0.24031962454319, 0.12533241510391235, 0.16963107883930206, 0.11974283307790756, 0.07054571807384491, 0.09158331900835037], [0.14390523731708527, -0.20279380679130554, -0.20787157118320465, 0.24498671293258667, 0.08649133890867233, 0.11408556997776031, 0.14374670386314392, -0.12524408102035522, -0.0657423585653305, -0.09863615781068802, 0.1085776686668396, 0.003280153265222907, -0.11985206604003906, -0.17787842452526093, -0.09893562644720078, 0.12716731429100037, -0.12428126484155655], [-0.17901185154914856, -0.028921809047460556, -0.07179349660873413, 0.1456597000360489, 0.23221799731254578, -0.09378688782453537, -0.053676314651966095, -0.0677177831530571, -0.22340601682662964, -0.19324162602424622, -0.13114449381828308, -0.06008581072092056, -0.20782789587974548, -0.006275082007050514, 0.10383253544569016, 0.11971081793308258, 0.12691248953342438], [0.1497073918581009, 0.001502987346611917, -0.08511035889387131, -0.023173801600933075, 0.04617005214095116, 0.10714197158813477, 0.16282618045806885, -0.06645358353853226, -0.21458497643470764, -0.043087370693683624, -0.1670810580253601, 0.05443989485502243, 0.05253886803984642, -0.2133040428161621, -0.07384171336889267, -0.018536699935793877, 0.20428462326526642], [0.08265770971775055, -0.09714975208044052, -0.23892910778522491, -0.07646234333515167, 0.10124474763870239, -0.18976084887981415, -0.20563450455665588, 0.11167874932289124, 0.04956206679344177, 0.01117077749222517, -0.08701595664024353, -0.10555695742368698, -0.21184301376342773, 0.23317532241344452, 0.19343717396259308, -0.10938963294029236, 0.1473449468612671], [0.0350816510617733, -0.08199822902679443, -0.09023728221654892, -0.23497885465621948, 0.07526986300945282, -0.15755242109298706, 0.05647289380431175, 0.03877604752779007, 0.1963941603899002, 0.07711128145456314, -0.04525056108832359, 0.08904332667589188, -0.17347700893878937, 0.1756056696176529, 0.010999430902302265, -0.18045631051063538, -0.037667520344257355], [-0.07658906280994415, 0.16548746824264526, -0.13891243934631348, 0.12687453627586365, -0.01919018104672432, 0.11885140836238861, -0.032919399440288544, -0.07009371370077133, 0.2237899750471115, -0.0642075315117836, -0.18878084421157837, 0.20001757144927979, 0.0638013407588005, 0.18738675117492676, 0.15230879187583923, -0.09858693182468414, -0.026288827881217003], [-0.11414686590433121, 0.09469025582075119, 0.21533364057540894, 0.11178980022668839, 0.022618768736720085, 0.19106455147266388, 0.19007807970046997, 0.13543042540550232, -0.20779982209205627, 0.10306525230407715, -0.06797302514314651, 0.11927568167448044, -0.03716609254479408, -0.20995751023292542, -0.11322640627622604, 0.23754338920116425, 0.03819630295038223], [-0.17302930355072021, 0.1529018133878708, 0.12211176753044128, -0.14351384341716766, 0.21290135383605957, -0.06323041766881943, 0.10158371925354004, -0.20457348227500916, 0.15762099623680115, -0.04125029966235161, 0.09333154559135437, -0.02961793541908264, 0.21011245250701904, 0.08185767382383347, -0.18224722146987915, 0.23360426723957062, 0.09162981063127518], [0.04599207639694214, -0.08689689636230469, 0.022774478420615196, -0.17628253996372223, -0.014032818377017975, -0.14248555898666382, -0.189432293176651, 0.23292209208011627, -0.06736643612384796, 0.173910990357399, 0.11670511960983276, 0.07787594199180603, -0.10197998583316803, -0.215385302901268, -0.13621436059474945, 0.15732255578041077, 0.10591697692871094], [0.0012705597328022122, 0.19204257428646088, -0.14981436729431152, -0.04340488836169243, 0.10563690215349197, 0.19483892619609833, -0.13203522562980652, -0.04282163828611374, 0.2238064855337143, -0.03769250214099884, 0.08754071593284607, 0.19189217686653137, 0.05151085555553436, -0.11851519346237183, 0.12584450840950012, 0.006911012344062328, 0.1488669365644455], [-0.23431788384914398, -0.06542757153511047, -0.18928082287311554, -0.17699864506721497, 0.2191375195980072, 0.16230253875255585, -0.05619748309254646, 0.13919353485107422, 0.022214919328689575, -0.025827044621109962, -0.14013060927391052, -0.1358075886964798, 0.19796928763389587, 0.029525935649871826, 0.14161598682403564, -0.16699053347110748, -0.022595319896936417], [0.04890690743923187, -0.1954985111951828, -0.06407564878463745, 0.1643998771905899, -0.16158080101013184, -0.17395766079425812, 0.1189342513680458, 0.040294136852025986, -0.2391371876001358, -0.17118161916732788, -0.12990796566009521, -0.234186589717865, -0.01690574549138546, 0.0670270100235939, 0.030689606443047523, -0.16562210023403168, 0.06563802063465118], [-0.041617922484874725, -0.09929289668798447, -0.0453714020550251, -0.1886330097913742, -0.011924440041184425, 0.06140664964914322, 0.23146606981754303, 0.1930341273546219, 0.03446638956665993, 0.15574012696743011, 0.1725158840417862, 0.2006528526544571, 0.03390860930085182, -0.016417672857642174, -0.06646861881017685, -0.07681658118963242, 0.0377456434071064], [0.006745083723217249, 0.23645535111427307, 0.23378492891788483, 0.23593489825725555, 0.13164953887462616, 0.24089567363262177, 0.0361701138317585, -0.05478109046816826, -0.06965746730566025, 0.21862810850143433, -0.039897602051496506, 0.1041523888707161, -0.1481786072254181, 0.11079827696084976, 0.13029718399047852, -0.055188581347465515, 0.1604561060667038], [-0.018571481108665466, -0.13508355617523193, -0.006338429171591997, -0.18733704090118408, -0.24227841198444366, -0.09347500652074814, -0.05773033946752548, -0.162444069981575, -0.2342434525489807, 0.01909199357032776, -0.022218937054276466, -0.04957259073853493, 0.07175449281930923, 0.23183807730674744, -0.09847938269376755, -0.17033454775810242, 0.20932738482952118], [-0.17039838433265686, 0.11905435472726822, -0.12971627712249756, 0.0831199362874031, -0.12428344041109085, -0.21357284486293793, -0.12863896787166595, -0.0534798838198185, -0.16393108665943146, 0.019505413249135017, -0.19099093973636627, 0.19906191527843475, 0.22525817155838013, -0.00808627624064684, -0.23250184953212738, 0.1257954239845276, -0.1170642226934433], [-0.1471683531999588, 0.07450143992900848, 0.18683019280433655, 0.030909860506653786, 0.03215162456035614, -0.18164418637752533, -0.12023132294416428, -0.03574668988585472, -0.1593916267156601, 0.22663001716136932, 0.17555071413516998, 0.033188629895448685, 0.21630099415779114, 0.23056864738464355, 0.05632065236568451, 0.03138168528676033, 0.12872807681560516], [-0.2049439251422882, 0.09522482752799988, 0.06909443438053131, -0.11991827189922333, -0.10968975722789764, 0.19668249785900116, 0.18278750777244568, 0.14017431437969208, -0.07117975503206253, -0.14480909705162048, 0.2362828552722931, 0.06445588171482086, -0.06171061471104622, -0.03221980109810829, -0.12377552688121796, 0.14182791113853455, -0.13179726898670197], [-0.20226900279521942, -0.17660072445869446, 0.18431629240512848, -0.08028000593185425, -0.020686084404587746, -0.15497715771198273, -0.024563828483223915, -0.19979950785636902, -0.13862447440624237, -0.12871913611888885, -0.20922911167144775, 0.11296957731246948, 0.2105797380208969, 0.12459737062454224, 0.18157124519348145, -0.12444943189620972, 0.07833896577358246], [0.05645968019962311, 0.21626773476600647, -0.13842910528182983, 0.2288392186164856, -0.22279077768325806, -0.00975346751511097, -0.06610851734876633, 0.20925623178482056, 0.0003685867413878441, -0.09617635607719421, 0.13339810073375702, 0.1463891863822937, 0.029873844236135483, 0.11551497131586075, -0.06707902997732162, -0.13799798488616943, 0.01822742260992527], [-0.1627299189567566, 0.021395046263933182, -0.13728024065494537, 0.1377531737089157, -0.001115704420953989, 0.05003747344017029, -0.15777212381362915, 0.09106139093637466, 0.22361169755458832, 0.03390282392501831, 0.2268972545862198, -0.2268124520778656, -0.16645842790603638, 0.22523455321788788, 0.22067074477672577, 0.17588640749454498, 0.10278598964214325], [-0.08931779116392136, -0.010399941354990005, -0.17650358378887177, -0.003956588916480541, -0.10572453588247299, -0.1342734843492508, 0.1024884507060051, 0.13900984823703766, 0.10421779006719589, -0.1368381679058075, -0.07944183051586151, -0.19131377339363098, -0.15847525000572205, 0.21964137256145477, -0.14373727142810822, -0.04243675246834755, -0.18160100281238556], [0.1722545176744461, -0.1507536768913269, -0.11916612833738327, 0.21696586906909943, 0.15169093012809753, 0.17812708020210266, -0.03372330591082573, 0.12815305590629578, -0.03428502008318901, 0.07967761158943176, 0.24245573580265045, -0.22461247444152832, 0.09822576493024826, -0.04890988767147064, -0.15099234879016876, 0.2384425401687622, 0.03584074229001999], [0.1516372114419937, -0.10545145720243454, -0.211581751704216, 0.03246717527508736, 0.13295802474021912, -0.2067822813987732, -0.18173399567604065, -0.19682802259922028, 0.21212244033813477, -0.08728720992803574, 0.22502392530441284, -0.19802017509937286, 0.13091151416301727, -0.041574034839868546, -0.1352887749671936, 0.09060046821832657, -0.02542143128812313], [0.08865746110677719, 0.15823692083358765, 0.17451249063014984, 0.22465921938419342, 0.19254110753536224, 0.06512407213449478, -0.07859793305397034, 0.15742629766464233, 0.17441034317016602, -0.14422936737537384, 0.0712394118309021, -0.11766517162322998, -0.04142357409000397, -0.10882881283760071, -0.1571495532989502, -0.14093329012393951, 0.18999788165092468], [0.2256127893924713, 0.06700876355171204, 0.08263455331325531, 0.23332707583904266, 0.18953625857830048, 0.11007419228553772, -0.1438145935535431, 0.20306308567523956, 0.050528258085250854, 0.17334800958633423, 0.019144464284181595, -0.23297521471977234, -0.11748366802930832, -0.1532416194677353, 0.02129233628511429, -0.20138654112815857, -0.1622481793165207], [-0.0867052897810936, 0.12756749987602234, 0.1902441829442978, 0.17370429635047913, 0.19077154994010925, -0.102444589138031, -0.04682619124650955, -0.0004862504138145596, 0.15012668073177338, -0.04332364350557327, -0.16488538682460785, 0.08320002257823944, 0.09599816799163818, -0.12901970744132996, 0.09941606223583221, 0.09775674343109131, -0.2338900864124298], [0.16523857414722443, 0.08021622151136398, 0.21253974735736847, 0.04722738265991211, 0.2323673516511917, -0.01645713858306408, -0.01460937038064003, 0.23795628547668457, 0.18645092844963074, 0.0717099979519844, -0.07061117142438889, -0.06353162974119186, 0.20661722123622894, -0.18164636194705963, -0.17981258034706116, 0.03481290489435196, 0.0900341272354126], [-0.0032359235920011997, -0.0652131661772728, -0.08151240646839142, -0.14912335574626923, 0.12799514830112457, 0.14753885567188263, -0.20945577323436737, 0.22299502789974213, -0.0931866466999054, 0.12462759763002396, -0.05793740972876549, 0.16552840173244476, -0.058934181928634644, -0.09198497235774994, 0.0505414642393589, 0.14574816823005676, 0.029558956623077393], [0.14913876354694366, -0.026695389300584793, 0.12237881869077682, 0.12881673872470856, 0.19247962534427643, 0.10658909380435944, -0.1697070300579071, -0.05291568860411644, -0.2033558040857315, -0.04505253583192825, 0.1953425407409668, 0.24295653402805328, -0.0157302338629961, 0.07532180845737457, -0.10460501909255981, -0.20853306353092194, 0.0035055705811828375], [-0.06885431706905365, -0.22312608361244202, 0.1867363005876541, -0.15673482418060303, -0.21218019723892212, 0.07460912317037582, 0.0040382808074355125, -0.2138276845216751, -0.04882220923900604, 0.10577033460140228, -0.051718227565288544, -0.11405283212661743, 0.17541936039924622, -0.2393685132265091, 0.03409614413976669, 0.13077910244464874, -0.21882252395153046], [-0.14540180563926697, 0.1697579026222229, 0.08868589997291565, -0.005611457396298647, 0.17587894201278687, 0.030549250543117523, -0.15566715598106384, -0.17295901477336884, -0.04252929985523224, 0.07082657516002655, 0.07147116959095001, -0.004801574163138866, 0.13569429516792297, -0.009839477948844433, -0.14402899146080017, -0.06882800161838531, -0.05151624232530594], [-0.1835019737482071, 0.09718946367502213, 0.0063079348765313625, -0.22404801845550537, -0.20739096403121948, 0.22915410995483398, 0.14586910605430603, -0.24726033210754395, -0.23101258277893066, -0.22366417944431305, 0.08577807247638702, -0.053675927221775055, 0.015328384935855865, 0.2147238850593567, 0.15047404170036316, 0.20101401209831238, 0.05815897881984711], [0.021723169833421707, -0.2184707522392273, 0.1499820053577423, 0.02433721348643303, -0.07315753400325775, -0.1946602165699005, 0.15828627347946167, -0.036897458136081696, 0.12394711375236511, -0.13314266502857208, -0.10719043016433716, 0.038692936301231384, 0.19335484504699707, 0.020072152838110924, -0.19721776247024536, -0.19222170114517212, -0.12003063410520554], [-0.20670820772647858, 0.22995463013648987, -0.13572512567043304, -0.1352756917476654, 0.059812992811203, 0.07320132851600647, -0.07713206857442856, 0.0571192167699337, -0.09075864404439926, -0.1286906898021698, -0.02704894356429577, 0.05914025753736496, -0.006716286763548851, -0.026450686156749725, -0.19774414598941803, -0.14623451232910156, -0.08687940239906311], [-0.2003534734249115, -0.2376893311738968, 0.20069822669029236, 0.079457126557827, -0.05711617320775986, 0.06115574762225151, 0.01999330148100853, -0.22391235828399658, 0.04076040908694267, -0.16469915211200714, 0.19238843023777008, 0.07534724473953247, -0.03906449303030968, 0.22384993731975555, -0.09825117886066437, 0.17601998150348663, 0.15292340517044067], [0.07917311787605286, -0.08101978898048401, 0.13134340941905975, -0.03714059293270111, -0.0707223117351532, 0.014447980560362339, -0.053262170404195786, 0.0083610899746418, 0.1321442872285843, 0.052666112780570984, -0.04147414118051529, 0.12831617891788483, 0.12361793220043182, -0.18511392176151276, -0.10217836499214172, 0.22706502676010132, 0.2105230987071991], [0.019319303333759308, 0.23040041327476501, -0.07041700184345245, -0.1868721842765808, -0.15480674803256989, -0.19492068886756897, -0.08310672640800476, -0.1584886610507965, -0.14870741963386536, -0.00941778440028429, -0.22015324234962463, 0.09366513788700104, -0.16044485569000244, -0.02981751784682274, -0.03267167508602142, 0.13798895478248596, 0.053176648914813995], [0.11787646263837814, 0.1168467104434967, -0.06201175972819328, -0.04812502861022949, 0.0009166903328150511, 0.18831045925617218, -0.09730718284845352, 0.03380666300654411, -0.1071806326508522, 0.24050188064575195, 0.09962865710258484, -0.061382390558719635, 0.12203598767518997, -0.13166561722755432, -0.1728091984987259, 0.24186967313289642, -0.12454261630773544], [0.20716261863708496, -0.08524113148450851, 0.12770888209342957, 0.2369781732559204, 0.05172206088900566, 0.18859241902828217, -0.03203669562935829, -0.23538754880428314, -0.1910286694765091, -0.04019568860530853, 0.1449531614780426, -0.0855681300163269, -0.04936595261096954, -0.13074488937854767, 0.21010634303092957, 0.02212396077811718, 0.10095183551311493], [-0.13757099211215973, -0.007747442927211523, 0.10089816898107529, 0.10627387464046478, -0.233467236161232, 0.12724098563194275, -0.006012026220560074, -0.06950784474611282, 0.2142314612865448, 0.08765833079814911, -0.09702296555042267, 0.11523471772670746, -0.11852943152189255, -0.01894615776836872, 0.21609145402908325, 0.016012629494071007, 0.022833257913589478], [-0.20703282952308655, 0.06092936173081398, -0.18586058914661407, -0.18428382277488708, -0.11095518618822098, 0.14866313338279724, 0.15875300765037537, 0.016453322023153305, 0.1757311224937439, -0.12049388140439987, 0.12047858536243439, 0.031077582389116287, 0.1530655473470688, 0.2230890989303589, 0.1974293440580368, -0.07005738466978073, 0.050043053925037384], [0.03546357899904251, 0.06012212485074997, -0.19752348959445953, -0.14676715433597565, 0.19771072268486023, 0.14708653092384338, -0.10303093492984772, -0.15942424535751343, -0.18832862377166748, 0.027319766581058502, -0.04560186341404915, 0.10731250047683716, 0.06893179565668106, 0.1918877810239792, -0.05986896902322769, 0.017825596034526825, 0.09007614105939865], [0.009501737542450428, -0.14348343014717102, -0.11941374838352203, 0.12598806619644165, -0.11074189096689224, -0.07947710901498795, -0.18064726889133453, -0.013677189126610756, -0.11615721136331558, 0.06102015823125839, 0.17832359671592712, -0.11085742712020874, -0.04658728465437889, -0.14746171236038208, 0.09055411070585251, 0.15980951488018036, 0.12741248309612274], [0.1170124039053917, 0.22467868030071259, 0.12286221981048584, -0.15720397233963013, 0.011384785175323486, 0.1020486131310463, -0.012522591277956963, 0.1962217539548874, -0.1313544511795044, 0.1902303397655487, 0.23716211318969727, 0.16285641491413116, -0.10772481560707092, -0.17051978409290314, -0.00030970864463597536, -0.10650581866502762, -0.05222756788134575], [-0.038871873170137405, -0.10301636159420013, -0.1668640673160553, 0.033752162009477615, -0.18568538129329681, 0.12530316412448883, -0.06462738662958145, -0.20965273678302765, -0.21422718465328217, 0.195256769657135, -0.1217237338423729, 0.07102546095848083, -0.05939798429608345, -0.13707979023456573, 0.028741048648953438, 0.21256616711616516, 0.23142139613628387], [0.19287912547588348, 0.09781268984079361, -0.15235233306884766, 0.07880659401416779, 0.1585271805524826, 0.138499915599823, -0.05139705538749695, 0.045641012489795685, -0.11761714518070221, -0.2329823225736618, -0.1729539930820465, 0.04547936096787453, -0.1971733570098877, -0.05737277865409851, -0.11437394469976425, 0.052236877381801605, 0.19565071165561676], [-0.11406920850276947, -0.15149331092834473, 0.1518183797597885, 0.0826902985572815, -0.014508985914289951, -0.02075240947306156, -0.04815417155623436, -0.051218319684267044, -0.12776091694831848, -0.09902837127447128, -0.1523653119802475, -0.23401285707950592, 0.12244327366352081, 0.1903844177722931, 0.16543638706207275, -0.17632582783699036, -0.15849530696868896], [0.1010751724243164, -0.09873846918344498, -0.1585271656513214, 0.07817567139863968, 0.11782283335924149, -0.030489444732666016, -0.09831536561250687, -0.23879383504390717, 0.024473953992128372, -0.06400036066770554, 0.196133553981781, 0.1360398828983307, -0.0772949680685997, -0.16780199110507965, -0.08210788667201996, 0.14572082459926605, -0.11228232830762863], [0.033537715673446655, 0.14921271800994873, 0.06260553747415543, -0.041593749076128006, -0.18502195179462433, -0.10845289379358292, -0.05028185993432999, -0.05393665283918381, 0.16605806350708008, 0.16544272005558014, 0.08671076595783234, -0.10714948922395706, 0.15480978786945343, -0.06193661689758301, -0.0790356993675232, -0.1265576183795929, -0.1896878182888031], [-0.1509440839290619, 0.15384702384471893, -0.018441403284668922, -0.23059941828250885, -0.2110775262117386, -0.10332006216049194, -0.16671109199523926, -0.1054791584610939, 0.07578723877668381, 0.23077410459518433, -0.1420782208442688, 0.20192040503025055, 0.017387688159942627, -0.06805773824453354, -0.02695428393781185, 0.2188502699136734, 0.15767870843410492], [0.20158348977565765, -0.07797835022211075, -0.11048999428749084, 0.2026481032371521, -0.1445438712835312, 0.2182648628950119, 0.14745871722698212, 0.16358761489391327, -0.025890197604894638, -0.18105538189411163, -0.008415183052420616, 0.011067713610827923, -0.13331198692321777, -0.005781234707683325, -0.12353515625, 0.24057163298130035, -0.13867498934268951], [-0.23210865259170532, 0.17528387904167175, 0.12139967828989029, -0.15652510523796082, -0.09848687052726746, -0.04664982482790947, -0.02690906450152397, 0.12737107276916504, -0.16923630237579346, -0.15265898406505585, -0.08564527332782745, -0.14973756670951843, -0.10248205810785294, 0.08279354125261307, -0.1297067105770111, 0.11423111706972122, -0.22954225540161133], [-0.09353245794773102, 0.08934624493122101, -0.14711838960647583, 0.1601133495569229, 0.11503733694553375, 0.07091064751148224, -0.23689979314804077, 0.1280445009469986, -0.23802845180034637, -0.10383369028568268, -0.05203289911150932, -0.23772111535072327, -0.05682936683297157, 0.01946239173412323, -0.17280691862106323, -0.01610790565609932, 0.19193600118160248], [0.016940845176577568, -0.1622941792011261, -0.11341558396816254, 0.046068452298641205, -0.22060789167881012, -0.0017150315688923001, -0.20612379908561707, -0.0719153881072998, 0.010649253614246845, -0.05355343595147133, -0.06443546712398529, 0.03459206968545914, 0.06725235283374786, 0.21296389400959015, -0.19189219176769257, 0.1886986345052719, 0.077305369079113], [0.002763658994808793, -0.20396238565444946, 0.06040133163332939, 0.05895275995135307, 0.12268998473882675, -0.14002051949501038, 0.13540272414684296, 0.15338395535945892, 0.2036726176738739, 0.18266718089580536, 0.025662705302238464, 0.023018309846520424, -0.11184225231409073, 0.06978853046894073, -0.1655239462852478, -0.024330157786607742, -0.11997386068105698], [0.07696183770895004, -0.06448148190975189, -0.22651325166225433, -0.15204933285713196, 0.10220853239297867, 0.09658394753932953, 0.17476235330104828, 0.20907185971736908, 0.05009433254599571, -0.005371665582060814, -0.15999740362167358, 0.04053293541073799, 0.10782742500305176, -0.01830129139125347, 0.15237484872341156, -0.1503000110387802, -0.04267114773392677], [-0.16818352043628693, -0.0014339153422042727, 0.1959463655948639, -0.05116584151983261, 0.17255260050296783, 0.15340851247310638, 0.04586568847298622, -0.04184280335903168, 0.021301688626408577, -0.13126054406166077, 0.11899254471063614, 0.1412680298089981, 0.04773363843560219, 0.043849505484104156, 0.24154366552829742, 0.023888519033789635, -0.0023519450332969427], [0.07315053045749664, -0.12767675518989563, -0.11574936658143997, -0.22112281620502472, -0.07106388360261917, -0.2135869860649109, -0.053544819355010986, -0.02786528877913952, 0.23917746543884277, -0.16056406497955322, 0.08745793998241425, -0.17814390361309052, 0.1840755045413971, 0.13292443752288818, 0.1676996648311615, -0.15955567359924316, -0.07387585937976837], [-0.04175782948732376, 0.004307875409722328, -0.07930207252502441, 0.17750826478004456, 0.1510729193687439, -0.01102063525468111, -0.0013592344475910068, 0.048364222049713135, -0.04773392900824547, -0.13203789293766022, -0.13812443614006042, -0.07322598993778229, 0.16406570374965668, -0.18127381801605225, -0.10546229779720306, -0.2078314572572708, 0.10951033979654312], [-0.19314590096473694, -0.18247279524803162, 0.13697902858257294, 0.10688135772943497, -0.10910481214523315, -0.021778685972094536, -0.23066774010658264, 0.11607535928487778, -0.112759530544281, -0.23491309583187103, -0.23955705761909485, -0.13071367144584656, 0.18683381378650665, 0.22987498342990875, -0.21358796954154968, 0.16032157838344574, 0.11025053262710571], [-0.14993935823440552, 0.15198592841625214, -0.15230737626552582, 0.010770339518785477, -0.14116956293582916, -0.17110243439674377, -0.19192412495613098, -0.09882734715938568, -0.20663297176361084, 0.030508121475577354, 0.020300505682826042, -0.16937153041362762, -0.21633277833461761, 0.08225594460964203, -0.06967198103666306, 0.08779823780059814, 0.15641924738883972], [-0.06044117361307144, -0.1964169144630432, -0.09462185204029083, -0.11035741865634918, 0.08197315037250519, -0.2152368724346161, 0.08452118188142776, -0.061438191682100296, -0.11270543187856674, 0.1644384264945984, -0.16690506041049957, 0.09374530613422394, -0.22798167169094086, -0.08934323489665985, 0.021539811044931412, -0.023158911615610123, 0.1414058357477188], [0.14648699760437012, 0.13607846200466156, 0.15441344678401947, 0.11611398309469223, 0.02410053461790085, 0.0347454808652401, -0.048023805022239685, -0.1913411021232605, -0.03678904473781586, -0.11023379117250443, 0.058225784450769424, 0.23297426104545593, 0.05158339813351631, 0.10779131948947906, 0.16947217285633087, 0.19981713593006134, 0.20379818975925446], [0.06788941472768784, -0.035728830844163895, -0.14972668886184692, -0.04020477831363678, 0.20676983892917633, 0.09347712248563766, -0.18193314969539642, 0.1965346336364746, 0.12176208943128586, -0.07818997651338577, 0.08797509223222733, 0.029309513047337532, 0.10534156113862991, 0.09842893481254578, -0.10647744685411453, 0.0035429983399808407, -0.10055892169475555], [0.0810534730553627, 0.06516088545322418, 0.2291906177997589, 0.014454797841608524, 0.08132185786962509, -0.1601036936044693, 0.18048682808876038, 0.14381830394268036, -0.18687526881694794, 0.21003001928329468, -0.038398873060941696, 0.15559104084968567, -0.20529192686080933, 0.031170574948191643, -0.014839737676084042, -0.24694862961769104, -0.10041925311088562], [-0.12022557854652405, -0.24034535884857178, -0.17641237378120422, -0.2066606879234314, 0.09548863768577576, -0.1656189262866974, -0.08736669272184372, -0.17433997988700867, -0.08785997331142426, 0.020148279145359993, 0.08365409821271896, -0.17109256982803345, 0.0251094289124012, 0.09298340976238251, 0.21382081508636475, 0.08138564974069595, -0.12136411666870117], [0.1382344514131546, 0.018656136468052864, -0.07209288328886032, -0.07586431503295898, 0.19614216685295105, -0.14310990273952484, 0.11919567734003067, -0.14973315596580505, -0.1560281217098236, 0.04395648092031479, -0.20433726906776428, 0.13622413575649261, -0.21011152863502502, 0.051415182650089264, -0.028590934351086617, -0.09373272955417633, 0.188746839761734], [0.15763184428215027, -0.19850151240825653, -0.19070160388946533, -0.21796274185180664, 0.011413324624300003, -0.12090591341257095, 0.10195980966091156, -0.08016016334295273, -0.19398973882198334, 0.20694607496261597, -0.14467322826385498, -0.07304875552654266, -0.20742401480674744, -0.23192672431468964, -0.23541586101055145, -0.22489361464977264, 0.02977079525589943], [0.22648146748542786, -0.22307328879833221, -0.10869795829057693, 0.22171248495578766, 0.184871643781662, 0.01513843983411789, -0.22779278457164764, -0.008684592321515083, 0.19606077671051025, -0.06899687647819519, 0.16237054765224457, -0.12638142704963684, 0.05095885694026947, -0.12461304664611816, -0.23884722590446472, 0.10206887125968933, -0.2009422481060028], [-0.09321976453065872, 0.21164026856422424, 0.08148600161075592, -0.030144575983285904, 0.1068846806883812, -0.07339544594287872, -0.09946495294570923, -0.036958154290914536, 0.2362598180770874, 0.031329814344644547, 0.08208084851503372, -0.12178869545459747, 0.03255639970302582, -0.03164391964673996, -0.03245089575648308, -0.0884857177734375, 0.08208715170621872], [0.16438627243041992, -0.1822078824043274, -0.20614536106586456, 0.09463419020175934, 0.15763872861862183, -0.21573404967784882, -0.16685360670089722, 0.20547246932983398, 0.005149157252162695, -0.04676567763090134, 0.20670554041862488, -0.036043621599674225, -0.12414753437042236, 0.19829590618610382, 0.16184335947036743, -0.11589440703392029, 0.22078092396259308], [0.1993551254272461, -0.22185295820236206, -0.09255434572696686, -0.030615361407399178, 0.21185356378555298, -0.22284850478172302, 0.17653469741344452, 0.20101717114448547, 0.19231568276882172, 0.2373296469449997, -0.20547333359718323, -0.19213871657848358, -0.14645636081695557, -0.19379448890686035, -0.06513205170631409, -0.11823251098394394, 0.028115885332226753], [-0.23879419267177582, -0.11529156565666199, 0.110936738550663, -0.008606296963989735, -0.04061133414506912, 0.04366154596209526, -0.0044494313187897205, 0.07217568904161453, 0.028617186471819878, 0.19007597863674164, 0.010838341899216175, -0.2171497792005539, -0.09591030329465866, 0.01976970210671425, -0.0390610471367836, 0.135136216878891, 0.0587441548705101], [0.16088774800300598, -0.1131330206990242, -0.14684391021728516, 0.007665432058274746, -0.0288574006408453, -0.17318038642406464, 0.041587647050619125, -0.15327288210391998, -0.10455770790576935, -0.2386789172887802, 0.13812869787216187, 0.17799590528011322, 0.22467100620269775, 0.09212237596511841, -0.01520823035389185, -0.11578549444675446, 0.19793078303337097], [0.2646441161632538, -0.13291694223880768, -0.04078841209411621, -0.12393806874752045, -0.08330260217189789, -0.132577046751976, -0.12094107270240784, -0.1747511327266693, -0.05692393705248833, -0.2243153154850006, -0.10352690517902374, 0.1797257512807846, 0.17311826348304749, 0.1637880504131317, -0.06161580979824066, 0.1661815643310547, 0.23739492893218994], [-0.154527485370636, 0.17155489325523376, 0.10841835290193558, 0.047050606459379196, -0.013523397967219353, 0.14345195889472961, -0.12894649803638458, -0.016979621723294258, -0.04394282400608063, 0.01584990695118904, -0.03898235410451889, -0.06215896084904671, 0.1449931561946869, -0.046302858740091324, 0.03567146882414818, -0.010666018351912498, -0.12025873363018036], [0.12929999828338623, -0.07728779315948486, -0.05115045979619026, 0.11465714126825333, -0.05877115949988365, -0.2119722217321396, 0.2349330186843872, 0.16188432276248932, -0.07804443687200546, 0.07281676679849625, 0.17021140456199646, -0.10004528611898422, 0.10699553042650223, -0.07630346715450287, 0.07055751234292984, 0.2295437902212143, -0.20396918058395386], [0.2378186583518982, 0.015157695859670639, 0.03249140456318855, 0.16715529561042786, 0.1940077245235443, 0.028491273522377014, -0.015194992534816265, 0.15540386736392975, -0.06815341114997864, 0.20081418752670288, 0.0602131113409996, -0.22461284697055817, 0.057729240506887436, 0.21273110806941986, 0.12636089324951172, -0.07545974105596542, 0.05314071103930473], [-0.15554232895374298, 0.016698315739631653, 0.15163129568099976, 0.21844974160194397, -0.04905422031879425, 0.11962808668613434, 0.24342334270477295, 0.1273760199546814, 0.0364719033241272, 0.09177599847316742, -0.038172099739313126, -0.02453286200761795, 0.043801672756671906, 0.1059851422905922, -0.20595404505729675, -0.15962275862693787, 0.05442088842391968], [-0.046642180532217026, 0.10349872708320618, -0.1567395180463791, -0.038285933434963226, -0.1889563351869583, -0.016971146687865257, 0.11611102521419525, -0.23586039245128632, 0.00864197127521038, 0.019896967336535454, 0.16749630868434906, 0.23561009764671326, 0.16739808022975922, -0.22797048091888428, -0.10411618649959564, 0.09103044867515564, -0.15559731423854828], [-0.10613168030977249, 0.16630686819553375, 0.17073287069797516, -0.08797376602888107, 0.08024473488330841, -0.09352829307317734, -0.0384598970413208, -0.1834523230791092, 0.15884192287921906, 0.07976247370243073, 0.1658204048871994, -0.0552411749958992, 0.1919442117214203, 0.1311347484588623, -0.15656957030296326, -0.11723269522190094, -0.13466906547546387], [0.031047051772475243, -0.150925412774086, -0.240680530667305, 0.19688844680786133, -0.13060691952705383, 0.03429432958364487, -0.12184982001781464, -0.12538647651672363, -0.13346706330776215, -0.04922760650515556, 0.016785642132163048, 0.18479692935943604, 0.027595361694693565, 0.004499160684645176, 0.13007183372974396, 0.1317795217037201, 0.20741671323776245], [0.09764198958873749, 0.1223979964852333, 0.16476160287857056, -0.1281474232673645, -0.20307855308055878, -0.17659220099449158, 0.00923878699541092, -0.03167251497507095, -0.05628274753689766, 0.07830357551574707, 0.007127567194402218, -0.19608023762702942, 0.0822828933596611, 0.050912655889987946, 0.05907997488975525, 0.1600692868232727, -0.08122720569372177], [-0.08656758069992065, -0.036601632833480835, 0.15010930597782135, -0.098591648042202, -0.032340336591005325, -0.03197970986366272, 0.05395699664950371, 0.18976369500160217, 0.19046154618263245, 0.190053790807724, -0.16214990615844727, 0.052350156009197235, 0.18566811084747314, 0.16762912273406982, 0.09183263033628464, -0.19949740171432495, 0.233651265501976], [-0.2107650488615036, 0.07893627882003784, 0.06855186820030212, -0.15087303519248962, 0.026043979451060295, -0.02368159219622612, -0.011216380633413792, -0.11907240748405457, 0.16809725761413574, -0.020223738625645638, 0.040149323642253876, -0.1295558512210846, -0.09499558061361313, 0.07354279607534409, -0.1297302544116974, 0.11426656693220139, 0.16240818798542023], [0.22708556056022644, -0.2252015918493271, -0.0733688473701477, 0.14120881259441376, 0.09584386646747589, -0.16671878099441528, 0.1004469096660614, -0.07356386631727219, 0.1312979906797409, -0.22933657467365265, 0.11968465149402618, 0.1683906763792038, -0.14559316635131836, 0.06177285686135292, -0.010013526305556297, -0.03698619827628136, -0.005932353436946869], [0.2108287215232849, 0.00831922423094511, -0.1459827870130539, -0.160660982131958, 0.2378341555595398, -0.22173400223255157, 0.01803891360759735, -0.0348433181643486, 0.07888610661029816, -0.02166936919093132, 0.03485098108649254, 0.02215440571308136, 0.05418549105525017, -0.11813201755285263, 0.14551103115081787, -0.07854562997817993, -0.1621919423341751], [-0.15916408598423004, 0.16496802866458893, 0.17183686792850494, 0.07327543199062347, 0.07996591180562973, -0.18867595493793488, -0.026194574311375618, -0.18538637459278107, -0.11328952014446259, 0.09565295279026031, -0.050072189420461655, 0.14040659368038177, -0.22600910067558289, 0.18613196909427643, 0.0994495078921318, 0.11045821011066437, -0.17309626936912537], [-0.09294494986534119, 0.2112288475036621, -0.08753007650375366, -0.11063110083341599, -0.11958406120538712, -0.07614494115114212, 0.16780352592468262, -0.15181328356266022, -0.15066254138946533, -0.21142037212848663, -0.2359524518251419, 0.13676245510578156, 0.033954404294490814, 0.015889529138803482, -0.09564132988452911, 0.22082172334194183, -0.04161586984992027], [0.013389465399086475, 0.1860141158103943, 0.07399749010801315, 0.13858702778816223, -0.1570773869752884, 0.21308375895023346, 0.16260160505771637, -0.07023323327302933, 0.06220928952097893, -0.022604571655392647, 0.04144233837723732, -0.016939399763941765, -0.20211169123649597, 0.03306017071008682, -0.1298346370458603, -0.10573460161685944, 0.1605069935321808], [-0.058719176799058914, -0.1278025209903717, -0.06879295408725739, 0.04484499245882034, 0.17166368663311005, -0.12083745002746582, -0.12133526057004929, 0.00340603687800467, -0.14935138821601868, -0.10808972269296646, 0.10616065561771393, -0.17756010591983795, 0.1723787486553192, 0.2196298986673355, -0.1780216544866562, -0.1337670534849167, 0.19093851745128632], [0.030063262209296227, -0.028556354343891144, 0.19759120047092438, -0.09676757454872131, -0.19346950948238373, 0.04998138174414635, 0.14124298095703125, -0.002849934622645378, 0.029015131294727325, 0.01977352239191532, -0.18504537642002106, -0.19013004004955292, -0.16474583745002747, 0.23979420959949493, 0.05405343696475029, 0.11112266778945923, 0.001601704629138112], [0.21532009541988373, 0.17568710446357727, 0.027826618403196335, 0.047927115112543106, 0.10802970081567764, -0.02676776982843876, 0.12437980622053146, -0.10307822376489639, -0.2208583652973175, 0.1846586912870407, -0.01805839128792286, -0.09959132224321365, -0.06653870642185211, -0.06897235661745071, 0.2422766536474228, -0.2262410819530487, -0.0898139625787735], [-0.24108941853046417, -0.07232412695884705, -0.16524890065193176, 0.06924046576023102, -0.24002471566200256, 0.1373431533575058, -0.06767924875020981, -0.13572290539741516, -0.21794331073760986, 0.0037618919741362333, -0.010180726647377014, 0.23924832046031952, -0.17485690116882324, 0.23091742396354675, -0.08879046142101288, -0.06899354606866837, -0.04526873305439949]], "fc1.bias": [-0.14436158537864685, 0.22329546511173248, 0.11594285070896149, -0.0629204511642456, 0.07180465757846832, -0.20186592638492584, 0.22866114974021912, -0.10504043847322464, 0.10185272246599197, -0.202095165848732, 0.04171770438551903, 0.17856205999851227, 0.2386755645275116, 0.13600318133831024, 0.22773383557796478, 0.15486618876457214, -0.08271843194961548, -0.14780008792877197, -0.10038110613822937, -0.19751021265983582, 0.209132581949234, 0.017447825521230698, -0.19027937948703766, 0.14062617719173431, 0.20765818655490875, -0.03905179351568222, -0.24061892926692963, 0.19396141171455383, 0.16814976930618286, 0.20064470171928406, 0.0721750557422638, -0.22377172112464905, 0.17438974976539612, 0.19603051245212555, -0.21699807047843933, -0.14620977640151978, -0.14771756529808044, 0.00904932152479887, 0.171525239944458, 0.23777714371681213, -0.0698496475815773, -0.0394115224480629, 0.020530881360173225, 0.02945530228316784, 0.21725964546203613, -0.22901174426078796, -0.19852639734745026, 0.2301682084798813, -0.02241298370063305, -0.09098504483699799, 0.06823714077472687, -0.17739877104759216, -0.10059341043233871, 0.12132517248392105, 0.1329403519630432, 0.031245766207575798, -0.1883290857076645, -0.10124561935663223, -0.21875953674316406, -0.20728705823421478, -0.19533126056194305, -0.22513005137443542, -0.21653108298778534, -0.1436845362186432, 0.10930465906858444, 0.08238258212804794, -0.2192021608352661, -0.023816583678126335, -0.157718688249588, -0.10753685235977173, -0.16653765738010406, -0.12818345427513123, 0.06418757140636444, -0.22592636942863464, -0.1964622586965561, -0.025769507512450218, 0.14549031853675842, 0.13715627789497375, 0.04395000636577606, -0.0010986716952174902, -0.16784724593162537, -0.22703683376312256, -0.06658542901277542, 0.08949757367372513, 0.047762416303157806, 0.113189697265625, -0.13385704159736633, -0.05986509472131729, 0.08730097115039825, 0.008703385479748249, -0.08295881003141403, 0.22267617285251617, -0.018819088116288185, 0.13068076968193054, 0.20754782855510712, -0.015412327833473682, -0.018651742488145828, 0.03996419906616211, -0.049121323972940445, 0.10818322747945786], "fc2.weight": [[0.09906110167503357, -0.16907082498073578, -0.05367124453186989, 0.05664033815264702, -0.1631949096918106, -0.3310779631137848, -0.0866580381989479, 0.016228867694735527, -0.09841632843017578, 0.08416366577148438, 0.16473910212516785, 0.06506452709436417, -0.08010166883468628, 0.028444461524486542, 0.07752566784620285, -0.02065296284854412, 0.09006785601377487, -0.04245113208889961, 0.009921430610120296, -0.05696537718176842, 0.024853123351931572, -0.011267115361988544, -0.02498534694314003, -0.0038556933868676424, -0.09060215204954147, 0.016010109335184097, 0.08733276277780533, 0.0663672462105751, 0.025533905252814293, -0.033896759152412415, 0.008417597971856594, -0.01847468502819538, -0.02562694437801838, 0.053768090903759, -0.03482672572135925, 0.0461839959025383, 0.19437558948993683, 0.22399646043777466, -0.19195309281349182, -0.003985905554145575, -0.05430002138018608, -0.013774074614048004, -0.06988340616226196, 0.02822837047278881, 0.04756326600909233, 0.16078554093837738, 0.08301343023777008, 0.02495020627975464, 0.019419411197304726, 0.0888751819729805, -0.09239210188388824, -0.05020390823483467, -0.07123316824436188, -0.07188680768013, 0.003869919339194894, -0.03367803245782852, -0.18477478623390198, -0.07892085611820221, -0.0710684061050415, -0.04107656702399254, 0.05769813060760498, -0.06563183665275574, 0.00854848138988018, -0.05192171409726143, -0.04100911691784859, -0.08460616320371628, -0.012411976233124733, 0.07878565043210983, -0.024310575798153877, -0.0887850672006607, 0.038096051663160324, -0.07080775499343872, 0.06499534845352173, 0.021940816193819046, -0.013261844404041767, 0.05367565155029297, -0.3203842043876648, -0.2134680151939392, 0.0886082574725151, 0.08815304189920425, -0.2423192709684372, 0.28972455859184265, -0.03943596035242081, 0.0015365165891125798, -0.06483379006385803, -0.008630208671092987, -0.078913114964962, 0.027595043182373047, 0.0526263602077961, -0.09707564115524292, 0.2833869457244873, 0.053280506283044815, -0.07462403923273087, 0.2847123146057129, 0.0770597830414772, -0.007945514284074306, 0.06866055727005005, -0.041989050805568695, -0.07436487823724747, 0.022177552804350853]], "fc2.bias": [-0.05642545223236084]}