{"fc1.weight": [[0.10745996981859207, 0.10527073591947556, -0.20300495624542236, -0.08718118071556091, -0.13240016996860504, 0.2208269089460373, 0.10917126387357712, 0.16242371499538422, 0.2271764725446701, -0.22473251819610596, -0.15131478011608124, -0.09568047523498535, -0.1699180155992508, 0.1923060268163681, 0.06711415946483612, 0.052075229585170746, 0.13229596614837646], [0.08409558981657028, 0.2142576426267624, 0.1996041089296341, 0.19797328114509583, -0.15081533789634705, -0.188062384724617, 0.014776339754462242, 0.22727444767951965, -0.07638604193925858, -0.02537832222878933, 0.20259326696395874, 0.1720951795578003, 0.21291086077690125, 0.23345212638378143, 0.03559044748544693, -0.07269726693630219, 0.06655903160572052], [-0.015542260371148586, 0.11533161252737045, 0.22711597383022308, -0.1301032155752182, 0.014271151274442673, 0.11433549225330353, -0.22840073704719543, 0.10377580672502518, 0.16076359152793884, 0.1689249724149704, -0.005581239704042673, 0.008310695178806782, 0.19848927855491638, -0.21179957687854767, 0.038186702877283096, 0.03335718810558319, -0.22197510302066803], [0.059490155428647995, 0.2197159081697464, 0.21386031806468964, 0.13874590396881104, 0.04231283441185951, 0.19909435510635376, -0.2011832892894745, 0.17948830127716064, 0.1358586549758911, 0.042258940637111664, 0.169789656996727, -0.02597363106906414, -0.0025718247052282095, 0.15467284619808197, 0.20842202007770538, -0.2182048261165619, 0.2110404223203659], [0.11067952960729599, -0.0785672590136528, -0.12518417835235596, 0.09423524141311646, 0.17596040666103363, 0.08700793236494064, 0.11615584045648575, 0.0027619770262390375, -0.14910845458507538, 0.005826642736792564, -0.04623012989759445, -0.10105013847351074, -0.0014157142722979188, -0.1274317502975464, 0.13648393750190735, -0.16287271678447723, -0.24136456847190857], [0.027275213971734047, -0.21096938848495483, 0.0035394392907619476, 0.050753116607666016, -0.01656217873096466, -0.11794006824493408, -0.10758985579013824, 0.08171805739402771, 0.072843536734581, -0.16983869671821594, 0.010699532926082611, 0.2343166321516037, -0.018247371539473534, 0.11824694275856018, -0.16863501071929932, -0.028326964005827904, 0.14612388610839844], [-0.0020140158012509346, -0.16183482110500336, -0.07051515579223633, 0.13655923306941986, 0.2117520421743393, 0.040083855390548706, -0.11887466162443161, 0.20230337977409363, -0.17298708856105804, -0.009586314670741558, -0.057863134890794754, -0.22541658580303192, 0.16341286897659302, -0.18146343529224396, -0.15756331384181976, -0.14755713939666748, 0.1874236911535263], [0.05126452073454857, 0.20715852081775665, 0.12983305752277374, 0.12434681504964828, 0.10089024901390076, -0.0708184465765953, 0.22902773320674896, -0.17939350008964539, 0.16402959823608398, 0.08573787659406662, -0.20215417444705963, 0.0733800083398819, -0.03489917889237404, -0.09870724380016327, 0.08443392068147659, -0.039267078042030334, 0.041206005960702896], [-0.1628340184688568, -0.24433533847332, -0.053687311708927155, -0.21000653505325317, -0.12578649818897247, -0.11242237687110901, 0.030733447521924973, 0.060201700776815414, 0.07149479538202286, 0.03537721931934357, 0.0482478104531765, -0.05148361995816231, 0.10321229696273804, 0.04158172756433487, -0.04026775434613228, 0.18687157332897186, -0.03820956125855446], [0.19591909646987915, -0.08929958194494247, 0.18278227746486664, 0.14258785545825958, 0.19024033844470978, -0.09428180754184723, 0.08070967346429825, -0.0971488282084465, -0.01841234602034092, -0.12283021211624146, 0.08676204085350037, -0.015061821788549423, -0.2136678546667099, 0.06337093561887741, 0.10076893866062164, -0.17521260678768158, 0.09566058963537216], [-0.19728608429431915, -0.20260071754455566, -0.12960749864578247, 0.20928066968917847, 0.1917625218629837, 0.037803903222084045, 0.1639685034751892, 0.00792268943041563, 0.03327418118715286, -0.06121279299259186, 0.24124270677566528, -0.14104129374027252, 0.21671760082244873, 0.11715099215507507, -0.20312300324440002, 0.054633982479572296, -0.18755801022052765], [-0.17304222285747528, -0.08851370215415955, 0.05244211480021477, -0.07664728164672852, 0.0887145847082138, -0.22701199352741241, -0.04213104397058487, 0.03785744309425354, -0.22442330420017242, 0.15741831064224243, 0.0429406613111496, 0.12284687161445618, 0.20855987071990967, -0.22509346902370453, 0.12780283391475677, -0.013554180040955544, 0.10790487378835678], [0.07978658378124237, -0.13275642693042755, -0.007890943437814713, 0.09786825627088547, -0.16411006450653076, -0.08008241653442383, -0.15029528737068176, -0.11099028587341309, -0.18551190197467804, -0.15784890949726105, -0.11823994666337967, -0.07560349255800247, -0.14431174099445343, -0.1671208143234253, -0.07368789613246918, 0.03872152790427208, -0.1775769591331482], [0.2362287938594818, -0.1103605255484581, 0.03887582942843437, -0.12790846824645996, 0.20000490546226501, -0.1056593805551529, -0.08890418708324432, 0.1662289798259735, 0.03594721853733063, 0.18846923112869263, -0.22479772567749023, 0.22717531025409698, -0.16984927654266357, 0.038922592997550964, -0.14061589539051056, 0.1962950974702835, 0.20205053687095642], [-0.04506468027830124, 0.00725905317813158, 0.12869739532470703, -0.03807661682367325, 0.0940299928188324, 0.00560210645198822, -0.0218336284160614, -0.019771955907344818, -0.17409120500087738, 0.1495968997478485, -0.0068730139173567295, 0.03664770349860191, -0.03793414682149887, 0.21836863458156586, 0.1809045821428299, -0.010529049672186375, 0.0832795649766922], [-0.034741491079330444, 0.07493419945240021, -0.007722904440015554, -0.2012350708246231, -0.03173655644059181, -0.18180020153522491, 0.20502933859825134, 0.14450933039188385, 0.021758651360869408, -0.2117670774459839, -0.053620774298906326, 0.24014808237552643, -0.07959998399019241, 0.21403582394123077, -0.11227390915155411, 0.23485931754112244, 0.04767731949687004], [-0.14727665483951569, -0.04087621346116066, -0.07544466108083725, -0.1198912262916565, 0.22770623862743378, -0.032398998737335205, 0.15864597260951996, -0.09940776228904724, -0.21019062399864197, -0.010131055489182472, 0.14671339094638824, -0.18595680594444275, 0.07267343997955322, -0.10530360043048859, -0.23178550601005554, 0.0076772733591496944, -0.11769413948059082], [-0.1633477509021759, -0.17339351773262024, -0.025364357978105545, 0.013263926841318607, 0.0940602496266365, -0.07939409464597702, 0.20619845390319824, 0.004087013192474842, -0.18279863893985748, -0.07790724188089371, -0.09996727854013443, -0.00762286689132452, 0.14714157581329346, 0.24250563979148865, -0.23136042058467865, -0.1852370649576187, 0.13159917294979095], [-0.01643899828195572, 0.17609448730945587, -0.11157723516225815, -0.20249758660793304, 0.09397576749324799, -0.11335893720388412, -0.17072944343090057, 0.007562388200312853, 0.09547676146030426, 0.19477801024913788, 0.05387285351753235, 0.12048778682947159, -0.21934469044208527, 0.03584009036421776, 0.20468458533287048, 0.17082248628139496, 0.19016219675540924], [0.06778495013713837, -0.04440521448850632, -0.15018664300441742, -0.24035853147506714, 0.2432347536087036, -0.10930104553699493, -0.13793274760246277, -0.10253007709980011, -0.15101605653762817, -0.048485320061445236, 0.15351571142673492, 0.12559081614017487, 0.09819963574409485, 0.11358899623155594, 0.11284168064594269, -0.04251891002058983, 0.09894052147865295], [0.1389245092868805, 0.17906123399734497, 0.14185252785682678, -0.17202386260032654, 0.11096446216106415, 0.23847989737987518, -0.025163130834698677, 0.19357120990753174, -0.08704524487257004, 0.10057682543992996, -0.09728237986564636, 0.19905441999435425, -0.20972011983394623, -0.02348625659942627, 0.15869149565696716, -0.15969716012477875, -0.23273888230323792], [-0.23856881260871887, 0.14117054641246796, 0.10251162201166153, 0.008239331655204296, 0.09286566823720932, 0.24007880687713623, 0.14430655539035797, -0.10097493976354599, -0.02435813471674919, -0.2287159115076065, -0.21934671700000763, 0.11648645251989365, 0.21515239775180817, -0.1784655749797821, -0.15426430106163025, 0.1735948920249939, -0.007210996467620134], [-0.08260473608970642, 0.08443768322467804, 0.20254704356193542, -0.05150086432695389, -0.03763062134385109, -0.1473790854215622, 0.037099312990903854, 0.08756363391876221, 0.137894406914711, -0.12204913794994354, 0.037178512662649155, -0.15824487805366516, -0.053674936294555664, 0.12751682102680206, -0.21739158034324646, -0.06810487061738968, -0.22475789487361908], [-0.09958745539188385, 0.07989060878753662, -0.18627038598060608, -0.22911204397678375, -0.2193216234445572, -0.21747605502605438, 0.0944347083568573, -0.1045667827129364, 0.17350466549396515, -0.20853471755981445, 0.17480824887752533, 0.016171956434845924, -0.09182225912809372, 0.0748545452952385, 0.15905971825122833, 0.2240920215845108, -0.19722363352775574], [0.12796364724636078, -0.22664514183998108, -0.19383034110069275, -0.16825953125953674, 0.03348308056592941, 0.2374642789363861, 0.08591511845588684, -0.043329790234565735, 0.1769639104604721, -0.15979811549186707, -0.14258408546447754, -0.14879779517650604, -0.1030130609869957, -0.03617524355649948, 0.0044626290909945965, 0.04331469163298607, -0.0841844230890274], [-0.05730544030666351, 0.16018134355545044, -0.007073471788316965, -0.10650063306093216, 0.16792219877243042, 0.053708262741565704, -0.07250642031431198, -0.18176637589931488, 0.1517173796892166, -0.21463988721370697, 0.014913384802639484, 0.025099951773881912, -0.02504672482609749, -0.08261489123106003, 0.10091676563024521, 0.09355344623327255, -0.11134767532348633], [0.02061634697020054, 0.07152235507965088, -0.09249944239854813, -0.1166650578379631, 0.2061992585659027, 0.08953096717596054, -0.06756874173879623, -0.1317838579416275, 0.03003118187189102, -0.18476876616477966, -0.0324990376830101, -0.21222777664661407, -0.2399081140756607, 0.11382382363080978, -0.18483878672122955, -0.20439399778842926, 0.20116932690143585], [-0.15696057677268982, 0.09149548411369324, 0.21588554978370667, -0.0927889421582222, -0.08462165296077728, -0.21993818879127502, -0.03726459667086601, 0.23588331043720245, -0.1995040476322174, 0.0593554824590683, -0.09159638732671738, 0.206062451004982, -0.12163566052913666, 0.20388206839561462, -0.01092877984046936, -0.12397535145282745, -0.0026430650614202023], [-0.15296348929405212, 0.04145263135433197, -0.04532913118600845, -0.10389640182256699, 0.14834003150463104, 0.014925701543688774, -0.21586251258850098, -0.131841778755188, 0.009311617352068424, -0.04648863896727562, -0.0866277739405632, 0.0758284330368042, -0.1608206331729889, -0.010551616549491882, -0.09666778147220612, -0.19941087067127228, -0.06876213103532791], [-0.21755439043045044, 0.17212532460689545, 0.11794903129339218, 0.03519449010491371, -0.22140680253505707, -0.13395076990127563, -0.12561818957328796, -0.016540521755814552, -0.19829776883125305, -0.08697625994682312, 0.19620035588741302, 0.21545620262622833, -0.15867124497890472, -0.08168374001979828, 0.16860806941986084, -0.16728046536445618, 0.048717908561229706], [0.09112682193517685, -0.010707599110901356, -0.1427089124917984, 0.12420210987329483, -0.12956503033638, -0.06772299110889435, 0.02201441116631031, 0.02792374975979328, -0.10925579816102982, 0.047273583710193634, 0.1213247999548912, 0.19021373987197876, -0.20920173823833466, 0.17798462510108948, 0.23100988566875458, -0.1476369947195053, -0.00927145779132843], [0.060623496770858765, 0.20940062403678894, -0.20676478743553162, 0.027274085208773613, 0.14329887926578522, -0.14560693502426147, 0.07912688702344894, -0.07648211717605591, -0.08091633766889572, -0.23378652334213257, 0.1378566175699234, 0.09355931729078293, 0.14354249835014343, -0.07479088008403778, -0.12018729001283646, -0.002057644771412015, -0.22550846636295319], [-0.11257431656122208, -0.09131781756877899, -0.14360158145427704, 0.1398993730545044, -0.20925404131412506, 0.005782760214060545, 0.031654588878154755, 0.14431136846542358, -0.039312586188316345, -0.15571069717407227, -0.19070783257484436, 0.004765791818499565, -0.22167859971523285, -0.019687561318278313, 0.1398184448480606, -0.10635364800691605, 0.0415402352809906], [-0.03034774400293827, 0.08029113709926605, 0.22889100015163422, -0.10290288180112839, 0.19977207481861115, 0.14995861053466797, 0.11721152812242508, -0.08005046844482422, -0.002858000574633479, -0.029604114592075348, -0.051212016493082047, 0.18856865167617798, -0.20543798804283142, -0.1163039356470108, 0.21508780121803284, 0.00040327152237296104, -0.021379174664616585], [-0.022579215466976166, 0.21946541965007782, 0.02516668289899826, 0.09197476506233215, -0.016436060890555382, -0.176224023103714, -0.12769939005374908, 0.16546131670475006, 0.13271351158618927, -0.2380179613828659, 0.007087205071002245, 0.10487297922372818, -0.0721932128071785, 0.04081672802567482, -0.2172919511795044, -0.14946269989013672, 0.08188855648040771], [0.1869179755449295, -0.14699429273605347, 0.1875438690185547, 0.007929657585918903, 0.2130635529756546, -0.07121732831001282, 0.11216424405574799, 0.07945767790079117, 0.20830775797367096, 0.0364483967423439, 0.06421211361885071, 0.08960191905498505, -0.20614975690841675, -0.2173466980457306, 0.05593773350119591, 0.005294254515320063, -0.02062675543129444], [-0.1329822838306427, 0.2335585653781891, -0.2127203494310379, -0.20192833244800568, -0.057909391820430756, 0.22373269498348236, -0.03855038061738014, 0.01784350723028183, -0.1284044086933136, -0.02718731015920639, -0.05760528892278671, -0.030895700678229332, 0.21983695030212402, -0.0612470805644989, 0.0546843446791172, 0.13605640828609467, -0.09157221764326096], [0.15140831470489502, -0.12264826893806458, -0.031761132180690765, -0.09398811310529709, -0.024908291175961494, -0.10663250833749771, -0.16906435787677765, 0.09104066342115402, 0.015793655067682266, 0.03523421660065651, 0.22587701678276062, -0.028821684420108795, 0.06583084166049957, -0.131694957613945, 0.14002104103565216, -0.13237139582633972, 0.18215423822402954], [-0.24459069967269897, 0.15182210505008698, -0.1506098359823227, -0.02246047370135784, -0.20334988832473755, 0.2030303031206131, 0.05747607722878456, -0.05507799610495567, 0.1444234997034073, -0.11433443427085876, 0.012360382825136185, -0.06355734914541245, 0.12859199941158295, 0.037159714847803116, 0.0888114795088768, 0.06675412505865097, -0.007700941525399685], [0.09913315623998642, -0.0061071873642504215, 0.03381654992699623, -0.15563681721687317, -0.07337471842765808, -0.09340197592973709, -0.21149805188179016, -0.06796605885028839, -0.14820769429206848, 0.10903435200452805, 0.10210798680782318, 0.0146842822432518, -0.21568524837493896, -0.06874649226665497, 0.08265132457017899, 0.11229166388511658, -0.08811026066541672], [-0.07573192566633224, 0.17749625444412231, 0.044220685958862305, 0.010089652612805367, -0.06624425947666168, -0.156507208943367, 0.1229122057557106, -0.033228181302547455, -0.03481810912489891, 0.0383172444999218, 0.20599041879177094, -0.13442131876945496, 0.22657331824302673, -0.12779510021209717, 0.14975440502166748, 0.1471443772315979, -0.10557609796524048], [-0.03503275290131569, 0.24228517711162567, -0.11429024487733841, 0.09888210892677307, 0.05869939923286438, -0.040163394063711166, 0.2296372950077057, 0.18686451017856598, -0.20522817969322205, -0.20630568265914917, -0.23784485459327698, -0.07480663806200027, -0.18007196485996246, 0.0544009767472744, -0.23520265519618988, 0.07526545226573944, -0.07033494859933853], [-0.22385944426059723, -0.15303181111812592, -0.168251171708107, 0.23868170380592346, -0.216636523604393, 0.18092939257621765, 0.09086400270462036, 0.14429840445518494, -0.15100446343421936, -0.14049358665943146, 0.027781065553426743, -0.030283818021416664, 0.16168606281280518, -0.12592223286628723, -0.10225145518779755, 0.14212431013584137, -0.22743456065654755], [0.20839126408100128, 0.1572130173444748, 0.11249159276485443, -0.21197403967380524, 0.08610862493515015, 0.1111832782626152, -0.09282979369163513, -0.1417398601770401, -0.20697084069252014, 0.239524245262146, 0.17778538167476654, -0.0878969207406044, 0.05050929635763168, 0.07671599090099335, -0.09043511748313904, 0.06381795555353165, 0.1408439725637436], [-0.02046097069978714, -0.16088207066059113, -0.009263507090508938, 0.021297119557857513, 0.23250959813594818, 0.16996857523918152, 0.040422968566417694, 0.023883691057562828, -0.09550020843744278, 0.13243864476680756, 0.012582517229020596, -0.07893138378858566, -0.1175156906247139, -0.10823825001716614, -0.2241484820842743, 0.024317463859915733, -0.2332746833562851], [-0.009409948252141476, -0.06895630806684494, -0.22686752676963806, 0.13468249142169952, 0.04315534606575966, -0.09574877470731735, -0.08416023850440979, -0.19631116092205048, -0.21899598836898804, -0.019215276464819908, -0.14779381453990936, -0.0036126456689089537, -0.17521844804286957, -0.1885472536087036, 0.11700229346752167, -0.05655764788389206, 0.14388218522071838], [0.14842060208320618, -0.23915480077266693, -0.14819049835205078, 0.07084455341100693, -0.10122402012348175, -0.18100076913833618, -0.1498485654592514, 0.04722920432686806, 0.1953200101852417, -0.03150291368365288, 0.08540090173482895, 0.08430705219507217, 0.00026495414203964174, 0.1994618922472, -0.18555821478366852, -0.13874755799770355, -0.1549002230167389], [-0.06239048391580582, -0.21788595616817474, -0.002763832453638315, 0.14565454423427582, 0.15404090285301208, 0.15190663933753967, -0.1763560026884079, 0.07237986475229263, -0.13997098803520203, 0.04125455021858215, -0.1334984302520752, -0.06412775069475174, 0.031161487102508545, -0.12235350161790848, -0.026971891522407532, -0.17132465541362762, 0.0927031859755516], [0.01936732605099678, 0.0005104501615278423, 0.02080659009516239, 0.0924922376871109, -0.1387181580066681, -0.18580877780914307, -0.1111668273806572, -0.056438326835632324, 0.18569737672805786, 0.22338074445724487, -0.04438849166035652, -0.08385960757732391, 0.07694251835346222, -0.17277739942073822, 0.10626812279224396, 0.05999187380075455, -0.16183312237262726], [-0.11846983432769775, -0.0064956555142998695, 0.03826320543885231, 0.24086399376392365, 0.028267662972211838, -0.13761109113693237, -0.13411247730255127, -0.010866763070225716, -0.06948384642601013, 0.018345413729548454, -0.1041375920176506, 0.05334541201591492, -0.13529427349567413, 0.2260410338640213, -0.002373629482463002, -0.07680726796388626, -0.07928521186113358], [0.10668836534023285, -0.029054025188088417, 0.1890585720539093, -0.124873086810112, -0.04279292747378349, 0.10503289103507996, 0.2299107164144516, -0.0054486761800944805, 0.11353649199008942, 0.11404558271169662, -0.18017853796482086, -0.049687545746564865, -0.18055884540081024, 0.14472226798534393, -0.004669079557061195, 0.11315548419952393, -0.149094358086586], [0.12531211972236633, 0.18775637447834015, 0.11963584274053574, 0.14419274032115936, 0.1910196989774704, 0.2308080792427063, -0.1760638803243637, -0.046860598027706146, -0.1105666309595108, 0.032754361629486084, 0.02261318825185299, 0.04536206275224686, -0.1651618927717209, 0.21091173589229584, -0.15604639053344727, -0.19156000018119812, 0.1230945885181427], [-0.12645748257637024, -0.03112739883363247, 0.030946465209126472, 0.16200928390026093, -0.19938088953495026, 0.04410526528954506, -0.11077682673931122, -0.03331783786416054, 0.056542959064245224, 0.1352207213640213, -0.027271106839179993, -0.18150191009044647, 0.16240760684013367, 0.15588384866714478, 0.04055582359433174, -0.09336519241333008, 0.23883046209812164], [0.032149024307727814, 0.24551984667778015, -0.05454868823289871, -0.035985685884952545, -0.20012500882148743, 0.23672541975975037, 0.14933302998542786, -0.17781470715999603, 0.19340060651302338, -0.057275306433439255, 0.08058582246303558, -0.06277266889810562, -0.2155403047800064, -0.10231640934944153, 0.009429960511624813, -0.0645289272069931, -0.15258702635765076], [-0.03972455859184265, -0.0007770812371745706, 0.02287944406270981, 0.22266122698783875, -0.16069573163986206, -0.11879377067089081, -0.19094453752040863, -0.14578008651733398, -0.12921962141990662, -0.10653743892908096, 0.22260528802871704, -0.14573200047016144, -0.13540111482143402, -0.05374162644147873, -0.07593688368797302, -0.22233708202838898, 0.1142110526561737], [-0.05430785194039345, -0.20177258551120758, -0.13488398492336273, -0.1068476140499115, 0.17373274266719818, 0.06827111542224884, -0.07696307450532913, 0.14916686713695526, 0.15960262715816498, -0.21110495924949646, 0.011775858700275421, 0.16043157875537872, 0.2364291548728943, 0.2066454142332077, 0.16053341329097748, -0.09883569926023483, 0.11378658562898636], [0.02579127997159958, 0.10382813960313797, -0.17516961693763733, 0.010541381314396858, -0.22590717673301697, -0.09444490075111389, -0.09865710884332657, 0.14141690731048584, 0.06673204153776169, 0.14672896265983582, -0.18786819279193878, 0.044079504907131195, 0.057083044201135635, 0.2219495177268982, -0.03378017991781235, 0.21314583718776703, 0.06417430192232132], [-0.2264239341020584, 0.1410302221775055, 0.1920291632413864, 0.15323761105537415, -0.08042364567518234, 0.08800511062145233, -0.0751916691660881, 0.1730673611164093, -0.03782911226153374, -0.13292807340621948, 0.17421017587184906, -0.12133104354143143, 0.047022104263305664, -0.019321125000715256, 0.12059250473976135, 0.14211225509643555, -0.0467485636472702], [0.12600399553775787, -0.21137520670890808, 0.18460509181022644, -0.16709376871585846, -0.11767956614494324, -0.1348467320203781, -0.15055012702941895, 0.023021461442112923, 0.020853139460086823, -0.21702948212623596, -0.04625837877392769, 0.06758435070514679, -0.15892446041107178, -0.0778714194893837, -0.022860419005155563, -0.06965402513742447, 0.19369663298130035], [-0.18586109578609467, -0.22555115818977356, -0.07824680209159851, -0.2304248958826065, 0.10876081883907318, -0.03641991689801216, -0.06723140925168991, 0.19023491442203522, 0.18678675591945648, -0.009915050119161606, 0.0018950658850371838, -0.012434817850589752, 0.24052736163139343, -0.19396276772022247, -0.19779203832149506, -0.14774154126644135, -0.12599584460258484], [0.032697174698114395, 0.19933240115642548, -0.16607746481895447, -0.23538830876350403, 0.09273296594619751, 0.08797439932823181, 0.14004549384117126, -0.21816770732402802, -0.02392529509961605, 0.0324648916721344, -0.21886536478996277, 0.023428868502378464, -0.2425188273191452, 0.16935467720031738, 0.22711490094661713, -0.13183122873306274, 0.22013811767101288], [0.06037607043981552, -0.21838565170764923, -0.021818732842803, -0.003414892591536045, 0.052488911896944046, -0.1290920376777649, 0.13619525730609894, -0.07202033698558807, 0.009740985929965973, 0.06970232725143433, -0.10814792662858963, 0.16361308097839355, -0.0070227328687906265, -0.20499911904335022, -0.13862913846969604, -0.06646162271499634, 0.06953945755958557], [-0.14606820046901703, -0.17704054713249207, 0.11806106567382812, -0.05062919855117798, -0.1740056872367859, -0.07705811411142349, -0.14178365468978882, 0.2403443455696106, -0.08092900365591049, -0.13899317383766174, -0.17534390091896057, -0.22119399905204773, 0.17805927991867065, -0.09262199699878693, -0.04339858517050743, -0.06261556595563889, 0.073248952627182], [-0.1041470393538475, 0.1416117399930954, -0.08376234024763107, -0.14378148317337036, -0.201777383685112, 0.10089985281229019, -0.029567569494247437, 0.09977737814188004, -0.09333371371030807, 0.07753413170576096, -0.22679531574249268, -0.17777621746063232, -0.168621227145195, -0.08553676307201385, -0.14693257212638855, 0.04122373089194298, 0.15934285521507263], [-0.20776638388633728, 0.1635386198759079, -0.21676188707351685, 0.0803004801273346, 0.18220144510269165, -0.07387027144432068, 0.07030873745679855, 0.1398428976535797, 0.1760246455669403, 0.21515309810638428, 0.09899884462356567, -0.08817131072282791, -0.27576786279678345, 0.03843843936920166, -0.06771130859851837, 0.11535541713237762, -0.06285654008388519], [0.03720327839255333, -0.0003818991535808891, -0.09342827647924423, -0.22226901352405548, 0.19608557224273682, 0.09472133219242096, 0.11509615927934647, -0.040691476315259933, -0.061461083590984344, -0.010803444311022758, -0.09669982641935349, -0.02406858652830124, 0.08255483210086823, -0.07025373727083206, -0.0999436303973198, 0.12022566795349121, -0.16066722571849823], [0.1569305956363678, 0.06039372831583023, -0.09433526545763016, 0.14408202469348907, 0.022518470883369446, -0.1546546369791031, 0.07162698358297348, -0.13929758965969086, 0.05727918818593025, -0.18079228699207306, -0.2393636852502823, 0.2063390165567398, -0.022528590634465218, -0.05073712766170502, 0.08078502118587494, 0.20812442898750305, 0.15045304596424103], [-0.2109409123659134, 0.22780774533748627, 0.18853826820850372, 0.010392626747488976, -0.11378534138202667, -0.012923771515488625, 0.03919823467731476, 0.07430411130189896, -0.021085307002067566, 0.10130506008863449, -0.21456661820411682, -0.08367899060249329, 0.08235621452331543, -0.07056306302547455, -0.21613863110542297, -0.18345960974693298, -0.0997876450419426], [-0.09489437937736511, 0.06471791118383408, -0.019478870555758476, 0.09717042744159698, 0.18248285353183746, -0.2011718451976776, 0.21817220747470856, 0.030918795615434647, 0.053417056798934937, -0.20123301446437836, -0.13998934626579285, 0.1513010412454605, -0.18604221940040588, -0.15975421667099, 0.19034048914909363, -0.012342948466539383, 0.13662667572498322], [0.0491512194275856, 0.0926724225282669, 0.1752769649028778, 0.0685153678059578, 0.15093626081943512, 0.10080044716596603, 0.17774681746959686, 0.035743653774261475, 0.010486765764653683, 0.1347402036190033, 0.15518277883529663, -0.06173107773065567, 0.11016124486923218, 0.2188844382762909, 0.02107108198106289, 0.21795111894607544, -0.23917657136917114], [0.09998277574777603, -0.164027139544487, 0.14030833542346954, 0.04975300282239914, -0.11198557168245316, 0.05475752800703049, 0.1070900484919548, 0.08265964686870575, 0.13504892587661743, 0.0954829528927803, 0.15884581208229065, 0.23380859196186066, -0.2055642008781433, -0.13688744604587555, 0.2011767476797104, -0.1902591586112976, -0.1556878536939621], [0.011687646619975567, 0.010067476890981197, -0.05035313963890076, -0.17352211475372314, 0.18898724019527435, -0.0318002812564373, 0.05957698076963425, 0.20336155593395233, 0.22015023231506348, -0.22526437044143677, -0.022077960893511772, -0.13967642188072205, 0.21007685363292694, -0.18411751091480255, 0.20687121152877808, 0.024250762537121773, -0.11143302172422409], [0.1545216143131256, -0.2117730677127838, 0.18455155193805695, 0.07652866840362549, 0.07996726036071777, 0.2349138855934143, -0.0021319787483662367, 0.22627387940883636, 0.18129174411296844, 0.12673279643058777, 0.11385444551706314, -0.08179227262735367, -0.050291385501623154, -0.08971817046403885, 0.10593473166227341, 0.15060023963451385, -0.06101711094379425], [-0.22935794293880463, 0.07684756815433502, -0.14489968121051788, -0.16690155863761902, 0.03606734797358513, -0.16174368560314178, 0.008341421373188496, 0.03882376849651337, 0.14306330680847168, -0.17315956950187683, -0.10359953343868256, 0.10463092476129532, 0.11553908884525299, -0.16865956783294678, 0.16015902161598206, -0.07200833410024643, 0.120540089905262], [-0.04836263135075569, -0.13837365806102753, 0.22085843980312347, -0.08357689529657364, -0.15023931860923767, 0.15550905466079712, -0.15725941956043243, -0.1565324366092682, -0.014705677516758442, 0.21984587609767914, -0.12917323410511017, -0.09943459182977676, 0.11794134229421616, -0.04369155690073967, 0.04194784536957741, -0.22563953697681427, -0.021045783534646034], [-0.04467051476240158, -0.12171671539545059, -0.11611565947532654, 0.05572712421417236, 0.06171031296253204, -0.12831874191761017, 0.03289184719324112, 0.16703389585018158, -0.015232373028993607, -0.20244109630584717, -0.016144638881087303, 0.22533980011940002, -0.20409390330314636, -0.161020889878273, 0.17662762105464935, 0.15659673511981964, 0.07439202070236206], [0.09199384599924088, -0.048014841973781586, 0.1002824530005455, 0.15266796946525574, 0.0791921466588974, -0.12444405257701874, 0.014072233811020851, -0.2198553830385208, 0.05074672773480415, 0.03319874778389931, 0.046241581439971924, -0.1752673089504242, 0.16832555830478668, 0.10701625794172287, -0.21321770548820496, 0.05185433477163315, 0.05895223841071129], [-0.12944093346595764, 0.1346953809261322, 0.210381880402565, 0.006098137702792883, 0.1299283802509308, 0.20933189988136292, 0.10133221000432968, -0.03334600105881691, 0.017930548638105392, 0.04933620244264603, 0.1973872184753418, 0.127633735537529, 0.1873651146888733, 0.11487392336130142, 0.21632897853851318, 0.049537114799022675, -0.04176514595746994], [0.17947612702846527, -0.040692348033189774, -0.2086145281791687, -0.09767133742570877, 0.23417210578918457, 0.17530488967895508, -0.087867371737957, 0.22449550032615662, -0.1548970341682434, 0.07141821086406708, -0.21627119183540344, -0.23773996531963348, -0.1455213725566864, 0.20681263506412506, 0.1380281299352646, -0.11334098875522614, 0.03804757818579674], [-0.00395574513822794, 0.16199280321598053, -0.1316097527742386, -0.07290218770503998, 0.16689200699329376, 0.24182064831256866, 0.20162050426006317, -0.0910906121134758, -0.22517038881778717, -0.16105982661247253, 0.21765345335006714, 0.09557110071182251, -0.057525910437107086, -0.22616472840309143, -0.1937958002090454, 0.11352070420980453, -0.1456034630537033], [0.033308498561382294, 0.08332064747810364, -0.1262756884098053, 0.05739755555987358, 0.1303536742925644, 0.02148239128291607, 0.2263551503419876, 0.21969032287597656, 0.09505143016576767, 0.07337622344493866, -0.22471436858177185, -0.2289048582315445, 0.15773126482963562, 0.04835060238838196, -0.12804362177848816, 0.011801359243690968, 0.21373261511325836], [0.15628552436828613, -0.19256074726581573, 0.12849755585193634, 0.0033568856306374073, 0.2129945009946823, -0.12463285028934479, 0.11035111546516418, -0.10527031868696213, -0.10311567783355713, -0.09825288504362106, 0.19175784289836884, 0.19892501831054688, 0.06090423837304115, -0.1862143576145172, -0.15055252611637115, -0.22680620849132538, 0.05603739619255066], [0.16991734504699707, -0.15780355036258698, 0.15531659126281738, -0.16564366221427917, -0.22782765328884125, -0.18208524584770203, 0.23937591910362244, 0.09985709190368652, 0.17406943440437317, 0.1419762670993805, 0.032668087631464005, 0.023550329729914665, -0.08791117370128632, -0.11294130235910416, -0.06835206598043442, 0.021898673847317696, -0.09171871840953827], [-0.14755968749523163, -0.06296049058437347, -0.1462417095899582, 0.16996707022190094, 0.04494910687208176, 0.2120644748210907, 0.17054395377635956, -0.20624783635139465, -0.12744201719760895, -0.056730370968580246, -0.24218766391277313, -0.05958212539553642, 0.19689616560935974, -0.1761673241853714, 0.02016516774892807, -0.14171816408634186, 0.008196202106773853], [0.06078188121318817, -0.2180861383676529, -0.0704575628042221, -0.21448375284671783, -0.12134963274002075, -0.14116628468036652, -0.2300277203321457, 0.13634631037712097, -0.06670859456062317, -0.0009329774184152484, -0.15056940913200378, -0.0027583101764321327, 0.02629747986793518, 0.13641902804374695, 0.09607334434986115, 0.21762967109680176, -0.07285042107105255], [0.01541079580783844, -0.019026534631848335, -0.04154697060585022, 0.10347642004489899, -0.12613317370414734, -0.1403527706861496, -0.02800722047686577, 0.10222673416137695, -0.07859356701374054, -0.06661656498908997, 0.08136717230081558, 0.03324226289987564, -0.043050333857536316, 0.2028033435344696, 0.08717162162065506, -0.09162093698978424, -0.23198674619197845], [-0.2347807139158249, 0.1252654492855072, 0.2344820499420166, 0.18680010735988617, 0.023754248395562172, -0.013494851067662239, 0.12414729595184326, 0.14393700659275055, 0.013526568189263344, 0.1899622082710266, 0.10813147574663162, 0.1283397227525711, 0.026258014142513275, -0.20263850688934326, 0.02217545360326767, 0.13515092432498932, 0.11860566586256027], [0.035120099782943726, 0.1863640397787094, -0.20618824660778046, -0.07384425401687622, -0.07267755270004272, 0.195150226354599, 0.1071576178073883, -0.07233539968729019, -0.0723232552409172, -0.1384340226650238, -0.22902260720729828, -0.2261354923248291, -0.07080408185720444, 0.12438501417636871, -0.21653087437152863, 0.021279888227581978, 0.22769831120967865], [-0.1329975426197052, 0.14054305851459503, 0.041725222021341324, 0.11226406693458557, -0.20453022420406342, 0.19877447187900543, -0.0006997347227297723, -0.13466773927211761, 0.02151639759540558, 0.23095420002937317, 0.0864613726735115, 0.14028114080429077, -0.11944360285997391, -0.2416735589504242, -0.06469982862472534, 0.125912606716156, -0.04146381840109825], [0.19721920788288116, -0.0027307902928441763, 0.13440488278865814, -0.03625733405351639, 0.03809688240289688, -0.12438749521970749, -0.13393358886241913, 0.061449628323316574, 0.24201355874538422, 0.1466032862663269, 0.007715990766882896, -0.12262056022882462, 0.13410307466983795, -0.08112546801567078, -0.21524761617183685, -0.2066797912120819, -0.18719325959682465], [0.2075088918209076, -0.09383776783943176, 0.011624442413449287, -0.03384636342525482, 0.1280495524406433, -0.14615510404109955, 0.19639232754707336, 0.22334600985050201, -0.14434851706027985, 0.03740018978714943, -0.1558568775653839, 0.12955553829669952, -0.23896560072898865, 0.08837670832872391, 0.09209172427654266, -0.23059497773647308, 0.08516330271959305], [0.19698502123355865, -0.19834232330322266, -0.1620316356420517, -0.12107684463262558, 0.12059750407934189, 0.03716175630688667, 0.15468646585941315, -0.11518534272909164, 0.1992989480495453, 0.11999667435884476, 0.05703042447566986, -0.0899764746427536, -0.07683832198381424, 0.09996698796749115, 0.11782869696617126, 0.14242202043533325, 0.23729853332042694], [0.026023970916867256, -0.13090871274471283, 0.2408616542816162, -0.0329376757144928, -0.17152194678783417, -0.2207888513803482, -0.16203901171684265, -0.11356606334447861, -0.040231164544820786, -0.07052531838417053, 0.07465534657239914, -0.1786876767873764, 0.04671403393149376, -0.05528640002012253, 0.14206723868846893, 0.10931555926799774, 0.1715785413980484], [0.023806840181350708, 0.08555711805820465, 0.19284296035766602, 0.06801636517047882, -0.09086596965789795, -0.21327169239521027, 0.16727441549301147, -0.22668087482452393, -0.025952957570552826, 0.12573961913585663, -0.2143426090478897, -0.0925934910774231, 0.213943213224411, -0.03713154047727585, -0.12450054287910461, 0.19113723933696747, -0.022388653829693794], [0.21925418078899384, 0.2322465479373932, 0.24240952730178833, -0.01182197593152523, 0.08247946947813034, 0.06300802528858185, -0.23780997097492218, 0.23477862775325775, -0.1263580620288849, -0.18088923394680023, -0.1723955273628235, 0.09988249093294144, -0.12820851802825928, -0.11285629868507385, -0.0516708567738533, -0.1314624398946762, 0.05675624683499336], [-0.043444305658340454, 0.23173114657402039, -0.08617859333753586, -0.09230709075927734, 0.10300944745540619, -0.013792444951832294, 0.030044715851545334, -0.19790597259998322, 0.1998843252658844, 0.2376987785100937, -0.016915997490286827, -0.15466971695423126, -0.15930531919002533, 0.02227783389389515, 0.11679196357727051, -0.005183725617825985, -0.09423089027404785], [0.20792289078235626, -0.2053692489862442, -0.1976238638162613, -0.058540791273117065, -0.022923970595002174, 0.09559661895036697, 0.003257051110267639, -0.06072390079498291, 0.14400218427181244, 0.20569351315498352, 0.012684916146099567, 0.11225111782550812, 0.14732596278190613, 0.01731170527637005, -0.13892143964767456, -0.029180236160755157, -0.2381807118654251], [0.1174849271774292, -0.17337648570537567, -0.1336800903081894, 0.01647818647325039, -0.128307044506073, 0.11711449921131134, -0.24060691893100739, -0.009082399308681488, 0.21679820120334625, 0.028136922046542168, 0.03475019335746765, 0.18355754017829895, -0.09894357621669769, -0.006753063295036554, -0.2059328556060791, 0.20704616606235504, 0.014094699174165726], [-0.05582695081830025, 0.12202482670545578, -0.032901130616664886, -0.04477548599243164, -0.18251781165599823, -0.23093439638614655, 0.21594268083572388, -0.1159653440117836, -0.029729370027780533, -0.09021491557359695, 0.22806601226329803, -0.018483992666006088, -0.2404440939426422, -0.14323535561561584, 0.10930069535970688, 0.17126743495464325, 0.1386411339044571], [0.07280517369508743, -0.19561068713665009, -0.2210056036710739, 0.16745208203792572, -0.05756229907274246, -0.03475175425410271, 0.02482594922184944, 0.06110665202140808, 0.12014444172382355, 0.05290738865733147, -0.20684663951396942, 0.18048277497291565, -0.19293738901615143, 0.10563357919454575, -0.16803178191184998, 0.1122576892375946, 0.11154184490442276]], "fc1.bias": [0.003771158866584301, -0.050062019377946854, 0.20833653211593628, 0.22371159493923187, 0.006993081886321306, 0.014753643423318863, 0.23854690790176392, -0.22316060960292816, 0.13391731679439545, 0.1576412320137024, -0.0821995958685875, -0.11979873478412628, 0.05878717824816704, -0.15973573923110962, -0.20878086984157562, 0.2098841816186905, -0.204879492521286, -0.09696682542562485, 0.2234509289264679, -0.23546314239501953, -0.20908915996551514, 0.014858607202768326, -0.09472402930259705, -0.04312432184815407, -0.13366737961769104, 0.17810310423374176, -0.03741881623864174, 0.0661536157131195, 0.21043811738491058, 0.14788956940174103, -0.1559886634349823, 0.1088990718126297, -0.1752019077539444, 0.16384190320968628, 0.03204089030623436, 0.2232743203639984, -0.00588388042524457, 0.21125000715255737, -0.16285361349582672, -0.06869372725486755, 0.03992021083831787, 0.065092533826828, 0.21586109697818756, 0.1702149361371994, -0.023597802966833115, 0.13648931682109833, 0.07827350497245789, 0.08281546086072922, 0.016377341002225876, -0.09618330001831055, -0.12907369434833527, 0.0833342969417572, 0.013997349888086319, -0.15416324138641357, 0.06552257388830185, 0.1124374121427536, 0.10077885538339615, -0.07455628365278244, -0.07426866143941879, 0.03679181635379791, -0.10093405097723007, 0.1293673813343048, -0.057513583451509476, -0.0718105211853981, -0.11745460331439972, -0.13820123672485352, 0.058756645768880844, -0.07707762718200684, -0.005417016800493002, 0.15287290513515472, 0.09447633475065231, -0.1797507405281067, 0.019969314336776733, -0.18489983677864075, -0.007664963603019714, 0.09254898130893707, -0.0868886262178421, -0.18181945383548737, 0.1823236644268036, 0.23583757877349854, 0.17474950850009918, -0.21859148144721985, -0.13086040318012238, 0.18571197986602783, -0.03167381510138512, 0.04810042306780815, -0.22273550927639008, -0.036248523741960526, 0.2353060245513916, -0.08407454192638397, -0.23637117445468903, -0.09201781451702118, -0.12260297685861588, -0.1583981066942215, 0.07474097609519958, -0.11293669044971466, 0.2358834445476532, -0.10535931587219238, -0.005287142004817724, -0.14450131356716156], "fc2.weight": [[0.006515501532703638, 0.040947623550891876, -0.018466461449861526, -0.06444799154996872, -0.17244525253772736, 0.050720345228910446, 0.06215044483542442, 0.0033752438612282276, -0.12416721880435944, 0.02856871299445629, -0.05593200400471687, -0.018322331830859184, -0.012445986270904541, -0.30317747592926025, -0.015263780951499939, 0.01828121766448021, 0.06478726863861084, 0.04014420509338379, 0.0281823743134737, -0.04624732956290245, 0.09700967371463776, 0.00059364247135818, 0.2666223645210266, -0.022556593641638756, -0.03949145972728729, 0.00902738980948925, -0.08466295152902603, -0.03727453947067261, -0.07340677827596664, 0.03885512426495552, 0.03243274614214897, 0.04529660567641258, 0.037229765206575394, 0.07092463970184326, 0.09872138500213623, -0.040030330419540405, -0.058343298733234406, -0.05965812876820564, 0.28283873200416565, -0.0403173454105854, 0.05407314375042915, -0.014134026132524014, -0.041433095932006836, -0.04171140119433403, -0.07370978593826294, -0.04005010053515434, 0.004545390605926514, 0.008274710737168789, 0.033246394246816635, -0.09286730736494064, -0.11164376884698868, 0.06606229394674301, 0.040511082857847214, 0.2187456637620926, -0.03503987938165665, -0.05951717495918274, -0.09626606851816177, 0.05637991428375244, 0.055182911455631256, 0.03612548112869263, -0.023261046037077904, 0.05184381827712059, 0.08551305532455444, -0.049254488199949265, 0.27013617753982544, -0.10895567387342453, -0.02828696183860302, 0.027776075527071953, 0.020419813692569733, 0.05349467694759369, -0.0543714202940464, -0.008118730038404465, -0.04061081260442734, 0.2549622356891632, 0.09667029231786728, 0.026470167562365532, 0.044120319187641144, -0.03876793012022972, 0.015999604016542435, 0.065409816801548, 0.05185067653656006, -0.07999572902917862, -0.020492367446422577, -0.09849196672439575, 0.06838750839233398, 0.08838772773742676, -0.012483172118663788, 0.08156919479370117, 0.08794789761304855, -0.07396982610225677, 0.010571184568107128, 0.036063022911548615, -0.033214569091796875, 0.023590922355651855, 0.09981895983219147, -0.02357473038136959, -0.3371574282646179, 0.08565247058868408, 0.038523118942976, -0.08736985176801682]], "fc2.bias": [-0.07405487447977066]}