{"fc1.weight": [[0.20196110010147095, 0.0029538399539887905, -0.00344788352958858, -0.11025715619325638, -0.05230075493454933, -0.21605440974235535, -0.027213018387556076, 0.14554163813591003, -0.11273431032896042, 0.2078612595796585, 0.06123606488108635, 0.1846790313720703, -0.1827286034822464, -0.18795578181743622, -0.15115782618522644, 0.06445649266242981, 0.07341707497835159, 0.1533060073852539, 0.11862314492464066, -0.04974064603447914, -0.14165975153446198], [0.188479945063591, 0.05062960088253021, -0.03629256784915924, -0.09670647233724594, 0.15433193743228912, -0.025484174489974976, -0.17580488324165344, 0.2118392437696457, 0.00010418891906738281, -0.08613693714141846, 0.10142050683498383, 0.21013574302196503, 0.02703911066055298, 0.14570315182209015, 0.1423286646604538, 0.20552758872509003, -0.010781705379486084, -0.19348002970218658, -0.15670959651470184, -0.13698998093605042, -0.02796342968940735], [0.1193057969212532, 0.011955391615629196, 0.20077693462371826, -0.15621352195739746, -0.03744317591190338, 0.08029570430517197, 0.17323419451713562, 0.05806244537234306, 0.16556039452552795, 0.0022242851555347443, -0.10609793663024902, 0.16047905385494232, -0.1908050775527954, 0.09384049475193024, -0.0370994508266449, -0.13322344422340393, -0.16622015833854675, -0.04901627451181412, -0.09628357738256454, -0.058171916753053665, -0.10049116611480713], [0.07802532613277435, 0.1623414307832718, -0.01950874924659729, 0.1948736160993576, -0.11155758053064346, 0.20016826689243317, -0.10866747051477432, 0.08194087445735931, 0.17684392631053925, 0.03877280652523041, -0.19761860370635986, -0.1582239270210266, 0.09061001241207123, 0.15586651861667633, 0.06083254516124725, 0.01824161410331726, -0.02864930033683777, -0.16673557460308075, 0.1352054327726364, 0.1512192338705063, 0.03340722620487213], [0.2522830069065094, -0.06683551520109177, -0.0660363957285881, -0.16371290385723114, 0.03006255067884922, 0.10371118783950806, -0.07245661318302155, 0.03397586941719055, 0.18995092809200287, -0.038091469556093216, -0.05775098875164986, 0.15831869840621948, 0.029435014352202415, -0.13353431224822998, -0.1730259358882904, -0.07262825220823288, -0.10115649551153183, 0.11526452004909515, 0.016043465584516525, -0.021745949983596802, 0.06954050809144974], [0.19952161610126495, -0.0737689733505249, 0.16028980910778046, 0.16669993102550507, 0.02195298671722412, -0.06468385457992554, 0.13687075674533844, -0.20526553690433502, 0.18143878877162933, 0.08679540455341339, -0.09292817115783691, -0.021655544638633728, 0.21116916835308075, -0.06879530847072601, 0.010097965598106384, -0.03187040984630585, 0.15902243554592133, -0.20673294365406036, -0.20558607578277588, 0.07620014250278473, -0.17091648280620575], [0.017856597900390625, 0.10055257380008698, -0.06167988479137421, -0.18134716153144836, -0.15400564670562744, -0.11737060546875, 0.1910005360841751, -0.1268676221370697, -0.14402660727500916, -0.0774155855178833, 0.0873151570558548, 0.18096117675304413, 0.09690256416797638, 0.08562885224819183, -0.09985754638910294, -0.17356497049331665, 0.016284853219985962, 0.17090614140033722, 0.03455619513988495, -0.13054035604000092, 0.05887497961521149], [0.08325518667697906, 0.1974419802427292, 0.15477760136127472, -0.03451940417289734, 0.05023188889026642, 0.17049090564250946, 0.0328894704580307, 0.20291875302791595, 0.0338871031999588, 0.06248153746128082, 0.047972336411476135, -0.047439202666282654, -0.038797467947006226, 0.0847667008638382, 0.0016025453805923462, 0.025408029556274414, -0.03912466764450073, 0.11713995039463043, -0.17251181602478027, -0.17440548539161682, -0.06876684725284576], [-0.2008792608976364, 0.1346280425786972, -0.18485501408576965, 0.11385299265384674, -0.10731881856918335, 0.0772676020860672, 0.002934470772743225, 0.13333095610141754, 0.20348887145519257, -0.016886159777641296, -0.20562028884887695, 0.04607178270816803, -0.002255558967590332, -0.17405810952186584, -0.09208151698112488, 0.06575895845890045, 0.11425860226154327, -0.02787075936794281, 0.0544460266828537, -0.15878431499004364, 0.018003419041633606], [0.03000563383102417, -0.1624099165201187, -0.09184038639068604, 0.017341017723083496, 0.18664602935314178, 0.16475462913513184, 0.10290049761533737, 0.015209151431918144, -0.03741259500384331, 0.0626547560095787, -0.12745259702205658, -0.16449138522148132, -0.1065293475985527, 0.028916697949171066, -0.1605168730020523, 0.16005513072013855, -0.13135726749897003, 0.2645527422428131, -0.0720653310418129, 0.1758059710264206, -0.18311747908592224], [0.03597061336040497, 0.12073878943920135, -0.05656617879867554, 0.11415599286556244, -0.20184753835201263, 0.03810177743434906, -0.10099931061267853, 0.1486079841852188, 0.054111137986183167, -0.03658461570739746, -0.092037633061409, 0.033638760447502136, 0.12679709494113922, 0.09778808057308197, -0.1980641931295395, 0.06943599879741669, -0.15322336554527283, -0.07479727268218994, -0.18021124601364136, -0.0517696887254715, -0.20024454593658447], [-0.21544115245342255, -0.012756255455315113, 0.1317829191684723, -0.05423630774021149, 0.14729005098342896, -0.1701800376176834, 0.11464832723140717, -0.06927884370088577, -0.09859419614076614, -0.013761051930487156, -0.051325224339962006, 0.12955820560455322, 0.09943933039903641, 0.10563944280147552, 0.04537023603916168, 0.09026806801557541, -0.058414995670318604, -0.05914786830544472, -0.1346619427204132, -0.1090206652879715, -0.19805307686328888], [0.049840204417705536, 0.1818142533302307, 0.007502629887312651, -0.1929764598608017, 0.13914278149604797, -0.10740341991186142, 0.003952683415263891, 0.06583918631076813, -0.1932949274778366, 0.1837858110666275, 0.06184080243110657, 0.15964333713054657, -0.11089705675840378, 0.00036400556564331055, 0.04417109489440918, -0.07610803097486496, -0.02510790526866913, -0.17259997129440308, -0.08175376802682877, -0.11869930475950241, 0.050837088376283646], [0.07809053361415863, -0.19904233515262604, 0.06581149995326996, 0.1427348405122757, -0.13369609415531158, 0.1965000182390213, -0.1900152564048767, 0.11191339790821075, 0.1391311138868332, -0.04206135869026184, 0.1368742734193802, -0.06219315528869629, 0.16704772412776947, 0.02624468505382538, 0.16300316154956818, 0.02252259850502014, 0.10622839629650116, 0.060134246945381165, 0.1333657056093216, -0.17905578017234802, -0.11574152857065201], [-0.08591198921203613, -0.21682380139827728, 0.21168415248394012, -0.045278340578079224, 0.21465228497982025, -0.19157364964485168, -0.13962900638580322, -0.14502331614494324, -0.1355338990688324, -0.09732020646333694, -0.09296740591526031, -0.17895790934562683, -0.022966906428337097, -0.08151067793369293, -0.20888440310955048, -0.07123149931430817, 0.15512140095233917, -0.18089890480041504, 0.033323511481285095, 0.058907732367515564, -0.09247346222400665], [0.061021074652671814, -0.12342027574777603, -0.059423431754112244, 0.15139208734035492, -0.06884218752384186, -0.012796968221664429, -0.0515463650226593, -0.21676285564899445, -0.02231454849243164, -0.1556210070848465, -0.2054676115512848, -0.21519441902637482, -0.20675401389598846, 0.0528988391160965, -0.1786056011915207, 0.11489237844944, -0.0007202327251434326, 0.16308002173900604, -0.16791506111621857, -0.17417588829994202, 0.08513833582401276], [-0.08570638298988342, 0.14549432694911957, -0.16596052050590515, 0.015300989151000977, -0.14201797544956207, -0.012997955083847046, -0.03233841061592102, -0.13864892721176147, 0.01889742910861969, -0.10131946206092834, -0.025089263916015625, -0.03357987105846405, -0.15314704179763794, -0.0020690113306045532, -0.04342028498649597, -0.12520520389080048, 0.042935654520988464, -0.01820385456085205, -0.1981290727853775, -0.07213379442691803, -0.10192146897315979], [-0.1057516559958458, -0.19066743552684784, 0.15944357216358185, 0.0397820919752121, -0.06082369387149811, 0.09628377854824066, -0.01946064829826355, -0.1094205379486084, 0.08058382570743561, 0.17529834806919098, 0.20948003232479095, -0.12445434182882309, 0.12693612277507782, -0.013144850730895996, 0.16834647953510284, -0.007459297776222229, 0.17731867730617523, 0.08045266568660736, 0.1301063746213913, -0.1539042592048645, 0.08893583714962006], [0.19732891023159027, 0.10379642993211746, -0.03868155553936958, -0.16652236878871918, -0.11282503604888916, 0.15520592033863068, -0.0644386038184166, 0.08689964562654495, 0.11513645946979523, 0.08534616976976395, -0.09789050370454788, -0.13372914493083954, -0.20546303689479828, -0.0631183385848999, 0.15584543347358704, -0.10971560329198837, 0.20656535029411316, -0.19730478525161743, 0.08889542520046234, 0.14536939561367035, 0.11701848357915878], [0.16287223994731903, -0.18229033052921295, 0.04662881791591644, 0.014495506882667542, -0.06213471293449402, -0.20180529356002808, -0.19767773151397705, 0.08412177860736847, 0.09215296804904938, 0.1461542695760727, -0.1617039144039154, 0.07581616938114166, -0.0814284235239029, -0.2128794938325882, -0.20529744029045105, 0.18271256983280182, -0.1961592435836792, -0.09571316838264465, 0.01882593333721161, 0.05114065110683441, 0.1674366146326065], [0.0781063586473465, 0.15669424831867218, -0.18945379555225372, -0.09663355350494385, 0.2171461135149002, 0.07296563684940338, -0.05315603315830231, 0.050719693303108215, 0.19362927973270416, 0.18150652945041656, 0.14749829471111298, -0.042276233434677124, 0.16232319176197052, 0.16569270193576813, 0.11723874509334564, 0.016807958483695984, -0.012983381748199463, -0.051602110266685486, 0.17167769372463226, 0.1414429396390915, 0.0047371238470077515], [-0.11947645992040634, 0.1424473077058792, -0.08807425200939178, -0.16158390045166016, 0.2016734927892685, 0.20804335176944733, 0.09508861601352692, 0.05302728712558746, -0.1923263520002365, -0.19715923070907593, -0.08206607401371002, 0.1621168702840805, -0.06178551912307739, 0.18600042164325714, -0.06199072301387787, -0.20645961165428162, 0.03203423321247101, 0.0800819844007492, -0.0027652978897094727, 0.0016867667436599731, -0.06386047601699829], [0.14784331619739532, 0.002274036407470703, -0.036713361740112305, 0.03082418441772461, 0.17291630804538727, 0.181806281208992, -0.09313841164112091, 0.017734721302986145, 0.08171050250530243, 0.1930473893880844, 0.08655844628810883, -0.15995822846889496, 0.07349459826946259, 0.2013649195432663, -0.021252870559692383, -0.16093853116035461, 0.04981966316699982, -0.050390034914016724, -0.14202433824539185, 0.09561137855052948, 0.2141512781381607], [-0.0962711051106453, -0.20408405363559723, 0.20112226903438568, -0.17332008481025696, -0.06926800310611725, -0.06881226599216461, -0.11183106154203415, -0.18141743540763855, -0.003927871584892273, 0.0409635454416275, 0.05416803061962128, 0.1396639496088028, -0.2065369337797165, -0.21110616624355316, 0.04836346209049225, 0.13767819106578827, -0.03376781940460205, -0.20575548708438873, 0.0064076632261276245, -0.18726688623428345, 0.09431420266628265], [-0.1570310741662979, -0.11255080997943878, -0.02839943766593933, -0.06972576677799225, -0.09991326928138733, -0.06468699872493744, 0.19823481142520905, 0.19461823999881744, -0.14338035881519318, -0.10391678661108017, -0.15481063723564148, 0.160190150141716, -0.12850895524024963, -0.1407458484172821, -0.09771282970905304, 0.15161849558353424, -0.04157312214374542, -0.05331580340862274, 0.19944284856319427, -0.14666137099266052, -0.09493335336446762], [0.12057118117809296, 0.15993724763393402, -0.13628464937210083, -0.034777164459228516, 0.14195238053798676, 0.15787889063358307, 0.214716836810112, -0.1453460156917572, 0.09453524649143219, -0.14270460605621338, 0.01495659351348877, -0.06321023404598236, 0.002178177237510681, -0.21083955466747284, 0.1078013926744461, 0.14782755076885223, 0.01992909610271454, 0.10525630414485931, -0.12648463249206543, 0.0563863068819046, 0.09912805259227753], [0.04085607826709747, 0.11422543227672577, -0.19074857234954834, 0.21174515783786774, -0.09501568973064423, 0.10982351005077362, -0.04849931597709656, 0.06774581968784332, -0.09047532081604004, 0.03861401975154877, 0.10934995114803314, -0.029230907559394836, -0.02823290228843689, -0.1765921711921692, -0.040079355239868164, -0.16878724098205566, -0.11270447075366974, 0.03456597030162811, -0.03697498142719269, 0.12635110318660736, 0.15706206858158112], [-0.16848865151405334, -0.10799720138311386, -0.17672500014305115, 0.037517860531806946, -0.03519785404205322, -0.14306098222732544, -0.15654610097408295, 0.07404904067516327, -0.006794080138206482, 0.20929054915905, -0.12865683436393738, -0.04580773413181305, -0.019122079014778137, 0.04832027852535248, 0.07106836140155792, -0.09617748111486435, -0.19453009963035583, -0.13215462863445282, 0.07044874131679535, -0.16537357866764069, -0.09245975315570831], [0.10067742317914963, 0.21739977598190308, -0.0450558215379715, 0.13098269701004028, -0.15889385342597961, 0.02798555977642536, -0.18295763432979584, -0.09061960875988007, -0.061479341238737106, 0.1527269184589386, 0.09950420260429382, 0.07511318475008011, 0.03480657935142517, -0.07299669086933136, 0.12207093089818954, 0.13905730843544006, -0.005790913477540016, -0.20154446363449097, 0.11403735727071762, 0.15327408909797668, -0.19721679389476776], [0.17141862213611603, -0.08121731877326965, -0.09965302795171738, 0.03588645160198212, 0.011511743068695068, 0.008202031254768372, 0.18345506489276886, 0.14781774580478668, 0.09721697866916656, 0.14921779930591583, 0.0966491848230362, 0.07603208720684052, -0.0880468338727951, -0.03176315128803253, 0.12032829225063324, 0.09548772871494293, 0.027650922536849976, 0.08041991293430328, -0.1200706884264946, -0.05280546844005585, -0.05573393404483795], [0.024911463260650635, -0.08603782951831818, 0.08711688220500946, -0.19531728327274323, -0.03175656497478485, 0.035441771149635315, 0.13993282616138458, 0.11843894422054291, 0.05630962550640106, -0.06759266555309296, -0.14021790027618408, -0.08463028073310852, -0.12584173679351807, -0.20984429121017456, -0.09108643233776093, -0.054038435220718384, 0.1428259164094925, -0.14648692309856415, 0.16797314584255219, 0.0363185852766037, 0.08519835770130157], [-0.03602837026119232, 0.19350089132785797, -0.15771719813346863, -0.12876500189304352, -0.1199934259057045, 0.08345754444599152, 0.10885883867740631, -0.11427173763513565, 0.07286535203456879, -0.15095344185829163, -0.036445990204811096, -0.05514794588088989, -0.21342667937278748, 0.1898268610239029, -0.03533133864402771, 0.08718331158161163, -0.08425258100032806, -0.004111841320991516, 0.17334847152233124, -0.06846262514591217, -0.14075498282909393], [0.17881810665130615, 0.179573193192482, 0.17875325679779053, -0.038526780903339386, 0.03159619867801666, 0.06384685635566711, -0.07132281363010406, 0.1132194772362709, -0.118267722427845, -0.009404916316270828, 0.17664209008216858, 0.18087182939052582, -0.02955447882413864, 0.07606722414493561, -0.10023368149995804, -0.17849905788898468, -0.05877767875790596, -0.11794153600931168, 0.05771460384130478, -0.058877408504486084, -0.10263748466968536], [0.06426385790109634, -0.08042952418327332, -0.08286012709140778, 0.101707324385643, -0.007047534920275211, 0.192210853099823, 0.01480858214199543, -0.20149482786655426, -0.034680113196372986, -0.14338818192481995, 0.18874137103557587, 0.2113962173461914, -0.1800403743982315, 0.09945976734161377, 0.05244763568043709, 0.05695943161845207, -0.18513837456703186, 0.0017459564842283726, -0.12207362055778503, -0.20158354938030243, -0.1525437980890274], [0.1836002916097641, -0.047205761075019836, 0.13859976828098297, 0.1925233155488968, -0.12281202524900436, -0.11110023409128189, -0.00661604106426239, 0.21525515615940094, 0.19221504032611847, -0.10409346967935562, 0.21044974029064178, -0.16129033267498016, 0.20851360261440277, 0.10259242355823517, 0.20739533007144928, 0.12235309183597565, 0.004552125930786133, 0.21285001933574677, 0.04384399950504303, -0.21796506643295288, -0.18579821288585663], [0.05953802168369293, -0.12303300946950912, -0.1252170205116272, -0.20873518288135529, -0.08609472215175629, 0.21347273886203766, 0.13229982554912567, 0.08199532330036163, -0.07565324008464813, -0.02590639889240265, 0.10189135372638702, 0.15477262437343597, -0.18132993578910828, 0.14460168778896332, -0.0300169438123703, 0.0173882395029068, 0.0014325976371765137, 0.12324686348438263, 0.0430464893579483, -0.2125055193901062, -0.101518414914608], [0.08840638399124146, -0.17808856070041656, -0.17423675954341888, 0.10684836655855179, 0.1441155970096588, 0.053062956780195236, -0.01516104955226183, 0.12982459366321564, 0.02199869230389595, 0.09518295526504517, 0.18963214755058289, 0.004534241743385792, -0.05681727081537247, -0.2141493409872055, -0.062154024839401245, -0.08788569271564484, 0.0511479489505291, 0.15537036955356598, 0.035425785928964615, -0.10749343782663345, 0.11875718832015991], [-0.06412069499492645, -0.11237669736146927, 0.026971787214279175, 0.07780297100543976, 0.19597826898097992, -0.19172675907611847, -0.20409643650054932, -0.14014753699302673, -0.07463842630386353, 0.18844471871852875, -0.017685428261756897, -0.18357053399085999, 0.1895969659090042, 0.025462448596954346, -0.04928736388683319, -0.17428097128868103, 0.21564613282680511, -0.09182296693325043, -0.1858302652835846, 0.01726667582988739, -0.027026206254959106], [-0.0986681804060936, -0.20347116887569427, -0.14676395058631897, 0.18355987966060638, 0.1582021564245224, -0.15753725171089172, 0.12920965254306793, 0.21382690966129303, -0.15937785804271698, -0.007156655192375183, -0.050943002104759216, -0.146822988986969, -0.133949875831604, -0.17434151470661163, 0.19516001641750336, -0.07258673012256622, -0.031256720423698425, -0.20728005468845367, -0.1390862911939621, -0.203727588057518, -0.14967969059944153], [-0.1041707843542099, -0.11733478307723999, -0.16563759744167328, 0.056622907519340515, -0.20003634691238403, -0.09430385380983353, 0.02386412024497986, 0.153004452586174, -0.19962798058986664, -0.05925309658050537, 0.013470157980918884, 0.03380082547664642, 0.1150776594877243, 0.02952820062637329, 0.18035094439983368, -0.11486510932445526, -0.12928172945976257, -0.21536535024642944, 0.05132220685482025, -0.03271709382534027, -0.08415877819061279], [0.08057846128940582, -0.1579517126083374, 0.11828605830669403, 0.17256967723369598, 0.020897433161735535, -0.20770680904388428, 0.13530926406383514, -0.03996732831001282, 0.09466476738452911, 0.014442935585975647, -0.15440747141838074, -0.056338489055633545, -0.029271051287651062, -0.0510430783033371, -0.2006087452173233, 0.16120637953281403, 0.018984124064445496, 0.04876290261745453, -0.13905462622642517, 0.16900970041751862, 0.025058746337890625], [0.07335327565670013, -0.20164801180362701, 0.14386047422885895, -0.17020760476589203, 0.11922980844974518, 0.21328707039356232, 0.12700672447681427, -0.08581803739070892, 0.18499960005283356, 0.1710808426141739, 0.13125236332416534, -0.0765409916639328, -0.03171096742153168, 0.09300963580608368, 0.05037038028240204, -0.015793874859809875, 0.061786308884620667, -0.11723975837230682, -0.11247412115335464, 0.21144931018352509, -0.08854776620864868], [0.1141817718744278, 0.14345131814479828, 0.16144044697284698, -0.12495206296443939, 0.12001018226146698, 0.09033463895320892, 0.07744331657886505, -0.016033530235290527, -0.06590373814105988, 0.15937833487987518, -0.005148947238922119, -0.025532081723213196, 0.09238429367542267, -0.07535438239574432, 0.1586793214082718, -0.1200077086687088, -0.10146450996398926, -0.06998178362846375, 0.10453452169895172, -0.05287456512451172, 0.0594436377286911], [-0.19818562269210815, 0.05152566730976105, -0.017624318599700928, -0.0588817298412323, -0.19132885336875916, -0.15867897868156433, -0.11416484415531158, -0.21316546201705933, -0.06328079104423523, -0.06011584401130676, -0.004556909203529358, -0.16296568512916565, 0.14008091390132904, 0.05363629758358002, -0.05493736267089844, 0.0011450201272964478, 0.08045531809329987, -0.2136700600385666, 0.19325490295886993, -0.04683566093444824, 0.18348602950572968], [0.04435969889163971, 0.0005600001895800233, 0.04717870056629181, 0.12047411501407623, 0.01904986798763275, 0.11841435730457306, 0.20682306587696075, -0.05968503654003143, -0.10895026475191116, -0.1667068600654602, -0.014867186546325684, 0.14045928418636322, -0.18352992832660675, 0.21478529274463654, -0.02130591869354248, 0.03498367965221405, -0.19708311557769775, 0.12100596725940704, 0.17618636786937714, -0.0585988312959671, 0.15850304067134857], [0.15112006664276123, 0.06858813017606735, 0.06722906231880188, -0.1587902009487152, 0.02968401089310646, -0.0673527643084526, -0.17007341980934143, -0.14371003210544586, -0.03457391634583473, 0.21347676217556, 0.19060684740543365, -0.1559353470802307, 0.047112010419368744, -0.0063678729347884655, -0.06539366394281387, 0.047855958342552185, -0.03513619303703308, 0.06282183527946472, -0.16259044408798218, -0.0134673360735178, -0.004094952717423439], [-0.20065756142139435, 0.20927920937538147, -0.1574936807155609, 0.0749976709485054, 0.2032768279314041, 0.16991369426250458, 0.13766242563724518, 0.016965284943580627, -0.19822368025779724, 0.15075616538524628, 0.11058531701564789, 0.025249706581234932, 0.1600124090909958, 0.14740952849388123, -0.012305238284170628, -0.09007424116134644, -0.16798032820224762, 0.2039571851491928, 0.1235506683588028, -0.08089010417461395, -0.056281499564647675], [0.20301483571529388, 0.08559926599264145, -0.10693937540054321, 0.1655358523130417, -0.19447362422943115, 0.19727261364459991, -0.15624013543128967, -0.04461556673049927, 0.18858428299427032, 0.06416554749011993, -0.13394097983837128, 0.06413967907428741, 0.08863020688295364, 0.08819149434566498, 0.047223810106515884, 0.15826167166233063, 0.20052824914455414, -0.003763659158721566, -0.004797952715307474, -0.010440360754728317, -0.10888946056365967], [0.09294755756855011, -0.14088362455368042, 0.12170572578907013, -0.17984794080257416, -0.10513307899236679, 0.09038947522640228, 0.16371683776378632, 0.1232420951128006, 0.03995911777019501, 0.19841663539409637, -0.07010428607463837, -0.20727446675300598, 0.016151785850524902, 0.08049903810024261, 0.15299145877361298, 0.1677657514810562, -0.11542827636003494, 0.1305333822965622, -0.10751621425151825, -0.03426079452037811, 0.024646252393722534], [0.2092253714799881, 0.15824706852436066, 0.19804413616657257, 0.04547692835330963, 0.12365703284740448, -0.11279986053705215, -0.0656096339225769, -0.17734970152378082, -0.1495436728000641, 0.09641371667385101, 0.1908024102449417, -0.021672680974006653, 0.17674864828586578, -0.18411965668201447, -0.16547082364559174, 0.1370379477739334, 0.09551171958446503, -0.05442097783088684, -0.0535212904214859, -0.018009871244430542, -0.014180794358253479], [-0.08950107544660568, 0.20176410675048828, -0.04781132563948631, -0.1926264464855194, -0.13765566051006317, 0.19024507701396942, 0.13980726897716522, 0.09975674003362656, 0.09565922617912292, -0.10677961260080338, -0.11419069766998291, -0.0911252349615097, 0.1719663292169571, 0.012964064255356789, -0.12379549443721771, 0.07791893929243088, 0.010319171473383904, 0.03588282689452171, -0.25240007042884827, -0.0022725474555045366, 0.12058320641517639], [0.06773977726697922, -0.055563490837812424, 0.07235973328351974, 0.1843913495540619, -0.1954113095998764, -0.03755500912666321, -0.048716090619564056, 0.07106275856494904, -0.030344851315021515, -0.02432154305279255, 0.12788760662078857, -0.012135744094848633, -0.007657006848603487, -0.08294887840747833, 0.17305119335651398, -0.2111416459083557, 0.005490328185260296, -0.2162737250328064, 0.01706615649163723, -0.2032594382762909, 0.0988646149635315], [-0.009951949119567871, -0.08470439910888672, -0.0708998292684555, -0.03561249375343323, -0.027445673942565918, -0.1928688883781433, 0.0852845162153244, 0.17341800034046173, 0.14199380576610565, -0.01116625964641571, -0.09192214906215668, -0.20841404795646667, -0.026638582348823547, -0.039193570613861084, 0.0027347803115844727, -0.15890982747077942, -0.17282873392105103, 0.03202836215496063, 0.08220617473125458, -0.11733169108629227, 0.014030858874320984], [-0.1249007135629654, -0.1800723522901535, 0.036997780203819275, -0.0026642829179763794, 0.14913032948970795, 0.1969478577375412, -0.07974216341972351, -0.0006386041641235352, 0.04892469942569733, -0.11686916649341583, 0.1207481175661087, -0.0648103654384613, 0.1842053085565567, 0.08012817800045013, 0.06837387382984161, -0.10815203934907913, 0.15625177323818207, 0.19336168467998505, -0.04139333963394165, 0.1573282927274704, -0.03530186414718628], [-0.21831543743610382, 0.052175089716911316, -0.05762042850255966, -0.1269802302122116, 0.10335028171539307, 0.17261287569999695, 0.029689349234104156, 0.17966993153095245, 0.2003001719713211, 0.1704360842704773, -0.1022176742553711, 0.20210270583629608, 0.0028486133087426424, -0.16527974605560303, -0.16400299966335297, 0.0767078772187233, -0.17733749747276306, -0.21806834638118744, 0.09367549419403076, 0.12988236546516418, -0.05546416714787483], [0.030766651034355164, -0.01459568738937378, 0.12308208644390106, 0.1593237668275833, 0.08351708948612213, 0.16081558167934418, 0.03524063527584076, 0.17205305397510529, 0.038625702261924744, -0.11403602361679077, -0.13271306455135345, 0.1638350933790207, 0.1080741137266159, 0.12169547379016876, -0.0760267972946167, 0.046812787652015686, 0.15296296775341034, 0.002820134162902832, -0.005198061466217041, 0.19310276210308075, 0.09868530929088593], [0.07338239252567291, 0.11889226734638214, -0.21486301720142365, 0.12533314526081085, 0.12416748702526093, -0.07863113284111023, -0.12851548194885254, 0.11432532966136932, -0.08612608909606934, 0.12846510112285614, 0.10152797400951385, 0.15678702294826508, 0.14877276122570038, -0.006978973746299744, -0.19666707515716553, -0.07250024378299713, 0.16605056822299957, 0.12606312334537506, 0.04451669752597809, -0.12704399228096008, 0.093460813164711], [-0.30658912658691406, 0.044596876949071884, 0.12684422731399536, 0.10477293282747269, -0.11690537631511688, 0.17196519672870636, 0.021922998130321503, -0.1834058165550232, 0.01716150902211666, 0.10456574708223343, -0.12576651573181152, -0.19316715002059937, -0.11903213709592819, -0.10800723731517792, 0.20426733791828156, 0.18449144065380096, 0.10676312446594238, 0.07422490417957306, 0.14423105120658875, -0.03392981365323067, -0.048534683883190155], [0.10429149121046066, 0.1129211038351059, -0.2245374619960785, -0.023403270170092583, -0.08205968886613846, -0.1729799509048462, -0.11975230276584625, 0.13775990903377533, -0.04383993521332741, 0.06317207962274551, 0.08201512694358826, 0.024651380255818367, 0.02348460629582405, -0.17782117426395416, 0.025326278060674667, 0.024656051769852638, 0.008036247454583645, -0.14394579827785492, -0.04305928573012352, -0.031612180173397064, 0.19554926455020905], [-0.08768630027770996, 0.06962637603282928, -0.008964911103248596, -0.043891921639442444, 0.11677630245685577, -0.0782354325056076, -0.01687203347682953, -0.05883331596851349, -0.16575390100479126, 0.19300617277622223, -0.09829207509756088, 0.1955888718366623, -0.03197747468948364, -0.21716900169849396, -0.08258774876594543, 0.13270379602909088, 0.05222569406032562, 0.07321725785732269, -0.1699233055114746, -0.16859883069992065, -0.12151647359132767], [0.17450465261936188, 0.04357221722602844, -0.16475079953670502, -0.18478116393089294, -0.17538191378116608, 0.053484782576560974, -0.06064261868596077, -0.08101627230644226, -0.07077191770076752, 0.16270111501216888, -0.017144370824098587, 0.1042332723736763, 0.03794559836387634, 0.19820748269557953, 0.12961551547050476, 0.14181971549987793, -0.0691501796245575, 0.14730215072631836, 0.03944140300154686, 0.19411633908748627, 0.17794430255889893], [0.05766834691166878, -0.10389245301485062, 0.09224328398704529, 0.04374431073665619, -0.1423710137605667, -0.059075139462947845, 0.14044897258281708, -0.16403549909591675, -0.0774434357881546, 0.00888632982969284, 0.047351934015750885, -0.0307209100574255, 0.1173170804977417, -0.051923397928476334, -0.15367905795574188, -0.19323185086250305, -0.03969093784689903, -0.026446042582392693, 0.03641078621149063, 0.09826581180095673, 0.07144729793071747], [-0.2341134399175644, 0.12164362519979477, 0.12263140827417374, -0.13181725144386292, 0.07471360266208649, 0.055040761828422546, 0.07091863453388214, 0.07661294937133789, 0.011916103772819042, 0.19198568165302277, -0.04297541454434395, 0.22100846469402313, -0.015901438891887665, 0.1831040382385254, 0.07608518749475479, -0.04600926861166954, 0.21177111566066742, -0.0344771146774292, -0.12221477925777435, -0.09367640316486359, -0.13459625840187073], [-0.02491484209895134, -0.1733459085226059, 0.0023644554894417524, -0.16135013103485107, -0.2194678783416748, 0.20297282934188843, -0.04744793847203255, 0.005514700897037983, 0.04483875632286072, 0.030379341915249825, -0.14069180190563202, -0.06698054075241089, 0.1832997053861618, -0.14063125848770142, -0.0733935758471489, 0.14499907195568085, -0.03286667913198471, -0.06164242699742317, -0.018287384882569313, 0.18753500282764435, 0.14151631295681], [0.13595624268054962, 0.08825762569904327, -0.14698278903961182, -0.03754590451717377, 0.07793541252613068, 0.07622279226779938, -0.06471000611782074, 0.1449487954378128, 0.02226056158542633, 0.045921310782432556, 0.12776510417461395, -0.1719832718372345, 0.008110463619232178, 0.0992998331785202, 0.13003765046596527, 0.07387502491474152, -0.1461147665977478, 0.06618891656398773, 0.1267188936471939, -0.10588487237691879, -0.19324199855327606], [0.1549556702375412, -0.1054246574640274, -0.08870678395032883, 0.18580688536167145, -0.04295306280255318, 0.0446278341114521, 0.08749557286500931, -0.029139574617147446, -0.20723898708820343, 0.05441133677959442, 0.10596013069152832, 0.1529078334569931, -0.17363667488098145, -0.17384321987628937, -0.04090001806616783, 0.1211048811674118, -0.0655379518866539, 0.010550178587436676, 0.10687626898288727, 0.09081614762544632, 0.19741012156009674], [-0.08567455410957336, 0.16380742192268372, -0.0874943733215332, 0.10099858790636063, 0.022502416744828224, 0.17270396649837494, -0.10051433742046356, -0.10798613727092743, 0.09386561810970306, -0.18572984635829926, 0.18116703629493713, -0.1321139931678772, -0.10577377676963806, 0.1281307488679886, 0.06851990520954132, -0.028996722772717476, -0.1058686375617981, -0.11842355877161026, 0.0028563530649989843, 0.169606015086174, 0.1054057627916336], [0.06459091603755951, 0.15845920145511627, 0.0665193647146225, -0.1858578622341156, -0.15194740891456604, -0.21233202517032623, -0.2155299335718155, 0.1058952659368515, -0.08826974034309387, -0.1771480143070221, -0.21060426533222198, -0.1240549087524414, 0.16208963096141815, 0.10036222636699677, -0.047238051891326904, -0.06854049861431122, 0.12264670431613922, -0.1467823088169098, 0.13747434318065643, 0.03545175492763519, -0.013399705290794373], [-0.140006884932518, -0.14820241928100586, -0.029315084218978882, 0.14748351275920868, -0.09610682725906372, -0.04855695366859436, 0.019109249114990234, -0.2012266367673874, 0.1504499465227127, 0.11700372397899628, -0.11476435512304306, 0.03004378080368042, 0.15322430431842804, -0.085238978266716, 0.035198524594306946, -0.19914181530475616, 0.17310233414173126, 0.011691033840179443, -0.16780926287174225, -0.009045705199241638, 0.04695151746273041], [0.11118333041667938, -0.1869472712278366, -0.06333322077989578, 0.09700476378202438, 0.03414760157465935, -0.17406198382377625, -0.13564494252204895, 0.00276175863109529, 0.16262346506118774, -0.18184243142604828, 0.041527654975652695, -0.09557820111513138, -0.05706324800848961, 0.11471669375896454, 0.05876205116510391, -0.13488982617855072, 0.04888385906815529, 0.10487538576126099, 0.06831328570842743, 0.0022190227173268795, 0.1477808803319931], [0.11823330819606781, -0.1859084814786911, -0.17919030785560608, 0.1688506156206131, 0.20161916315555573, -0.08502145111560822, -0.14589020609855652, 0.061535194516181946, -0.04819875955581665, 0.056679680943489075, -0.06748104095458984, 0.09808798134326935, -0.16713477671146393, -0.06389643251895905, 0.005457133054733276, -0.19781020283699036, -0.11530720442533493, 0.04195551574230194, -0.024357110261917114, 0.03799508512020111, 0.0838073343038559], [0.1843940168619156, 0.031847938895225525, 0.06627456843852997, -0.016486823558807373, -0.13151498138904572, -0.20136097073554993, 0.01982150971889496, 0.11915461719036102, 0.026392042636871338, 0.18749399483203888, -0.13817819952964783, 0.16051970422267914, 0.08426244556903839, -0.18787898123264313, 0.05323083698749542, 0.12023071944713593, 0.02114143967628479, -0.18611331284046173, -0.027992382645606995, 0.21677689254283905, 0.04207400977611542], [-0.17792949080467224, -0.007669209502637386, -0.13561996817588806, -0.12636961042881012, -0.09962362051010132, 0.15782861411571503, 0.18237820267677307, -0.01328898686915636, 0.04670874401926994, -0.20232251286506653, -0.15072239935398102, 0.06298775970935822, 0.02644295059144497, 0.16767564415931702, 0.1658976674079895, 0.11858583241701126, 0.07858502864837646, -0.12888139486312866, 0.2101474553346634, 0.14958703517913818, -0.08078781515359879], [0.11972863972187042, -0.02973737195134163, -0.002959938021376729, -0.12943865358829498, -0.19541051983833313, 0.1814063936471939, 0.1500629037618637, 0.06699292361736298, 0.06824032217264175, 0.07252193987369537, -0.16270458698272705, -0.08384287357330322, 0.09273720532655716, 0.021631553769111633, 0.03301501274108887, 0.07227606326341629, 0.16481365263462067, 0.05614869296550751, -0.19163912534713745, 0.1387411206960678, -0.032522052526474], [0.0425509475171566, 0.014397261664271355, 0.2105993926525116, -0.20616811513900757, -0.06418456137180328, 0.20787784457206726, -0.03568577393889427, -0.018547123298048973, 0.1683865189552307, -0.15310251712799072, -0.06604953855276108, -0.11369537562131882, 0.10152765363454819, -0.014005601406097412, -0.11234088242053986, -0.1181282326579094, 0.03230656310915947, -0.19972684979438782, -0.09570153057575226, -0.010575268417596817, 0.1087598130106926], [-0.098434679210186, 0.15122096240520477, 0.05153860151767731, -0.0710413008928299, -0.04443757236003876, -0.11277603358030319, -0.05614273250102997, 0.12182237207889557, -0.05337095260620117, 0.09385643899440765, -0.07413248717784882, 0.17525435984134674, -0.07637855410575867, 0.09399084746837616, 0.08665387332439423, -0.21082741022109985, 0.13061217963695526, 0.09997417032718658, 0.16467829048633575, -0.013421505689620972, -0.1754690408706665], [-0.19870591163635254, 0.23284782469272614, 0.11642803996801376, 0.20260147750377655, -0.006993364077061415, -0.10068613290786743, -0.17690184712409973, -0.180256649851799, 0.10758830606937408, -0.045178551226854324, 0.100852832198143, -0.01549563929438591, -0.104060098528862, -0.19043326377868652, 0.1877424269914627, -0.15667694807052612, -0.16637444496154785, 0.1550840586423874, 0.0031596024055033922, -0.06245848536491394, 0.0428740568459034], [0.11556299030780792, -0.0703083872795105, 0.17506982386112213, -0.052469685673713684, 0.1252821832895279, -0.14201343059539795, 0.13344727456569672, -0.12485750019550323, -0.16583490371704102, -0.1623547077178955, 0.10855747759342194, 0.06279896199703217, 0.17305432260036469, -0.026425570249557495, -0.010200068354606628, -0.14604288339614868, -0.12831798195838928, 0.0726177841424942, -0.11066487431526184, 0.13569779694080353, -0.013906851410865784], [-0.10662152618169785, 0.011361420154571533, 0.06923176348209381, -0.036804795265197754, 0.1486114114522934, -0.10135340690612793, -0.07426825165748596, 0.12711142003536224, -0.12077277153730392, 0.20308847725391388, -0.18801812827587128, -0.1712062507867813, 0.18854151666164398, 0.1084938794374466, -0.14148250222206116, 0.005941122770309448, 0.03775058686733246, 0.18925555050373077, 0.02560901641845703, -0.20462152361869812, -0.14469364285469055], [-0.0022041648626327515, -0.012246653437614441, -0.19820071756839752, -0.20921219885349274, -0.14671051502227783, -0.00041228532791137695, -0.10939769446849823, -0.08847123384475708, -0.057718247175216675, 0.09229244291782379, -0.15702898800373077, 0.033711567521095276, 0.006909370422363281, -0.03608869016170502, 0.10712029039859772, 0.10631079971790314, 0.10772480070590973, 0.09553344547748566, -0.15672926604747772, -0.09020741283893585, 0.2136358767747879], [0.1367177814245224, 0.0037652552127838135, -0.04302909970283508, -0.2117571085691452, 0.042229726910591125, -0.052655890583992004, 0.04695974290370941, 0.0017522722482681274, -0.07280515134334564, 0.08999837934970856, -0.1721750944852829, -0.14784225821495056, -0.2129659354686737, 0.18804223835468292, 0.047180429100990295, 0.011535152792930603, -0.15483856201171875, -0.013827815651893616, 0.042090967297554016, -0.11630092561244965, 0.11604075133800507], [-0.015107065439224243, -0.21520884335041046, -0.17436838150024414, 0.036019518971443176, 0.1600230485200882, 0.02593246102333069, -0.09452452510595322, 0.05771128833293915, -0.09320087730884552, 0.18494297564029694, -0.09851837158203125, 0.053800299763679504, 0.09225498139858246, 0.08639003336429596, 0.0007285922765731812, -0.17270046472549438, -0.18820925056934357, 0.04978306591510773, 0.18488509953022003, -0.09727395325899124, -0.09175072610378265], [-0.09641194343566895, 0.1159050315618515, 0.12330405414104462, -0.12686538696289062, -0.10909909009933472, 0.10644476115703583, -0.13451702892780304, -0.1986384242773056, -0.02539879083633423, -0.024449661374092102, -0.07952818274497986, 0.1122429221868515, 0.09406523406505585, 0.20542137324810028, -0.14784497022628784, -0.012088105082511902, -0.0839972198009491, -0.04602120816707611, -0.0034508109092712402, 0.1597527414560318, 0.08840908110141754], [-0.11216247826814651, 0.13349981606006622, 0.16118134558200836, -0.04434645175933838, -0.10150059312582016, 0.15490160882472992, -0.06308227777481079, 0.1928950399160385, 0.021982163190841675, 0.0574335902929306, 0.0687236338853836, -0.19746629893779755, -0.19146859645843506, 0.107881560921669, 0.11297889053821564, -0.028824806213378906, 0.09195052087306976, -0.12134647369384766, -0.11106090247631073, -0.09406426548957825, -0.03668573498725891], [0.20995542407035828, -0.06812043488025665, -0.13960938155651093, 0.19818708300590515, -0.10217519104480743, -0.1497877836227417, -0.17123852670192719, -0.18599924445152283, -0.049674730747938156, -0.12800681591033936, 0.17648789286613464, -0.15873262286186218, 0.01336691901087761, 0.19827088713645935, -0.1172710582613945, 0.17092712223529816, 0.11573515832424164, 0.03346459940075874, 0.13741753995418549, 0.0339106023311615, 0.06678780168294907], [-0.06553488969802856, 0.17326609790325165, -0.1415618658065796, -0.12930476665496826, -0.029845982789993286, 0.19267787039279938, -0.11536316573619843, 0.061249807476997375, -0.10413923114538193, -0.1097809299826622, -0.12240821868181229, 0.12465892732143402, -0.2056811898946762, -0.20921406149864197, -0.052506715059280396, 0.07497538626194, -0.210445374250412, -0.10354789346456528, 0.19946353137493134, 0.14929859340190887, 0.19201014935970306], [-0.1249864250421524, 0.020100966095924377, 0.01787412166595459, 0.19771482050418854, -0.08427347242832184, 0.04877839982509613, -0.09100756049156189, 0.07776840031147003, 0.028937846422195435, 0.14220492541790009, -0.0008657872676849365, -0.014731168746948242, -0.21410542726516724, -0.21769513189792633, -0.07753267884254456, 0.03461982309818268, 0.17413000762462616, -0.054443106055259705, 0.17212094366550446, 0.11848364770412445, 0.16658316552639008], [0.2106350213289261, 0.20985274016857147, -0.10243867337703705, 0.015149101614952087, 0.11355723440647125, -0.01856057345867157, -0.20858880877494812, 0.003289520740509033, 0.21688474714756012, 0.21765173971652985, -0.0039893388748168945, 0.19997309148311615, -0.012524977326393127, -0.08177892863750458, -0.031765416264534, 0.004261419177055359, -0.18789240717887878, 0.15358345210552216, 0.07288594543933868, 0.03735746443271637, -0.04413279891014099], [-0.04654902219772339, -0.15187470614910126, 0.04403705894947052, 0.10316784679889679, -0.06071649491786957, 0.0463704913854599, 0.023817837238311768, 0.10316817462444305, 0.19181843101978302, -0.04545363783836365, -0.10723302513360977, -0.07813036441802979, 0.14857976138591766, -0.02338443696498871, -0.023545220494270325, -0.07773430645465851, -0.12914881110191345, 0.18858663737773895, -0.08991624414920807, 0.16388259828090668, 0.09022577106952667], [-0.06705790758132935, -0.014118462800979614, -0.1195148304104805, -0.09204454720020294, -0.050591349601745605, -0.15878117084503174, 0.020807236433029175, -0.03335851430892944, 0.1134643405675888, -0.09040795266628265, -0.1881548911333084, 0.19758741557598114, -0.012753918766975403, -0.19584184885025024, 0.023530736565589905, -0.09640723466873169, 0.0775049477815628, 0.09138475358486176, 0.21003492176532745, -0.013906791806221008, 0.03033284842967987], [-0.028962373733520508, -0.08558773994445801, -0.11787472665309906, -0.1558171808719635, -0.005088359117507935, 0.08127798140048981, 0.03998930752277374, 0.18243108689785004, -0.09929115325212479, -0.0789368599653244, 0.06132785975933075, -0.15470384061336517, 0.07989473640918732, 0.06199343502521515, -0.09381716698408127, -0.18473373353481293, 0.16039316356182098, -0.00682029128074646, 0.0765039473772049, 0.12305201590061188, -0.06377038359642029], [-0.1318874955177307, -0.1259690374135971, 0.04789327085018158, -0.1473609209060669, -0.12666568160057068, 0.14166058599948883, -0.05033941566944122, 0.1637086719274521, -0.21357059478759766, 0.14078260958194733, -0.20628668367862701, 0.06535021960735321, 0.07564191520214081, -0.15621820092201233, -0.08465145528316498, 0.07690228521823883, -0.09401718527078629, -0.14609259366989136, 0.09742431342601776, 0.025221750140190125, 0.14272452890872955], [-0.01578313112258911, 0.08836807310581207, 0.20398090779781342, 0.039404407143592834, -0.04303422570228577, 0.05375589430332184, 0.009635567665100098, -0.14850878715515137, 0.011034339666366577, -0.21078157424926758, -0.13954444229602814, -0.0023710429668426514, 0.1734784096479416, 0.1263379603624344, -0.19226443767547607, 0.1498250514268875, 0.21731634438037872, 0.1379096359014511, 0.08116741478443146, 0.11388476192951202, 0.1131005734205246], [0.13259997963905334, -0.20636020600795746, -0.008169152773916721, 0.02040766179561615, -0.15873822569847107, 0.21490299701690674, -0.171470507979393, 0.030750742182135582, 0.0893591046333313, 0.14894992113113403, -0.12681928277015686, 0.10914044827222824, 0.1322200745344162, 0.19454512000083923, -0.040998078882694244, 0.06939848512411118, 0.05922433361411095, -0.009559019468724728, 0.22628387808799744, 0.14986100792884827, 0.07234621047973633], [-0.09694592654705048, 0.18691588938236237, 0.13447047770023346, 0.12015675008296967, -0.05206684768199921, -0.21518127620220184, -0.17219090461730957, 0.05445928871631622, 0.1785583645105362, 0.012913614511489868, -0.11287254095077515, -0.1791336089372635, -0.10070236772298813, -0.06997846066951752, 0.09915484488010406, -0.11709421128034592, -0.19676804542541504, 0.12533070147037506, -0.08275935053825378, -0.13020014762878418, -0.21371302008628845], [-0.09884275496006012, -0.18460917472839355, -0.2037396878004074, -0.20549152791500092, -0.006942063570022583, -0.1441042721271515, 0.2097504884004593, -0.20741860568523407, 0.1306108981370926, 0.15079940855503082, 0.13569442927837372, -0.04011395573616028, 0.20014794170856476, -0.077405646443367, 0.06280548870563507, 0.11987848579883575, -0.20294024050235748, -0.10267872363328934, -0.0028136521577835083, 0.013902470469474792, -0.17735685408115387], [-0.033280596137046814, -0.06368574500083923, -0.0649392306804657, -0.16477201879024506, -0.029545575380325317, 0.15419359505176544, 0.04157017171382904, 0.10263274610042572, -0.09399254620075226, 0.11306263506412506, -0.2134736180305481, -0.06243656575679779, 0.12619005143642426, -0.02024601399898529, -0.09728561341762543, -0.21743832528591156, 0.1520855575799942, 0.14683832228183746, 0.07892493903636932, 0.02171178162097931, 0.15787826478481293], [0.2167174220085144, -0.09606227278709412, -0.17887833714485168, -0.08708246052265167, -0.16813315451145172, -0.041962675750255585, -0.008380444720387459, 0.0680779293179512, 0.10496945679187775, -0.14377571642398834, 0.14016683399677277, -0.1731540560722351, -0.17022952437400818, 0.10354989767074585, 0.19522175192832947, 0.16481123864650726, -0.037162307649850845, -0.20911480486392975, -0.09024500101804733, 0.1144280731678009, -0.07553524523973465], [-0.11173246800899506, 0.15068024396896362, 0.08522877097129822, -0.12820163369178772, 0.1219102069735527, 0.20836897194385529, 0.07014286518096924, -0.034782033413648605, -0.13522455096244812, 0.07864082604646683, 0.08769872039556503, 0.18963931500911713, 0.0167795829474926, 0.025548115372657776, -0.14231784641742706, 0.008894577622413635, -0.19523897767066956, -0.0845060870051384, -0.08124817162752151, -0.018483128398656845, -0.08595279604196548], [-0.030009865760803223, -0.2002987563610077, 0.10988156497478485, 0.07336674630641937, -0.010758727788925171, 0.1106368750333786, 0.07342852652072906, -0.16058340668678284, -0.0814422070980072, -0.09814814478158951, 0.16284404695034027, 0.12133337557315826, 0.19284959137439728, -0.12276603281497955, -0.04495146870613098, 0.16933296620845795, 0.1059376448392868, 0.1215769499540329, 0.07154019176959991, -0.13364562392234802, 0.0036640912294387817]], "fc1.bias": [-0.11376694589853287, 0.1896732598543167, -0.0936867743730545, 0.09840263426303864, 0.015900302678346634, 0.010042756795883179, 0.040906742215156555, -0.11021072417497635, 0.06876306235790253, -0.1465141922235489, -0.04507352411746979, -0.11912205815315247, -0.03625112771987915, 0.037782832980155945, 0.035824790596961975, -0.14704005420207977, -0.07280026376247406, 0.09552468359470367, -0.00641333544626832, 0.15506033599376678, 0.12201674282550812, 0.1365787535905838, 0.014912277460098267, 0.024310961365699768, 0.00615382194519043, 0.0973580926656723, -0.2146388441324234, -0.0015761852264404297, -0.01926596648991108, -0.009994834661483765, 0.19011299312114716, 0.05339948832988739, 0.16527587175369263, 0.07553669065237045, -0.01600112020969391, -0.015753909945487976, 0.1684618443250656, 0.02356870472431183, -0.10696326941251755, -0.05217617750167847, -0.033103108406066895, 0.10676266252994537, -0.036685213446617126, 0.05637653172016144, -0.04860152304172516, -0.10818639397621155, -0.19180937111377716, 0.031038209795951843, -0.0373384952545166, 0.13715742528438568, -0.06465615332126617, -0.2090054154396057, -0.17025825381278992, -0.011958092451095581, -0.07006613910198212, 0.13044898211956024, 0.1549292355775833, -0.09433253854513168, -0.008646950125694275, -0.054690420627593994, -0.06495597958564758, 0.16271181404590607, 0.023298701271414757, -0.14529293775558472, -0.11276323348283768, -0.01623349077999592, 0.1553085297346115, 0.1510264128446579, -0.15543410181999207, 0.052918434143066406, 0.06012754142284393, 0.06027720868587494, -0.19435237348079681, 0.18835194408893585, -0.09409578144550323, 0.19103805720806122, 0.11563556641340256, -0.11214137822389603, -0.008253902196884155, -0.10034699738025665, 0.0029188543558120728, 0.07411785423755646, -0.1159893348813057, -0.20898889005184174, 0.21332792937755585, -0.06338436901569366, -0.08024604618549347, 0.18561960756778717, -0.03044922649860382, 0.17125089466571808, 0.0011654049158096313, 0.1706896871328354, -0.0585496723651886, -0.049322932958602905, 0.21187789738178253, -0.1433103382587433, -0.1542206108570099, 0.13649949431419373, -0.12975357472896576, -0.18250158429145813], "fc2.weight": [[0.07124567031860352, -0.13577613234519958, 0.4689081609249115, -0.008962218649685383, -0.5962668657302856, -0.048198673874139786, -0.05300433561205864, -0.06549342721700668, -0.052124619483947754, -0.484453409910202, -0.006773456931114197, -0.023105917498469353, 0.047919850796461105, -0.0677383542060852, -0.07843140512704849, 0.07095917314291, 0.0985315814614296, -0.02858615294098854, 0.09741371124982834, -0.04052409157156944, -0.1173006072640419, 0.09359181672334671, -0.1144372969865799, 0.018617287278175354, -0.07585438340902328, -0.03575477376580238, -0.009959734976291656, 0.05938974767923355, -0.11565031856298447, -0.0018887320766225457, 0.004812218248844147, -0.06487752497196198, 0.24944426119327545, 0.0836900919675827, -0.09748660773038864, 0.0870969370007515, -0.8154944181442261, 0.038487888872623444, -0.07866903394460678, 0.02136172354221344, 0.030591553077101707, 0.012899588793516159, -0.033055637031793594, 0.01124873012304306, -0.0015950296074151993, -0.13582688570022583, -0.12506824731826782, -0.09342151880264282, -0.024083886295557022, -0.1024586409330368, 0.5954082608222961, 0.07650433480739594, 0.048942260444164276, 0.06370724737644196, 0.8099682927131653, 0.06074340641498566, -0.018215201795101166, 0.447820246219635, 0.02704847976565361, -0.0227559432387352, -0.06196368858218193, 0.03380844369530678, 0.8140854835510254, 0.07228555530309677, -0.06225383281707764, -0.6578794121742249, -0.07440538704395294, 0.04013749212026596, -0.06652422249317169, -0.8118324875831604, -0.036891475319862366, 0.021982882171869278, -0.12301478534936905, -0.04211218282580376, 0.5815339088439941, 0.011725768446922302, 0.32645437121391296, -0.019498752430081367, -0.08162909746170044, 0.006572559475898743, -0.01531970500946045, 0.08851683884859085, 0.03214853256940842, -0.07474086433649063, -0.7901930809020996, 0.04286570101976395, -0.06508754193782806, -0.013636946678161621, -0.03628735989332199, -0.027104541659355164, -0.06978000700473785, -0.09151383489370346, 0.023900620639324188, -0.6562961339950562, 0.02714405208826065, -0.10952843725681305, -0.02758924663066864, -0.04600324481725693, 0.7361438870429993, -0.08580688387155533]], "fc2.bias": [-0.03713488206267357]}