{"fc1.weight": [[0.19129537045955658, 0.09315670281648636, -0.05753084644675255, 0.13008525967597961, -0.12769421935081482, -0.013769717887043953, -0.2153390347957611, 0.06906252354383469, -0.016562875360250473, -0.09843820333480835, -0.0047163162380456924, -0.15364833176136017, -0.04438607767224312, -0.009179740212857723, 0.13248953223228455, -0.11524486541748047, 0.1335294395685196, 0.05451139062643051, 0.025306152179837227, 0.06847544014453888, 0.13505825400352478], [-0.07838709652423859, -0.11708448082208633, -0.06445369124412537, -0.047666147351264954, 0.039574697613716125, -0.1474163830280304, -0.16528154909610748, -0.1902916133403778, -0.09764233231544495, 0.009071692824363708, -0.18043380975723267, 0.04960881173610687, 0.14157558977603912, 0.013244077563285828, -0.021866127848625183, 0.02661915123462677, -0.03737027943134308, 0.1930537074804306, -0.19328385591506958, 0.15564455091953278, -0.19525675475597382], [0.08453290164470673, -0.04506632685661316, 0.17313088476657867, -0.04800555109977722, -0.11941894143819809, -0.11170489341020584, -0.037453725934028625, -0.14080911874771118, 0.20481489598751068, 0.021337583661079407, -0.217201828956604, 0.0670321136713028, 0.19951339066028595, 0.2008688598871231, -0.02878357470035553, 0.12330193817615509, -0.20716308057308197, 0.1743987649679184, -0.20964545011520386, 0.1302720457315445, -0.1349831372499466], [-0.21195244789123535, -0.024399789050221443, 0.2133113294839859, 0.0969652384519577, -0.1489044427871704, 0.0034211575984954834, -0.12618224322795868, -0.022452443838119507, -0.0005486516747623682, -0.05663973093032837, 0.12531588971614838, 0.038440361618995667, -0.03952100872993469, -0.11582843959331512, -0.16009622812271118, 0.17101161181926727, -0.2149355709552765, -0.2127247303724289, 0.1443031281232834, -0.13238614797592163, 0.02032226324081421], [0.21600370109081268, -0.20779652893543243, 0.07127197086811066, 0.0653165727853775, 0.15190188586711884, -0.1884184032678604, 0.189798042178154, -0.05676557123661041, -0.14045442640781403, 0.021785035729408264, 0.2024494856595993, -0.13329319655895233, -0.15496522188186646, 0.01869465410709381, 0.09809504449367523, 0.03240905702114105, -0.09873469918966293, -0.10971946269273758, 0.122139111161232, 0.1388990730047226, -0.09181942045688629], [0.03807320073246956, -0.14247804880142212, -0.17886774241924286, -0.09864678978919983, -0.0005314627196639776, -0.1620098054409027, 0.1338483989238739, -0.050444383174180984, -0.14467385411262512, -0.11572743207216263, -0.12777230143547058, 0.02298322692513466, 0.03824814409017563, 0.21096064150333405, 0.000334615062456578, 0.17904463410377502, 0.028748098760843277, 0.06459172815084457, -0.12360736727714539, 0.09220238775014877, -0.10660561174154282], [-0.13784587383270264, -0.195194810628891, 0.12341812998056412, 0.17212601006031036, 0.0882829949259758, 0.000743567943572998, -0.13501012325286865, -0.08720996975898743, -0.03140199929475784, -0.1622847020626068, -0.19837689399719238, -0.14335235953330994, -0.12897920608520508, 0.15854652225971222, -0.007981199771165848, 0.14827777445316315, 0.19146038591861725, 0.1100379005074501, 0.2067994624376297, 0.11559463292360306, 0.003343480173498392], [-0.07561057806015015, 0.035902246832847595, -0.07099902629852295, 0.13117791712284088, -0.1596055030822754, 0.13016976416110992, 0.12044979631900787, -0.03478655219078064, -0.11023473739624023, 0.12263675034046173, -0.07556013762950897, 0.008026078343391418, -0.17424419522285461, -0.10537641495466232, 0.023536011576652527, -0.200982004404068, 0.16660206019878387, 0.21572928130626678, 0.17698411643505096, -0.12361179292201996, -0.18976429104804993], [-0.10973823070526123, -0.005488166119903326, 0.029515324160456657, -0.15038606524467468, -0.17587658762931824, 0.0297014731913805, -0.05456530675292015, 0.20209693908691406, 0.1102166697382927, -0.0789729505777359, -0.1298854798078537, 0.19429604709148407, -0.1796153038740158, -0.06419355422258377, 0.19912761449813843, 0.09367883205413818, 0.2175428569316864, -0.07908133417367935, 0.07806095480918884, 0.16980716586112976, -0.05115106329321861], [0.17281927168369293, 0.2057773917913437, 0.18432651460170746, 0.1646227389574051, -0.05311724543571472, 0.20256705582141876, -0.1922568678855896, -0.17807701230049133, 0.05950789153575897, 0.1939055472612381, -0.003269568085670471, 0.21805579960346222, -0.12108954042196274, 0.1706014722585678, -0.1869657337665558, -0.20051927864551544, -0.08800920844078064, 0.11625625193119049, -0.06308136880397797, -0.04696786403656006, -0.039603084325790405], [-0.1655428558588028, -0.19600503146648407, 0.0742473155260086, -0.11316163092851639, 0.16785161197185516, -0.14958538115024567, -0.20565558969974518, 0.13601545989513397, 0.13600291311740875, -0.05692686140537262, 0.01602826826274395, -0.06903046369552612, -0.0013566619018092752, 0.13266320526599884, 0.1668187528848648, 0.1646379977464676, -0.09057538211345673, -0.10579083114862442, -0.030931919813156128, -0.1549047827720642, -0.018580347299575806], [0.04271964728832245, 0.1879027932882309, -0.002451986074447632, 0.17232869565486908, -0.06541723012924194, 0.19295452535152435, -0.04301978647708893, 0.18251319229602814, 0.07696621119976044, -0.08888259530067444, -0.15738262236118317, 0.07063843309879303, 0.006522074341773987, 0.00804145634174347, 0.10556210577487946, 0.14622651040554047, -0.1119062677025795, 0.21371163427829742, 0.1599455624818802, 0.08235327899456024, -0.009188756346702576], [0.13372524082660675, 0.18898089230060577, 0.03203950822353363, 0.07508321106433868, 0.025095820426940918, 0.20612604916095734, -0.19357804954051971, -0.11414837837219238, 0.21568839251995087, 0.05394814908504486, 0.1406557708978653, -0.10495803505182266, -0.047386735677719116, 0.1366126984357834, -0.16758346557617188, 0.10906396806240082, -0.17194430530071259, 0.013958171010017395, 0.05418895184993744, -0.02023613452911377, -0.06819511950016022], [0.21498504281044006, -0.039094310253858566, -0.05784055218100548, -0.09887015074491501, -0.004261644557118416, 0.12720058858394623, -0.059468548744916916, -0.22098594903945923, -0.1563061773777008, -0.04213307797908783, 0.05319662392139435, 0.07205336540937424, -0.020397551357746124, -0.19673015177249908, 0.11758612841367722, -0.15292184054851532, 0.18763619661331177, 0.12713977694511414, -0.1284453570842743, 0.13798725605010986, 0.01799800992012024], [0.14453722536563873, -0.02584061026573181, 0.006483495235443115, 0.06758244335651398, -0.06032636761665344, -0.12889781594276428, 0.07700730860233307, -0.008419901132583618, 0.19930802285671234, -0.13236089050769806, 0.11875204741954803, -0.011514037847518921, 0.07015432417392731, -0.17352434992790222, -0.04240565001964569, -0.010046035051345825, -0.03495161235332489, 0.13188405334949493, -0.16272743046283722, 0.16695119440555573, -0.10519970208406448], [-0.00739210844039917, -0.04998159408569336, -0.16077817976474762, 0.04716642200946808, -0.08547143638134003, 0.2161792367696762, 0.17419089376926422, -0.20964635908603668, -0.21783263981342316, -0.05702035129070282, -0.1169341504573822, -0.0304659903049469, -0.18161621689796448, -0.05769184231758118, 0.17099471390247345, 0.15783502161502838, -0.13295194506645203, 0.19744278490543365, -0.11005277186632156, 0.1336008459329605, 0.12819622457027435], [-0.08788791298866272, 0.16819225251674652, -0.14361749589443207, 0.14865031838417053, 0.15254169702529907, 0.031805746257305145, -0.10906806588172913, -0.09097938239574432, 0.09357970207929611, -0.04321190342307091, 0.21290059387683868, 0.12599626183509827, -0.17238710820674896, -0.11304822564125061, 0.10001511871814728, -0.06774922460317612, 0.0865091010928154, 0.07096840441226959, 0.02824035845696926, 0.14012707769870758, -0.16773509979248047], [-0.009844064712524414, 0.18156352639198303, -0.18873058259487152, -0.2139895260334015, -0.08122134208679199, 0.19504183530807495, -0.06994123011827469, 0.03627997636795044, 0.16728150844573975, 0.17336377501487732, 0.20224611461162567, 0.031592510640621185, -0.10410430282354355, -0.1389169692993164, -0.14857368171215057, 0.1807127743959427, -0.07074763625860214, 0.13437309861183167, -0.048088204115629196, 0.05945888161659241, 0.10944753885269165], [-0.020264631137251854, 0.12191608548164368, 0.0074720424599945545, -0.04294414445757866, 0.08108044415712357, 0.12868288159370422, -0.08172652870416641, -0.09403026103973389, 0.20907823741436005, 0.039795394986867905, -0.07443831861019135, -0.1105906292796135, 0.04430586099624634, 0.04305071756243706, -0.18652155995368958, 0.014540577307343483, 0.09617912769317627, -0.135324627161026, 0.20881961286067963, 0.1363525241613388, 0.06177392601966858], [0.07310283929109573, -0.09243853390216827, 0.0967581570148468, -0.0036615319550037384, -0.1843888759613037, -0.005321776494383812, 0.03789204731583595, 0.19641812145709991, 0.1118604838848114, 0.15787796676158905, 0.11472558230161667, 0.20535185933113098, -0.09730754047632217, -0.05058981850743294, -0.13493116199970245, 0.0025153413880616426, -0.14320634305477142, 0.01870100013911724, 0.12298091500997543, 0.14373256266117096, -0.07539718598127365], [-0.09293036162853241, -0.13095828890800476, -0.1599925458431244, -0.2070111334323883, -0.14942416548728943, -0.0813668966293335, -0.1390361785888672, -0.09108185768127441, 0.19030283391475677, -0.07853800058364868, 0.09743620455265045, -0.1427818089723587, 0.07294456660747528, 0.20905350148677826, -0.10068953782320023, -0.1884242594242096, -0.054039254784584045, -0.012302994728088379, -0.12733100354671478, -0.06989537179470062, 0.2089979499578476], [-0.16520607471466064, -0.17715440690517426, -0.029229968786239624, 0.10044960677623749, 0.13289038836956024, 0.1251329928636551, 0.007664486765861511, 0.21431328356266022, 0.19432128965854645, -0.21737736463546753, -0.049441397190093994, 0.215579554438591, 0.09867160022258759, -0.03206498920917511, 0.11804254353046417, -0.13638998568058014, -0.0572538822889328, -0.15056182444095612, 0.04753898084163666, 0.027926355600357056, 0.0649322122335434], [-0.03145197033882141, 0.052998319268226624, -0.06212355196475983, -0.13275083899497986, 0.1788903921842575, -0.10437938570976257, 0.12281085550785065, -0.02497561275959015, 0.12105061113834381, -0.19084107875823975, -0.03492029011249542, -0.006749570369720459, -0.0740685760974884, -0.12831556797027588, -0.16266541182994843, -0.00022043650096748024, -0.15037915110588074, 0.023097574710845947, 0.20508484542369843, 0.17004452645778656, -0.1301245540380478], [0.08955322206020355, 0.009331151843070984, 0.1843801587820053, 0.055659160017967224, -0.025719046592712402, 0.2074500471353531, -0.21632829308509827, 0.08664457499980927, -0.08311451971530914, -0.05258764326572418, 0.14155946671962738, 0.00046540796756744385, 0.08643095195293427, 0.09654845297336578, 0.17132754623889923, 0.20909152925014496, -0.07611967623233795, 0.07876290380954742, -0.06595686078071594, -0.0027790069580078125, 0.15015672147274017], [0.05413605272769928, -0.004434362053871155, 0.1880955547094345, 0.07996676862239838, 0.1507786065340042, 0.18097837269306183, -0.10702858865261078, 0.023301497101783752, 0.1576143354177475, 0.08189825713634491, 0.14020593464374542, 0.14201395213603973, 0.14306648075580597, -0.14088326692581177, 0.2093280404806137, -0.11341048032045364, -0.05611862242221832, 0.05041338503360748, 0.19391976296901703, 0.18350283801555634, 0.14968456327915192], [-0.18506194651126862, -0.09788220375776291, -0.13457664847373962, -0.13424524664878845, -0.03511786460876465, 0.18198703229427338, -0.1855909377336502, -0.036487072706222534, 0.21647323668003082, 0.1781989485025406, 0.05131848156452179, -0.1584007441997528, 0.1851448267698288, -0.13298623263835907, 0.15441666543483734, 0.1366400271654129, 0.00908629596233368, 0.04476054012775421, 0.07318519055843353, 0.12852220237255096, -0.05096147954463959], [0.10181249678134918, -0.08936451375484467, -0.01999896764755249, -0.1497112363576889, 0.0882205218076706, -0.14265918731689453, -0.1785111427307129, -0.0467962771654129, -0.0176466703414917, 0.13093049824237823, 0.024267569184303284, -0.13234007358551025, -0.1451069861650467, -0.08103805780410767, -0.060833558440208435, -0.0338171124458313, -0.017387256026268005, 0.10670559108257294, 0.09490086138248444, 0.08097551763057709, 0.09927935898303986], [0.08665786683559418, -0.18402129411697388, 0.12226299941539764, -0.2112502008676529, 0.09214307367801666, -0.15656623244285583, 0.15612424910068512, -0.03983886539936066, 0.09251995384693146, 0.1551574319601059, -0.038162022829055786, -0.1630212515592575, -0.10401478409767151, 0.1546775847673416, 0.21292565762996674, -0.08602398633956909, 0.07963733375072479, -0.06286987662315369, 0.040602609515190125, -0.09736476838588715, 0.06921277940273285], [0.21539226174354553, 0.11461470276117325, -0.00306532415561378, -0.07479628175497055, 0.22086642682552338, 0.10817501693964005, 0.10351336747407913, -0.10778674483299255, -0.15207421779632568, -0.05646146833896637, -0.03903543949127197, -0.09290866553783417, -0.032066233456134796, 0.12079967558383942, 0.09862784296274185, -0.1236550584435463, -0.09406625479459763, -0.15385998785495758, -0.18909911811351776, 0.05609836429357529, 0.13282622396945953], [0.007602090947329998, -0.07677087932825089, -0.149176225066185, 0.014808835461735725, 0.03975081443786621, 0.10710278898477554, -0.07546944916248322, 0.023874327540397644, 0.19363242387771606, 0.19391848146915436, 0.19787974655628204, -0.007725393399596214, -0.053893230855464935, -0.05030682310461998, -0.14358758926391602, 0.03673093020915985, 0.008308518677949905, 0.20017869770526886, 0.06675627082586288, 0.18980294466018677, -0.18534868955612183], [-0.18561871349811554, 0.21564434468746185, 0.09855921566486359, 0.21114669740200043, 0.20032308995723724, -0.06491777300834656, -0.05217061936855316, 0.07192458212375641, -0.19346940517425537, -0.19720280170440674, 0.1388995200395584, -0.1357010155916214, 0.08118817210197449, 0.1557268649339676, -0.03187146410346031, 0.032555606216192245, 0.03486092388629913, -0.04522956535220146, -0.07403454184532166, -0.14673389494419098, 0.12451391667127609], [0.12013255059719086, 0.13888870179653168, 0.12753425538539886, 0.07634006440639496, -0.11192541569471359, -0.18978720903396606, -0.1040261760354042, -0.02292269468307495, -0.024376094341278076, -0.14692270755767822, -0.19103875756263733, 0.186520054936409, -0.19513235986232758, -0.09269765019416809, -0.18336701393127441, 0.06078489124774933, 0.11005406081676483, -0.017036885023117065, 0.11797915399074554, 0.007885739207267761, 0.1801704615354538], [-0.1180073693394661, 0.08553777635097504, -0.008573919534683228, 0.08487318456172943, -0.05415154993534088, 0.17542465031147003, 0.11328254640102386, -0.09340766072273254, -0.021791279315948486, 0.06106273829936981, 0.14647634327411652, 0.004384741187095642, 0.2131051868200302, -0.09525558352470398, -0.1645224690437317, -0.15863756835460663, 0.02418699860572815, 0.10688059031963348, 0.18815918266773224, 0.11465899646282196, 0.16543982923030853], [0.1516159176826477, -0.1462061107158661, -0.18965554237365723, 0.004324306268244982, 0.12648317217826843, 0.14884565770626068, -0.10873167216777802, -0.05487148091197014, -0.001266114879399538, -0.11986814439296722, 0.040984924882650375, -0.07902627438306808, -0.051804523915052414, -0.1462535858154297, 0.1017363965511322, 0.1550256907939911, -0.2051522135734558, 0.0854901522397995, -0.06121191382408142, 0.07549572736024857, -0.12418864667415619], [0.1110803633928299, 0.17199905216693878, 0.05328117311000824, -0.0637776255607605, -0.15510550141334534, -0.1835937649011612, 0.1732138842344284, -0.017779365181922913, -0.21085700392723083, -0.12588879466056824, 0.11478246748447418, -0.05618476867675781, 0.21137361228466034, 0.04937167465686798, 0.06250409781932831, 0.15631331503391266, -0.11261112987995148, -0.1703662872314453, -0.14163416624069214, -0.15135526657104492, -0.005415931344032288], [0.19194523990154266, 0.07310236990451813, 0.09270273149013519, -0.09675206989049911, 0.11280308663845062, -0.008433118462562561, 0.17320795357227325, -0.06124486029148102, 0.1695375293493271, 0.21136300265789032, 0.011369913816452026, -0.06820812821388245, -0.16615107655525208, 0.15451179444789886, 0.1631590574979782, 0.01160942018032074, -0.09811776131391525, 0.1078982800245285, 0.09504275023937225, 0.19918523728847504, 0.0691586583852768], [0.10488443076610565, 0.12231366336345673, -0.15204286575317383, 0.08938349783420563, -0.02639852464199066, 0.043570175766944885, -0.06365865468978882, -0.15594081580638885, 0.1224040538072586, 0.021396055817604065, 0.12718607485294342, 0.034862175583839417, -0.07556594908237457, 0.022290483117103577, -0.18974684178829193, -0.051606565713882446, -0.04817222058773041, -0.04817219078540802, -0.019002124667167664, -0.05717840790748596, 0.03679497539997101], [0.08110855519771576, 0.07944653928279877, -0.027910098433494568, 0.20383910834789276, -0.059057608246803284, -0.13602620363235474, 0.08477269113063812, -0.051320984959602356, 0.11156950891017914, 0.154245063662529, -0.1354641318321228, 0.1564904898405075, 0.011907756328582764, 0.042809948325157166, -0.18497514724731445, -0.1203061118721962, 0.035410478711128235, -0.13809329271316528, 0.1586993783712387, 0.037463173270225525, -0.1260610967874527], [0.20501795411109924, -0.0037946864031255245, 0.04097285121679306, 0.09454479813575745, 0.07794434577226639, -0.10240519791841507, -0.19411811232566833, 0.09097372740507126, 0.19504879415035248, -0.1858946681022644, -0.08725175261497498, -0.1879885345697403, -0.14981861412525177, 0.127157062292099, -0.01644393615424633, -0.00916337501257658, 0.21518713235855103, -0.004623635206371546, 0.11994173377752304, -0.006024276837706566, 0.16646045446395874], [-0.04647397994995117, 0.17777039110660553, -0.18653015792369843, -0.08206434547901154, -0.17828010022640228, 0.00342695415019989, -0.17574109137058258, 0.09406746923923492, -0.12173493206501007, -0.1206396073102951, -0.04630240797996521, 0.09705160558223724, -0.04216820001602173, -0.07478399574756622, 0.1809477061033249, -0.1684381365776062, -0.09523175656795502, -0.15810821950435638, -0.2060135155916214, 0.13584206998348236, -0.17080938816070557], [-0.22623540461063385, 0.21686026453971863, 0.1836354285478592, -0.11629921942949295, 0.1016840785741806, -0.10665678977966309, 0.10342999547719955, -0.21371950209140778, -0.10177548974752426, -0.14420053362846375, -0.1304745376110077, 0.1877894103527069, 0.010860818438231945, -0.036570996046066284, -0.10507135838270187, 0.22335295379161835, -0.2050458937883377, -0.14902041852474213, -0.1576055884361267, 0.07645490765571594, 0.0833909660577774], [0.002771634142845869, -0.03486718609929085, -0.02242065593600273, 0.11900082975625992, 0.2555161714553833, -0.12110122293233871, -0.14918817579746246, -0.1071023941040039, 0.1473621279001236, -0.002303152112290263, 0.12974366545677185, 0.06763771176338196, -0.22218987345695496, 0.2120637595653534, 0.09465131908655167, -0.2492237240076065, -0.14738667011260986, -0.14271144568920135, -0.14325745403766632, 0.21698448061943054, -0.2165723443031311], [0.13527579605579376, 0.16452087461948395, 0.1580951064825058, 0.06615935266017914, -0.21751120686531067, 0.12895534932613373, 0.03653685748577118, -0.1814175695180893, 0.1117328554391861, -0.024670958518981934, 0.015142172574996948, -0.1462593674659729, 0.015421643853187561, -0.12841257452964783, 0.14945711195468903, 0.11883918941020966, -0.16434723138809204, -0.11410316824913025, -0.044460728764534, -0.1586664617061615, -0.09573642164468765], [-0.008580058813095093, -0.20701734721660614, -0.11448921263217926, -0.15317866206169128, 0.1320442408323288, 0.19417493045330048, -0.046819642186164856, -0.11460000276565552, -0.2109219878911972, 0.12439264357089996, 0.1569746881723404, -0.055584922432899475, 0.037640467286109924, 0.20458059012889862, 0.16222994029521942, 0.050407424569129944, 0.13392679393291473, 0.1431661993265152, 0.16384606063365936, 0.09644816815853119, -0.05726127326488495], [-0.03075827658176422, 0.21681265532970428, -0.08258837461471558, -0.06337924301624298, 0.09781120717525482, 0.022396773099899292, -0.0738326907157898, 0.02908879518508911, 0.06381295621395111, 0.027727141976356506, 0.026665687561035156, 0.21653003990650177, -0.19996118545532227, -0.15120983123779297, -0.1304064393043518, 0.05689360201358795, -0.12160851061344147, 0.12586723268032074, -0.14440372586250305, -0.04025490581989288, -0.08859482407569885], [0.12773071229457855, 0.1502280980348587, -0.12966179847717285, 0.010874748229980469, 0.21115462481975555, -0.12065021693706512, 0.20253844559192657, 0.04889319837093353, -0.06157219409942627, 0.04520125687122345, 0.09058178961277008, 0.13355784118175507, 0.0053901225328445435, -0.07934334874153137, 0.0826098769903183, 0.21557416021823883, 0.10272575914859772, -0.13442431390285492, 0.14905758202075958, -0.20961834490299225, 0.16839338839054108], [0.14517398178577423, -0.18395449221134186, -0.05266222357749939, 0.1111563891172409, 0.027046501636505127, -0.0875573605298996, -0.039636582136154175, -0.07488682866096497, -0.14484405517578125, -0.06972657144069672, 0.10192705690860748, 0.07829992473125458, 0.028910860419273376, 0.18697325885295868, 0.20939888060092926, 0.11593632400035858, -0.07432377338409424, 0.19747857749462128, 0.1525847166776657, -0.0896410197019577, 0.17668665945529938], [0.19066990911960602, -0.08782488107681274, 0.11222068965435028, -0.005317598581314087, 0.06257547438144684, -0.0938524380326271, 0.10796894133090973, -0.009714782238006592, 0.15776027739048004, -0.20461025834083557, 0.17337532341480255, 0.17035149037837982, -0.08236020803451538, 0.026366710662841797, -0.15539179742336273, 0.1238589733839035, -0.08136336505413055, 0.10315640270709991, 0.11789174377918243, -0.11392203718423843, -0.09664866328239441], [0.1253773719072342, 0.14719362556934357, 0.15748058259487152, -0.09165239334106445, 0.1563759595155716, 0.051523640751838684, -0.15023738145828247, 0.19994281232357025, 0.19676829874515533, -0.17129471898078918, 0.14760397374629974, 0.0986638218164444, -0.13146963715553284, -0.1594749242067337, -0.10479417443275452, -0.16574791073799133, -0.18343393504619598, -0.13097324967384338, -0.08577579259872437, 0.05855174362659454, 0.10983727872371674], [-0.19354084134101868, -0.024714305996894836, 0.06279553472995758, 0.1996506005525589, -0.010426953434944153, 0.18464483320713043, -0.12915557622909546, 0.1398332267999649, 0.15008188784122467, 0.027326270937919617, 0.17882271111011505, 0.10267509520053864, 0.03193502128124237, -0.02852635085582733, 0.10585926473140717, 0.19251702725887299, -0.18496717512607574, 0.16848595440387726, -0.136488139629364, 0.08424262702465057, 0.12842197716236115], [-0.19869783520698547, 0.0794462114572525, 0.14280742406845093, 0.20027843117713928, 0.08943992853164673, -0.1423303633928299, 0.15553399920463562, 0.2168073058128357, -0.16345110535621643, -0.15892520546913147, -0.01551569253206253, 0.1346619874238968, 0.10963570326566696, -0.20064298808574677, -0.16281116008758545, 0.036516375839710236, -0.21539272367954254, 0.05871717631816864, -0.10314827412366867, -0.08133146911859512, 0.17251503467559814], [0.006284281611442566, 0.10529918968677521, -0.0666971504688263, -0.09981686621904373, 0.15529651939868927, 0.021028324961662292, -0.07655411958694458, 0.08790774643421173, -0.02305065095424652, -0.08496589958667755, -0.18104518949985504, 0.04224582016468048, -0.02223394811153412, -0.20457004010677338, -0.09189611673355103, -0.19678360223770142, 0.05810685455799103, -0.08907298743724823, -0.06929068267345428, -0.15927937626838684, -0.010690003633499146], [0.0190688818693161, 0.048345282673835754, 0.021935060620307922, 0.1467849761247635, -0.17024952173233032, 0.040584757924079895, -0.18465207517147064, -0.21557746827602386, -0.14121899008750916, -0.1232694536447525, 0.15023519098758698, -0.016927599906921387, -0.18738782405853271, 0.17633934319019318, 0.04467989504337311, 0.1990392953157425, -0.19790488481521606, -0.10028086602687836, -0.15658915042877197, 0.16355951130390167, -0.056286245584487915], [-0.0014805644750595093, -0.10760720819234848, 0.05043773353099823, 0.17005415260791779, -0.02466219663619995, -0.11543875932693481, -0.1312565803527832, -0.049294814467430115, -0.15923377871513367, 0.14386628568172455, -0.11616154760122299, 0.02872931957244873, -0.17041243612766266, -0.03661343455314636, -0.20635639131069183, 0.19343341886997223, -0.204617440700531, -0.08621403574943542, -0.1573157161474228, 0.10967399179935455, 0.08843015134334564], [0.0768967866897583, 0.2035922110080719, -0.04515160992741585, 0.16415156424045563, 0.038609832525253296, -0.21163609623908997, 0.20343907177448273, 0.125000461935997, 0.05296475440263748, -0.21373538672924042, -0.16902852058410645, 0.17328134179115295, -0.05789152532815933, 0.06913990527391434, -0.19263900816440582, -0.12562309205532074, -0.08860009163618088, 0.14106543362140656, 0.1741427779197693, -0.22055387496948242, 0.017560133710503578], [0.11304937303066254, 0.030004054307937622, 0.08533032238483429, 0.09960721433162689, -0.15239554643630981, -0.1663070023059845, -0.09807600826025009, -0.16392335295677185, 0.06969092786312103, -0.21790628135204315, 0.11548642814159393, -0.06286123394966125, 0.007776707410812378, -0.002332061529159546, 0.1197456568479538, 0.07968460023403168, 0.08985795080661774, 0.1568244844675064, 0.13053147494792938, 0.1223921924829483, -0.14089298248291016], [0.14905120432376862, 0.04015599191188812, 0.12222965061664581, -0.19510884582996368, -0.21397151052951813, 0.12602932751178741, -0.14441613852977753, 0.19045241177082062, -0.14307332038879395, 0.11764322221279144, -0.2104194611310959, 0.03458581864833832, -0.042617350816726685, -0.1611805260181427, -0.18075773119926453, -0.022579655051231384, -0.10941125452518463, -0.0865284651517868, 0.15729762613773346, 0.004480510950088501, 0.11568008363246918], [0.14722083508968353, -0.047398343682289124, 0.0333259254693985, -0.18105122447013855, 0.15014539659023285, 0.061396822333335876, 0.018384724855422974, 0.11324374377727509, 0.0026577115058898926, -0.1055205762386322, 0.06562523543834686, 0.1563577502965927, 0.037351205945014954, 0.07751874625682831, 0.05890528857707977, 0.013808488845825195, -0.027127191424369812, -0.042777806520462036, -0.14604735374450684, 0.1498321145772934, 0.19805972278118134], [-0.1309569925069809, -0.0031604846008121967, 0.1915709525346756, 0.13223277032375336, -0.11200845241546631, 0.044989898800849915, 0.21497347950935364, 0.03353561460971832, -0.09380189329385757, 0.11034150421619415, -0.14710937440395355, -0.05662830173969269, 0.008396876975893974, -0.19365614652633667, 0.11450265347957611, -0.06920721381902695, 0.05411316454410553, -0.1654684990644455, -0.1707998812198639, -0.1168169304728508, 0.06272779405117035], [0.1841045767068863, 0.047076016664505005, -0.027932289987802505, -0.06152782216668129, -0.032068751752376556, 0.005413123872131109, -0.09818920493125916, 0.15562006831169128, 0.0927218571305275, -0.09460383653640747, -0.21106719970703125, 0.0561177134513855, -0.050245340913534164, 0.0661035031080246, 0.09612176567316055, -0.16257469356060028, 0.12699712812900543, -0.026466911658644676, -0.04088495671749115, 0.27893444895744324, 0.13274724781513214], [0.18572603166103363, 0.20350614190101624, 0.07924631983041763, 0.18310298025608063, -0.15003551542758942, 0.17117589712142944, 0.05795203894376755, 0.21662376821041107, 0.02518889307975769, -0.1531648188829422, -0.13804803788661957, -0.026101525872945786, -0.12038400024175644, -0.20245695114135742, -0.12367599457502365, -0.05637042224407196, 0.01943924091756344, 0.05550828576087952, 0.08474410325288773, -0.00826495885848999, 0.1783827394247055], [0.10944308340549469, -0.11856064945459366, -0.18263846635818481, 0.08717493712902069, 0.15098534524440765, 0.1949947625398636, 0.1791463941335678, -0.11604011803865433, -0.1658058762550354, 0.15142522752285004, -0.07606197893619537, 0.0414281040430069, -0.14359381794929504, 0.06885652244091034, 0.04552583396434784, -0.1539754569530487, -0.11113516986370087, -0.12764453887939453, -0.11169425398111343, -0.012209400534629822, 0.18605239689350128], [0.09019811451435089, -0.13176029920578003, 0.1216321736574173, 0.19830094277858734, 0.10537005960941315, 0.19334156811237335, -0.18637405335903168, -0.05187647044658661, -0.0855744481086731, -0.02664981782436371, 0.08931152522563934, 0.0016617774963378906, 0.19508697092533112, 0.031866446137428284, 0.13709305226802826, 0.14923204481601715, 0.1929628998041153, 0.01510860025882721, 0.08042876422405243, 0.08845274150371552, -0.061745330691337585], [-0.11479391902685165, -0.034948818385601044, -0.015179022215306759, 0.06986537575721741, -0.026933226734399796, -0.06349585950374603, -0.15890245139598846, 0.18298961222171783, 0.14112964272499084, -0.02843795344233513, 0.214110866189003, -0.12648308277130127, 0.05633573606610298, 0.1185138002038002, 0.1827908456325531, 0.004695178475230932, -0.09307702630758286, -0.1327981948852539, -0.1851639449596405, -0.220551535487175, 0.03038596548140049], [0.1457817703485489, 0.11879931390285492, 0.15423937141895294, -0.036380380392074585, 0.16673927009105682, 0.19280044734477997, 0.1670423299074173, -0.13818731904029846, 0.1690436154603958, -0.07364130020141602, 0.14774756133556366, 0.08175720274448395, -0.10093268752098083, 0.07066358625888824, -0.15440872311592102, 0.15573160350322723, 0.04362873733043671, 0.029420524835586548, -0.12603753805160522, -0.0006275027990341187, 0.04990147054195404], [-0.05325010418891907, 0.20835177600383759, 0.15491469204425812, -0.1974470019340515, 0.1294548064470291, -0.16247627139091492, 0.1743387132883072, -0.11701507866382599, -0.04395924508571625, -0.14537519216537476, -0.16114896535873413, 0.009650468826293945, -0.21817661821842194, -0.13979658484458923, 0.2044922560453415, 0.15446431934833527, -0.0855051726102829, 0.030328139662742615, -0.050016969442367554, -0.18601229786872864, -0.17901815474033356], [0.01319490373134613, 0.062100574374198914, -0.21323171257972717, -0.03404964506626129, -0.026473253965377808, 0.10067610442638397, -0.1560385525226593, 0.15783251821994781, 0.12223739922046661, -0.17423610389232635, 0.16968314349651337, -0.10865175724029541, 0.18066836893558502, 0.1562359780073166, 0.12481431663036346, -0.12682397663593292, -0.0803879052400589, 0.17787794768810272, -0.10765907913446426, 0.01732131838798523, 0.13305850327014923], [0.05874200165271759, -0.2039317935705185, 0.012388944625854492, 0.1881285458803177, 0.11906515061855316, -0.02915942668914795, 0.050390973687171936, -0.07058762013912201, 0.04455690085887909, -0.21635045111179352, -0.08306142687797546, 0.006652906537055969, -0.21175876259803772, -0.1800125241279602, 0.07933445274829865, -0.023494675755500793, 0.10332168638706207, 0.03506217896938324, -0.12100519984960556, -0.16113099455833435, -0.1937994509935379], [0.013457298278808594, -0.19090837240219116, -0.040027961134910583, -0.04421204328536987, -0.02090504765510559, 0.0020262449979782104, -0.1980096697807312, -0.08728082478046417, -0.17812497913837433, 0.01944655179977417, -0.08413144946098328, -0.02897663414478302, -0.04440721869468689, -0.14715898036956787, -0.05782836675643921, -0.05610746145248413, 0.034188851714134216, -0.1070905551314354, 0.0932316929101944, -0.1513463258743286, -0.1435619592666626], [0.20925666391849518, -0.1940639317035675, 0.006468519568443298, -0.14174488186836243, -0.20184732973575592, 0.002436116337776184, 0.004258900880813599, -0.07431334257125854, -0.026896998286247253, -0.16760292649269104, -0.18044927716255188, 0.04614175856113434, -0.10274669528007507, 0.010611414909362793, -0.07172808051109314, -0.09193742275238037, 0.17500297725200653, 0.06562809646129608, -0.08090278506278992, -0.11954565346240997, -0.10336875915527344], [0.16265779733657837, 0.0292340274900198, -0.015955159440636635, -0.007903222925961018, -0.026497384533286095, -0.14546312391757965, 0.22367346286773682, 0.06495050340890884, 0.014196430332958698, 0.04037072882056236, -0.12293196469545364, 0.12289690226316452, -0.15568754076957703, 0.0865451842546463, -0.09870879352092743, -0.12203654646873474, 0.1254269778728485, -0.00540983397513628, 0.05035491660237312, 0.165705144405365, -0.10884624719619751], [-0.042948588728904724, -0.17492267489433289, -0.0997905433177948, -0.057231634855270386, 0.15104557573795319, -0.03333349525928497, 0.07629948854446411, 0.1799887865781784, -0.22342173755168915, -0.11887560039758682, -0.09582021087408066, 0.08372383564710617, 0.1575966328382492, -0.19540126621723175, 0.20266111195087433, 0.11309027671813965, 0.09283481538295746, -0.2113773673772812, 0.12206514924764633, -0.15954717993736267, -0.05911014601588249], [-0.022916417568922043, 0.12682601809501648, 0.17210246622562408, -0.005651373416185379, 0.1572253704071045, 0.029383206740021706, -0.09724750369787216, -0.07228270173072815, -0.07824968546628952, 0.17248980700969696, -0.18956400454044342, -0.06645523756742477, -0.011944270692765713, -0.0533718578517437, 0.1037643775343895, 0.13010172545909882, 0.17839305102825165, 0.03842364624142647, -0.09606515616178513, -0.0062185367569327354, -0.15536999702453613], [-0.014271289110183716, -0.10773763805627823, 0.15659071505069733, 0.007722839713096619, 0.016435936093330383, -0.13288328051567078, 0.1171809583902359, -0.02594470977783203, 0.21007679402828217, 0.16726423799991608, 0.10794605314731598, 0.08026443421840668, -0.08438435196876526, 0.0535588413476944, 0.12219248712062836, -0.12926901876926422, 0.0682159811258316, 0.16234944760799408, 0.06942994892597198, -0.06566210091114044, 0.20238731801509857], [-0.11699436604976654, 0.0385761521756649, -0.18582667410373688, -0.13979078829288483, -0.11153330653905869, 0.1352902352809906, 0.06301916390657425, 0.17839929461479187, 0.12668758630752563, 0.13740867376327515, -0.04480735957622528, 0.12962664663791656, 0.0014194445684552193, -0.07976599782705307, 0.12048876285552979, 0.20695482194423676, -0.05041082948446274, 0.058461543172597885, 0.04931115359067917, -0.19762249290943146, 0.08156334608793259], [-0.09909732639789581, -0.16756847500801086, 0.12264970690011978, 0.08082474023103714, 0.04660768061876297, -0.11604098975658417, 0.18872442841529846, 0.046330537647008896, -0.14558149874210358, -0.1584824174642563, 0.04065088555216789, -0.0935794785618782, 0.16047492623329163, -0.14387601613998413, 0.011918957345187664, -0.15412817895412445, -0.16458603739738464, -0.0334528312087059, 0.028797393664717674, -0.061599958688020706, -0.033812060952186584], [-0.12427099794149399, 0.09367860853672028, -0.1282423436641693, 0.14830763638019562, 0.11052097380161285, -0.18169477581977844, -0.03846074640750885, 0.08517007529735565, -0.13871321082115173, -0.17857249081134796, -0.030238837003707886, -0.16416983306407928, 0.19933508336544037, -0.08244149386882782, 0.19958321750164032, -0.15649181604385376, -0.029250025749206543, -0.07413491606712341, -0.19167868793010712, -0.21620909869670868, 0.13453556597232819], [-0.14006313681602478, 0.2474389672279358, 0.05224159359931946, -0.035800714045763016, -0.09270013868808746, 0.14751026034355164, -0.17935651540756226, 0.17054122686386108, 0.18339407444000244, 0.19852392375469208, 0.20531947910785675, -0.22002358734607697, 0.21727347373962402, 0.001684744842350483, -0.09244183450937271, -0.14836131036281586, 0.08759478479623795, -0.1390417218208313, 0.1690569818019867, -0.0840691477060318, -0.02595258131623268], [-0.18142062425613403, 0.1861935704946518, 0.09036533534526825, 0.09489728510379791, 0.2037898749113083, -0.10897581279277802, -0.10322017222642899, 0.13109056651592255, -0.06985267996788025, -0.13852377235889435, 0.10529391467571259, -0.17263509333133698, 0.16806377470493317, -0.15008321404457092, -0.042162343859672546, 0.16469867527484894, 0.0799267441034317, 0.06585754454135895, -0.022820904850959778, -0.05475066602230072, 0.05609835684299469], [-0.20010590553283691, -0.007148976903408766, -0.028122304007411003, 0.18167650699615479, -0.018150340765714645, -0.06817516684532166, 0.15614649653434753, -0.190809428691864, -0.05830899253487587, 0.06167702376842499, 0.06268637627363205, 0.04619125649333, -0.1932893842458725, 0.17361216247081757, -0.051558591425418854, 0.1890522837638855, 0.020476028323173523, -0.05270472168922424, -0.18434253334999084, 0.06582047045230865, -0.07198755443096161], [0.08482508361339569, 0.20852233469486237, -0.08323030173778534, -0.14530232548713684, -0.07876208424568176, -0.16282625496387482, 0.14518390595912933, 0.0635986179113388, 0.05838139355182648, 0.14854593575000763, 0.06293396651744843, 0.12476681172847748, 0.05205707252025604, 0.0374189168214798, -0.12526211142539978, -0.17630775272846222, 0.15015406906604767, 0.1511429399251938, 0.06873051822185516, 0.05742044746875763, 0.17126844823360443], [-0.03211313486099243, -0.15969502925872803, -0.17519064247608185, 0.16406895220279694, -0.13926368951797485, -0.10417434573173523, -0.053791552782058716, 0.14371700584888458, -0.06715749204158783, 0.06315349042415619, 0.21570880711078644, 0.03888951241970062, 0.1892036348581314, -0.1655569225549698, -0.010837182402610779, 0.10670723021030426, -0.17017585039138794, 0.052132055163383484, 0.11087830364704132, 0.10539339482784271, 0.009137406945228577], [-0.004784355405718088, 0.07311545312404633, 0.14582787454128265, 0.23062315583229065, 0.1455288529396057, -0.1364065408706665, -0.10936646163463593, -0.07761378586292267, 0.15172064304351807, -0.09473561495542526, 0.15426532924175262, -0.10935935378074646, -0.023416223004460335, -0.02932055853307247, 0.023450760170817375, -0.1729949414730072, 0.05594600364565849, -0.18495327234268188, -0.18192151188850403, -0.23211391270160675, -0.08149116486310959], [0.024668613448739052, 0.05019739642739296, -0.06511593610048294, -0.22668206691741943, 0.1267388015985489, -0.01189173012971878, -0.14238546788692474, -0.1696431040763855, -0.15482039749622345, -0.08186827600002289, 0.15411211550235748, -0.22324539721012115, -0.028011484071612358, 0.07790905237197876, 0.16056779026985168, -0.22077171504497528, 0.2093370258808136, 0.03263797610998154, 0.15145322680473328, 0.15043103694915771, 0.02706741727888584], [0.08574853837490082, 0.048505231738090515, 0.012197211384773254, -0.1853882372379303, 0.061867281794548035, -0.03976082801818848, 0.038714244961738586, 0.15283994376659393, -0.001534879207611084, -0.06399865448474884, -0.04087868332862854, 0.09543915092945099, 0.18348337709903717, 0.208535298705101, 0.13535834848880768, 0.20861844718456268, 0.10627181828022003, 0.18063990771770477, -0.20802339911460876, 0.18252824246883392, -0.10873346775770187], [-0.12442182749509811, -0.15532764792442322, -0.08378265798091888, 0.014152750372886658, 0.05198894441127777, -0.18487706780433655, -0.16901373863220215, 0.202980175614357, -0.02521464228630066, -0.12707683444023132, -0.10544784367084503, 0.21626977622509003, 0.1193147748708725, -0.023941949009895325, 0.08247368037700653, 0.04476960003376007, -0.19391551613807678, 0.009140685200691223, -0.11094142496585846, -0.016517728567123413, -0.08367940783500671], [-0.10026223957538605, 0.14282174408435822, -0.032756149768829346, -0.0921376496553421, 0.16692058742046356, -0.19651658833026886, -0.022619426250457764, -0.1790844351053238, -0.12333836406469345, -0.11721179634332657, 0.20978303253650665, 0.1957044154405594, -0.1045750081539154, 0.07685799896717072, -0.06956988573074341, 0.19017545878887177, 0.08280666172504425, 0.0959770530462265, -0.14520567655563354, 0.006053641904145479, 0.09699271619319916], [-0.03144581615924835, -0.17831379175186157, 0.06273780763149261, -0.004277318716049194, -0.12647703289985657, 0.015198230743408203, -0.13389849662780762, 0.13018177449703217, -0.13540205359458923, -0.025952577590942383, -0.08593584597110748, 0.07992397248744965, -0.19759240746498108, 0.11977718770503998, -0.01245911419391632, 0.19958828389644623, -0.08306892216205597, 0.13346000015735626, -0.1485288143157959, 0.057050153613090515, -0.1923770010471344], [0.057361140847206116, 0.20207785069942474, 0.18392331898212433, 0.0655740350484848, 0.11859531700611115, 0.04521654546260834, -0.14346802234649658, 0.04552634060382843, 0.18090306222438812, 0.0771927684545517, -0.10329006612300873, -0.02800731360912323, 0.04346980154514313, 0.08832345902919769, 0.11910848319530487, -0.17902421951293945, 0.06694827973842621, -0.03989432752132416, -0.05849738419055939, -0.11229278147220612, 0.1369834691286087], [0.2153315395116806, -0.2163778692483902, 0.09871195256710052, -0.18847469985485077, -0.1830771118402481, -0.1858828365802765, -0.15094737708568573, -0.12471942603588104, -0.13952544331550598, 0.16817881166934967, 0.16054989397525787, -0.18659675121307373, 0.029533520340919495, 0.1340249925851822, 0.10216732323169708, -0.18051867187023163, -0.14818087220191956, 0.0015372931957244873, -0.05709649622440338, -0.16519929468631744, 0.054859861731529236], [-0.17890377342700958, -0.18472346663475037, 0.03170865774154663, 0.0025759488344192505, 0.03379930555820465, -0.2122729867696762, 0.17046840488910675, 0.18680812418460846, -0.14198264479637146, 0.04993145167827606, 0.0463324636220932, 0.2060825377702713, 0.19832007586956024, -0.16574198007583618, 0.21011866629123688, 0.0915433019399643, 0.2010589987039566, -0.0009659379720687866, -0.021009236574172974, 0.14015145599842072, -0.18192510306835175], [0.009229208342730999, 0.07265122979879379, -0.17170880734920502, 0.09213168174028397, -0.012209493666887283, 0.05995367839932442, 0.012704407796263695, -0.08152778446674347, 0.1766335666179657, -0.03567810356616974, 0.11308146268129349, -0.029699504375457764, -0.17230114340782166, 0.13017922639846802, 0.19401198625564575, 0.05378470942378044, 0.13912849128246307, -0.18698656558990479, -0.18872177600860596, -0.0826432853937149, 0.15679742395877838], [0.19208867847919464, -0.1589769423007965, 0.023216381669044495, -0.01072894036769867, 0.1000557392835617, -0.18434001505374908, 0.07646949589252472, -0.09400758147239685, 0.08673860132694244, 0.10361157357692719, 0.15924827754497528, 0.03806261718273163, 0.004964455962181091, 0.13443128764629364, -0.09157976508140564, 0.20415900647640228, 0.1772507280111313, 0.004976034164428711, -0.0995129719376564, 0.19105245172977448, -0.14482814073562622], [0.16602714359760284, -0.10475803911685944, -0.16752849519252777, -0.1056809276342392, 0.08211468160152435, -0.044821128249168396, 0.09411056339740753, -0.15668727457523346, 0.11416496336460114, -0.2166442573070526, -0.12003034353256226, -0.11614783853292465, -0.09236547350883484, -0.13548266887664795, 0.11840115487575531, -0.20363391935825348, 0.026745781302452087, -0.09272147715091705, -0.21575456857681274, 0.00877256691455841, 0.014547735452651978], [-0.18202784657478333, 0.14008556306362152, 0.18312709033489227, 0.09144939482212067, -0.1943238377571106, 0.033299461007118225, 0.16076932847499847, -0.14002582430839539, -0.034174710512161255, 0.16263501346111298, -0.10540450364351273, 0.05479873716831207, -0.04603540897369385, 0.19074596464633942, -0.14456167817115784, 0.09518758952617645, 0.2073211520910263, -0.17908868193626404, 0.01130475103855133, 0.0746680349111557, 0.06321640312671661], [0.15761779248714447, 0.21444426476955414, 0.08165912330150604, -0.1274529993534088, 0.1363847404718399, 0.030160635709762573, 0.21278469264507294, 0.014133676886558533, -0.028368085622787476, -0.015113040804862976, -0.16610413789749146, 0.21435822546482086, 0.06732307374477386, 0.06713937222957611, 0.09335868060588837, 0.19941766560077667, 0.16669006645679474, 0.06974102556705475, 0.20095942914485931, 0.09658794105052948, 0.14097757637500763], [0.10628794133663177, 0.11808659136295319, -0.20237579941749573, -0.06125369668006897, 0.048485830426216125, -0.028534531593322754, -0.19377708435058594, 0.16364292800426483, -0.08786720037460327, -0.1322006732225418, -0.08864371478557587, 0.1209302693605423, 0.09751619398593903, -0.04527898132801056, 0.02933761477470398, -0.06070958077907562, -0.19646362960338593, -0.2042911797761917, -0.018120765686035156, -0.09441448748111725, 0.14537490904331207], [-0.1439238339662552, -0.09248218685388565, 0.06690865010023117, 0.19302445650100708, -0.17230667173862457, 0.11346612870693207, 0.1275758594274521, 0.08173804730176926, 0.005547224543988705, 0.06217817962169647, -0.21748459339141846, 0.16413280367851257, 0.1260794997215271, -0.04684726893901825, 0.05203768238425255, 0.03371313586831093, -0.05817793309688568, 0.08290302008390427, 0.09236970543861389, 0.1269170194864273, 0.06898818165063858], [0.1323925107717514, 0.09324271976947784, 0.042805805802345276, -0.10023248195648193, -0.0008919239044189453, 0.08207590878009796, 0.15637268126010895, -0.16186556220054626, -0.027156904339790344, 0.10521973669528961, -0.19317218661308289, -0.14438240230083466, -0.1675921231508255, 0.04504130780696869, -0.09921173751354218, -0.09244483709335327, 0.06913377344608307, 0.13784979283809662, -0.12164690345525742, -0.18974332511425018, -0.11241337656974792], [-0.12346881628036499, -0.05121999979019165, -0.08911170065402985, 0.08796660602092743, 0.04664677754044533, 0.20829179883003235, 0.17844358086585999, -0.05403513088822365, -0.21554386615753174, 0.12339852005243301, 0.2021813839673996, -0.16913200914859772, 0.0432761050760746, -0.0953625962138176, 0.13217882812023163, 0.002212286228314042, -0.18525418639183044, -0.02449307031929493, -0.1369820535182953, -0.11417416483163834, 0.019121862947940826]], "fc1.bias": [0.16034142673015594, 0.1363271027803421, 0.13662512600421906, 0.07594047486782074, 0.13464020192623138, 0.05396604910492897, 0.02385580539703369, -0.1662832498550415, -0.20801551640033722, -0.1351914405822754, 0.010211825370788574, 0.17802737653255463, 0.13974665105342865, -0.16078408062458038, 0.10756625235080719, -0.15365266799926758, -0.17089559137821198, 0.1836838275194168, 0.05227431282401085, -0.09890761971473694, -0.11084660142660141, -0.0939028263092041, -0.1156180202960968, 0.015647992491722107, 0.11036495864391327, -0.09993696957826614, -0.10263850539922714, 0.14240024983882904, -0.04520033672451973, 0.17356136441230774, -0.17460471391677856, -0.19626343250274658, -0.17958605289459229, -0.11124695092439651, 0.0827694684267044, -0.06639118492603302, -0.046732544898986816, -0.11492043733596802, -0.13245387375354767, 0.08313117921352386, 0.08293821662664413, -0.16568727791309357, 0.08107416331768036, -0.13453464210033417, -0.08590288460254669, -0.10921000689268112, -0.2165701985359192, -0.12718725204467773, -0.12133604288101196, 0.05739228427410126, 0.20781758427619934, -0.0389539897441864, 0.07070918381214142, 0.0061151981353759766, -0.07314713299274445, 0.032273247838020325, 0.17359982430934906, -0.06067565083503723, 0.15492843091487885, -0.17086590826511383, -0.21706750988960266, 0.06829427182674408, 0.022541046142578125, 0.006438004318624735, 0.10544927418231964, 0.16886992752552032, 0.18013732135295868, -0.17560330033302307, -0.08931246399879456, 0.066330686211586, 0.08125786483287811, -0.017510762438178062, -0.01189737394452095, -0.07375326752662659, 0.013923387043178082, -0.06349337846040726, -0.18195845186710358, 0.03569667041301727, -0.06744085252285004, 0.2014503926038742, 0.09933815896511078, -0.05586516857147217, -0.1760999709367752, -0.16985151171684265, 0.04161502420902252, -0.028874024748802185, -0.15830761194229126, 0.11767633259296417, 0.008971080183982849, -0.18325474858283997, 0.031440094113349915, -0.2176382839679718, -0.06340393424034119, -0.08011434972286224, -0.16202078759670258, -0.20554831624031067, -0.08462971448898315, -0.21239885687828064, -0.19561153650283813, -0.20586292445659637], "fc2.weight": [[0.07090309262275696, -0.001949906349182129, 0.06922747194766998, 0.0841655358672142, -0.056512679904699326, -0.018650449812412262, 0.014675932005047798, -0.06525055319070816, -0.22074702382087708, 0.01289965957403183, -0.08356260508298874, -0.07620131969451904, 0.0517466738820076, 0.7541460394859314, 0.07101012021303177, -0.04787147045135498, -0.07735250890254974, 0.0852237418293953, -0.0511641763150692, -0.04246879741549492, -0.04764341190457344, 0.047678884118795395, 0.07126308977603912, -0.05766994506120682, -0.0736403614282608, -0.0643618106842041, 0.0070037841796875, 0.035246822983026505, -0.0549045093357563, -0.043035443872213364, -0.7740243673324585, -0.04485968500375748, -0.0907355472445488, -0.07087144255638123, -0.028188347816467285, 0.0013235475635156035, 0.025709576904773712, -0.0857551321387291, -0.0230680201202631, 0.0008831620216369629, -0.27353426814079285, 0.7215061783790588, 0.07281193882226944, -0.023133395239710808, -0.009190022945404053, 0.03787262737751007, -0.02894047647714615, 0.08983901888132095, -0.0364525280892849, -0.02331504411995411, -0.7173119783401489, -0.09526573866605759, -0.04417387396097183, 0.07966404408216476, 0.0399663969874382, 0.06464976817369461, -0.02536342293024063, 0.02359588071703911, -0.0421353355050087, 0.6803874969482422, 0.0795932337641716, -0.00028093159198760986, 0.02461397647857666, -0.8703652024269104, -0.05809294432401657, -0.009656894020736217, -0.04120554402470589, 0.0564725324511528, -0.09570375829935074, 0.046580322086811066, 0.6788651943206787, 0.033101845532655716, -0.034577008336782455, 0.05009070783853531, -0.755543053150177, -0.07331925630569458, -0.09214506298303604, -0.47498852014541626, 0.01978360302746296, 0.002578236861154437, -0.02083280123770237, 0.05586764216423035, -0.5648452043533325, 0.657496452331543, 0.09355159848928452, -0.03802446275949478, -0.046059977263212204, 0.07359331101179123, 0.07710672169923782, -0.09994105249643326, -0.016983017325401306, -0.7634816765785217, -0.03409770876169205, 0.06164563447237015, -0.0949951633810997, -0.040043383836746216, -0.08523161709308624, 0.020284155383706093, -0.07532776892185211, -0.37653210759162903]], "fc2.bias": [0.03057968057692051]}